255 680
Type 0.06473093 0.1410242 -0.108335815 0.10226966 -0.13673073 -0.17660716 0.019954784 -0.24349597 0.21011183 0.10129812 0.08279971 -0.09102308 -0.09353544 -0.016192663 0.31043255 0.2289478 -0.13686003 0.08845544 -0.017696813 -0.023098202 -0.16824357 0.16793345 0.025898196 -0.10161471 0.03849285 -0.037448533 -0.03678543 0.045908224 0.0050271843 0.0733676 0.082525715 -0.031856686 0.10255604 0.17015736 -0.2763965 -0.043329973 -0.18490641 0.28174102 -0.12030912 0.13811897 -0.13026693 0.17875496 -0.10395251 0.18786448 0.1136315 -0.070884794 -0.005361768 0.034581028 0.020201689 0.075668626 -0.006952985 0.15848833 0.11788665 0.19898917 0.21253246 -0.053824853 0.28888917 -0.04393328 0.16924205 -0.12936251 0.13840505 0.05355594 -0.08531393 -0.07702281 0.0149917565 -0.15732591 0.13123138 0.02675113 -0.09475158 -0.21812265 -0.09678239 0.27767104 0.11307622 -0.11783893 -0.10345315 0.1327252 0.15191515 0.21305466 0.04259479 -0.13156489 0.104362234 0.09252366 -0.16420518 -0.142928 0.1909216 0.0077279564 0.094946384 0.14970152 -0.027345259 0.041626368 0.08502838 0.009527749 0.03295146 -0.0707485 0.02009599 0.09992525 0.25418523 0.011175837 -0.09457054 0.011705182 -0.038426045 -0.14863066 0.0927976 -0.10610821 0.13682717 0.12883312 0.28990754 -0.02054387 0.07768183 0.11378024 -0.11503249 -0.01442135 0.09974596 0.11257912 -0.07650899 -4.4164808e-05 0.1985635 -0.10456507 0.083986126 -0.20900126 -0.21489073 0.06514286 -0.03561679 0.14810042 0.093835175 0.019027164 0.10610888 -0.29626644 -0.17648162 0.029635053 -0.116935275 -0.1670111 -0.06577445 -0.18953882 0.13150737 0.108978935 0.050352424 0.23066635 -0.15393576 0.21987575 -0.10280789 0.06401926 -0.066482365 -0.063999206 0.39054045 0.042833716 0.12297985 0.056091446 -0.06558995 -0.07393496 -0.06474195 0.13063979 0.055888798 0.008744437 0.19600756 -0.33402488 0.043789037 0.05024235 0.036385544 0.091080375 0.082377836 0.2523427 0.11273756 0.041033283 -0.08848547 -0.20452759 0.2395545 0.07906516 -0.076323256 0.07275495 -0.051282037 -0.0369007 -0.02152071 -0.12430024 -0.2856468 0.023925425 0.21372585 0.09910159 -0.023561858 0.04041449 -0.015214122 0.17752114 0.15850975 -0.029171318 -0.27005455 0.14843683 0.13396387 0.02637785 -0.030888263 0.21674918 0.20615289 0.103975356 0.049856022 0.2685328 0.06382031 0.09426515 -0.1231153 -0.077656284 -0.0026322836 0.13828933 0.21309341 -0.045602314 -0.030013775 -0.07090201 -0.026427634 -0.17046742 0.07695377 0.0033147223 0.029260974 0.022204755 -0.03783563 -0.23014101 -0.07121209 0.22555527 -0.05595145 -0.21746866 -0.10973975 0.11134666 0.14075974 0.21148412 -0.12627053 0.2698563 0.13316104 0.10593781 -0.0066951867 0.06801518 0.033345945 0.06992151 0.07802166 0.23499282 -0.08623618 0.13006668 0.11368481 -0.1646345 0.19179797 0.10711719 0.06541966 0.12801422 -0.120628476 -0.015311147 0.06826043 -0.023497058 0.06696319 0.12671143 -0.3019014 0.06509031 0.077320635 0.09449603 -0.012102804 -0.16083501 -0.21547392 0.012023525 -0.18546511 -0.038597777 -0.09720348 0.18632473 0.025353128 -0.18553407 0.09063819 0.06078431 0.11897025 -0.14973176 0.04806901 -0.09272696 0.006670711 0.031599134 -0.21968067 -0.061030604 0.023051461 0.22505286 0.11653632 -0.106134266 0.13076507 0.28839707 -0.021653874 0.0028446696 -0.10075333 -0.031997256 -0.12875885 -0.0053137178 -0.2856294 0.15835504 0.16258636 -0.14290555 -0.03550354 -0.0530498 0.16954139 -0.017542023 -0.058281153 -0.19324279 -0.030267846 -0.047461856 0.06998304 -0.026257595 -0.03701078 0.07461645 0.032051377 -0.12464373 0.0119400965 0.059173685 -0.13706018 0.06557949 -0.0721298 0.11341918 0.14463817 -0.11418336 -0.011156524 -0.14527008 0.058481034 0.12896578 -0.017794853 -0.1135791 -0.1550284 0.028490396 -0.10337038 0.27249202 -0.07850267 0.2282203 -0.101486236 0.24061388 -0.16878903 0.21928047 0.07985195 0.021641923 -0.17932464 -0.06687469 -0.051841334 -0.085570425 -0.09693165 0.12152732 0.013955582 0.078524016 -0.023162687 -0.12506053 -0.024042368 0.09762701 -0.12378498 -0.28650248 0.04586579 0.20614932 0.0403663 0.097537525 -0.00809494 0.26809123 0.29457444 -0.14961876 0.001305373 -0.12527604 -0.08687663 -0.027210705 0.015074953 0.1347907 0.069929674 0.076541945 -0.11154447 -0.04256195 0.19095518 -0.18230216 0.22452055 0.005790404 0.1622193 0.17924272 0.11032943 0.17506176 -0.10128424 0.092312895 0.024290107 -0.12987454 0.055290777 -0.09113284 -0.14183196 -0.13355768 0.053887974 -0.24178433 0.091597304 0.18703413 -0.13065007 0.048804935 -0.15064253 0.19102915 0.05971681 -0.13066962 -0.20878562 0.17225686 0.123364806 0.09438255 0.13817145 0.070927195 -0.041319344 0.15214115 -0.18268259 -0.01978833 -0.07011436 -0.07988198 0.13985036 0.090134196 -0.065490685 -0.012423275 -0.043304034 0.061908018 0.21577325 -0.2145206 0.0018059816 0.16516575 -0.15026073 0.19644347 -0.189529 -0.09804508 -0.053100914 0.03595245 -0.03253694 -0.37711343 0.17528309 0.072304554 0.19274266 0.07775506 0.17388804 -0.011176418 0.23442596 -0.16963352 -0.088498764 0.06583772 -0.10955647 -0.1903141 0.2664959 -0.1642153 -0.1339173 0.21917164 0.02896899 0.0024149222 0.06571045 0.028747685 0.21995424 -0.027246635 -0.13576408 0.32277045 -0.015316499 -0.2998178 -0.13523594 -0.06480483 0.14954174 0.061797056 -0.019787705 0.08979949 0.1691713 0.12805443 0.16639183 0.105216525 -0.08172986 -0.028735053 0.020590885 -0.03628846 0.036457453 0.07489032 -0.23702061 -0.12388352 -0.25746316 0.14751685 -0.26180437 -0.22778395 0.21458489 -0.02448525 -0.15807152 -0.059418287 0.046736423 0.049963217 0.2225829 -0.13044259 0.09018616 -0.024096508 0.13863802 -0.14288433 -0.11083044 -0.24913797 -0.1749048 -0.17348377 -0.10007878 -0.1963794 -0.31224358 0.13178985 -0.09330656 0.031071793 -0.081549056 0.1058117 -0.22830504 0.17711167 0.26825747 0.22237386 0.04471675 -0.08107501 0.12936266 0.032075424 -0.22918914 0.09332864 0.17973237 -0.045772836 -0.019432921 -0.08663765 0.098423555 0.21102428 0.012185207 0.2429262 0.12270977 0.08952775 -0.013604134 -0.039956324 -0.12369394 -0.11379317 -0.14121473 0.14066172 -0.03661619 0.08043665 0.07209876 0.19398873 -0.23505539 -0.10638794 -0.09690697 0.36891124 0.05414157 0.11967789 -0.072728135 -0.0049982425 -0.24065542 0.10775729 -0.16465244 0.09086641 0.19563995 0.095220834 0.10298349 0.06446395 0.18467034 0.013246606 0.1150385 0.12870608 0.06487323 -0.086603194 0.27497312 -0.17336036 0.13126667 0.008239096 0.1007793 0.14903185 -0.17721994 0.07378311 0.16224517 0.130435 0.062249694 -0.14188667 0.29602447 0.18579741 0.1708377 0.28242642 0.20516822 -0.05309207 0.05691527 -0.07738939 0.075958245 0.021278426 -0.07624251 -0.041174375 0.28719503 0.15395677 0.1530219 -0.093093224 0.12540014 -0.09234198 -0.20253402 -0.17203486 0.093473725 0.119562715 -0.07895625 -0.01581254 0.09179937 0.030367374 0.3148425 0.13566354 0.0677111 0.112669624 0.28095034 0.017079035 0.14101213 0.14251661 0.100087926 0.05671309 -0.097845204 -0.19889241 -0.12765697 -0.27486056 -0.17480998 0.058025364 0.24332206 -0.08231064 0.083747596 -0.08924262 0.03827233 -0.224558 -0.11475837 0.15602966 -0.29363778 -0.26854548 -0.07245873 -0.05862201 -0.26884606 0.00065795094 0.041703887 -0.065696254 0.11309582 0.20274821 0.041666646 0.20854044 0.21616171 -0.19711581 0.11794348 0.060771853 0.12903479 -0.090232715 0.041772105 0.0334552 0.13891847 -0.032105085 0.19106632 0.3037383 -0.1879902 -0.24580413 -0.26768044 -0.0062327865 0.15377109 -0.235393 0.16496664 0.08064487 -0.14972045 -0.07768934 0.20243044 0.055142254 0.22328922 -0.14526804 0.34165734 -0.05779025 -0.10681878 -0.08672334 0.06123976 -0.06401003 -0.03794153 0.1725271 -0.024175763 -0.019136429 -0.018793374 -0.06801219 0.21263148 -0.3262108 -0.041547086 0.023195393 -0.069938645 0.07126081 -0.049134817 0.15569305 0.20049472 -0.13875048 0.11759317 0.026547682 -0.14518927 0.26139987 -0.15590759 0.01879864 -0.14074852 0.05140727 0.11974181 0.22006196 0.03077259 0.26286736 -0.08370878 0.07049827 -0.05134483 -0.16004811 0.090710185 -0.116991974 0.14823866 0.089398816 0.05550046 0.16385575
type -0.06003739 0.06836437 -0.06668842 -0.009518687 -0.0382756 0.1517738 0.117464595 0.08838994 -0.11002137 -0.013956842 -0.09018383 -0.087697566 -0.007940632 0.021102922 -0.20071205 -0.1614142 0.11650512 0.03603032 0.075160675 -0.036836896 0.036049686 -0.24795559 -0.16818775 0.17529972 -0.0053907945 0.035410408 0.09496915 0.09111095 0.02914303 0.06486153 0.0886386 0.04287364 0.031083884 0.058398817 0.23376636 0.058551468 0.0015345071 -0.20516138 -0.003134529 0.007703308 -0.20761997 0.10802635 -0.010123087 0.2105596 0.11819293 -0.17699644 0.09364927 0.05298135 -0.04445338 -0.08875544 0.14311303 -0.16433518 0.12326322 -0.24570243 0.023049293 -0.06271058 0.053969283 0.10249902 -0.10063548 0.06308258 0.04963001 -0.2536755 0.15285195 0.093603596 0.0130888615 0.010595789 -0.15354836 0.048862644 0.014789185 0.12136435 -0.08580807 0.06371915 -0.12066814 0.0016050179 0.22565176 -0.018239109 -0.078476414 -0.0008097078 -0.09917836 -0.03764261 -0.1197112 0.032150783 -0.15318811 -0.11981419 -0.031061443 0.020391531 -0.10602419 -0.10344487 -0.1572873 -0.064830124 -0.33116877 0.23405649 -0.12258349 -0.033893965 0.09612563 0.0542752 -0.1239986 0.21940877 -0.10103274 0.06303889 0.019059155 0.099297464 0.077243075 0.043573037 -0.07616012 -0.06804881 -0.06055554 -0.10677774 -0.10319436 0.12599061 -0.13689381 -0.22934975 -0.12094015 0.061004553 -0.11166748 0.10386978 0.009446335 -0.24600507 -0.03003589 -0.085955955 -0.036758397 -0.16678089 0.03410352 -0.2719596 -0.052349802 0.0050400235 -0.16673984 0.074625246 -0.17078404 0.054432143 -0.24109562 -0.053846616 0.18614478 -0.09269123 0.031345658 -0.24365646 -0.061607845 -0.09679439 -0.14626956 -0.30297327 0.08035505 -0.011470354 0.09951134 -0.10214475 -0.0720453 -0.104578495 0.09521727 0.073753156 0.06192928 -0.11250511 0.1470095 0.14851922 -0.15842235 0.24042572 -0.10258928 0.10077202 -0.097285576 0.12924638 -0.18313535 0.055770338 0.052820977 -0.018256057 -0.054228988 0.016172456 -0.015550812 0.3606348 -0.19936143 -0.027153404 0.2339587 0.030081172 -0.027739082 0.17311789 0.014156925 0.18737039 0.21090901 0.056670308 0.061762538 0.010426752 0.033118285 -0.025302464 -0.16849321 -0.011022118 -0.18741426 -0.28377143 0.21462868 -0.063961245 0.07073765 -0.020671489 0.09767401 0.08616703 -0.053644203 0.24292883 0.1685278 -0.21339098 -0.17655218 -0.14313884 0.042335447 -0.13642181 -0.008690672 0.12911083 0.0035795907 -0.054059967 0.03325751 -0.102013476 -0.26386136 0.025063276 -0.022774078 0.026898952 -0.014478216 -0.057820253 -0.027298808 -0.0525286 -0.052212935 -0.06168913 0.124685675 -0.031601008 0.1867615 0.17895451 0.13478066 0.011457601 0.09956273 0.113929324 0.1971718 0.11571936 -0.062369958 0.28809038 0.032246735 -0.09729717 0.2475846 -0.11768037 -0.2711029 -0.12109696 -0.2496536 -0.0033977877 0.18912242 0.081048034 -0.048215613 -0.02413523 -0.1994271 -0.19800343 0.023411117 0.28176805 -0.1950144 0.03793184 0.0772263 -0.016151804 -0.26490152 0.18158457 -0.07349824 0.29560846 0.2835561 -0.032093544 -0.13923888 -0.18919338 -0.03793034 -0.10455308 -0.07432728 0.11325906 0.01513009 -0.01845819 -0.19556065 -0.17203517 -0.09201239 0.04660877 0.15876101 -0.092107445 0.10336808 0.04677289 -0.18592267 -0.23890637 -0.124348916 0.17575508 -0.2095979 -0.16752687 0.05958215 0.020616647 0.004995807 -0.022824608 0.1512541 -0.044918846 0.10279303 -0.048237324 0.018561548 0.23766536 -0.0068268254 -0.054652028 -0.12896307 0.10900231 0.22127882 0.17668368 0.0021501859 -0.16863342 -0.05461702 0.1466914 -0.13620389 0.12363951 0.06778123 -0.074955374 0.17102066 -0.038911622 0.18301532 0.08692884 -0.18816647 -0.1802198 0.007852739 0.12603651 0.11121273 0.03135443 -0.044520084 0.122134306 0.08924474 0.11899096 -0.009749422 0.0043022945 -0.07941158 -0.21323307 0.088460535 -0.17855379 -0.08547161 0.04960066 0.18352221 -0.051698137 -0.09177688 0.15729477 -0.10436997 -0.19350396 -0.03708776 -0.15673532 0.024367545 0.09388644 0.06534442 -0.043047994 -0.19040845 0.13601078 0.15643422 0.113792546 -0.0666309 -0.102004014 -0.22109106 0.10218604 0.07038052 -0.10333565 0.033609584 -0.14360598 -0.2340036 0.26570955 -0.2614873 -0.016384786 -0.0028138424 0.16166091 0.09583866 0.09196984 -0.10452747 0.16665924 -0.016828617 -0.06667339 -0.07862326 0.122913755 -0.17086078 -0.18553801 0.09031144 -0.14961183 -0.15330377 -0.09805399 -0.016937308 0.23970689 0.037439164 0.07427585 -0.08947068 0.013852286 0.181924 0.032249544 -0.02817305 -0.053497754 0.15189059 -0.02147253 0.16327806 0.078848235 -0.06632232 -0.21705903 0.07662746 0.07930669 -0.050615467 -0.056710795 0.046134997 -0.22379635 -0.029752523 -0.15168789 -0.14846818 -0.06271357 -0.10527496 -0.12639502 -0.0036566933 -0.110066034 0.053996287 -0.032975618 0.07047956 -0.006883 0.055261616 -0.077042095 -0.097191714 -0.08472113 0.023075093 -0.20949988 -0.010416939 -0.13347434 0.10387019 -0.03775063 -0.015858019 0.05645041 0.048203353 -0.00296152 0.07521919 -0.10152201 0.035528652 -0.036548562 0.17075132 -0.044292852 -0.054961644 -0.07480238 0.13563918 -0.032511592 0.14393887 -0.018659564 -0.042158555 0.18237996 0.26136747 0.06841463 -0.18396668 -0.26266554 0.01354553 0.03787573 -0.023917725 -0.20908594 -0.025625695 0.07468763 0.12883389 0.145219 -0.0768651 0.16583084 -0.2669014 -0.124796584 0.15029882 -0.12282347 -0.156766 0.12599574 0.024799636 -0.060063157 -0.07216265 -0.20860465 0.055915434 0.31337413 -0.03903478 0.12682064 -0.21699193 -0.06401687 0.09125335 0.06662575 0.0011012433 0.14474629 0.04878053 0.043031424 0.29995552 -0.017183743 -0.2949539 0.08980986 0.19433789 -0.25495476 -0.108489305 -0.03382513 0.14029248 0.11754683 0.03698557 0.122412995 -0.08754048 0.0987337 -0.08375513 -0.06097899 -0.3141262 -0.06277403 -0.19622265 0.03673213 -0.014048717 0.07202765 0.009378913 0.12054066 -0.04761481 -0.21070726 0.141618 0.023679586 0.20564066 -0.032464206 0.05110181 -0.13146079 -0.21356675 -0.08295188 -0.15217242 -0.060290787 0.20027456 -0.24291609 -0.02355726 -0.20990711 0.10604066 -0.08889081 -0.06997864 0.11029716 -0.033922996 -0.19832295 0.17383343 -0.041284006 -0.051795363 -0.13592595 -0.10495967 -0.1670719 0.21597022 0.15244593 -0.27917042 -0.13569815 -0.005612531 0.14225703 0.004977954 -0.15823217 0.099593095 -0.036926 0.049003333 0.004550661 0.20577592 0.13114122 0.044175122 0.1282999 0.13793606 -0.13341397 -0.021044804 -0.31707352 -0.086761236 0.13732128 -0.16475551 0.1732156 -0.17680961 -0.095620126 0.1082776 -0.11826573 0.042627476 0.17156851 0.16652364 0.017146055 -0.10799974 -0.028280685 -0.106201194 -0.123897955 0.002837029 0.10550804 0.14586073 0.15415895 -0.17336616 0.00829443 -0.08045452 -0.16621044 -0.019001357 -0.054738354 -0.017413568 -0.09600616 0.21455379 -0.046774853 0.11386061 0.014489113 -0.018938592 -0.059316464 0.12266349 -0.08827183 0.17778105 0.13303386 0.1206863 0.14337303 -0.12868142 0.09992611 -0.041774984 -0.1716568 0.172217 -0.14869209 0.17313594 -0.30140623 0.0889012 0.0007365535 0.25637057 -0.10912638 0.17093752 -0.017165396 -0.03418791 0.09174179 -0.04050248 0.05303033 -0.114151336 -0.06429932 0.06522047 -0.08081124 -0.08849713 -0.116257936 -0.07275468 -0.07405225 0.01803236 -0.031045899 -0.26957756 -0.15337431 -0.14736028 0.07456403 -0.21623708 -0.007266583 -0.041602317 0.098614156 0.077364184 0.00081235514 0.015047072 -0.10821797 0.28534147 0.05140767 0.15271404 0.027750958 -0.042873267 -0.073758915 0.14242496 0.074768014 -0.19503714 -0.13490741 -0.10708097 -0.010394452 0.30748555 0.07284828 -0.08273899 0.024276491 0.021417912 0.152465 -0.06522589 -0.010062474 0.06312807 0.1558783 -0.08036401 0.1302987 0.10231384 -0.048038185 -0.31060427 0.17739002 -0.09220887 -0.055539787 -0.0012496753 0.055767838 -0.16378126 -0.0038749767 0.07128562 -0.10163814 0.18106523 -0.036884088 -0.10537839 -0.076398164 -0.1548831 0.04348242 0.09901885 0.16450457 -0.048122082 0.021293348 0.19131227 0.002201338 0.12413387 0.00081216317 -0.21222211 -0.22538285 -0.028873924 -0.101234674 0.09488194 -0.042464983 -0.01077394 0.000981507 0.027217485 -0.00050574343 0.028474951 -0.19006649 -0.18395846 0.029173909 -0.2406453 -0.08415743
animal -0.10601178 0.05778235 0.10651956 -0.12031844 0.14830114 0.15447618 -0.18825135 0.33088928 -0.17106242 -0.07180728 -0.097600706 -0.006204114 -0.04150345 -0.10352519 -0.055245753 -0.32423282 -0.09841212 0.084192835 0.22192226 0.14318903 0.12840159 -0.3071542 -0.060596924 0.243081 0.07053755 0.22043838 -0.056753736 0.07500952 0.1318053 0.18460284 0.11560861 0.009934268 -0.16111277 0.08160673 0.16752064 0.054245155 0.0871026 -0.2068888 -0.07065699 0.06466976 -0.11968402 0.104754105 0.13034827 -0.15357406 0.029196037 -0.15677628 0.09612159 0.07026765 0.038164936 -0.14290053 0.11628971 -0.12017784 -0.025195539 -0.02156582 -0.13526373 0.013102123 -0.016132182 -0.112754114 -0.098556265 0.02049854 0.28512853 -0.089479975 0.08680102 0.14008352 -0.1796999 -0.038685407 -0.054876566 0.17500508 0.31661174 0.038933575 -0.079077356 0.0073002437 0.07353565 0.028595056 -0.09492672 0.15504846 -0.13219844 0.13873367 -0.18936379 -0.17111225 -0.10306891 0.07448884 -0.24883883 0.14120713 -0.14813916 0.09173453 -0.068648964 -0.053755052 0.0171936 -0.06351786 -0.15904316 0.07911817 0.061624918 0.0617486 0.21075977 -0.07431858 -0.13584149 0.08622853 -0.053399675 0.021474266 0.16297221 0.24291527 0.3014254 0.025379952 -0.13796331 -0.104711704 -0.13415371 -0.26967502 -0.15314254 0.20788422 -0.1096552 -0.13107887 -0.27935508 -0.089749575 -0.18872394 0.26646793 0.19629103 0.009106643 -0.081908576 -0.0037496258 -0.19190952 -0.24136528 0.14434241 -0.30030143 -0.13982074 0.088243596 0.0032149504 -0.09021608 -0.14322484 0.01735517 -0.21968809 0.03786692 0.19103262 0.005309439 0.026244782 -0.31618407 0.032676943 -0.044327058 0.21776077 0.086817265 0.1928008 0.014459827 -0.05561913 -0.13768885 -0.108159535 -0.1013503 -0.17653163 0.017037416 0.12284435 -0.07106172 0.123995304 -0.06695477 -0.1791887 0.23804411 -0.073230445 0.075191714 -0.16024897 0.051462427 -0.2291768 0.13665941 -0.06166697 0.070507936 -0.3158592 -0.12498504 0.1406429 0.21659854 -0.0039366307 0.03130172 0.092192896 0.18380809 0.06277064 -0.010356698 -0.051495902 0.29677454 0.21538267 0.18633156 -0.024233006 -0.23289572 0.036700998 -0.06597225 -0.08679776 -0.08177335 -0.22003269 -0.15899913 0.11637744 0.031688605 0.17408131 -0.16232705 -0.076091565 0.17834812 -0.14416963 0.12616481 0.009230146 -0.09264584 -0.2288589 -0.13812844 -0.008814433 0.109789215 0.0050262846 0.0071398215 -0.22660011 0.09517865 0.10429323 -0.0871223 -0.26999533 -0.03526498 0.17007586 -0.056933478 -0.059196018 -0.20467049 -0.042382672 0.18915614 -0.050837744 0.09971119 0.08732073 -0.071391426 0.021753818 0.24339905 0.2920385 -0.090749204 0.13418336 0.17327866 0.024738524 0.19760013 -0.24241018 0.21131422 -0.029501481 0.055507097 0.15335959 0.014137365 -0.14949901 -0.033694383 -0.20894444 0.14498317 0.18079442 -0.00024873597 -0.11526995 -0.098459214 -0.11382934 -0.33683503 0.12519793 0.3632632 0.005528195 -0.0020445236 0.17001872 -0.14146902 -0.14755216 0.11988233 -0.106818624 0.14941737 0.13695677 -0.07450673 -0.003997331 -0.005603172 0.059944224 -0.028315889 -0.079024784 0.144139 0.094608314 0.12571888 -0.24781199 -0.12902871 -0.021822328 0.1764473 0.27383226 0.09308932 -0.017011005 0.0020398607 -0.11725991 -0.012785833 -0.05915349 0.044836544 -0.3240448 -0.04559616 0.18635711 -0.010709912 -0.013088165 0.1748161 0.119308695 -0.03578063 -0.0609367 -0.12036746 -0.15396415 0.35332528 -0.07399339 0.031872187 -0.050978564 0.032898057 0.24493498 0.16695297 -0.07439444 -0.15994433 0.11933582 0.17846818 -0.15399556 0.11889582 0.13762406 0.0687623 -0.0066292738 0.01731454 0.027102811 -0.05972187 -0.23801464 0.0036848532 -0.22228158 0.26543635 0.12735775 0.20736983 0.047537748 0.28906256 0.25574774 0.057397675 -0.2007476 -0.13798833 -0.0536612 -0.11970813 -0.207402 -0.25606874 -0.11830314 -0.10782185 -0.046720985 0.05797281 -0.11284758 0.10965597 -0.13713251 -0.24744095 -0.06849976 -0.22388567 0.103296414 0.14719008 -0.068210945 -0.057226807 -0.10427756 0.15572228 0.21499321 -0.10567178 0.06725652 0.10562496 -0.1546874 -0.022777125 -0.017842764 0.16700639 -0.16084263 0.07799702 -0.20676672 0.3000647 -0.2128667 0.038803034 -0.1249018 0.11845115 -0.088356875 0.03200302 0.15816845 -0.062749356 0.10255897 0.07903638 -0.11095865 0.034967862 -0.29094627 -0.15915543 0.005268668 -0.26581392 -0.21079397 -0.13168421 0.011298727 0.19871464 0.1388134 0.01735686 -0.13711435 -0.0675966 0.25074703 0.20570417 -0.06462142 0.124171786 0.2748179 0.107018195 0.12778234 0.20109963 -0.2314704 -0.002561612 0.27749804 0.04493002 -0.24000968 -0.01786479 0.026678864 -0.061734635 0.021451082 -0.2055866 0.0863164 -0.19683248 -0.03656035 0.032580115 -0.08034093 0.06741604 0.06465064 0.13933048 0.008774913 0.011953368 0.10641105 0.010228239 -0.18080577 -0.096378356 0.005863039 -0.12555301 -0.002999383 0.009081216 -0.04464636 0.05859415 -0.21034788 -0.029261282 0.2015019 -0.0030941167 -0.06796666 -0.1359758 -0.0044642673 -0.014128851 0.08717342 -0.011210094 -0.038582075 -0.18822616 0.14152409 -0.008232762 0.12073274 0.0907875 -0.049102522 0.37136763 0.34709728 0.16764973 -0.07268006 -0.17159432 -0.26910424 0.019623617 -0.103200935 -0.22161828 0.059980694 0.20738049 0.17481732 0.114576705 -0.05266416 0.05578378 -0.004986806 -0.24264714 0.2560465 -0.07154657 -0.23727344 0.061025854 0.040590506 -0.017849755 0.21549691 -0.23444545 -0.12126524 0.22171278 -0.09398625 -0.19463544 -0.17839433 0.0040027183 0.10080344 0.20528351 -0.18462455 0.16813989 0.02620249 -0.08321999 0.3142232 -0.059885632 -0.26845235 -0.11272213 0.16388772 -0.08566429 0.05634114 -0.3647633 0.08327491 0.17119281 0.0436637 -0.060395367 -0.20063335 0.09271356 -0.12769556 -0.03734464 -0.3428961 -0.21646897 -0.1303787 -0.047898844 -0.18102148 -0.1192592 0.035139386 0.05179281 -0.14706327 -0.18029957 0.17317072 -0.04625884 0.24285734 0.046131045 0.31546396 -0.028203994 0.05796509 0.020191759 -0.03220992 -0.1094499 0.14514048 -0.2358597 -0.19027017 -0.12361574 -0.16835201 0.022372242 -0.30218813 0.096191235 -0.06998944 -0.11068971 0.1743405 -0.030756079 -0.16141105 -0.07994153 -0.1640723 -0.36735076 0.2056344 0.110044956 -0.1193469 -0.0056048506 0.15630607 -0.05206248 0.122111134 -0.069066264 0.16817373 -0.008549594 -0.043782204 0.00058758486 0.13196583 -0.068537325 -0.19121508 0.14507936 0.09193034 -0.068611935 0.01957583 -0.3556592 -0.18821716 0.04883868 -0.03349236 -0.04153255 -0.23983091 -0.29970384 -0.13239627 0.14108272 -0.053141013 -0.049341984 0.19888142 0.017000461 0.076551184 -0.026870972 0.016464988 -0.09958538 0.0063799317 0.35803714 0.0067782346 0.003091254 -0.1351189 0.16585891 0.027522258 -0.035772473 -0.041254543 -0.11665532 0.015327807 -0.11244713 0.17504326 -0.035542186 0.013804661 -0.07524602 0.07878732 -0.14544742 0.187968 -0.05441811 0.16759454 0.1431596 0.13444263 0.28950286 -0.3583872 0.058110207 0.0659996 -0.18733744 -0.01890292 0.026062224 0.25288484 -0.24013683 0.1450326 -0.23450449 0.2700299 -0.09991872 0.077669516 0.0700728 0.029005699 0.015843906 -0.21151258 0.13465682 -0.10656977 -0.052994132 0.12505527 -0.039274592 -0.14752555 -0.060205042 -0.16186243 0.1004693 0.23713037 -0.008305787 -0.29454663 -0.09844846 -0.021446835 0.12963533 -0.2705687 0.21501245 0.03111824 0.109065324 -0.11342099 0.064747654 -0.07552335 -0.2819722 0.21870448 0.19898042 0.18705843 0.1711109 -0.027475324 0.06616526 0.012276566 0.12678015 0.0129497815 -0.032261513 -0.12604484 -0.14590481 0.22092336 0.05904328 -0.08164552 -0.15262754 -0.014499575 -0.0033568314 0.082513094 -0.038932472 0.25908506 0.34353048 0.0592327 -0.10310335 0.27531445 -0.054382708 -0.34271282 0.12247474 -0.061761864 0.16152555 -0.007196393 0.02177209 -0.11117495 -0.1878978 0.024644718 -0.027564175 -0.024767386 -0.017567832 0.02397368 0.02583221 -0.11192964 0.14316696 -0.05867561 0.2083276 -0.011257878 0.049326517 0.17166074 0.20021103 0.1843121 -0.056116343 0.004181934 -0.0485636 -0.19729173 0.039306905 0.106336765 -0.06991926 -0.11863888 -0.047631808 0.050832674 -0.08089086 0.0060706506 -0.19314322 -0.005018104 0.10459998 0.06246672 -0.14047308
body 0.20945092 0.060412835 0.055625282 0.0062828516 0.20356855 0.10412114 -0.18136705 0.34835827 -0.02369778 0.062363207 -0.087132946 0.1183925 -0.009407541 -0.013373224 0.013294181 0.07891093 -0.16730288 0.14514488 0.32554466 -0.15976882 -0.049512636 -0.20642921 0.14978385 0.23452522 0.18247594 0.13186246 -0.0496307 0.17185187 0.15558665 0.105483286 -0.07357516 0.10549182 -0.15057977 0.052999154 0.0944624 0.22038133 -0.19555774 -0.30250472 0.086017065 0.13250788 -0.09751468 -0.0122527 -0.11263156 0.1419919 0.042669967 0.040324926 -0.12636654 0.040495064 0.007802712 0.19056302 0.08882393 -0.026283141 0.31055135 -0.107348844 -0.23868874 -0.30023038 0.029740766 -0.12288676 -0.12653913 0.041177787 0.22299816 -0.28756413 0.0076571736 0.28191218 0.16878857 0.13090327 0.14144789 -0.05478526 0.048480045 0.23862419 0.06263773 0.22337084 0.035497148 0.035967126 0.13096991 -0.019984188 -0.1807809 -0.25287896 -0.26525915 0.025882099 -0.084373884 0.27313936 0.044622004 0.06395007 0.056847475 -0.20806226 0.042401914 -0.09334312 0.14350317 0.17474525 -0.13000306 0.23778448 -0.18164591 -0.28540638 0.113710046 -0.03845909 0.022659425 0.12931958 -0.18039687 -0.0045886165 -0.013199308 -0.004168944 0.2692624 -0.08623175 -0.08276362 -0.18800744 0.08767456 -0.28988338 -0.26725432 0.082223095 0.16377157 -0.25845683 -0.22904329 0.31290135 -0.069673665 -0.0906701 0.21439686 0.18837634 0.09297672 0.018899258 -0.32961935 0.0099463165 0.11730363 -0.2599713 0.025009608 -0.19713019 0.13315962 0.2575714 -0.16833739 -0.16844216 -0.026130438 -0.010498235 -0.08859883 -0.26305744 -0.03611757 -0.4469743 -0.10634668 -0.19751793 0.15278941 -0.19181828 0.04660384 0.2384436 -0.073504984 0.1574227 -0.37101695 0.018625576 -0.03668293 0.26158017 0.04639424 0.15812628 0.0064406963 0.24699998 -0.19517553 0.100182876 -0.04580876 0.30557364 -0.29784948 -0.16732678 -0.0043962374 -0.07042322 -0.00688562 0.17051078 0.06106543 -0.20610438 0.004203214 0.28761885 -0.24935853 0.019760497 -0.01117144 -0.048757702 0.036113843 0.1841123 -0.04521348 0.35563785 -0.09759876 -0.030884745 -0.22521906 -0.32090452 -0.22322421 -0.24783915 0.11813588 -0.22136042 -0.30701286 -0.37078434 -0.09260782 0.00674449 -0.022354973 -0.07158146 0.07484415 0.29775253 0.25372523 0.28866324 -0.09545311 0.031001734 -0.3680506 -0.21376342 0.15461524 0.23568837 0.06726589 -0.052223634 -0.13186146 0.08858781 -0.08134497 0.14826949 -0.1705458 -0.059143506 -0.30889878 -0.27757832 -0.094736524 -0.4441828 0.07659136 0.13013044 -0.09206479 -0.12103454 0.22210884 -0.21061653 0.36692038 0.33112225 0.0390064 0.07981055 0.036157046 0.048990387 0.11538806 0.31666535 0.13576978 0.11285546 0.04679074 0.1209057 -0.024537018 -0.09022803 -0.14629585 0.10510578 -0.030325187 0.252292 0.1379526 0.09931826 -0.12773314 0.067707844 -0.40639585 0.05956626 -0.014647447 0.22031143 -0.21887945 0.07767195 0.19711669 0.28716114 0.06084601 0.17760156 -0.39660847 0.20468867 0.05670206 -0.1952001 -0.07825681 -0.04437506 -0.11050961 -0.1970395 -0.055607572 0.2079021 0.19994482 0.14387015 0.052672714 0.080769785 0.1334944 0.2634123 0.108970866 0.090291224 -0.21757507 0.11692093 -0.24050981 -0.059649877 -0.011887679 0.29391503 0.028686786 -0.22027472 -0.2704501 0.25351444 -0.21628915 -0.12022026 -0.054284148 0.00054856617 0.15089193 0.17731181 -0.19676779 0.501292 0.14403027 0.08613503 -0.18178128 -0.29195035 0.42118725 0.445779 -0.12223165 -0.15349434 0.011035412 0.46980348 -0.14257608 -0.016408093 -0.15151367 -0.24258442 -0.24387741 0.0005559347 -0.05586432 0.23059352 -0.19948862 -0.0017392208 0.03634968 0.2433892 -0.11062284 0.17204851 -0.010083625 0.3258103 0.35761136 0.010822234 -0.083554015 0.07475478 -0.20211856 -0.010959953 0.06334249 -0.1657924 -0.20097163 0.020169456 -0.38028377 0.004088512 -0.28040957 -0.0011862768 -0.047728498 -0.20337655 -0.088752195 -0.2687112 0.17634171 0.24573195 0.07937967 0.1365722 0.17473097 0.09993727 -0.118531846 -0.21470477 0.21423224 -0.0012161285 0.11961731 0.09956133 -0.0036407923 0.07095135 0.19323924 -0.24495794 -0.31827173 0.259459 -0.39420265 0.022889942 0.1399578 -0.18155366 -0.19787231 0.13399833 0.137706 0.031688515 -0.13061026 -0.24547254 0.11568519 0.21555679 -0.21966158 -0.031125149 -0.11084369 -0.22700402 -0.05682037 -0.10802386 -0.051251672 0.19291918 -0.14048974 -0.14509638 -0.38452566 -0.29900044 0.24908076 -0.066376306 -0.034063295 0.10214436 0.001129199 0.1864927 0.39870924 0.04316758 -0.16484083 -0.29010758 0.12846375 0.22100012 0.121292345 -0.108353585 0.3659679 -0.39394948 0.18189764 -0.079944775 0.30716094 -0.0857075 -0.1399735 0.016746411 0.015573043 0.047082014 0.012237484 0.32095194 0.18797989 -0.010858279 -0.16551383 0.0031600334 -0.23697945 -0.08861241 0.13893677 -0.3174689 -0.18444476 -0.07949228 0.077704094 0.050869398 0.23574106 0.0475305 0.32962832 0.11833612 -0.075006895 0.10874561 0.10471067 -0.21806575 0.293113 -0.26341394 0.06943181 -0.23284157 0.28600907 -0.15348616 0.0988054 -0.077697344 0.1683925 0.26034513 0.38121194 -0.0046286853 0.08049795 -0.38613695 -0.2654469 -0.15585119 -0.10312296 -0.09362919 -0.29947734 -0.14122324 0.044665314 -0.1709252 -0.26492125 0.35668927 -0.19757764 -0.115050994 0.15859936 -0.35134876 -0.40494558 0.06323195 0.20085053 -0.15147401 0.27913514 0.076397374 0.033817194 -0.15226065 -0.2246638 -0.15166444 -0.24036172 -0.15326993 -0.04624039 -0.22133243 0.09274854 -0.0077855974 -0.122075744 -0.32364526 0.4063848 0.25424755 -0.24539898 -0.23186328 -0.0733724 -0.3568186 0.23825346 0.12656036 0.2161732 0.21253331 -0.030623723 -0.1157125 -0.2037698 0.04795888 0.11082661 -0.17663041 -0.27125433 -0.042244285 -0.14472918 0.32770202 0.063257046 -0.02626897 -0.10048363 0.088230096 0.12526785 -0.13867818 0.20076668 0.020889949 0.22426146 0.2633739 -0.03126935 -0.12099294 0.28270188 0.054967508 -0.17621566 -0.1527538 -0.09864518 -0.15574925 -0.3730927 -0.1835791 -0.21782267 -0.0699276 -0.37689865 0.13827169 -0.081025295 -0.20988987 0.19848754 -0.072683066 -0.1146713 -0.17451948 0.29213938 -0.39456928 -0.1056153 0.08766335 -0.15220863 0.19073851 -0.02070438 -0.021077288 -0.016260069 -0.07795726 -0.16152772 0.13058382 -0.11246009 0.23724158 0.09165415 -0.20949209 -0.084378675 0.207295 0.24165873 -0.062561184 -0.13028313 -0.17337443 -0.058221366 -0.28941727 0.001122812 -0.20884395 -0.07539618 -0.11886704 0.19028336 0.24171446 -0.1053587 -0.05053937 0.20053703 -0.041647255 -0.26711103 -0.103253506 -0.077272266 0.00041306324 0.019410806 0.3705346 -0.1367115 0.026280805 0.034178287 -0.120691836 0.027472554 0.050729144 0.00882186 0.16911273 0.26208502 -0.19148098 0.122427456 0.19182535 0.17756516 -0.22520427 0.20684558 -0.33040106 -0.0931646 0.087427326 0.13259183 0.20213044 0.2865066 0.22369072 0.023696039 0.18952534 0.021756193 -0.45142275 0.26263133 0.03759647 0.30365062 -0.11269856 -0.012525168 -0.38169762 -0.08035996 -0.23816581 0.08106269 0.06382691 0.1948275 -0.07751926 0.08141437 0.010956218 0.21986018 -0.297004 0.051157042 -0.23209924 0.22109067 0.21805258 -0.09887197 0.06402064 0.044382412 0.11210801 -0.36213446 -0.2011316 0.08133637 -0.15499847 -0.12420082 -0.09118783 -0.14162499 0.15218592 -0.11609042 0.18283203 -0.0047031976 -0.21747312 0.18918599 0.07836347 -0.06694163 0.064142674 -0.20059681 -0.123364486 0.12193258 0.058637723 -0.08440231 0.034893364 -0.08758193 0.07371543 0.05195547 -0.14353193 0.0008416189 -0.22552854 -0.11780189 -0.1849667 0.28670958 -0.16735847 0.3262045 0.07893556 -0.008979431 -0.21481703 0.36695313 -0.24270435 -0.33855638 -0.11963423 -0.042938706 -0.19837707 0.059229467 -0.17114705 -0.47756255 -0.29973158 0.17310102 -0.090923384 -0.13504001 -0.2479253 0.11454161 -0.05627928 -0.1492032 -0.014201246 0.10437606 0.039842214 -0.033272386 -0.19980556 0.2848271 0.38344976 -0.058231384 0.2652701 -0.19396721 -0.01429396 -0.16375104 -0.042935565 -0.018505784 -0.023218295 0.11867696 -0.2562539 0.09780659 0.08174056 0.23967169 -0.19045047 0.18147054 -0.032381743 -0.07731198 0.16200413
world -0.13469978 -0.2482702 -0.056705367 -0.082065694 0.013264313 0.059618164 0.17902185 0.057632506 0.057166684 -0.16386646 -0.023509964 0.05533488 -0.15577504 -0.0985566 -0.17504773 -0.28053784 -0.25352085 0.12920026 0.41311318 -0.08514561 0.11775162 -0.24259298 0.14446376 0.25788963 0.022015914 -0.002094091 -0.19496891 0.14914198 0.27802098 0.08351196 -0.03584868 -0.06557478 -0.106942326 0.26161996 0.15707532 -0.07100407 -0.0037865262 -0.21973765 -0.34543 -0.26008335 -0.1665076 0.16951928 0.19705842 0.00048567512 0.29374304 0.18511362 0.19129731 -0.10922787 -0.20970736 0.08582449 0.02912318 -0.13435654 0.012958463 -0.119927175 -0.28656402 -0.056326576 -0.0001604265 0.022152342 0.036115788 -0.19326624 0.1564643 -0.10462488 0.12123982 -0.023570504 0.26113957 -0.2151439 0.25471365 0.18713206 0.08422969 0.18349162 0.14489263 -0.03509492 -0.032654166 0.10933791 0.025073692 -0.1774802 -0.23883247 0.07548331 0.022009498 -0.048612833 0.011702735 0.3447254 0.01062821 -0.16243303 -0.009010914 0.05328849 -0.32000405 0.027236573 -0.12638836 0.116595924 -0.22479066 -0.0379067 0.24212429 -0.014034796 0.064835265 -0.11958051 0.069373965 0.067223035 0.026608242 0.04773353 0.12661068 0.28346184 0.24708317 0.14853631 -0.033568844 -0.2707638 0.15592717 -0.05381958 -0.17694214 0.04006606 0.07556621 -0.18366146 -0.37428287 -0.04631589 -0.2960759 0.12805603 0.45505378 -0.024488231 -0.11068227 0.031756118 -0.17984559 0.09518643 -0.0012090416 -0.42510754 0.07031927 0.04419937 -0.04058804 -0.12771161 -0.044374626 -0.17838034 -0.11510858 0.20795083 0.24990891 -0.25009406 0.041108314 -0.250836 -0.05318369 -0.1020364 0.22955434 -0.15386578 -0.018371636 0.058736585 0.19331537 0.047082577 -0.13640383 -0.21677984 0.024891358 0.08881793 0.1209408 0.18868072 0.24649249 -0.09930998 -0.1964884 0.027751427 -0.17349456 -0.10774711 -0.14070885 0.2041031 -0.03766647 0.09092813 0.12445727 0.20362394 -0.19391635 0.13638254 0.03840643 0.083032146 0.070574164 0.17565788 0.18753551 0.08241846 -0.0566334 0.044872817 0.03510892 0.08451286 0.2107743 0.0662139 -0.16566338 -0.17113738 -0.17451414 0.18543513 -0.24112621 0.089938454 -0.016850522 -0.16885117 0.09627428 -0.04619092 0.07221638 -0.2653353 0.031109283 0.3231872 -0.17208569 0.26810473 0.15281455 0.14175126 -0.05120401 -0.045624796 0.15493006 0.19325702 -0.124966584 -0.040350147 -0.115789086 0.21592182 -0.1356008 -0.21748717 -0.10462748 -0.030833526 0.040413905 -0.06625737 -0.063583165 -0.40133318 -0.11081084 0.13984318 -0.12305957 -0.10544437 0.1890249 -0.030559469 0.2632037 0.25343224 0.3053985 0.043562457 0.22087395 -0.06764575 0.13629027 0.14486636 -0.14831838 0.21399142 0.046799 0.1501854 0.0071246843 0.057561718 -0.026955577 0.21334507 -0.06883667 -0.09294642 0.28435233 -0.09236887 -0.11431919 0.16828185 -0.31029415 -0.23731215 0.12976608 0.36688867 -0.29798627 0.29173508 -0.2455171 -0.04107376 -0.2068929 0.2942331 -0.016358368 0.033733524 0.2552988 -0.0827584 -0.005266703 -0.14870399 0.050209172 0.28923583 0.0635902 -0.07591039 0.23651758 0.1421609 -0.052093096 0.12711449 0.046475254 0.08181313 -0.24530318 -0.017762199 -0.014368573 0.10776776 -0.13876191 0.17336869 -0.03792269 -0.08898627 -0.03810973 -0.09005515 -0.30710357 -0.077811375 0.017149188 -0.023875 0.18231145 0.13089655 0.03925048 0.1254627 0.06814352 0.4048529 0.12626193 0.09266766 -0.2100409 0.14657234 0.28812805 0.18703668 -0.13172068 0.030807272 -0.09975575 0.14087255 -0.054937508 0.36394283 0.23852211 0.15192233 0.13943206 -0.054289684 -0.13601363 0.031121181 -0.119252615 -0.035684306 -0.22750048 0.058357332 0.11606239 0.19875215 0.1808524 0.14267711 0.010765267 -0.0603991 0.13915314 -0.13944131 -0.23698564 -0.06478771 0.008984084 -0.09644613 0.00083171413 -0.15286167 -0.23580617 -0.022663202 -0.022817934 0.16858849 -0.2924636 -0.3543882 -0.11180003 -0.26201367 0.15726942 0.009265187 0.01969872 -0.1489319 0.12851213 -0.20968755 0.15972964 0.024032276 0.0065487786 -0.13207299 -0.100433506 0.24916185 -0.14760162 -0.09187003 0.28590837 -0.068100065 -0.14516065 0.060976353 -0.33527502 0.10254976 -0.0038657782 0.10849779 0.11896072 -0.016539669 -0.012666433 0.039300527 -0.20565069 -0.059432104 0.05409114 0.17026743 -0.05266066 -0.30950615 0.0163791 -0.15206788 -0.35855985 -0.042019896 -0.05910837 0.32362244 -0.053237848 -0.12311886 -0.23669203 -0.21790756 0.23067501 0.033302564 -0.22932152 -0.108462185 0.290823 0.11007038 0.23711146 -0.021581225 0.011241105 0.016702918 0.11104239 -0.07370429 0.09163796 -0.13136198 0.1403988 -0.32393023 0.21438874 -0.14009939 0.058218904 -0.14894648 0.103682615 -0.04648966 0.18951395 -0.046231017 -0.18313317 0.02227711 -0.033874106 0.17060249 0.12982297 0.20537071 -0.13803999 -0.061438777 0.027163828 0.20917486 -0.18124236 -0.14132637 0.041766986 0.048535697 -0.14039907 -0.1585383 0.32638827 0.09793544 0.037623536 0.32279956 0.20937592 -0.31264645 -0.055987038 0.23619257 0.16221155 -0.016864108 0.24861017 0.041695304 -0.1087035 -0.17624359 -0.1191016 0.06336825 0.3020324 0.24315286 -0.2674079 0.010101071 0.0437449 -0.27633443 -0.23519453 -0.143595 0.018114677 0.20949776 0.4249546 -0.09341126 -0.10919722 0.095814504 0.038159963 0.0024869433 0.32710585 -0.08430471 0.005591261 -0.022011235 0.029816238 0.1345753 0.15062806 0.091901846 -0.06137817 0.22325481 -0.26752442 -0.15617436 -0.24164885 0.093982995 -0.05986862 0.15260848 -0.1883619 0.15749645 0.14212744 -0.1082583 0.13231203 -0.18282405 -0.068551354 -0.16124879 0.21236676 -0.2515879 -0.07843665 0.011512218 -0.08398409 0.25772667 0.12782148 -0.20353083 0.10033799 0.039965075 -0.1442249 -0.059754275 -0.16886105 -0.15401211 -0.15563637 0.28012094 -0.022378502 0.22899295 -0.04120916 -0.11882747 -0.0011278286 -0.17662294 -0.14581574 -0.02171864 0.34615996 -0.013728581 -0.17561759 0.003807716 0.3854161 0.11463319 -0.11829024 -0.088056214 -0.06425471 0.014987159 -0.22527236 -0.06527261 0.2888535 0.14602904 -0.30047995 0.25210604 -0.24336186 -0.21763201 0.17480284 0.24122097 -0.2484226 0.061901297 0.08994647 -0.12760927 0.14787547 0.1532431 -0.15013175 0.276148 0.21818276 -0.19619718 0.05235733 -0.2629472 0.088275544 0.079472765 -0.13235328 0.1855574 0.22059882 0.14477706 -0.20006974 0.34755677 -0.1754586 0.033508793 0.16101319 -0.19457954 0.026073333 0.007560891 -0.09760421 -0.24293345 -0.2629294 -0.13736835 0.038537476 0.016022643 -0.15357365 -0.14935891 0.34071898 -0.047698542 -0.018423274 -0.26475102 0.01269409 0.07230149 0.1828804 0.33442733 -0.24761158 0.046358265 -0.05586641 0.10045415 0.093377694 -0.08631923 -0.15622683 0.010058609 0.31471452 -0.04214449 0.41484565 -0.16962689 0.042746156 0.09724356 0.107046306 -0.32207647 0.17921674 0.13255878 0.3013088 0.24488859 0.18503281 -0.03904301 -0.25074077 0.14529838 -0.11199798 -0.15249908 0.3588968 0.07774606 0.13972095 -0.11450873 -0.01995082 -0.21764411 0.24435179 -0.007048577 0.31987983 -0.08168589 -0.06915581 0.031596806 -0.05765298 -0.012194284 -0.073371485 -0.2571587 0.15954235 -0.097251534 -0.12752438 0.1911491 -0.03231047 0.21089974 0.20567515 -0.18139374 -0.31377164 -0.06566833 -0.19079947 0.30524656 -0.25339773 0.080923 0.05834283 -0.045841545 0.19850768 0.17147754 0.04981867 -0.31294128 0.20108534 0.15464038 0.0313027 -0.11967254 -0.18215995 0.12500466 -0.06435666 0.20727573 0.046704005 -0.267563 0.07731064 -0.14983673 0.2499167 0.03996199 -0.26227495 -0.27741957 -0.2074585 -0.0872951 -0.16811806 -0.2754423 0.3350194 -0.13202338 0.115747206 -0.19364834 0.08447247 -0.31748834 -0.0018630798 0.21112294 -0.11782081 -0.07422341 -0.19058599 -0.109401196 -0.19286977 0.1408636 0.02605424 0.049891144 0.11822398 -0.29008988 -0.11774349 0.12150598 -0.17387158 0.34516466 0.4741686 0.22057723 -0.20804267 -0.28412467 -0.13551599 0.3209335 0.22978416 0.04759517 -0.05753911 -0.32167467 0.058162574 0.06271164 -0.09240633 0.296799 0.07846634 0.041231036 -0.1218135 -0.1021636 0.15356313 0.070502415 0.11747468 -0.26150623 -0.05255826 0.22069226
animalswith -0.20492317 -0.14968947 -0.1062839 0.09993226 0.045105357 0.054219693 -0.22450756 0.037068687 -0.2303175 0.1405547 0.09763939 0.06909151 0.036716152 0.08364176 -0.20536572 -0.26240948 -0.0884191 0.004540823 -0.06459519 -0.156668 0.24645558 -0.043586526 0.13754083 -0.013347781 -0.22755551 0.0410886 -0.23597187 0.114082366 -0.025557693 0.11698244 -0.17014672 0.04391443 -0.15091212 -0.13288322 -0.03199351 -0.013675612 -0.2756728 -0.0036897233 -0.2455613 -0.13709417 0.14342958 -0.20703034 0.18785311 -0.0381939 -0.067845896 0.056253023 0.11791431 -0.14622718 0.022466894 -0.15332623 -0.09271097 -0.057097055 0.14757465 -0.3108627 0.15909444 -0.014502967 -0.16516978 0.2923031 -0.19952202 -0.1185737 -0.06072573 0.008601692 0.02622569 0.21787898 0.031174304 -0.1786257 0.052324083 0.2828424 -0.2435892 -0.16131689 -0.10180141 0.054280512 0.09267532 -0.16560248 -0.08252716 0.21078305 0.16255268 -0.111295365 0.079944395 -0.31024796 0.111187555 0.066370726 -0.2348786 -0.24106129 -0.00646758 0.02547315 -0.2417079 0.05848226 -0.028532071 -0.16500355 -0.29149243 -0.06537506 0.022978246 -0.20265381 0.022661204 -0.09582535 -0.3019759 -0.015265837 -0.28837758 -0.031994164 -0.07535961 0.21336736 0.21509527 -0.023006326 -0.30252907 -0.12996463 -0.05866295 -0.17962103 0.19471148 -0.07741451 0.08227872 -0.13701855 -0.3491829 -0.020173697 -0.14669941 0.11285484 0.047381815 -0.109506704 0.235087 -0.007410872 -0.08512862 0.019231614 -0.22939336 -0.417808 0.002141065 -0.059481196 -0.31502143 0.04845295 0.12175979 -0.27282476 0.14533786 -0.20422825 0.10272856 0.17058748 -0.15739472 -0.15790355 0.0970331 0.09098669 0.11222075 -0.15181538 -0.07391853 -0.2476488 0.1659032 0.007907303 -0.25013083 0.013927414 0.041602332 0.063650504 0.22701976 -0.13324071 0.25560036 -0.10729017 0.15665673 0.1741541 -0.12299966 0.25245628 -0.17287348 -0.10775217 0.18133034 0.008142756 0.11341039 0.13770694 0.06627691 -0.24285547 0.2385485 0.13924591 -0.22981142 0.16758116 -0.03777922 -0.13289621 -0.17378336 0.23868199 -0.18690321 0.02589761 -0.019538688 -0.1868268 0.12674308 -0.14891246 -0.044253737 0.07104029 0.07939177 -0.0017523275 -0.035126567 -0.13896072 0.17016739 0.0029846758 -0.07441982 -0.15780103 0.23990682 -0.12074455 -0.159662 0.22940427 -0.07526336 -0.15268369 -0.009276492 -0.103209145 -0.03592739 0.07260437 -0.033867184 0.08173803 0.16349469 0.06783677 -0.0071391906 -0.06874881 -0.34364083 0.111921206 -0.24609639 -0.1767923 -0.07638846 -0.007873903 -0.024507836 -0.17442892 -0.29980934 -0.16638996 0.22664052 0.019612068 0.20665303 0.17636551 -0.03025376 -0.09571895 0.17002568 -0.16599037 0.28932545 0.101261355 -0.18880486 0.21243846 0.024548769 -0.02029036 0.28270164 0.039749358 -0.18114668 0.14657678 -0.28958383 0.05414543 0.30988324 0.02110165 0.09823478 -0.023206085 -0.12727244 -0.31934518 0.025385603 0.30033275 0.09521622 0.27352816 -0.12867431 -0.17141798 -0.15519537 0.3313571 -0.21388943 0.3240973 -0.007173333 -0.028783247 -0.086406924 -0.08375075 -0.11523612 0.094056845 0.1542482 -0.12172018 0.13793395 0.032368675 0.19059566 -0.15907723 -0.08210304 -0.080239974 -0.07482508 -0.062834 -0.03470438 -0.3456831 0.010185454 -0.064013064 -0.1584117 0.12085523 -0.16353688 -0.15069106 -0.12902433 -0.009221288 0.107898064 -0.092842445 -0.20199087 -0.038603 0.06876276 0.09676793 0.34187773 0.40632242 0.1267005 -0.326437 -0.24967892 -0.11675994 0.28320378 0.15641385 -0.1747328 -0.20829035 -0.06508301 0.02016356 -0.058813747 0.35848546 -0.18127687 -0.070495605 -0.02071757 0.18807875 -0.06883559 0.26893634 -0.20792347 -0.0379929 0.17997645 0.040955022 0.20438388 -0.20379038 0.23013183 0.35836965 0.28898776 -0.025371302 0.11592503 0.06919659 -0.02980866 -0.21464644 0.14386086 -0.2820822 0.07985807 -0.05102359 -0.02322818 0.28008848 -0.17469661 -0.05137052 -0.18088405 -0.18604311 0.2822447 -0.31088033 0.2782306 0.2521866 -4.621237e-05 -0.16128542 0.03522206 -0.16504656 0.36351255 0.08623109 0.18570389 -0.2987219 -0.040055275 -0.099958725 -0.15502524 -0.07326233 0.16951425 -0.034956742 -0.3356514 0.021389086 -0.4455125 -0.17817433 -0.077589855 -0.084668316 -0.18034701 -0.14342456 0.002209589 0.177704 0.099742524 0.005188334 -0.28319803 0.055664398 0.23431686 -0.04227114 0.053315677 -0.25621423 -0.24345449 0.18848583 -0.18732521 0.28481182 -0.058563326 0.14604594 -0.22045556 -0.18250738 0.07592365 -0.11724374 0.11401959 -0.24979486 -0.026262997 0.025387919 0.28251666 0.24013616 -0.09558166 -0.2640081 -0.014241516 0.19176163 0.13692954 0.0027900804 0.19762045 -0.38934663 0.19201896 0.040735275 0.12249045 -0.19901103 -0.011614098 0.08290376 0.08103857 -0.06318904 -0.13700218 0.10934166 0.118381456 -0.08625316 -0.109663926 -0.112474665 -0.04737976 -0.25880656 -0.19000971 -0.042143896 -0.17884453 -0.033529416 0.10544008 -0.0062524583 0.08243658 -0.057533305 0.021778435 0.09470053 0.20826328 0.18068862 0.19766994 -0.3063466 0.21298458 0.016763417 -0.13967879 0.12050816 0.12761992 -0.037558604 0.035885714 0.31849003 -0.14101808 0.24222527 0.046027996 -0.13000216 -0.023681654 -0.009431831 -0.05824333 -0.20295452 -0.22918846 0.028517867 -0.08490755 -0.1127678 0.37466076 0.21235463 -0.037362766 0.057989355 0.06694918 0.10645438 0.19999759 -0.25186947 -0.20489015 0.18099757 0.067685604 0.03274877 -0.1515483 -0.016906384 -0.16855007 0.0024911615 0.25811586 -0.07078913 -0.22791317 -0.010491424 0.013014345 -0.009652078 0.14187449 0.076727964 0.08011232 -0.099156566 0.02357867 0.14430164 -0.25202495 0.06645903 0.089325145 -0.42880598 0.12292499 -0.18327655 0.16875423 0.29716313 0.26378283 0.11728419 0.14169246 0.17264205 -0.07206137 0.045671243 -0.23667794 0.082693465 -0.34779063 0.012201525 -0.1841192 0.11156622 -0.2799483 -0.10136308 0.062375795 0.10839258 0.025446083 -0.17830339 0.019275485 -0.06535503 0.25627786 0.03343609 0.27457213 -0.10389287 0.08947578 -0.01828669 0.27239484 0.04585867 -0.06338156 0.14670065 0.06718062 0.20042206 -0.17124924 0.006546863 -0.16983822 -0.26592943 0.17041229 0.08826285 0.07059415 0.09235817 0.13415381 -0.081098706 -0.13333367 -0.073752515 0.026828203 -0.2676763 -0.051771704 -0.12774926 -0.06704962 0.08340096 0.11066706 0.008747999 0.18610935 0.049291115 -0.019524666 -0.05268396 0.1118899 0.3933035 0.13691144 0.009718987 -0.07985106 0.055625334 0.078363165 -0.19360402 0.0739916 -0.040346626 0.12587135 -0.2098199 -0.20516805 0.12655032 -0.23340058 0.051259823 -0.08014588 0.118827336 0.067291744 0.07675783 -0.1268012 -0.32367396 -0.09026556 0.2323301 -0.110321485 0.04637827 -0.2674892 0.12730637 0.21538666 -0.18201813 -0.23336487 0.04803815 -0.06248245 -0.03071422 0.10777266 -0.07145574 0.008499116 0.006650462 0.045479063 0.003672344 0.2939459 0.02696285 0.20518513 0.13609274 0.05780792 -0.18193167 -0.03779594 0.26849803 -0.34350523 -0.032765426 0.33583522 0.04266374 0.31736717 -0.3941159 0.21641004 -0.1719072 0.05781214 -0.025350712 0.20103969 -0.049468208 0.16817454 0.30055544 -0.037488863 -0.13062803 0.08267648 0.18146852 0.27716216 -0.16274837 0.00024022095 -0.24517404 0.017346924 0.024190776 0.06288567 0.07653819 -0.07753076 0.0074323253 -0.114315785 0.15474224 -0.29223076 0.14151146 0.018719709 -0.10704521 0.021605892 -0.14765373 0.15811892 0.10388157 -0.023071164 -0.16609514 0.34039438 0.12757327 0.10818364 -0.29507205 -0.17827247 0.02799762 0.102718845 -0.06296539 -0.103946425 0.07696798 0.17293637 0.04980711 -0.113608815 0.02943127 0.051260434 -0.097334005 0.10443266 0.032599278 0.049206767 0.08783176 0.22103499 -0.26156044 0.10582749 0.052486595 -0.37684268 -0.052297905 -0.389325 -0.013573685 -0.024988724 0.12662469 -0.35962746 0.027541798 0.08616634 -0.23508994 -0.030606184 0.008410934 0.059884824 0.20916606 -0.29288948 0.2649591 0.30902135 -0.0022232458 -0.047867928 -0.26312461 -0.07585265 0.24648197 0.06052631 0.16306034 -0.15695357 -0.36908585 -0.15198132 -0.12825587 0.07438264 0.28972808 0.059044957 -0.12884724 0.07259377 -0.027640497 0.033799987 -0.23106398 0.09852652 -0.22974987 -0.12886427 0.19623451
teeth -0.1482831 0.07721755 0.005115015 -0.052351467 0.07487142 0.13429683 -0.09444345 -0.04106428 -0.0890295 0.1732487 0.18286636 0.2381812 0.04532343 0.16785643 -0.10703694 -0.16855222 -0.021219246 -0.11356418 0.03389906 -0.20068114 0.20578863 0.06947697 0.29672334 -0.09644914 -0.12086308 -0.06943358 -0.27505937 0.18626647 0.19925623 -0.0301646 0.02873498 -0.026673842 0.12030599 -0.08107824 -0.010782367 0.060812984 -0.34442517 0.098499686 -0.21107474 -0.22480884 0.087641336 -0.27416646 -0.032914054 0.040327296 -0.114573814 -0.0020178785 -0.09912765 -0.060480468 0.089240864 0.034525443 0.07900591 0.0008907736 0.040285736 -0.2653444 -0.047125727 -0.008197754 -0.2816755 0.24912608 -0.14981201 -0.12598671 -0.13028078 -0.11707093 -0.034830086 0.107159816 0.20763373 -0.20645435 0.0031448104 0.20186219 -0.23368241 -0.060098227 -0.25186366 -0.031385355 0.15588549 -0.29337832 0.08686278 0.13351749 -0.02774967 -0.31257436 0.070671804 -0.36794254 -0.015781986 0.024422986 -0.015872424 -0.24275438 -0.037404798 0.049191084 -0.10429298 0.16013907 -0.17086607 0.06357124 -0.3746304 -0.070525676 0.19746226 -0.19380376 0.040213965 0.030828508 -0.14025417 0.08918952 -0.31532434 0.10660686 -0.18806653 0.34034765 -0.009933726 -0.15910274 -0.32783493 -0.28952858 -0.14098193 -0.2379441 0.2468958 -0.024028346 -0.028312627 -0.27315047 -0.14150304 0.26716796 -0.22215973 0.08265558 -0.106811315 -0.09388559 0.15346995 0.07321137 0.040917423 0.06516335 -0.20317039 -0.46530515 0.10797362 -0.2876942 -0.26315033 0.2141301 0.06538217 -0.26928228 0.301879 -0.10166487 0.12116385 0.17922729 -0.0674229 -0.117956355 0.085771546 -0.05902972 -0.02138761 -0.06280507 0.19239834 -0.14569768 0.24496855 -0.019503241 -0.32462648 -0.07702147 0.036300674 -0.105851255 0.25513774 -0.091944866 0.1258736 0.027526917 0.27220866 0.07469829 -0.16391334 0.27809247 -0.18002404 -0.09433597 0.32334042 0.122303076 0.019007357 -0.1264667 0.008478404 -0.30898473 0.1726127 0.26672733 -0.23276448 -0.077363715 -0.09607245 -0.13715924 -0.24876623 0.27269286 -0.14746083 0.13374102 0.14240405 -0.1816501 0.16652527 0.023388393 -0.08393074 0.1723149 0.06761587 -0.12776832 -0.1259043 -0.013286912 0.12950513 -0.04697017 -0.17740779 -0.28792292 0.15853375 -0.17549706 0.16228683 0.23005804 -0.019339683 -0.22386622 -0.06555415 -0.24693784 -0.10843764 -0.11385996 0.09440537 0.22503233 0.18764278 0.0062760585 -0.19759545 0.071988165 -0.27075705 -0.0006255074 -0.23401032 -0.173461 -0.12887299 0.0027296175 0.061692033 -0.06999749 -0.3314083 -0.27654034 0.29439497 -0.18693414 0.32831314 0.2052392 -0.09031435 0.021842347 -0.053109024 -0.25865507 0.24733555 0.0049305214 -0.036585335 0.18660712 -0.0451582 -0.13022935 0.33280477 -0.15237494 -0.2976381 0.23278098 -0.3133756 0.07888158 0.329633 0.114462405 -0.021870095 0.124118134 -0.24491717 -0.21633048 -0.150823 0.33409968 -0.07801844 0.26591012 0.03430547 -0.17964238 -0.20146883 0.18211915 -0.3242011 0.3923771 -0.0115035325 -0.19120727 -0.19810942 0.18106869 0.1662275 -0.12603018 0.07476086 -0.16166675 0.04350822 -0.12200299 0.08434841 0.10558153 -0.010271976 -0.092756875 -0.24036682 -0.16995148 -0.034485884 -0.32769898 -0.017997826 -0.15805128 -0.1927445 0.0005918483 -0.032769665 -0.30936673 -0.11899717 0.10237869 0.1299739 -0.052573416 -0.18939288 0.037208185 0.13734835 0.13316451 0.22309099 0.53514636 0.32648727 -0.43428347 -0.17106657 -0.13191049 0.33285937 0.29154485 -0.26350996 -0.35166526 -0.15202995 0.3333012 -0.31864902 0.3621686 0.0044980994 -0.082797796 -0.012926188 0.019720903 -0.04437015 0.42847586 -0.3492671 -0.16333249 0.27585432 0.1858791 0.2571865 -0.20692429 0.062928885 0.3465366 0.24500199 0.0075855353 0.20129216 0.09527971 0.028758258 -0.114650086 0.07756229 -0.2629069 0.17708042 -0.074969545 0.056842983 0.25140843 -0.17603685 -0.23137671 -0.10461744 -0.122202866 0.32135355 -0.35265985 0.22041729 0.07357411 0.048120487 -0.21563229 -0.11743236 -0.283252 0.46007895 0.046011902 0.10308198 -0.31409353 -0.04778004 0.0660209 -0.22727554 -0.036936402 0.28377676 -0.0128494995 -0.3904108 0.07145058 -0.54675364 -0.15222391 -0.07433908 -0.09148105 -0.009526102 -0.10934224 0.06797901 0.19780178 -0.03504773 0.016935254 -0.3387253 0.19633736 0.14891529 -0.14433987 0.1728871 -0.09665726 -0.19552645 0.14191392 -0.012177397 0.26249537 -0.097914815 0.30083182 -0.1353245 -0.30739346 0.2135666 -0.030018628 -0.0028589382 -0.22862455 0.13382946 0.32267448 0.3415902 0.3081122 0.033562068 -0.2548064 0.059596326 0.22874223 -0.0023109831 -0.14145972 0.15651378 -0.35054454 0.020060383 -0.04630894 0.18332547 -0.06451372 -0.0344323 0.0089217955 -0.024011146 -0.22552714 -0.25580353 -0.11067479 0.09044701 -0.11125635 -0.17212307 0.04989823 -0.1318702 -0.14748295 -0.20536692 -0.16675507 -0.04602321 0.07974798 0.14743982 -0.07027999 0.046119306 -0.05994993 -0.09537284 0.15529509 -0.016280642 0.21925546 0.06222008 -0.37641555 0.26664522 0.13135387 -0.17808312 0.018535912 0.068762586 -0.12440024 0.03271902 0.37851557 -0.074957654 0.20820482 0.22328894 -0.17735747 0.020091575 -0.2843871 -0.06768951 -0.26500872 -0.12961175 -0.054599896 -0.034416147 -0.105057366 0.43304715 0.09378116 0.086447366 0.18885225 -0.050166123 0.04890278 0.36936164 -0.25207824 -0.27705175 0.13231155 0.05127468 -0.16849297 -0.14209875 -0.075687066 -0.01621 -0.007570976 0.21290365 0.059523415 -0.14602971 -0.011477879 -0.014615104 0.1482714 0.2090275 0.22139333 -0.07678269 0.0012202789 0.13869481 0.27670202 -0.17405489 0.19210792 0.12804532 -0.44621536 0.26748884 -0.16066268 0.115325354 0.18995151 0.23142199 0.053021662 0.21637401 0.27348983 -0.1312923 0.14329675 -0.0654928 0.07035118 -0.286118 0.07493166 -0.045898657 0.2285631 -0.21746174 0.18203314 0.079990886 0.19761081 -0.19436279 -0.2971601 0.11161269 0.19441645 0.23452777 -0.057800375 0.38263467 -0.16364269 0.051546544 -0.11686734 0.19895235 0.17910172 -0.109697565 0.18312474 0.1233009 0.36867967 -0.04541392 0.12390756 -0.21596085 -0.14479318 0.28073496 -0.018290833 -0.040290747 0.16742821 0.052067623 -0.15073197 -0.09643627 -0.048246894 0.043944016 -0.27696747 -0.014346523 0.023657832 -0.1588017 0.076446794 0.15860415 -0.02944131 0.071945906 -0.036836673 0.18264502 -0.03967817 0.060359266 0.28313446 0.2488433 -0.073733 0.15262137 0.13316406 0.1835924 -0.19878177 0.019980375 -0.006422321 -0.06516353 -0.30432147 -0.20768994 -0.0015193864 -0.3225423 -0.0337719 0.092190966 0.017981637 -0.15645632 -0.06406683 -0.2378663 -0.32184127 -0.18406306 0.1470224 -0.011492823 -0.062191065 -0.16247116 0.09864348 0.14639546 -0.17512736 -0.2363612 -0.14975472 -0.041383173 0.1697979 0.0933938 -0.003960245 -0.0846606 0.031620324 -0.012123514 -0.24277958 0.3703147 -0.088139966 0.12691948 0.14171524 0.14696294 -0.19510865 0.121626936 0.24869426 -0.35377872 -0.18193653 0.25440502 -0.046051495 0.13082401 -0.46710584 0.13259727 0.005157599 0.12437409 0.13728826 0.2869425 -0.057590757 0.12982084 0.24836843 -0.0071622506 0.010343197 -0.080153756 0.10571979 0.350389 -0.19033428 0.0044572772 -0.24468262 -0.051950447 -0.02818009 -0.015710168 0.11213193 -0.24415073 -0.0016590474 -0.1277654 -0.050236315 -0.36074176 0.065937564 -0.09592885 -0.120321415 0.021529458 0.037769377 0.15283288 -0.10933637 0.0955538 -0.2898855 0.3152602 0.03639824 0.012604191 -0.4197167 -0.08007672 0.02276139 -0.10503233 -0.02873905 -0.27527276 0.19898188 0.30041918 -0.095884435 -0.105688445 0.04378597 -0.122042604 -0.07503047 -0.0072517055 0.04145759 0.10282821 0.18453702 0.15502046 -0.27208298 0.12309467 -0.046914585 -0.21364787 -0.09169933 -0.39043182 -0.005112059 -0.06550348 0.032806996 -0.4002952 0.10928031 0.04230841 -0.112482086 0.0058620153 0.06792858 -0.1498219 0.1440169 -0.2734486 0.11705447 0.23689756 -0.015201707 -0.1851478 -0.21284251 0.030647503 0.16267614 0.058761176 0.25037324 -0.22988272 -0.24809842 -0.06306674 -0.33721325 -0.09114381 0.21137488 -0.08646281 -0.18034337 0.22258247 0.052677013 0.29806557 -0.111006595 -0.14344144 -0.2877372 -0.1329384 0.33822426
animals 0.37330872 -0.10923388 0.043055687 0.05162608 0.04634919 0.09218299 0.045101024 0.117264494 0.13819996 0.04627065 -0.21070114 0.029957457 -0.13662662 -0.04666275 -0.07613775 -0.17120433 -0.20151497 0.03585527 0.01174054 -0.08710147 0.24464981 -0.27116153 0.12565665 0.29625052 -0.13779342 -0.21842358 0.09057672 0.033476878 0.1864439 0.13115302 0.20394596 -0.08214606 -0.045268457 -0.07201039 -0.028795425 0.28174028 0.13477238 -0.21455394 0.010750681 -0.2154746 -0.24770594 -0.012538917 0.32188246 0.14180067 -0.019620426 0.16494541 -0.020907506 0.21077746 0.05673096 0.11796249 0.22703789 -0.2909091 -0.021927847 0.099230535 -0.08070581 -0.20214017 0.13779101 0.026206871 0.044615604 0.069573134 0.36814994 -0.13444528 -0.19885567 0.12768076 0.16552918 -0.23317762 0.06407172 -0.08738359 0.06642487 -0.12823248 -0.19118936 0.3021325 0.0067229737 -0.13529103 0.14520182 -0.14851311 -0.12767626 -0.3051324 -0.040824253 -0.17058633 0.15237796 -0.09106955 -0.099846005 0.18510735 -0.032081436 -0.042926896 0.011556348 0.080983706 -0.10693668 -0.13355361 -0.052171182 0.10473917 0.27641305 0.05946981 0.007654132 -0.25649855 0.070097126 0.26416442 -0.19910917 -0.06298931 -0.1925223 0.2579666 0.013319133 -0.08022607 0.01864907 0.09524725 0.1781329 -0.12028669 -0.11322483 0.26112968 0.052617583 0.10231006 -0.21403159 0.079065144 -0.13593377 0.28755578 0.3373007 0.016521085 0.1691835 -0.20410214 -0.13185188 0.12763444 -0.104034506 -0.09001041 0.14838183 -0.18862708 -0.1848951 -0.060088623 0.061289858 -0.050146177 -0.12400526 0.062493943 0.26256078 -0.0051971707 -0.20400459 0.14933069 -0.057817467 -0.1763221 -0.07560223 0.044254262 0.048688807 -0.09237849 0.019924168 -0.21773003 -0.1282675 -0.20440982 -0.11875798 -0.18334083 0.028286034 -0.075935975 0.096644886 0.23662879 0.21511832 -0.06179797 0.1731794 0.16269717 -0.28841275 -0.13802782 -0.017735017 0.26427382 0.036626067 -0.06744784 0.2643776 -0.122968204 -0.12312472 0.12957223 -0.28790227 -0.020849455 0.14788394 0.06492962 0.05645484 0.3297132 -0.18678351 -0.1152583 0.19714525 0.24338542 -0.14976482 -0.31312436 -0.0909771 0.2613654 0.20412152 -0.053371023 -0.08906269 -0.25548717 0.10821061 -0.107267044 0.14573525 -0.15131867 -0.09339814 -0.08478091 -0.1042136 0.009514545 0.20122133 -0.24611624 0.00836402 -0.15190065 0.10670652 0.01208223 0.095016554 0.013686613 0.20622458 0.3140616 -0.11597961 -0.16547903 -0.3555545 -0.085491754 -0.005185743 -0.16691299 0.18815698 -0.38759398 0.11531347 -0.088566296 -0.22495003 -0.33588067 0.059488025 0.05543478 0.45758706 0.29344577 0.07864418 0.2245417 0.021551862 0.026176367 0.16453294 -0.18784486 0.0630194 0.05358396 0.15534273 0.14832513 0.11195376 -0.15992695 0.05781721 -0.12856902 -0.2358643 -0.3152658 0.022022925 0.24830313 -0.17552075 0.11706011 -0.21541625 -0.3616481 0.18815668 -0.15776579 -0.2049035 0.112569444 -0.34391466 -0.015360446 -0.1270477 0.2283033 -0.21131489 0.16043958 0.23647094 0.03542684 0.03504262 0.07800815 0.18333565 0.030141614 -0.041872945 -0.24953921 0.029821748 0.036394134 -0.06221052 -0.28930992 -0.30975345 -0.0207885 -0.33749223 -0.2620726 -0.26646635 0.057574414 -0.23037608 -0.19564246 0.047861177 0.249006 0.16500258 -0.29623798 -0.06293288 0.14542963 -0.2040835 0.014214332 0.22374493 -0.16445789 0.19938645 -0.06358766 0.22372855 0.581614 -0.12860346 -0.030889448 -0.028122937 0.015615594 0.07125502 0.15928316 -0.104367055 0.017622443 0.21446 0.26873443 -0.31089386 0.3923595 -0.21379858 -0.14494784 -0.054135617 -0.054008503 0.284924 0.14851482 -0.16681181 -0.2203347 -0.10921056 0.22802703 0.36374617 -0.25875092 0.20104893 0.3094754 0.01297643 -0.021586826 -0.15150727 0.14114293 -0.11217154 -0.32831705 0.24991933 -0.0664564 -0.058484524 0.31816936 0.0045707356 0.25068733 -0.092337936 -0.12878263 0.22547227 -0.12861261 -0.26191625 -0.17256452 0.29635102 0.12874499 0.14376126 -0.21505336 -0.08897594 -0.32242385 -0.20731908 0.09283807 0.01468577 -0.23889071 0.16798286 -0.092722006 0.04365577 0.15562311 -0.07047258 0.14707175 0.03585648 -0.0859192 -0.3755816 0.15531433 -0.07883583 -0.35956606 0.06387018 0.16913772 0.011600044 0.1474112 -0.14388296 -0.057912808 -0.03851589 -0.12290882 -0.17699428 -0.08665287 0.2519806 -0.18001041 -0.27390364 -0.06391614 -0.20470427 0.08266131 -0.15902662 -0.027129909 -0.4711628 0.13794416 0.17752147 0.14234765 0.17103294 0.034841552 -0.11380791 0.100709096 0.36012524 0.04405975 0.053596437 -0.10284078 -0.10283799 -0.1574426 -0.061576877 0.027365515 0.27965143 -0.15199217 0.0662837 -0.23473732 0.08020488 0.0017236886 0.1937587 -0.06829119 -0.19689573 -0.3567072 0.039521363 0.1792232 0.21906503 0.30145785 0.20031816 0.15101312 0.18778041 -0.2752773 -0.2374644 -0.06268369 -0.26568756 -0.044480026 0.14570723 0.13033327 -0.002433787 0.1411723 0.15099265 0.087887965 -0.13048612 0.34818038 -0.09263176 -0.011409795 0.14148995 0.1947129 -0.07670635 -0.23947632 0.22362457 -0.21279007 -0.013467851 -0.09946664 0.1264038 -0.051200207 0.16863687 -0.09525714 -0.047681198 0.08291796 -0.004461911 -0.30653438 0.07762865 -0.23421238 0.08420884 0.16430733 0.42790282 0.2524783 0.23517111 0.21203543 0.030731002 0.13961414 0.001483943 0.009599867 -0.17914207 -0.03574662 0.026809858 0.04196495 0.28738272 -0.30962405 -0.091941245 0.29533115 -0.08328333 -0.17902637 -0.1576906 -0.02848971 -0.04295594 0.2851118 0.14988315 -0.18084918 -0.0009864437 -0.037264284 0.38355267 -0.058540937 -0.43585983 0.1349325 0.25009438 -0.29776317 -0.10413456 0.06784096 0.43409947 -0.13574329 0.17844167 -0.1792634 0.1343879 -0.23441981 -0.07550369 -0.23496224 -0.3724822 0.08583686 -0.36067513 0.23636405 -0.15055473 0.14281732 0.02299907 0.23147407 -0.14109537 0.11678545 0.00682063 -0.018387396 0.3453092 0.021046238 -0.003695524 -0.15097609 0.14100447 0.0074451454 0.0018626146 0.20910415 -0.004918302 0.06517159 0.14695702 0.18895896 0.27257448 -0.15124685 -0.42818856 0.14811495 0.033019792 -0.051007878 -0.14567472 0.1744604 -0.24021508 -0.18916975 -0.054426696 -0.07617222 0.014878941 0.13768683 -0.10880726 0.21924101 0.22384517 -0.07910911 -0.003034906 -0.053166762 -0.0001698902 0.19722769 0.08363857 0.19209841 -0.0798112 -0.20845437 -0.021017341 0.09078997 -0.10924357 -0.18656252 0.081776366 0.23081818 0.4100403 -0.19285879 -0.048568692 -0.2375412 -0.060292073 -0.060229957 0.051577937 0.032198947 -0.07390586 0.137931 -0.0052991896 0.21073924 -0.09565309 0.0105813835 -0.32192552 -0.3449064 -0.11747082 0.15105559 0.15556917 -0.16941796 -0.11898953 0.083790936 -0.16987258 -0.09358749 -0.21355245 -0.194255 -0.07766408 0.1408283 0.36764452 0.12966333 0.14929196 0.186639 -0.0824646 -0.1527857 0.30256668 0.016239375 0.30243763 0.13941352 0.092057936 -0.100152865 -0.041572653 0.07498159 -0.061698105 -0.1355698 0.21197726 -0.15783034 0.017342128 0.06300752 0.4028222 0.048361987 0.23873235 0.0707424 0.023269149 -0.011891907 0.20080703 0.27476057 -0.18218699 -0.11964282 0.12276049 0.2958202 0.3521819 -0.34683973 0.29995674 0.09395864 -0.1479626 -0.0830497 0.23491555 0.23746395 -0.19269328 -0.39540452 0.08208812 0.13385443 -0.2109359 -0.094717756 -0.055339955 0.31364757 0.058991306 -0.26975897 0.18385898 -0.24909991 0.27171803 0.09700584 0.23785548 0.12232162 0.052717745 -0.2696371 0.03809282 -0.06024648 -0.15592365 -0.23566733 -0.34971637 0.18215473 0.14074948 -0.20275491 0.15825118 -0.3754806 -0.19878006 0.1297889 -0.1670754 -0.32390174 0.4219238 0.35191774 0.24268417 -0.11604214 0.15477818 -0.028951712 -0.121365204 0.05599491 -0.06774183 -0.17967205 0.19378167 0.15222467 -0.19167833 0.08053635 0.16211087 -0.20679276 0.015140917 -0.14538416 0.16854645 -0.19243054 0.2447232 -0.08703526 0.37274903 0.017749514 -0.11275855 -0.22864597 -0.1616707 0.15039037 0.054113504 -0.042083014 -0.31807443 -0.20693907 -0.21266904 0.22632949 -0.08923646 0.33204454 0.10863567 -0.016163196 -0.112838335 0.18968305 0.285552 -0.029734395 -0.008264937 -0.069946386 -0.2973596 -0.0008061145
eating 0.07966481 -0.059284106 0.18607938 -0.1521308 -0.014373664 0.30549088 -0.13813566 -0.09564317 -0.22649863 0.0913594 -0.10905966 -0.07698643 0.10650559 0.09581734 -0.14675583 -0.13042428 -0.18553115 -0.0023967428 0.1982655 0.18863611 0.14764123 -0.19748577 0.09950377 0.05645502 0.08779964 -0.056244314 0.15232883 0.11774089 0.29706836 0.039686322 0.031951502 0.026788946 -0.06391201 0.34857127 -0.0072019645 0.02708968 0.049721953 -0.11760345 -0.15498042 -0.23315708 -0.48506892 0.24066316 0.24793296 0.09663006 0.3049726 -0.047953892 0.033306587 -0.046806693 0.06557388 -0.0018654832 -0.11807967 -0.013209592 0.0066508986 -0.04900897 0.08169851 -0.03581094 -0.051090866 0.16372834 0.04952392 -0.08207086 0.20531599 -0.05212524 0.14285783 -0.03953292 0.29897833 -0.019234272 0.13756216 0.17561233 0.21518277 0.0014095576 -0.20491365 0.113754965 -0.19346963 0.0740527 -0.20728761 0.13530649 -0.020353083 0.15592848 -0.234086 -0.29245403 -0.09235147 0.15690006 0.031347953 0.21622834 -0.14338075 -0.11772413 0.012787831 0.21769747 -0.063515656 0.04498195 -0.10094919 0.19787431 -0.10721718 -0.0044016414 -0.045483693 -0.20672588 -0.17946573 0.083245456 -0.2945247 0.020971382 0.16323796 0.29043654 0.04835021 0.15651432 -0.31829885 -0.09681609 -0.19741811 -0.12906249 -0.26318017 0.21729638 -0.19096614 -0.0831541 -0.45315558 0.09100352 -0.17497724 -0.06560705 0.5505005 -0.27195138 0.017790155 0.08914196 -0.020702431 0.20622052 0.009659679 -0.13127324 -0.022898784 -0.005763292 -0.06877387 0.054424383 -0.11627655 0.008992667 -0.28026295 -0.06232965 -0.027515234 0.05813546 -0.0116948895 -0.1371562 0.01872962 0.060463857 0.21944857 0.14831945 -0.03466067 -0.11793755 0.27529943 -0.29927877 -0.13796404 0.010607065 -0.08827254 -0.08024313 -0.028909532 -0.09352086 0.085665256 -0.077834666 -0.15482722 0.0022810278 -0.008497298 0.17428176 -0.11969151 0.07776156 -0.087491006 0.14166315 0.1462204 -0.035195723 -0.10730906 0.083382376 -0.10477826 -0.054220222 0.020509673 0.12392466 0.058340136 0.17614058 0.17677528 0.1828957 0.102818355 -0.07170605 0.0020068767 0.20630233 -0.12990353 -0.1255059 0.14198616 0.14867342 0.018298604 0.0885175 -0.177355 0.040148314 0.15340863 -0.3400294 -0.03337762 -0.03466623 -0.020302832 0.22880402 -0.13904862 0.1670937 0.22247724 0.07240337 -0.31242695 -0.1408651 -0.08070601 0.15583588 -0.069100894 0.24821167 -0.18686265 0.05178159 0.020600988 0.056555305 -0.1141649 0.24214232 -0.25622928 -0.048744258 0.07579085 -0.29967755 0.048708156 -0.024973229 -0.032510877 -0.021358836 -0.107291095 -0.13904531 0.22608137 -0.085692935 0.16223316 0.17148721 -0.0037889564 -0.08465824 0.24687627 0.2527916 -0.21443234 0.02456064 0.15077068 0.08522718 0.32672107 0.040727172 -0.28937513 0.13584484 -0.2723418 0.22461662 0.09809764 0.1961586 -0.28670743 0.050202664 -0.024698908 -0.03633541 -0.00016774566 0.15540971 -0.32557678 0.037961867 0.12620042 0.09496673 -0.19975902 0.24588104 -0.07636532 -0.05146561 0.34050387 -0.07063716 -0.19398333 -0.13938008 0.009019254 -0.032672156 0.015476746 -0.23692718 0.14899375 -0.07231354 -0.015679663 -0.048361797 0.060863152 0.16255847 -0.06399387 0.0883054 0.113965794 -0.058695357 -0.1353944 -0.08094389 -0.11106533 0.25564733 -0.023788387 0.0022111181 0.029458785 0.07812092 -0.09119196 0.16780415 0.34826338 0.12241783 0.15233356 -0.2820237 0.07165825 0.343535 0.091567695 -0.19284129 -0.21670733 0.01417969 0.18575813 0.29898974 0.042446338 -0.12696528 0.16782819 0.22603011 -0.44545475 0.32277128 0.07460826 0.2739218 -0.23359631 0.024474317 -0.06015323 0.4183498 0.048507806 -0.13040535 -0.21308605 0.3481228 -0.018333508 0.30377486 0.3738035 0.34376204 0.07237527 0.20081493 -0.06627528 -0.05296839 -0.16384946 -0.26058713 -0.3002618 -0.20950544 -0.12504195 -0.068310656 -0.11080139 0.13484167 -0.14905171 -0.11887853 -0.31908786 -0.2990969 0.0502788 -0.48090708 0.2585711 0.06213397 -0.114815615 -0.18457238 -0.1278087 0.102769725 -0.023734938 0.075178765 -0.07811406 -0.1053901 -0.12810378 0.11301232 -0.27551162 -0.20949388 -0.09836013 0.055617243 -0.34393662 0.052469533 -0.32838485 0.11589806 0.16272996 -0.20732422 0.10635559 0.19463876 0.063651495 0.15317252 -0.274527 -0.11806493 -0.07163527 -0.014137709 -0.036402766 0.00093860575 0.07817778 -0.16407365 -0.17521249 0.14314072 0.035390306 -0.02330321 0.037435047 0.22692174 -0.5316078 0.13412866 0.0704358 -0.19540738 -0.015274515 -0.19537294 0.06453625 0.0036591773 0.08199423 0.00208352 -0.015491443 -0.14105336 0.033917286 0.14016496 0.20442331 -0.06689194 0.1609732 -0.33990487 0.15147865 -0.31605557 0.20077391 -0.30310813 -0.32278687 0.0957064 0.13355836 0.02701623 -0.09470945 -0.042950038 0.056399412 -0.008886188 -0.015514343 0.004666612 -0.1974198 -0.026212515 0.06914158 -0.2099225 -0.3849328 -0.24091923 0.13289006 -0.068990216 -0.06375025 -0.14268284 0.116979405 -0.104795866 0.31253093 0.28175324 0.12612544 -0.11306316 0.15582566 -0.17713276 -0.056440867 0.18656036 0.21863773 0.040674534 0.056014445 0.22775081 0.062809 0.056994308 0.42729795 0.33596563 -0.13786328 -0.3553634 -0.25028172 -0.25682193 0.0038500167 -0.28558013 0.14083555 0.35951173 0.26204476 -0.07418492 0.0872207 -0.01798533 0.16292892 -0.19874647 0.36799735 0.050575122 -0.102311835 -0.0958657 -0.11967749 0.10407717 0.045874838 0.03875222 -0.23888788 -0.020684604 -0.0048405305 -0.32926238 -0.44097176 0.23283774 0.15218611 -0.033637937 -0.2847094 -0.002001029 0.10072045 -0.18240027 0.09892105 -0.10144693 -0.39688852 -0.17197637 0.35148698 -0.39144054 -0.17462036 -0.083173804 -0.06163318 0.10006468 0.046051264 -0.15510571 -0.15926689 0.060710646 -0.20492366 -0.27222613 -0.4957933 -0.06438809 -0.31903875 -0.024344457 -0.08168135 -0.11311422 0.049547568 -0.044820465 0.18068995 -0.03983347 0.013369214 -0.016164362 0.06827131 0.23663037 -0.018911188 -0.028520742 -0.049073257 0.05771287 0.086312994 0.085530065 -0.085664384 -0.18026562 -0.06715646 -0.03378518 -0.13424702 0.24551558 -0.03990866 -0.002284283 -0.14592391 0.060935978 -0.063308895 0.06016945 0.053462822 -0.023277745 0.21041228 -0.23684038 0.40270263 0.119604014 -0.06823501 0.12732948 -0.097540975 -0.063662 -0.25428677 0.148111 -0.2325687 0.0036815868 0.00020614955 0.22437555 -0.08880341 0.1734833 -0.16639858 0.3188986 -0.068948746 0.23324582 0.1189774 -0.068633236 0.16457222 -0.078950405 -0.21116248 -0.20598754 -0.20441972 -0.27126572 -0.18375045 -0.14744963 -0.32410476 -0.24809499 0.23906986 0.10518836 -0.096033454 0.02758893 -0.112245396 -0.14175513 -0.14019558 0.418072 -0.3085037 -0.13242427 -0.081440836 0.29420856 0.08687745 -0.08680426 -0.034789 -0.14384168 0.12733649 -0.0062874286 0.5008319 -0.087891504 0.066232555 -0.14128383 0.030670507 -0.31250724 0.37059662 0.016896067 -0.17257456 0.11039862 0.10408341 0.07683833 -0.25625885 0.11816841 -0.27907664 -0.2042426 0.47857454 0.15759546 0.46460798 -0.09726602 0.14765677 -0.1977705 0.1394281 -0.06107229 0.09312015 0.03699281 0.018296769 0.050459817 -0.15954952 0.20219669 0.1385836 0.04063729 0.10429739 -0.2163468 -0.15186726 0.1822824 0.08734821 0.09547256 0.101745084 0.2358835 -0.20178775 -0.03823357 0.19612874 0.1516666 -0.13944556 0.15927236 0.08424587 0.13826455 0.2690499 -0.052908618 -0.09040131 0.015143531 0.020825697 0.22994147 0.08147074 -0.016785275 0.21149051 -0.011142087 0.04049129 0.41813326 -0.22680742 -0.058770582 -0.037657093 0.14010102 0.3399351 0.24199475 -0.2599014 -0.2585232 0.2501665 0.2035151 0.17423414 -0.15993807 0.21220326 0.052350175 0.1652455 -0.051380478 0.34010336 -0.16695909 -0.24134749 0.0589758 -0.15618545 0.10072513 0.026223434 0.25260848 0.00033929298 -0.19578955 0.07987137 -0.26053247 0.10776385 0.006561928 0.1687578 0.08203214 -0.15900859 0.41671097 0.18677194 -0.030993845 -0.15453418 -0.322098 0.28229988 0.28987694 0.110178754 0.044273917 -0.12935176 -0.21580137 -0.27145922 -0.09244371 -0.024709828 -0.08792295 0.23526812 -0.19062664 0.10907324 0.26816097 0.040035047 0.060259175 0.03444146 0.1919385 0.028754964 -0.015242193
animalwith 0.18056117 0.047769908 0.10059007 0.101979114 -0.21577239 0.058034677 -0.11192134 0.024218477 -0.17564404 -0.17037228 0.07676711 0.2066123 0.11757065 -0.1611642 -0.023087705 0.11374383 -0.12706959 -0.213078 0.100964114 0.11627817 -0.09316241 -0.047449168 -0.051810626 0.18232358 0.13690004 -0.17327121 0.1014549 0.22865103 0.07010722 0.29206982 0.18142797 -0.15746424 -0.10982259 -0.071108215 0.20614481 0.10470809 -0.017417792 0.14861207 -0.06724214 0.021387551 0.02983836 0.1853876 -0.089220986 0.10588971 0.06573136 -0.055431735 0.10853288 0.30970493 -0.16494742 0.1515687 -0.038499203 -0.1708099 0.24558817 -0.107302 -0.3195288 -0.101304695 -0.24366415 0.22858028 -0.08420411 -0.2767331 0.03929757 -0.007794511 -0.08962391 0.332484 0.07865331 -0.29315653 -0.09368346 -0.16537315 0.11993563 0.12263468 0.20236279 -0.14054756 0.17223167 0.10783906 0.05801619 -0.18566349 -0.1685062 -0.24900497 -0.12379624 -0.14006674 0.056705248 0.25232154 -0.16510446 0.26768336 0.0725586 0.06493861 0.056924682 -0.033019032 0.20244408 0.11381434 -0.09983027 0.030184634 -0.14102596 0.24761654 0.3082957 0.111649774 -0.100196786 0.060463913 -0.011371467 0.15539709 0.16052818 0.1293569 0.31743523 0.21151671 -0.08607377 -0.26052096 -0.13942924 0.010701589 -0.2399292 0.06578903 -0.153344 -0.26888108 -0.15632021 0.3250319 -0.06355086 0.24231823 0.0041579064 0.10242626 -0.041127395 -0.0006328276 -0.14327495 0.09610707 0.013753786 -0.15852079 -0.059996378 -0.19731939 -0.18469748 -0.12197198 0.15665685 -0.16238607 -0.17365298 -0.22501414 -0.079130135 -0.21619178 -0.024599517 0.04529391 -0.15540545 0.09659149 -0.06578485 0.03373884 0.41127482 -0.028510557 0.2495467 -0.1453805 0.03756546 -0.011044629 -0.16956505 -0.18861575 0.112617575 0.17776015 -0.12685141 0.19080487 0.20865999 0.35324824 0.22677872 0.099807054 0.07992394 -0.032747548 0.14852655 0.3136079 0.096118264 0.1343444 -0.06324648 -0.0054934826 -0.12924461 0.3742823 0.05574321 0.123064436 0.23953457 0.16929983 -0.13449089 0.12867165 -0.043140493 0.10354701 0.27173266 0.17701705 -0.016995234 -0.28931093 0.2086647 -0.06914717 -0.07863651 -0.21379957 0.26160523 -0.24200936 0.28543875 -0.1834801 0.32972744 -0.11337378 0.16151999 0.021556765 0.23084652 0.25610483 -0.04172061 0.06501259 0.0006836767 0.03302248 -0.05230526 -0.31506863 0.039140437 -0.04439309 0.21507066 0.3319062 0.041175954 -0.11394772 -0.33910462 0.10045922 0.029818023 -0.18716209 0.11862784 -0.21917096 -0.09029318 -0.08027125 -0.38591698 -0.09859985 0.31211102 -0.22892834 0.4476898 0.28127718 0.07806001 -0.08333954 0.1844175 0.06313909 -0.09370134 0.082895696 0.17184618 0.058838155 0.13862811 0.19564752 0.01363467 -0.22155531 -0.29938757 0.10139105 0.10315862 -0.26590723 0.40705138 0.2535003 -0.23985785 0.16824645 -0.30600157 -0.1960298 -0.07844593 0.1994944 -0.15575685 0.3805328 0.20669815 -0.011580069 0.13499548 0.13069408 0.09191215 0.18142216 -0.06288566 -0.15040377 -0.22695722 -0.06556502 -0.12095212 0.22235543 -0.08366907 0.014659734 -0.018577045 0.14682461 -0.28528306 -0.26477933 0.08678149 -0.21912143 -0.04653845 0.22977686 0.027284477 -0.20142202 0.071109615 -0.013686609 -0.04551849 0.2889316 0.17236443 0.08106581 0.10312693 0.24124454 -0.14592288 -0.10356473 0.22091913 -0.21595259 0.11259765 0.04070086 -0.1786527 0.39442167 0.16020842 -0.046806555 0.2479962 -0.15676221 0.20409727 0.30005705 0.12139239 -0.1778933 0.11013227 0.2809659 -0.29864717 0.11043109 -0.011641661 0.13978794 -0.15753642 0.120018885 0.3062191 0.26162553 -0.38516912 -0.15842493 -0.05582772 0.17665642 0.35788792 -0.0011076372 0.31507328 0.31129602 -0.17399125 -0.12569837 0.17182843 0.23413476 -0.0018733492 0.00028427332 0.17065832 -0.14900526 0.102843985 0.08804923 -0.060571726 0.08074205 0.010930718 0.0019447263 0.17771935 0.08204061 0.012465585 -0.32609493 0.11334849 0.20192623 -0.06801614 -0.05590507 0.1452049 0.014583074 -0.027145794 -0.08832002 -0.21158509 -0.31887013 0.17075182 0.15961704 -0.14662257 0.053647846 -0.024227364 -0.22804265 -0.11920343 0.22762524 -0.06891776 -0.0151160145 0.15463954 -0.24010307 -0.26405075 0.07030158 0.038045984 -0.12798493 0.15803024 -0.021573514 -0.21369039 -0.16319527 -0.3718606 -0.34944713 0.22551785 0.1075494 -0.3005204 0.062877804 0.038045343 -0.033801846 -0.12092947 0.20924652 -0.38129428 0.16736226 0.054307383 0.12364821 0.21408175 -0.20682478 0.2657431 0.1227587 0.049669724 -0.075980596 -0.18986304 -0.2500101 0.18844031 0.045484535 0.0030600668 0.23169054 -0.14161341 -0.27577147 -0.073072396 -0.21892293 0.22345245 -0.24958344 -0.13946682 -0.14589804 0.08122036 -0.28378436 0.08250323 0.29223406 0.29282022 -0.07260691 -0.09083165 -0.2032952 -0.20644495 -0.22525176 -0.30277678 0.11985482 0.16077717 -0.06400812 0.17839816 0.027257603 0.02340754 0.23709464 0.13784382 -0.055218074 0.112011835 0.21440414 0.22298531 -0.090543866 0.0076445374 0.23587231 -0.13003965 -0.24986516 -0.06791484 -0.039668635 0.03569162 0.13513531 -0.08588929 0.23549496 0.37185565 0.19795507 0.19037323 -0.23767966 0.12752038 -0.027344707 -0.048467517 0.04864871 -0.2374422 0.15587132 0.32530433 -0.12008084 -0.13515252 0.12685604 0.08758449 0.06875414 0.10114053 0.06476883 -0.24063648 0.26368308 0.13350207 0.13267484 -0.06126171 -0.07929554 -0.22005747 -0.056358885 -0.07044727 -0.24844052 -0.3776392 -0.062273026 -0.20336032 0.10902587 -0.20026803 -0.1784307 0.036797445 -0.01990756 0.082843564 -0.10281442 -0.29788652 0.13075098 0.3172067 -0.1017213 0.23645721 -0.010277589 0.28512153 0.043009806 -0.1369428 0.087757014 0.06051265 -0.1721019 -0.08424727 0.10239544 -0.3121668 0.19208781 -0.2648719 0.022853918 -0.13516296 -0.038015883 -0.15238407 0.07076688 -0.0041722497 0.10946397 -0.024141202 -0.052243467 0.09257283 0.20389958 -0.1321161 -0.17910823 0.30923545 -0.15552738 -0.083113864 0.17341676 -0.016327446 -0.24551672 0.11705865 0.2227247 -0.039867345 0.012836972 -0.34133127 0.13387597 -0.11323556 0.004083184 0.0056919437 0.23912974 -0.18171167 -0.04778592 0.3341373 0.012458827 0.1914982 -0.25977215 0.0066845734 -0.065661766 0.21913119 -0.18507478 0.07784511 -0.038089644 0.2509638 0.17188157 -0.17780794 0.18445516 0.37755838 0.10147397 0.09776901 0.38851973 0.2834887 0.20107616 0.04329768 -0.27362707 0.0035686013 -0.3545633 -0.060580432 -0.14938915 0.10698411 -0.08901131 -0.10131412 -0.13058627 -0.17305268 0.13136427 0.05391092 0.2991786 -0.016962888 -0.3243957 -0.31599268 -0.29085907 -0.08291866 0.06877055 -0.14175569 0.2705702 -0.24300477 -0.0005882125 -0.055001296 0.03250062 0.072146215 -0.14359805 0.15773635 0.12209751 0.03982717 -0.21583277 0.19987352 -0.22715828 0.008162118 -0.33984503 -0.032753598 0.030979892 0.32930174 -0.143567 -0.15267436 0.00943294 0.038861528 0.24160664 -0.023890799 0.11473534 0.13815601 0.19609506 0.21472476 0.0146428645 0.2426903 -0.2542706 0.17063434 0.12932923 0.30413213 0.05658387 0.31876022 0.10301241 -0.016412064 -0.052095447 0.15343654 -0.1999468 -0.05606157 -0.31797612 0.039968114 0.21914412 -0.03244001 0.17176439 0.041198917 -0.090887986 -0.33680618 -0.3121079 -0.15130721 0.020562187 -0.07506068 -0.09471282 0.067108475 -0.04234455 0.11680453 -0.14688873 -0.059413146 0.08108582 0.21395263 0.053932168 0.0072200294 -0.015691156 0.1987235 -0.045479517 0.13092773 -0.04811034 -0.23735487 -0.00068283733 0.11522073 0.12703693 0.2673387 0.037075236 -0.13273314 -0.29358 -0.07344148 0.28428176 0.07794992 -0.030348215 0.24664102 0.3803801 0.10966917 0.018093534 0.1822344 -0.09515108 -0.28094366 -0.12819491 -0.13957869 0.10972795 0.2346553 0.14952224 -0.28974792 -0.27871203 0.33744785 0.13211259 0.21702541 -0.3453631 0.19372533 -0.08111055 0.039802298 0.21720159 0.24234721 0.16454078 0.05234576 -0.25759053 0.16010863 0.2154795 -0.07459673 0.21040395 -0.062034413 0.019847866 0.038798824 -0.3450015 -0.11732703 0.04549784 0.13810754 0.12488888 0.20640789 -0.08367003 0.26974237 -0.030025339 0.11990445 -0.07340012 -0.2851245 0.34479555
dwelling 0.1448968 0.17779142 -0.09248791 0.15160032 0.093284875 0.2351616 0.18011671 0.25441766 0.024839796 0.06465686 0.18501717 -0.15918033 -0.17449962 0.028127855 -0.080812916 -0.25254965 -0.25978026 0.20068285 0.24120244 0.25341904 0.16346163 -0.2577287 0.10020471 0.014185182 0.1986958 0.22244267 -0.2511046 0.12482983 0.08495573 0.19928877 -0.14425829 0.028334346 -0.107231714 0.30623978 0.010668205 -0.10848047 0.008823993 -0.0331081 -0.1288993 -0.25700578 -0.047657337 0.075306974 0.17798826 -0.01959085 0.15637007 -0.0906955 0.06455496 0.20389068 -0.23069085 -0.041109994 0.24498114 -0.22269459 0.24409096 0.030136963 0.07257904 0.13853657 -0.09584404 -0.10666413 -0.035632562 0.06114924 0.23457676 0.0063365474 0.14063315 0.34036985 0.069805145 -0.15927887 0.187445 0.0566271 0.1702567 0.13060714 -0.12395613 -0.11095049 0.052974515 -0.30398265 -0.034133255 -0.13808449 0.038982693 -0.06717953 0.045229256 -0.015725821 -0.19606368 0.325324 -0.100478634 -0.19069593 -0.11132859 0.2035673 -0.20432165 -0.02290975 -0.19997987 0.124030836 -0.19343947 0.06802915 -0.19713598 0.061903127 0.028658632 -0.07602283 -0.0053660944 0.01551271 -0.0806826 0.037268657 -0.07468875 0.28101948 0.2910483 -0.15670156 -0.28633744 0.009403442 0.14231992 0.082567595 0.034435082 0.20226629 -0.13946584 -0.43287843 0.026417788 0.08315879 0.04644378 0.20604259 0.3515664 -0.13408394 0.16458401 -0.013765786 -0.26554406 0.13856201 0.07898286 -0.13097268 -0.13466252 -0.25176534 -0.1221193 0.0119902855 -0.04597686 -0.005575889 0.06163806 0.1877163 -0.09650525 -0.0065302057 -0.04115476 -0.30831185 0.17499238 0.09348662 -0.056380954 0.069410235 0.34568435 0.2329193 -0.060394574 -0.016245777 -0.07651336 -0.06538411 -0.1600788 -0.06562023 0.09089573 -0.14913455 0.20959103 0.06925569 -0.047239948 0.086516954 -0.085955 -0.093162715 -0.31760326 0.20145188 -0.02183774 0.06016283 0.22762999 0.18371937 -0.19306968 -0.0034611612 0.10482341 0.059320003 -0.0056813224 0.19377065 -0.15196861 -0.041329443 0.17110229 0.3475595 0.08923843 -0.022263492 0.18754618 0.22772424 -0.14097135 0.20450424 0.054961864 0.16278346 -0.27368775 0.036168043 0.015947735 -0.28880596 0.08375283 0.007967915 0.05181259 -0.3284073 0.08293711 0.20141117 -0.17732403 -0.0010751658 -0.17550139 0.049098346 -0.079598665 -0.20701681 -0.11747124 0.07807654 0.15398932 0.10647063 0.009053099 -0.06359034 -0.19621605 -0.049542587 -0.05757068 -0.028674318 -0.3153855 -0.19706626 0.087087296 -0.49651226 0.15715684 0.021751393 -0.28858262 -0.19440313 -0.02438811 -0.03714716 0.17117587 0.100842364 0.32197863 0.014217973 0.29243165 0.06828608 0.032607716 0.18838231 -0.21745208 0.12932606 -0.12614211 0.2541124 0.21606855 -0.05813522 -0.23464102 -0.15139847 -0.07988719 0.08649913 0.40911704 0.19235444 -0.10824403 0.02371608 -0.029087776 -0.11121818 0.007926527 0.35049406 -0.28091353 0.4021481 -0.047320634 0.047957323 -0.18082242 0.2638297 -0.0052221813 0.08269693 0.0827054 0.06030782 0.088381745 0.25386423 -0.09748193 -0.112470955 0.14163041 0.016812954 0.12703428 -0.17267579 -0.12100949 0.07596495 0.01686688 0.08374404 0.07297866 0.026554901 -0.20778708 0.08935078 0.03549141 0.22914588 0.07957967 0.2216739 -0.097677276 -0.22048937 0.0013787303 0.10861534 0.070424914 0.18582763 0.019611089 0.09385481 -0.07865135 0.1074286 0.042851973 0.3661589 0.24051231 -0.046853255 0.024825921 -0.2016008 0.21901138 0.14975666 -0.06452683 -0.30485475 0.11810187 0.098216206 -0.078826286 0.04576473 0.19861102 0.16363049 0.054010484 0.2548914 -0.10714164 -0.036648292 -0.11087661 -0.16139282 0.15999077 0.2582292 -0.057593413 0.19340637 0.2592315 0.22822714 0.1809908 -0.052010436 0.15173094 -0.031290233 -0.39103073 -0.13995817 -0.19386369 -0.052195143 -0.022067985 -0.09814435 0.10952215 0.057388972 0.11268973 -0.17388009 -0.2772638 -0.35805437 -0.035492234 -0.46985734 0.31160134 0.1460782 0.028854214 -0.08893051 0.11347362 -0.010697031 0.2982476 0.24237683 0.09877737 -0.23423336 -0.15953311 0.13017352 0.13802843 -0.062901676 0.102650434 -0.05045916 -0.26583222 0.17140031 -0.17669372 0.061460394 -0.018061267 -0.02684985 0.012603307 0.22598809 -0.080835514 0.14270231 -0.0052202786 -0.2291841 0.07875655 -0.12203083 -0.11539148 -0.19315366 0.29291043 -0.14821763 -0.38187867 -0.007820722 -0.2898739 0.059980754 -0.10831588 -0.10894805 -0.27916077 -0.19632673 -0.013390568 -0.15898861 -0.11351965 -0.07167145 0.323072 -0.00084182154 0.19373251 0.23549023 -0.018755373 -0.11981035 -0.07066598 0.16765115 -0.08478773 0.022275385 0.20834102 -0.021315074 -0.14838634 0.1528867 0.020359177 -0.04438646 -0.17100944 0.08768998 -0.06371911 -0.33623642 0.14267072 -0.14544468 -0.025662718 0.029690435 -0.08220446 0.116055794 0.015938789 -0.18312167 0.0023912592 0.06908548 -0.020410595 0.15858838 0.08242804 -0.21346292 -0.14036691 -0.07839317 0.22337517 -0.0040702145 0.2815444 -0.15750045 0.2110492 -0.30934286 0.07542475 0.03494406 0.19370453 -0.18629892 0.05465253 0.092901856 0.080709085 0.0092032375 0.08668522 -0.10304635 0.22998908 0.013109917 -0.0841736 -0.3532756 -0.27086368 0.056203783 -0.051584776 -0.07459287 -0.16171332 0.017651476 0.37987638 -0.105925314 0.07795634 0.1391824 0.106592044 0.077094704 0.3540613 -0.17061162 0.023029726 0.26744363 0.039451834 -0.13903333 0.07592841 0.12078397 -0.25788245 0.1983341 0.16536337 0.0020853006 -0.41951331 -0.040220708 0.08566057 0.26774707 -0.007226792 -0.19535144 -0.077786624 -0.25187954 0.3620444 -0.09999671 0.047872353 0.12826397 0.10637407 -0.22060436 0.14696014 -0.09915724 -0.028904626 0.06821637 0.11889561 -0.2448632 -0.08764815 0.16931786 0.04848312 0.054504383 -0.3738181 0.009675283 -0.026582122 0.17343828 -0.35074642 0.060751826 -0.009941642 -0.11664799 -0.05760388 0.06669608 -0.12160526 -0.18955038 0.26273033 0.2052834 0.00048307044 0.054560043 0.35942885 0.102455825 0.10500659 -0.26782867 0.024068218 -0.17720817 -0.08833692 0.14097896 0.21646884 0.23550688 -0.03093142 0.1499535 -0.099608414 -0.03350195 -0.00082787254 0.057094894 -0.03376557 -0.004564647 0.051942483 -0.1606762 0.27705234 -0.07418861 0.19313967 0.20128357 0.27007717 0.023949113 -0.17250766 -0.09552185 0.10649493 -0.036514353 -0.27624038 -0.1837141 -0.01594379 0.078937516 0.11723478 0.12622288 0.082971096 -0.1032505 0.057620913 -0.06275219 -0.02961717 -0.20767637 -0.120403714 -0.15460895 -0.118161455 -0.15033573 0.07759029 -0.09297027 -0.2817991 0.14290094 0.13899615 0.20861083 -0.31361333 -0.052864153 -0.069770746 -0.22017041 0.21256413 0.4726068 0.1867458 0.105413586 -0.34937876 0.12710726 -0.0975105 -0.011345091 0.030503063 0.079949975 0.2444063 0.09388387 0.37268755 0.10766148 0.21432188 0.12954493 -0.101495676 -0.2984355 0.100356 -0.15964277 0.024961205 0.16801658 0.16770677 0.021533469 -0.23959324 0.16141441 -0.2142798 -0.24356787 0.2700427 -0.025890032 0.26506647 -0.3334247 0.14263102 0.07263109 0.17258553 0.16170129 0.11370714 0.023727987 -0.11093726 -0.074200496 -0.19313647 -0.06143281 -0.08595966 -0.14056796 -0.117119335 -0.11999452 0.09173876 0.14992066 0.06693027 0.07353911 0.29712635 0.1816055 -0.15095171 -0.31271175 -0.20040159 0.1795995 -0.25761813 0.15580238 0.056374636 0.17783464 -0.005462503 0.112863615 -0.10245361 -0.033255726 0.004195466 -0.21987541 0.3270935 -0.077519 -0.15710509 -0.1710727 0.30437794 0.21800263 -0.11342735 -0.05060407 0.115862474 -0.17108694 0.043954026 0.07126791 0.07423147 -0.27544674 -0.13152076 0.1438616 0.050107945 0.044165693 0.2767378 -0.08960711 0.29552203 -0.076529376 0.18455932 -0.3225847 0.036727298 0.29508695 0.022004986 0.16199705 -0.27696043 -0.23352864 -0.3193925 0.05386907 0.2312993 -0.045192074 -0.25010803 0.1801808 -0.23146799 0.11232551 -0.19708015 0.13431647 0.1961141 0.039767485 -0.12455012 -0.11558704 0.12752283 0.29872426 0.051359765 0.070715 -0.06710301 -0.08416588 -0.17892529 -0.026420996 0.13352215 -0.08506727 0.15743831 0.01796645 -0.0063832295 0.1706152 0.09745826 0.013646213 -0.08910842 -0.09103365 -0.14616075 0.3319246
moving 0.25750175 0.18960492 -0.07309205 0.18196282 0.037323114 0.022240534 0.10833676 0.19139518 0.020547623 -0.2300862 0.20564307 -0.07841946 -0.27586195 -0.018142752 -0.19326097 -0.2707646 -0.17737022 0.022359537 0.09882336 0.20078056 0.1025783 -0.2605333 0.3076623 0.14647058 -0.13549107 0.06850753 -0.10616688 0.100835375 0.10562622 0.2513764 0.21410778 -0.13483866 -0.18797046 0.26625872 -0.008460128 -0.12523389 0.071126975 -0.27928737 -0.23330016 0.13888957 -0.35335767 0.214103 -0.11454885 0.09771098 -0.11165917 0.033075713 0.024088096 0.20825441 -0.20292307 0.023887124 0.25617117 -0.07129992 0.084460326 -0.01843998 -0.16956489 0.12654746 -0.04189594 0.05355391 0.20415832 -0.040419858 -0.006980278 -0.23866212 -0.17266387 0.21001975 0.2423509 -0.079059914 0.14613573 -0.20421319 0.075621426 0.044928573 0.1625253 0.03974073 0.03570003 -0.12174607 -0.020544719 0.04800576 -0.24869129 0.057990998 0.15924871 -0.2165146 -0.11503918 0.0397361 -0.35140908 0.051153675 -0.12124702 0.0033017886 -0.24650435 0.14813855 0.07204685 0.19595125 -0.39788705 0.12362872 0.14476286 0.19831602 0.19760491 0.1046954 0.16406319 0.07463936 -0.30496177 -0.20032103 -0.15457235 -0.08476422 0.2838957 -0.054621447 -0.035142973 -0.23431288 -0.019138727 -0.0423444 -0.053090595 0.13463464 -0.0354076 -0.34575668 -0.34222996 0.19531658 -0.29575288 0.23914158 0.17448398 -0.21652158 0.009344713 0.15243548 -0.044063773 -0.04086924 -0.08367813 -0.3596898 -0.10252612 0.002673365 -0.24248816 0.18348278 -0.08409986 0.08048283 0.058509674 0.064064704 0.095083274 0.06477465 -0.14859225 -0.29048315 0.1056084 -0.08369896 -0.012909282 0.15388583 0.35787827 0.21956784 0.23458293 0.0055809114 -0.034709897 0.052755244 -0.10008112 0.08661299 0.1380171 0.1753829 0.03193586 -0.09146846 -0.07521325 0.059498947 0.14700104 0.20430781 0.011067383 0.23880388 0.10625041 0.277521 -0.10084937 -0.110606246 -0.08541486 -0.16126141 -0.008318061 0.37115258 -0.21648344 0.023984097 0.009397879 0.2738789 -0.18066122 -0.051721647 0.17890665 -0.07470535 -0.114645936 -0.13422658 -0.18340193 -0.056112517 0.007873906 0.08167257 -0.14293166 -0.023522317 0.13188061 0.056945704 0.31163993 -0.017374218 -0.04491877 -0.21145746 0.060205687 0.069269635 0.022753987 0.1263557 0.21359122 -0.27068686 -0.2575254 -0.2543556 0.10902458 -0.014134636 0.056538615 0.13571733 0.23791601 0.25146106 -0.081470996 -0.029253364 -0.048977613 0.026410453 0.011870587 -0.1267361 -0.12756366 -0.3574612 0.20096797 -0.12819202 -0.1714884 -0.28330392 -0.049255706 -0.06379542 0.3078522 0.14158043 0.24015562 -0.07827449 0.26250443 -0.07342974 0.12938134 0.25002846 0.09921878 0.060410164 0.034507252 0.018207312 -0.019520191 -0.032646544 -0.23125434 0.04124959 -0.09316975 -0.13662405 0.28594983 0.26805285 -0.18969306 0.0028463476 -0.012705958 -0.23134704 0.19021276 0.2158647 -0.2707675 0.3546127 -0.07128251 0.119228564 -0.18580964 -0.0031927717 -0.1812842 0.13588832 0.218315 -0.25801325 -0.12985982 -0.11299178 0.11713436 -0.06870881 -0.11715314 0.13195652 -0.045858856 -0.1806462 -0.04841651 0.031276535 -0.048014898 -0.07800844 0.160439 0.027431022 -0.12225622 0.13321418 0.10896148 0.1415636 -0.18890028 0.012651664 -0.104806766 -0.2607028 -0.23144475 0.03355052 -0.0038985244 -0.010696361 -0.055932254 -0.0009110945 0.15988828 -0.070421435 0.014768966 0.5290357 0.2832423 0.0015560538 -0.16039813 -0.24185447 0.29245618 0.20881796 0.079830185 -0.27390355 0.054460123 0.3133076 -0.23362644 0.2574766 0.14122203 0.0022881425 0.15028659 -0.12997098 0.02073551 0.15843274 -0.20165452 0.15940177 0.11352617 0.25844747 0.189906 -0.061642386 -0.0004915413 0.39814362 -0.03240365 0.110463254 0.03484017 -0.07958772 0.0020008115 -0.21570465 -0.033145912 -0.13703352 0.2369252 -0.13411012 0.06207838 -0.0164542 -0.08899104 -0.09978845 -0.25430074 -0.3310056 0.14908507 -0.096437305 0.09411111 -0.10034783 -0.18290941 -0.023180097 -0.18336822 -0.23953906 0.27688846 -0.13600315 -0.031301085 -0.34687114 -0.15898585 0.1928745 0.0010253828 -0.24844824 0.059609998 0.10160115 -0.29653692 0.08314713 -0.42246428 0.13039316 0.116936 0.12745889 -0.0913141 0.1185149 0.08374773 -0.013448447 -0.29713625 -0.17149644 -0.18565644 0.1509096 -0.080983624 -0.12348585 0.25558698 0.026743464 -0.16798702 -0.18146522 -0.2488832 0.27070078 -0.04494885 0.07062774 -0.14718781 -0.09018352 -0.119389154 0.14088565 -0.11678532 -0.24278763 0.16051993 0.18527277 0.33369166 0.023201115 -0.23374154 -0.23641294 -0.073111035 0.07203086 0.030119834 -0.022981318 0.039623845 -0.34202003 -0.14319207 0.08451916 0.2122777 -0.020051558 0.03369697 0.18405865 0.06476715 -0.054972462 -0.17457744 -0.15870254 -0.038289316 0.20276359 0.016374672 0.22994938 0.068336494 -0.09371045 0.085325785 0.036647253 -0.07377877 -0.10438013 -0.14701842 -0.0819979 -0.047253795 -0.05767842 0.23864026 0.02220997 -0.08506293 0.099270985 0.23351361 -0.36584142 0.24584024 -0.025536863 0.051978894 -0.06581022 0.026269533 0.086906135 0.090761654 0.10749551 -0.18829988 0.10605663 0.054365702 -0.08419238 -0.018286003 -0.22240308 -0.15338854 0.009984147 -0.1420462 -0.1253476 -0.21878909 0.21215051 0.15404221 -0.1436699 -0.14072007 0.027204625 0.023645975 0.037384998 0.074264176 -0.045512892 -0.26577166 0.04615983 -0.07483752 -0.15358737 -0.18662512 -0.23200057 -0.23623292 -0.08896053 0.08429903 -0.2302049 -0.32432726 0.1632733 0.10351789 0.2711161 -0.1692667 0.1752399 0.21071519 -0.26248223 0.22836827 -0.028563807 -0.04416021 0.0937214 -0.04073169 -0.34505075 0.24610302 0.10242308 0.15301308 -0.12506095 0.14506873 0.06526406 0.047357496 0.12967116 -0.027634472 -0.1836694 -0.39455193 0.105891004 -0.27266032 0.00679624 -0.08406677 0.12189751 0.18470702 0.2653433 -0.019177543 0.028668482 0.053927384 0.064644195 0.41610736 0.11060413 -0.16949446 -0.07598833 0.2790907 -0.07829758 0.23310375 -0.010435591 0.26326084 -0.19446822 -0.057054784 -0.11305845 0.21248357 0.14098673 -0.105373934 0.026975172 -0.10103998 -0.118947536 0.14196762 0.18978533 0.06691124 -0.13551694 0.21084148 -0.020351928 0.16019285 -0.18972208 0.11072613 -0.00036974013 -0.11615325 -0.18149127 -0.08129973 -0.07479373 -0.25672692 0.25414446 -0.07534855 0.2377023 0.21306959 0.28493112 -0.21785708 0.26049212 0.059755284 -0.107068434 -0.09905959 -0.2547964 0.2432826 0.09220911 -0.087141015 -0.11996663 -0.32575026 0.061461113 0.08481591 -0.15803939 -0.30666968 -0.07298341 0.26155436 0.11314299 0.13243091 0.05162655 0.14234665 -0.12338201 -0.17630929 0.39920217 0.115386546 0.06021429 -0.21673003 -0.101654425 0.18373252 0.112808436 0.023715904 -0.15492824 0.07677659 -0.029906334 0.14469007 -0.02368473 0.09779478 -0.17019872 -0.075561084 -0.28127605 0.0030187897 0.04649733 0.042126186 0.1878666 0.009427077 0.22517613 -0.2713619 0.2894803 -0.24323516 -0.072551474 0.19944914 0.033794686 0.45184872 -0.24362157 -0.032981083 -0.07236983 0.25949296 -0.11236113 0.03210797 0.2105353 0.061412152 -0.029446233 -0.22827412 0.13743486 0.11218227 -0.15819222 0.081016 -0.09760879 0.18168065 -0.08262786 -0.20990935 -0.07624427 -0.09755114 -0.14092371 -0.30444416 -0.15590249 -0.16101317 0.23005085 -0.20195664 0.28026605 -0.21023564 0.03989784 -0.0107967565 0.22281538 0.1353734 -0.3034405 -0.06717322 0.12234982 0.31752488 -0.05884867 -0.233004 -0.0555266 0.29552817 0.16148125 0.11814182 -0.007690732 -0.09814628 0.053176813 0.012384987 0.07535691 0.010967106 -0.12622692 0.12007076 0.20185655 0.20292051 0.10255651 0.07888139 0.0978405 -0.009781493 -0.13597664 0.2961515 -0.2348572 -0.192289 -0.07983893 -0.013245755 0.123830184 0.113890514 -0.029493878 -0.039056983 -0.19447547 -0.02866871 -0.2676255 0.053402808 0.11001601 0.09201261 0.15860732 -0.06279279 0.3516828 0.37221748 -0.17622247 0.033180352 -0.20105512 0.254741 0.07221349 0.18370058 0.15547663 -0.33008417 -0.13000527 -0.020400153 -0.23618805 0.24153322 0.3143287 -0.089169934 0.17150158 0.1488517 -0.04473977 0.2555099 -0.123264976 0.012127254 -0.055504434 -0.007935704 0.25008103
