255 680
Type 0.13582256 0.2689351 0.06000358 -0.07234205 -0.1574681 -0.0054062894 0.09543463 -0.13579157 0.18505225 0.03425045 0.0850808 0.033296473 -0.074265316 0.15742286 0.19633107 0.23278552 -0.14585197 0.14181826 0.16431478 -0.050720993 -0.06522829 0.12450573 -0.001918908 0.058798812 -0.14501613 0.06584122 -0.1332236 -0.012488282 0.058941405 0.16715533 0.16903003 -0.0077872057 0.07571818 0.3622639 -0.20158364 -0.024663597 -0.15767324 0.046438616 -0.01470738 0.03706222 -0.28574273 0.3250638 0.00981273 0.22460406 0.122575045 -0.018903222 0.08517572 -0.03612473 0.027824914 0.24024148 0.016507652 0.08630565 0.17723416 0.0831493 0.16915011 -0.06989761 0.2641855 0.112746224 0.10716802 -0.25099245 0.18706541 -0.10672775 -0.24102114 -0.072210886 0.08155381 -0.17926349 0.2393107 0.040328924 -0.046347488 -0.08737698 -0.19848697 0.11255013 -0.0325919 -0.18470022 -0.16022606 0.02305685 0.09952865 0.16359463 0.007477917 -0.08240842 0.13194397 0.08397777 -0.13221943 -0.03707859 0.13302861 -0.008702138 0.09842784 0.086030245 -0.23011564 -0.027615374 0.1403523 -0.052281007 -0.15954022 -0.054697722 -0.0488111 0.15960352 0.3770814 0.018457355 -0.12306345 0.1377373 -0.064465806 -0.0016268091 0.14549781 -0.07894355 -0.015976263 0.07747206 0.29742706 0.033303935 0.020633547 0.15082741 -0.12849925 -0.117128566 -0.13661498 -0.049910393 -0.17063944 -0.043222968 0.2675096 0.046378914 0.037536867 -0.28300336 -0.20787944 0.20370008 0.050108295 0.008105558 0.052114923 0.0017499122 0.30270922 -0.21891935 -0.06881758 0.02783538 -0.2292457 -0.07245101 -0.036423475 -0.25519943 0.1802838 -0.10426248 0.013674069 0.21221407 0.0033629087 0.15778941 -0.119955964 -0.0877134 -0.2413608 0.08501569 0.2951145 0.15524064 0.050325565 0.13122122 -0.044716313 -0.070036076 -0.15002152 0.04231971 -0.008839022 0.3185114 0.29186103 -0.10146199 0.089942686 0.02885786 0.096837744 0.105794154 0.038801946 0.14350548 0.097961135 -0.073941834 -0.13390611 -0.15320565 0.22834931 0.061503157 0.19287178 0.057970352 0.03992313 -0.09127094 -0.13461931 0.0342193 -0.17801338 0.13908522 0.16270325 0.07202659 -0.087650545 0.038531672 0.014147585 0.13579004 0.14557841 -0.024483118 -0.24302562 0.14312415 0.20746832 -0.022892192 -0.015230933 0.3486052 0.14910346 0.040089898 0.1773712 0.009805313 -0.09959908 0.10420148 -0.122603655 -0.1400908 0.09073621 0.20726842 0.17193119 -0.006839482 0.036983576 -0.1283291 -0.18731669 -0.08962374 -0.005146084 -0.2524114 0.04966009 -0.014006465 0.009067615 -0.098051615 0.11222873 0.18295866 0.01883515 -0.13856165 -0.13279338 0.098191194 0.16883649 0.18486208 -0.13813217 0.2358014 0.18224455 0.17477573 -0.11225765 0.13357842 0.18921983 0.23256974 0.15437274 0.25984666 -0.07551741 0.014554239 0.23080927 -0.13407211 0.10354952 0.17182398 0.06680449 0.2054629 -0.22744054 0.05325405 0.11909934 0.0051031746 0.12795286 0.03604957 -0.25609177 0.22131908 0.0076418007 0.065645166 -0.0623456 0.03418406 -0.09268375 0.0502269 0.07525332 -0.07684861 -0.082115225 0.18516849 -0.06700839 -0.17297757 0.14189787 0.08141772 0.11895654 -0.009618522 0.172664 -0.10090939 0.13595453 0.15199482 -0.21949169 0.042802192 -0.10246417 0.1740649 0.16227181 0.010701914 0.015920436 0.10340107 -0.07119743 0.15858552 -0.22552292 -0.0968458 -0.045875795 -0.13762729 -0.29847133 0.14623907 0.1348941 0.010118711 -0.004092608 -0.035896905 0.13415292 -0.048917506 -0.06467138 -0.2513184 -0.010197376 0.0038777895 0.10370509 0.02839539 -0.16377148 0.035387106 0.06580596 -0.15898606 -0.0021736464 0.09369652 -0.13126758 0.08102569 -0.10896704 0.27621213 0.27429292 -0.015499194 -0.22170776 -0.07038996 0.08917286 0.18373019 0.068851165 0.03546042 -0.20933773 0.044204865 -0.17190251 0.117525995 -0.14252208 0.28430507 -0.105839185 0.1666321 -0.15827748 0.15008031 0.11442148 0.21789436 -0.2042319 -0.047276676 0.033144936 -0.06798013 -0.03442484 0.054076184 -0.12147223 -0.048336014 -0.055206466 -0.13793994 -0.0654252 0.052673716 -0.12947378 -0.1106016 0.09985372 0.19236006 0.06830748 0.14203638 -0.11436293 0.04897844 0.20485494 -0.23664278 -0.05451274 -0.09187685 -0.05034091 0.12793514 0.049866866 0.2926666 0.09099104 0.075708546 -0.1208591 -0.04403268 0.22400028 -0.07425773 0.08797288 0.036568973 0.14393666 0.073553465 0.15293804 0.049007487 -0.1205546 -0.021628337 -0.013945666 -0.088184275 -0.03128998 -0.17835087 0.04127768 0.10546519 0.055206675 0.049398668 0.021495108 0.12480943 -0.05644998 0.05996199 -0.20113827 0.1856562 0.13500832 -0.14935382 -0.094551265 0.14216332 0.057015523 0.03370744 0.2818788 -0.018798444 -0.021917377 0.10325383 -0.33183554 0.011948338 -0.20326854 -0.27945107 -0.020359686 -0.04441028 -0.17096591 -0.06316268 -0.08509902 0.012396428 0.17232677 -0.15369713 -0.14787485 -0.025247438 -0.26909176 0.20589055 -0.20857827 -0.10719399 -0.04822013 0.12442875 0.09386498 -0.3164767 0.07890685 0.08476702 0.043938924 0.023431838 0.05161399 0.048028078 0.23829378 -0.15276562 0.07310741 -0.05935167 -0.20473492 -0.1804479 0.18796359 -0.15175527 -0.18248297 0.23672624 -0.07569123 0.05392019 0.0019241112 0.0016129469 0.10819134 -0.197081 -0.056232587 0.33372688 -0.14799377 -0.18022941 -0.18621099 0.046463158 0.16265939 0.07661771 -0.13715926 -0.004651899 0.1438463 -0.052133765 0.17361516 0.03717572 -0.19451149 -0.14641808 0.06795098 -0.16975418 0.062046777 -0.039505623 -0.20604666 -0.10743702 -0.24585289 0.16840297 -0.20345849 -0.2516085 0.15586685 -0.052777596 -0.014513733 0.006724649 0.13403603 0.015064969 0.23555991 -0.20381007 0.08741168 -0.011585612 0.19262148 -0.27234238 -0.1565942 -0.09187299 -0.08444571 0.0003762729 0.11325739 -0.15190259 -0.25645033 0.072716445 0.121675454 0.018750342 -0.04216578 0.1676424 -0.09865269 0.13572529 0.3074594 0.20786701 0.14498588 0.15684009 0.115063846 0.11958736 -0.113312654 0.070034854 -0.00893899 -0.007865706 0.10254418 -0.102217264 -0.04787058 0.17038459 0.09598647 0.25404957 -0.054964237 -0.0070851217 0.06825353 -0.19509804 -0.044683203 -0.0005251768 -0.03378982 0.11119235 -0.075191826 0.01969004 0.07506189 0.17875741 -0.10926113 -0.13368575 -0.12143451 0.23429142 -0.031799626 0.062906854 -0.06593525 -0.14484288 -0.14043774 6.0565253e-07 -0.16561829 0.04453957 0.20538732 0.14980468 -0.06491165 -0.09643084 0.020526035 0.06706911 0.0042123976 0.09480183 -0.15852663 -0.08653 0.17346375 -0.17362572 0.14290822 0.07383646 0.17392375 0.14322227 -0.21809243 0.0073267333 0.09973355 -0.002399957 0.08681046 -0.17385507 0.17667574 0.28811577 0.073998526 0.16173159 0.15861662 -0.20124276 0.27453247 -0.13847336 0.0151884295 0.19174649 0.03778295 0.021573575 0.16733317 0.042731266 0.189595 -0.07698947 0.10083977 -0.1698571 -0.18370223 -0.08443283 -0.008295812 0.10322219 -0.25200891 -0.039446104 0.051155157 -0.12179553 0.24065712 0.02515938 0.15447973 0.06734037 0.11031159 -0.10312364 0.1039154 0.28696877 0.11012561 0.09489069 -0.20509245 -0.037449587 -0.21015769 -0.15412845 -0.22478789 0.08124343 0.05921101 -0.08040104 0.07734791 -0.12821625 -0.064960204 -0.15115924 -0.19129167 0.13323177 -0.13381925 -0.221443 -0.08174054 -0.1579706 -0.09769046 0.037449628 0.034692593 -0.037791394 0.07181513 0.1595536 0.12700015 0.11632165 0.13928246 -0.08174405 0.19235556 0.15175292 0.15733072 -0.02725182 -0.005974495 0.0008014077 -0.00068918307 0.11524904 0.13741641 0.2463173 -0.22330521 -0.10397755 -0.25129148 -0.1493094 0.23153587 -0.046026308 0.26449433 0.24570015 -0.0487172 -0.27025393 0.1435818 0.21170428 0.168384 -0.05208786 0.24499147 -0.014391136 -0.16284426 -0.09749843 0.11659013 -0.06903479 0.02216293 0.15847845 0.09510297 0.07893223 0.040303376 0.00038603414 0.2625205 -0.20357876 0.13043918 0.10564995 -0.13025858 0.11311516 -0.10640388 0.08444081 0.005159862 -0.10970421 0.08983057 0.057079654 -0.15541445 0.13235523 -0.1878434 0.025930129 -0.13686408 0.057409037 0.15238634 0.30134955 -0.13633302 0.11477457 0.028948994 0.20581761 -0.09371503 -0.14054163 0.12952125 -0.123380356 -0.052441005 0.10591737 0.15033326 0.06731595
type 0.04505506 -0.09528334 -0.06324406 0.2134341 0.16520374 0.18694884 -0.009222093 0.24651578 0.06555094 -0.12867685 -0.18607037 -0.027611097 -0.07912422 -0.027053436 -0.113386214 -0.22813435 0.2617748 0.14598504 -0.03057051 -0.13466455 0.024712162 -0.18547054 -0.19459145 0.1539111 0.037783723 0.10286327 0.08514385 0.116619766 -0.013903191 0.09559976 0.074551634 -0.004512875 -0.14599177 0.13391522 0.057331286 -0.018158453 0.040645674 -0.055758864 -0.023414446 -0.03843034 -0.2899698 0.08035743 0.20613268 0.11107827 0.12240837 -0.0099879345 -0.04451834 0.09166148 -0.08789294 -0.020048091 0.07527586 -0.06293389 0.06124712 -0.15441556 -0.03893141 -0.20163587 0.034999322 0.033761274 -0.052490372 0.21368979 0.048964243 -0.17963889 0.019135993 0.18986452 -0.046464644 -0.15926899 -0.07832135 0.13024424 0.12896247 0.167793 -0.08850309 0.12070071 -0.04658412 -0.022428129 0.11923215 -0.054691188 -0.07963984 0.07823478 -0.16120139 -0.1728642 -0.13229893 0.14850824 -0.03237148 -0.040058527 -0.09487536 0.0716472 0.0044287127 -0.12079491 0.105337314 0.23206775 -0.20775126 0.14199804 0.13863887 -0.14141034 0.2362942 -0.08104632 -0.057363212 0.08772878 -0.14159836 0.070577435 -0.04471308 0.23354688 0.20705062 -0.08643098 -0.00133353 -0.0560628 -0.06730483 -0.22803758 -0.006124136 0.10524615 -0.15818237 -0.055931382 -0.14721985 0.1825767 -0.2224621 0.11930551 0.030382475 -0.105425164 -0.060338415 -0.20107551 -0.09379741 -0.027105587 0.118891925 -0.28017992 -0.057119086 0.043001115 -0.2773302 0.0414143 -0.34480482 0.062900424 -0.06949148 -0.042668063 0.20386817 -0.04273092 -0.018524127 -0.08167481 -0.14966634 -0.051092714 -0.029947335 -0.22009222 0.121119104 -0.21966332 0.07926174 -0.22915392 -0.06733286 -0.014227232 0.09244327 -0.013159588 0.19118445 -0.07171284 0.15613168 0.13977842 -0.10823315 -0.026747389 -0.10688408 0.226972 -0.10456103 -0.025613798 -0.1727124 0.18933809 -0.086112775 -0.06165117 -0.08983534 -0.11318218 -0.116243005 0.26368767 -0.034592573 -0.06244127 0.20799565 -0.06546432 -0.29162508 0.28467986 0.109505326 0.17949454 0.061551277 0.05654796 0.04195156 -0.059838884 -0.11180332 0.009902854 -0.10209596 -0.18197843 -0.41353646 -0.31181806 0.0066243564 -0.046697777 -0.0039869654 -0.07254989 0.026419662 -0.034440808 -0.023867553 0.12790272 -0.010856232 -0.08526838 0.04009466 -0.24468237 0.005479595 -0.01542146 0.06243247 0.12610024 0.05181563 -0.09745393 -0.0054252916 -0.060357887 -0.25737762 -0.032975815 0.15864119 0.021181535 -0.08609186 -0.09856101 0.02331975 0.026532158 -0.13940963 -0.10157917 0.14141676 0.04043404 0.17125165 0.14973904 0.20911929 -0.047171365 0.017840251 0.026055716 0.14084293 0.14466117 -0.041460223 0.15694658 0.04657217 0.062402654 0.19921738 -0.026725264 -0.17037724 -0.030282373 -0.22597824 0.029746193 0.1776879 -0.074109994 -0.103836596 0.018736767 -0.12803793 -0.078554496 0.03944397 0.25937003 -0.35159612 0.050441153 0.060380183 -0.101880245 -0.1312167 0.04554251 -0.12812701 0.14497326 0.1630501 -0.09109671 -0.072011404 -0.054836344 -0.11561328 0.012676698 0.014722649 -0.14606673 -0.13233158 -0.04001102 -0.065702945 -0.04827435 -0.09491256 0.21420906 0.061633643 -0.044538796 -0.014141201 -0.090765566 -0.14489803 -0.2500688 -0.0033800637 0.13877618 -0.16110016 -0.18599756 0.09139597 -0.010021959 0.08097016 0.054107286 0.08818597 -0.022878405 0.00085539446 -0.008774648 0.0471379 0.27245146 -0.0098992 0.019270593 -0.09034611 -0.004714518 0.23305164 0.10673861 0.05420527 -0.09291057 0.0024441727 0.24949096 -0.08487097 0.14037411 -0.008333036 -0.040476844 0.088094085 -0.055400204 0.10166215 0.18253258 -0.26445 -0.33623862 -0.027047573 0.08263396 0.32448846 -0.0022464732 -0.061099783 0.26892403 0.1805028 0.016527673 -0.026823338 0.044497292 -0.12664291 -0.1008536 0.0062784376 -0.08604454 0.037193883 0.043637056 -0.022780502 -0.07299232 0.23358743 0.01029439 -0.058194365 -0.18710378 -0.13586456 -0.36605883 -0.20788853 0.21282682 0.16781028 -0.021778814 -0.17513072 0.13215338 0.05516815 0.058359794 -0.12593141 -0.1498982 -0.18182386 0.003928418 -0.051413275 0.031354073 0.076310605 0.039217774 -0.097587824 0.17791362 -0.20912327 0.03548204 0.084426306 -0.047201697 0.007512713 -0.027385937 -0.07550255 0.0950928 -0.05804229 -0.11937821 -0.13228074 0.08848146 0.08630096 -0.20612593 0.09215982 0.032994084 -0.13099174 -0.1141872 -0.007781368 0.10707551 0.0004146887 0.15466736 -0.09442888 0.04716483 0.049122028 0.050399285 0.13140357 -0.041525774 0.14570083 -0.10546834 0.27384737 -0.026003806 -0.063919775 -0.23715581 0.05514443 0.0091798585 -0.08070551 -0.14418316 0.15783313 -0.16152936 -0.07614937 -0.14699018 -0.0068293633 -0.06404821 -0.110137284 -0.09578378 0.13046639 -0.08280502 0.062913924 -0.19740736 0.08529319 0.04865081 -0.008534663 0.056669973 0.020366533 -0.13661939 0.14287744 -0.13116607 -0.21468912 -0.10301446 0.07555227 0.007682824 -0.08563413 0.036399025 0.027966324 0.046044175 0.009716428 -0.02508623 -0.08868529 -0.10551445 0.16799581 -0.16707991 -0.08262507 0.041079964 0.11484264 0.04779924 0.06027748 0.023590796 0.08714755 0.09509386 0.29917365 0.053112194 -0.11899433 -0.12350771 -0.07444668 0.06625337 0.0626564 -0.15983409 -0.02631747 0.045420974 0.13181777 -0.029225174 0.045778446 0.06090363 -0.16262645 -0.1806711 0.2771691 0.064809 -0.34893787 0.22928524 -0.05576055 0.013167393 0.10244026 -0.23114562 -0.0020041675 0.28546038 -0.02546782 0.24903843 -0.140308 0.06472271 0.24333213 -0.08559154 0.043029338 0.06817705 0.06307812 -0.0007222964 0.14597082 -0.008725823 -0.19184214 -0.02438126 0.016931174 -0.09508318 -0.084168315 -0.120256424 0.19356938 0.0985977 0.021806454 0.064709336 -0.14646548 0.107366666 0.008135383 0.005097962 0.016176952 -0.16639066 -0.13633034 0.10282546 0.058752585 -0.021523435 0.0077092717 -0.08044641 -0.00023286376 -0.11838603 -0.06988861 0.08641307 0.15967375 0.027789041 0.0684472 -0.2530713 -0.058393627 -0.06458548 -0.12461991 0.040475056 0.15688135 -0.2419828 -0.093765415 -0.29022783 0.12146618 -0.008601502 -0.17701228 0.15884218 0.0563747 -0.23446883 0.15761836 -0.014565936 -0.02466338 -0.2549565 0.03921517 -0.2698671 0.14158475 0.1912832 -0.17855664 -0.046351895 0.1438523 0.13535094 -0.036239583 -0.04982687 0.17790766 -0.104196884 -0.008226987 0.0026121833 0.07902154 0.052578047 0.08516975 0.2300396 0.00524172 0.050908316 -0.053771183 -0.011933618 -0.01900824 0.09385616 -0.011693319 0.11508708 -0.10572573 -0.015431705 0.04044482 -0.13267387 0.1320491 0.05329085 0.06534937 -0.038371537 0.06347993 0.0545763 -0.10171999 -0.18406884 0.047918364 0.14611116 0.10335403 0.05279238 -0.2967564 0.017477876 -0.17949927 -0.3185071 -0.04213772 -0.09080734 0.07432897 -0.11283323 0.22195871 -0.11681791 -0.0030746474 -0.0749894 -0.053373158 -0.07642009 0.114471935 -0.025171924 0.042322647 0.04818229 0.20141631 0.17199215 -0.13822769 0.14127809 -0.11121942 -0.08043144 0.09318377 -0.15206838 0.24629125 -0.27712524 0.06644876 -0.20434414 0.19814579 -0.11000398 0.14491694 -0.118486315 -0.085240796 0.16634786 -0.075892285 0.06629186 -0.03718565 0.13574857 0.035782307 -0.04393049 0.11524771 -0.19558376 -0.18184997 -0.25624666 0.09823859 0.14339854 -0.30732214 -0.12893799 -0.079057954 0.05358376 -0.20259236 0.014117156 0.031514686 0.19640978 0.0070746415 0.013929315 0.07480221 -0.045188867 0.13635464 0.08515738 0.105334766 0.018425735 0.05152476 -0.10244221 0.03068896 0.1699353 -0.16335762 -0.17578515 -0.08845003 0.01840149 0.1429998 -0.011482882 0.12276982 -0.21251702 0.019118914 0.070028655 -0.08221804 -0.16008323 0.09881928 0.21927989 -0.022508373 -0.027415108 0.05141953 0.118225135 -0.2299687 0.06801988 -0.06844472 -0.09096373 0.081651114 -0.0387958 -0.16867493 -0.0060194214 0.242627 -0.1374115 0.09688494 -0.06925108 0.035604753 -0.26459667 -0.006339752 -0.08197993 -0.04712228 0.28507668 -0.09131578 -0.026434192 0.11874557 0.14707844 0.15765987 0.21048813 -0.09245851 -0.056593075 -0.09017625 -0.042721894 0.1186301 0.004577051 0.07871671 -0.16290537 0.04768735 0.06797145 -0.048156925 -0.088688545 -0.054783404 0.056301057 -0.22705398 -0.0016588513
animal -0.11668071 -0.100984894 -0.010231475 0.0075854263 0.16963765 0.08439815 -0.14897227 0.3105506 -0.09521921 0.014456254 -0.18831338 -0.020665444 -0.11488931 -0.031078726 0.0026474402 -0.18657783 0.09113098 -0.005004039 0.2027767 0.12372554 0.036007054 -0.32904556 -0.14905316 0.26417166 0.025049465 0.09068576 -0.13617866 0.2035917 0.04760172 0.12829983 0.005143087 -0.045801017 -0.14766103 0.16574816 0.013011377 0.11664902 0.16066611 -0.025607027 -0.01663203 -0.026366428 -0.22696303 0.04273923 0.14155024 -0.1896282 -0.07889144 -0.17555684 -0.05426355 0.10152089 0.048671257 -0.115221806 0.17932604 0.020534284 -0.12794082 -0.13257636 -0.08895847 -0.008195761 -0.052291334 0.026364082 -0.07548583 0.06123857 0.3000844 -0.110086136 0.076670274 0.39319918 -0.14310166 -0.06131596 -0.0934522 0.11361713 0.24172832 0.07343757 0.019712603 0.18897709 0.080784254 0.033562638 -0.037191443 0.10359291 -0.1268629 0.21111332 -0.21182938 -0.16170909 -0.031082122 0.09532469 -0.25621772 0.14464502 -0.17804614 -0.0127293775 0.025273446 -0.0432085 0.050823186 0.115472026 -0.25078794 0.0935257 -0.07242607 0.05026104 0.25318816 -0.14927216 -0.12571922 0.111189306 -0.07324724 0.024907103 0.07023024 0.26512498 0.31038517 0.019353112 0.03204306 -0.3026188 -0.2626577 -0.22143932 -0.08954398 0.0371748 -0.10139715 -0.09000001 -0.24522293 -0.01334102 -0.2041229 0.27088192 0.11414992 0.052062705 -0.119830005 -0.07414046 -0.15566187 -0.13203743 0.092654996 -0.33617556 -0.2611679 0.2542079 -0.1503525 -0.19512966 -0.32331905 -0.084488906 -0.36947682 -0.107138515 0.19568217 -0.026019972 0.058554325 -0.1275976 -0.13042013 0.021176234 0.21575934 -0.1275971 0.10774063 -0.15440315 0.08655198 -0.17238896 -0.13127439 -0.029378032 -0.10875427 -0.0038059114 0.07167007 -0.08454649 0.1141017 -0.1339722 -0.08891956 0.1649913 -0.20399019 0.13756278 -0.07383306 0.07366125 -0.34758177 0.08572712 -0.14098477 -0.019689552 -0.2399993 -0.13664629 0.08403171 0.26514626 0.009035292 0.069613636 0.122270085 0.13810855 -0.09130575 -0.041554634 -0.07118788 0.30903417 0.20416422 0.118645854 -0.0028379718 -0.26630944 -0.083281085 -0.07215788 -0.094988964 -0.13710995 -0.29105031 -0.2674909 0.058426384 -0.045877934 0.14405137 -0.09242279 -0.047082122 0.06413869 -0.13469148 0.16279015 -0.10525002 -0.046983223 -0.10317907 -0.19575173 0.0073006456 0.17032576 0.05958987 0.06900825 -0.17841189 0.06633695 0.07700011 0.0126825 -0.2720199 -0.101420276 0.17859554 -0.075017236 0.045711756 -0.15177171 -0.027157461 0.09197628 -0.072419465 0.0506752 0.1886202 0.05206515 -0.08586403 0.18673378 0.25119144 -0.13618629 0.050984267 0.24837618 0.07075301 0.19937669 -0.08525845 0.28347278 -0.04119685 0.080997884 0.24518839 0.004345829 -0.1772111 0.028020771 -0.33071053 0.21504147 0.09992863 -0.05626924 -0.11313767 -0.091379784 -0.17628573 -0.3186193 0.07773738 0.35646766 -0.10640305 -0.09174249 0.3120008 -0.18127212 0.06751054 0.016286159 -0.15779883 0.11125601 0.12126979 -0.069715746 -0.08741008 -0.00029937475 0.019208781 0.05273752 -0.05803082 0.13703693 -0.027044259 0.2694805 -0.32762417 -0.22665003 -0.08099396 0.26105052 0.16870262 0.29702213 -0.07266918 -0.046779998 -0.24324088 -0.00803134 -0.14211988 0.116029836 -0.2904503 -0.120708704 0.2841717 0.07575073 0.12117432 -0.0044408995 0.24544916 -0.010470543 -0.03048889 0.022085177 -0.07545602 0.4393372 -0.10413885 0.113839306 -0.011378058 -0.02153817 0.37059665 0.24710661 -0.038467932 -0.11594914 0.11183746 0.17964946 -0.09309769 0.20959924 0.089099884 0.018117717 -0.20722984 0.008912764 0.11033151 0.0107649295 -0.2877276 -0.19195874 -0.1708172 0.17187816 0.28917322 0.2200836 0.011565083 0.34362447 0.24803746 -0.08197579 -0.27293602 -0.15519531 0.04197119 -0.029354427 -0.1133572 -0.22461323 0.020564487 -0.007177825 0.056065835 0.05326343 -0.028117638 0.05263935 -0.049745314 -0.18269433 -0.039592117 -0.3306202 0.014295506 0.29136166 -0.02787439 0.019989664 -0.21009208 0.34904733 0.052944068 -0.16701972 0.0027461662 0.14962564 -0.15977983 -0.17573564 -0.060787607 0.06468023 -0.1331292 0.023995018 -0.16877653 0.24420178 -0.13017584 0.136575 -0.07874585 0.02697219 -0.22492483 -0.008283996 0.09711424 -0.107709676 0.10535351 0.022870706 -0.286255 -0.030160084 -0.15725645 -0.16512911 -0.026152316 -0.13654011 -0.27974883 -0.038824145 0.04100801 0.26130345 0.18687278 0.13199544 -0.1599408 0.042290978 0.24698733 -0.03166242 -0.017365398 0.0754073 0.10436112 -0.087655514 0.2976904 0.09608914 -0.14656125 0.021940509 0.23399442 0.052748196 -0.1965868 0.033881597 0.18387672 -0.14228098 0.10010582 -0.19949853 0.05822339 -0.24927016 -0.062311362 0.048159346 0.100485116 0.17638974 0.1621811 0.039901864 -0.052232604 -0.029692475 0.07605846 -0.054256167 -0.31670842 -0.14142455 0.107645445 -0.16721137 -0.1804523 0.07017972 -0.039670862 0.07723188 -0.25316396 -0.08348304 0.22086702 0.09078042 0.054634046 0.038486704 -0.07019464 -0.031713143 0.118004344 0.00036154542 -0.078890994 -0.19793546 0.18131836 0.05468657 0.074213564 0.077014625 0.035474226 0.36176887 0.23982519 0.16505224 -0.039272234 -0.1684102 -0.25192443 0.024374 -0.08136506 -0.19144133 0.14683242 0.07811618 0.108580895 0.14433187 -0.2670675 0.09674361 0.004471319 -0.16685683 0.3102362 -0.09311319 -0.27816752 0.15135613 0.02106061 0.014648104 0.12250831 -0.22050413 0.056099087 0.23258835 -0.040638164 -0.0423861 -0.069203354 0.024109142 0.058829263 0.047885306 -0.042464294 0.26167774 -0.13039808 -0.064527094 0.21255249 -0.08875704 -0.23968746 -0.17695203 0.096851915 -0.16738349 -0.046346378 -0.13181593 0.11633906 0.13728257 0.015973458 0.01807482 -0.18806826 0.19802973 -0.06301068 0.10591825 -0.20059031 -0.23911478 -0.121206515 -0.11313972 -0.08783606 -0.13906714 0.14932501 -0.09892338 -0.079216026 -0.18120134 0.13768473 -0.1079272 0.07626403 0.025486026 0.2561782 -0.049052343 0.053475168 -0.0138855595 -0.19654636 -0.044067487 0.17130384 -0.41570526 -0.1135973 -0.16335231 -0.13039246 -0.061436128 -0.29162818 0.1387698 0.011942594 -0.23272784 0.23943335 -0.08954331 -0.14333084 0.054854166 -0.19333863 -0.26593152 0.2105083 0.17535478 -0.09789986 -0.048321873 0.08834287 -0.09897066 0.16236067 -0.0028639538 0.34524125 -0.008413973 0.018545983 0.027399994 0.11466308 -0.070349894 -0.035942264 0.28046563 -0.0043299077 -0.04719044 -0.061260447 -0.31367674 -0.11010972 0.086275965 -0.0850088 -0.11222414 -0.14463942 -0.16217041 -0.10174736 -0.0002438003 0.13919452 -0.006606329 0.17746486 -0.08451794 0.07421402 -0.011292859 -0.042901937 -0.06853635 -0.07268495 0.114764415 -0.03993795 0.011604494 -0.28727007 0.26013303 0.033875603 -0.17734112 0.0524083 -0.22422498 0.09036452 -0.11701816 0.0935607 -0.063452534 0.0030085912 -0.02191812 0.13382383 -0.07635377 0.08236725 -0.06946336 0.03694887 0.15520987 0.09589422 0.16712108 -0.2364488 0.043911085 0.005051943 -0.20193906 -0.08198698 0.13116907 0.29325983 -0.21353033 -0.07311279 -0.2890657 0.163606 -0.06045719 0.1494569 -0.07775419 0.13973686 0.043038614 -0.1635434 0.05375876 -0.07623167 -0.029866701 -0.042934004 0.11385217 -0.13684937 -0.048177212 -0.0857159 0.011780006 0.08131037 -0.050199583 -0.241734 -0.10819759 -0.02043834 0.105493106 -0.2789873 0.15527244 0.042299226 0.008439556 -0.16994524 -0.011236417 -0.065180756 -0.0794333 0.15714999 0.14920665 0.19048296 0.06105785 0.07682937 -0.030557608 -0.1111818 0.103851415 -0.008267686 -0.034009628 -0.11983777 -0.18439546 0.17462598 -0.07769967 0.022030115 -0.14739417 -0.10793586 -0.08009622 0.079107925 -0.13230412 0.15333259 0.11060741 -0.029623758 0.014645288 0.08730489 -0.029054506 -0.25704056 0.04547137 -0.07272589 0.046435073 -0.016186228 -0.07466842 -0.042957902 -0.119057864 0.055656444 0.03482334 0.0020336197 -0.037250895 0.20249377 -0.11819968 -0.039681774 -0.024146812 -0.11727203 0.20562759 0.12300191 -0.017762901 0.1347246 0.14936458 0.16343552 -0.037007395 0.029926699 -0.03263272 -0.24017207 -0.019577073 0.044981744 -0.18700722 0.0054268725 -0.06636098 0.054317918 -0.030991897 -0.06864951 -0.19216584 0.08504719 0.010502005 -0.042591766 -0.15401544
body 0.07601352 0.061492566 -0.005955176 -0.004812369 0.33040148 0.18040904 -0.18712057 0.2847166 0.040278446 0.13242586 -0.047846876 -0.0087870695 0.032114707 -0.04087303 -0.14207898 0.06716348 -0.18907842 0.10643957 0.32702348 -0.25288808 -0.17817879 -0.19855367 0.05563017 0.19523388 0.032123305 0.14963411 -0.10736904 0.09415292 0.11334763 -0.031438287 -0.08476121 0.16563724 -0.102803245 -0.054230094 0.040150627 0.07508742 -0.18415813 -0.29892904 0.0974726 0.05436987 -0.10743419 -0.010582802 -0.16439074 0.09749716 -0.1636833 0.009758219 -0.17187196 -0.013292423 0.06180663 0.14844777 0.08015083 0.09831148 0.23179294 -0.028834933 -0.28854653 -0.33421388 0.08885525 -0.18783069 -0.069974996 0.0168066 0.27073243 -0.09617598 0.0133822635 0.3746432 0.08339707 0.07442591 0.2920024 -0.17103437 0.09712477 0.24803884 0.03545607 0.16026382 0.061787713 -0.027042706 0.058407597 0.1575077 -0.18742703 -0.13660245 -0.3068121 -0.086209744 -0.17400105 0.3153821 -0.056303408 0.1013452 0.030952053 -0.17486814 0.15550633 -0.184091 0.25730926 0.34831855 -0.12319883 0.20033772 -0.31492615 -0.35310742 0.10196808 -0.120919175 0.1147101 0.06223011 -0.20453998 0.04490792 -0.03904283 0.06948746 0.16067475 -0.20048022 -0.08790177 -0.31660005 0.05484163 -0.29958504 -0.1713463 -0.04808279 0.12510058 -0.26064843 -0.19473629 0.30499786 -0.15031849 0.06205758 0.19932976 0.22428514 0.063084476 -0.022407075 -0.34236613 -0.012346024 0.18613756 -0.17703456 -0.04735676 -0.055172943 -0.012673885 0.1638297 -0.25353158 -0.21686585 -0.14991896 0.043860536 -0.28150758 -0.18401252 0.055592533 -0.4034593 -0.10233367 -0.24442722 0.20439672 -0.18561144 0.058411714 0.20357002 0.12435262 0.02075156 -0.28373697 0.055504378 -0.06191316 0.14136745 0.044124097 0.11998391 -0.061604 0.161821 -0.28477824 0.069365665 -0.21564047 0.27709666 -0.36685055 -0.14649627 0.01919127 -0.10086643 -0.12969576 0.15840101 0.08587603 -0.28214327 -0.0005673294 0.37119427 -0.20229866 -0.0022619916 0.045269083 -0.1382661 -0.05427565 0.21439473 -0.10048865 0.34371936 -0.028596602 -0.030149974 -0.19272275 -0.31925723 -0.2015643 -0.13359524 0.049459357 -0.3371037 -0.27850968 -0.3201249 -0.17508121 0.047615025 -0.09020528 -0.07518313 0.14676271 0.11658706 0.11335492 0.1974748 0.014406636 0.0521849 -0.22838393 -0.33132842 0.03934754 0.14619108 0.15933408 0.07034739 -0.2048241 -0.0025022805 -0.07112962 0.09354997 -0.11129503 -0.39888537 -0.30351472 -0.24334154 0.03530456 -0.3436981 0.12528549 0.12859131 -0.119774826 -0.11623801 0.22571136 -0.25928172 0.2587296 0.4104026 0.040682513 -0.026732363 -0.013813408 0.1890958 0.18297583 0.32367846 0.09657827 0.25697455 0.043490432 0.07581842 -0.03713919 0.010215617 -0.11030072 0.12626183 -0.06353559 0.2731144 0.093139894 0.119030885 -0.014420603 -0.009023805 -0.33696902 -0.13244513 0.12431558 0.26754445 -0.3542557 0.04400033 0.31032324 0.06028382 0.054428138 0.10288032 -0.3018665 0.17673983 -0.10342478 -0.24976648 0.077162944 0.00012084577 -0.19232543 -0.13778849 -0.01121302 0.16285826 0.22382176 0.23959933 0.1534685 0.028089415 0.110249326 0.17213249 0.19859359 0.018758334 -0.14802629 0.15069053 -0.11521063 -0.025995323 -0.07960751 0.3640327 -0.009923629 -0.17865749 -0.34555793 0.10282814 -0.16372967 -0.11382973 -0.001723467 0.10876158 0.26386455 0.14435875 -0.17652276 0.4509437 -0.018555265 0.09131518 -0.2471547 -0.452919 0.39623728 0.47936553 -0.04752741 -0.10967368 0.07579546 0.44749206 -0.18046233 0.11804893 -0.0010417908 -0.22463897 -0.26943353 -0.05555314 -0.14126424 0.2890387 -0.1273047 -0.11878773 0.16712491 0.2567943 -0.016743302 0.15606804 -0.16099162 0.39954624 0.4324281 -0.036356676 -0.11196071 0.042109046 -0.11982786 0.13356152 0.06657631 -0.28232595 -0.22735365 0.0031659235 -0.29674724 -0.040683113 -0.41996983 -0.12969705 -0.0574649 -0.3619887 -0.14969084 -0.1717994 0.10663621 0.31321728 0.29436803 0.06515736 0.15580077 0.26724067 0.055556964 -0.25967637 0.18859273 0.16785122 0.17318396 0.051835265 -0.07043817 0.24726072 0.100156836 -0.12907457 -0.27212444 0.103292264 -0.26681763 0.17356 0.08056594 -0.23188 -0.29764506 0.093928374 0.19790438 0.11684111 -0.15540802 -0.14531305 0.05613462 0.12985022 -0.07694266 -0.032004267 -0.15680912 -0.06600141 0.021135284 -0.15818213 -0.07393625 0.26134077 0.010792176 -0.004600744 -0.32501945 -0.19565268 0.20451003 0.054406945 0.053901806 0.10522133 0.024008624 0.12681824 0.43450758 -0.06578011 -0.22678106 -0.11158637 0.0314739 0.22733127 -0.04026874 -0.02413922 0.37260538 -0.19287872 0.2738058 -0.09085185 0.26854193 0.0006411024 -0.1808054 0.05775478 0.028946616 0.23382778 0.12346592 0.17839736 0.017511062 -0.019589223 -0.1953956 -0.074928515 -0.16845903 -0.1568661 0.19411267 -0.30903503 -0.2022827 -0.1166574 0.029864404 0.033141967 0.09729149 0.12931749 0.40526593 0.16094016 -0.13499127 -0.0007942893 0.1434497 -0.097597025 0.33891925 -0.22530547 0.004715976 -0.1963363 0.38886815 -0.071100436 0.05996933 -0.19687733 0.13654481 0.17272158 0.43966854 -0.029522099 -0.021484973 -0.4099283 -0.35098094 -0.027684607 -0.073144205 -0.088099785 -0.2413998 -0.10627805 0.014714687 -0.09549329 -0.18767144 0.30463347 -0.17145552 -0.067249864 0.20822795 -0.1457405 -0.3898552 0.025971605 0.013694174 -0.073265 0.22206081 -0.108653024 0.0039112046 -0.08453882 -0.29368863 -0.008678275 -0.113698296 -0.20261903 0.07612093 -0.1892627 0.14143322 0.059482474 -0.11280176 -0.2938747 0.40400484 0.08906227 -0.0030303423 -0.32269108 -0.16739327 -0.45600703 0.28326562 0.1538795 0.07756261 0.18508595 -0.04416154 -0.109766714 -0.37287238 0.032952666 0.20482934 -0.17637211 -0.317874 -0.090267435 -0.18395829 0.31377757 0.06737512 -0.013927049 -0.17021094 0.09973221 0.124236256 -0.14281552 0.07399052 0.09848223 0.123795755 0.3117762 0.120205045 -0.15653893 0.34940007 0.05396168 -0.24235015 -0.14661744 -0.037198782 -0.16187964 -0.24908951 -0.19780573 -0.20291978 -0.09693792 -0.34368914 0.2136118 -0.00048564214 -0.23029558 0.1981748 -0.1828123 -0.22767642 -0.20196022 0.08039709 -0.32466504 -0.16893385 0.26293 -0.21526194 0.2814492 0.038277917 -0.02841613 0.038888946 -0.08476168 -0.1802052 0.18831937 0.09410203 0.22014444 0.046836644 -0.30050072 -0.12382798 0.13303955 0.12570435 -0.055610105 -0.16244166 -0.16855225 -0.11045209 -0.18357971 -0.059910413 -0.24214551 -0.12899067 -0.113740094 0.10620682 0.3086079 0.023505216 -0.06251479 0.029307345 -0.08463848 -0.16484635 -0.06495105 0.07088202 0.05161511 -0.034249775 0.3954212 -0.16941091 0.1351611 0.06380241 0.0017832764 -0.052071754 -0.14327992 0.026547039 0.0073108375 0.16531166 -0.18812434 -0.017654093 0.20894516 0.15974471 -0.22285722 0.3511062 -0.36017278 -0.024254242 0.02677608 0.07291205 0.13781995 0.38154414 0.21004845 -0.048252687 0.19425906 0.022304155 -0.41299596 0.15511484 0.080848165 0.32446373 -0.29558477 -0.21090095 -0.13180713 -0.07972278 -0.21739903 0.039755274 0.018766206 0.15154822 -0.07716229 -0.040013548 -0.11820202 0.21298285 -0.16228533 0.006252921 -0.16395573 0.12917309 -0.013947242 -0.22238994 -0.00051814405 -0.044556614 0.25345653 -0.34951213 -0.15382275 0.16634084 -0.23292254 -0.06661273 -0.22814712 -0.051790833 0.20648235 -0.3492378 0.16242583 -0.19753137 -0.29725996 0.12248958 0.07207986 -0.1700123 0.1419492 -0.13813823 -0.09438336 0.020354142 0.15069531 -0.07634985 -0.024024036 -0.075220704 0.11032426 0.068818495 -0.21473595 -0.013679056 -0.17387187 -0.25202274 -0.22554252 0.38257623 -0.16935426 0.249807 0.1273758 -0.15341538 -0.2903864 0.17381132 -0.27973613 -0.30614886 -0.317433 0.08671933 -0.17078573 0.00020606455 -0.19940051 -0.40322512 -0.24796067 0.061679937 -0.019411404 -0.017638283 -0.0817329 0.20154284 -0.11071967 -0.24916962 -0.13197741 0.043331098 0.12775868 -0.015834838 -0.19749519 0.16574986 0.27735704 -0.112450056 0.2918151 -0.08334873 0.10715777 -0.20147653 -0.086747095 0.008463778 -0.047391687 0.024371872 -0.23644152 -0.0089983195 -0.03210344 0.28352827 -0.09037193 0.12566483 -0.053827718 0.0035630648 0.014252355
world -0.1938312 -0.189267 -0.10794599 -0.23007742 0.04520992 0.06778993 0.14567833 0.020815931 0.021172972 -0.11046916 -0.0313355 0.05122786 -0.10520743 -0.14005008 -0.36503008 -0.22897767 -0.26195621 0.05110785 0.39344126 -0.1317267 0.017983647 -0.095031135 0.087663606 0.28229874 0.00065758004 -0.08731581 -0.24990079 0.04070938 0.1825095 -0.06354955 -0.00604287 0.07557415 -0.0946569 0.23284774 0.17030613 -0.07604051 0.0751331 -0.06299522 -0.26191896 -0.33159968 -0.2518345 0.24067587 0.15362003 -0.096989565 0.034962166 0.106595546 0.116287276 -0.11267098 -0.23924899 0.010008797 -0.041005235 -0.11270087 -0.018686753 -0.1637972 -0.34859747 -0.15512389 0.10264609 0.029112926 -0.10229782 -0.25446427 0.15697528 -0.040227488 0.12723969 0.19374153 0.12588987 -0.3041817 0.32206672 0.04130032 0.10235878 0.16810638 0.04639182 -0.06622248 -0.031124856 0.004959995 -0.0029402266 -0.050207686 -0.24877815 0.12151714 -0.04738153 -0.13771696 -0.09250494 0.32219794 -0.044896673 -0.13509291 -0.08039214 0.009937849 -0.14555833 -0.13004509 -0.056141026 0.22773057 -0.13978568 -0.11995972 -0.09025702 -0.21119939 0.07602929 -0.12992756 0.06684951 0.025343444 0.01893935 0.2246558 -0.020875901 0.36964437 0.14263682 0.13496749 0.013165147 -0.3520445 0.051218458 -0.19084248 -0.15813191 -0.059713855 0.07472751 -0.18993448 -0.26467457 0.008148671 -0.28236076 0.25381246 0.3766535 0.039995745 -0.11762287 -0.11093965 -0.05400691 0.057883352 0.055354238 -0.29619113 -0.05116923 0.11157032 -0.12689683 -0.26938874 -0.07209857 -0.170586 -0.12913854 0.21196787 0.041140944 -0.21930566 0.11269113 -0.18308932 0.031068275 -0.16295548 0.19637336 -0.25140825 -0.06696528 -0.017239945 0.2454648 -0.07087503 -0.13776791 -0.2277405 0.008174734 0.03831644 0.101028465 0.06369445 0.22043462 -0.08379882 -0.13277313 0.06617959 -0.31270134 -0.11958839 -0.142861 0.16423419 -0.09139767 0.010544176 -0.08029132 0.19926251 -0.13595423 0.08197337 -0.040322036 0.01771469 0.092129946 0.09468324 0.2674275 -0.028533 -0.14682323 0.15048237 0.054835565 0.1854125 0.2607546 0.11624311 -0.12249251 -0.14202797 -0.094462655 0.20409338 -0.17795575 0.07698795 -0.04274934 -0.2400904 -0.051932134 -0.06869463 0.0003909693 -0.15408541 0.05101321 0.14784937 -0.24734506 0.2104376 0.10817408 0.12889008 0.020239962 -0.13974807 0.16155821 0.13068596 0.034598 0.17518322 -0.15938486 0.12328096 -0.09672371 -0.19210058 -0.10067139 -0.1923428 -0.023078874 -0.13659477 0.043236893 -0.19090885 -0.19024684 0.027693197 -0.12510549 -0.02499915 0.17557774 0.03617251 0.15538445 0.35317075 0.14352071 -0.16076167 0.17355274 -0.03990877 0.18750744 0.10292925 -0.14957726 0.30239508 0.08568604 0.18918754 0.15437424 0.05622894 -0.036344662 0.26422822 -0.0990521 0.0018537872 0.29630116 -0.087614015 -0.021272562 0.16464105 -0.19741096 -0.39327523 0.21317089 0.42408726 -0.40742466 0.21172886 -0.048370194 -0.12281984 -0.17504756 0.26711103 0.0070590237 -0.05410126 0.12075612 -0.0455817 0.053698555 -0.2225743 -0.0740874 0.2813966 0.06160703 -0.11833794 0.27900517 0.21609034 0.014669654 0.08013302 0.16607445 -0.04493991 -0.11145703 -0.01756495 0.06717039 0.10155628 -0.16761915 0.116939165 -0.13991913 0.084636785 -0.07453049 0.030597515 -0.12877919 -0.18453409 0.092135474 -0.119081855 0.19540478 0.24071416 0.040004335 0.05610523 0.037179735 0.39541337 -0.020689474 -0.016922653 -0.084445655 0.028683733 0.31229314 0.20325805 -0.10781755 0.09235087 -0.09654415 0.15615718 -0.01300799 0.41035122 0.25457594 0.11669801 0.07814407 0.018581625 -0.16713406 0.15015592 0.016019827 -0.20078366 -0.08705041 0.061652496 0.18704079 0.10758078 0.11611427 0.277899 0.13931823 -0.112409405 0.0715054 -0.13021533 -0.14872684 0.061350152 0.036065027 -0.103377186 -0.08177654 -0.16722685 -0.17840207 0.008468633 -0.02980071 -0.02205153 -0.24564093 -0.4408792 -0.13378507 -0.18488632 0.0916267 0.08046278 0.16744055 -0.110000275 0.08927625 0.076649606 0.12678228 0.12080027 0.0064415014 0.014851907 -0.042346507 0.18486832 -0.17584822 0.15866953 0.25722757 0.013235431 -0.054841504 0.0038092416 -0.2646441 0.3145359 -0.02293118 0.017814571 0.1128921 -0.027952591 0.073025525 0.09196746 -0.21846195 0.07772795 0.101324916 0.124989584 0.061587732 -0.13560987 0.004512537 -0.00020892291 -0.28837705 -0.06801892 0.0030992208 0.3277356 -0.029566724 -0.0057864827 -0.21300338 -0.14856437 0.20197843 0.0913615 -0.11936704 -0.11904398 0.26278773 -0.12550129 0.29277262 -0.14322744 -0.11141936 -0.021684837 0.021466073 0.17697838 -0.010331145 -0.08432877 0.15273792 -0.13537933 0.34310016 -0.23149003 0.043990932 -0.18238577 -0.15502515 0.008993985 0.15792964 0.09527836 -0.025692819 -0.07863954 -0.15766716 0.2528654 0.04773257 0.09557741 -0.20263432 -0.063955516 0.04299219 -0.001388039 -0.24492383 -0.08826899 0.006250918 0.00841365 -0.048136316 -0.09603543 0.29601103 0.11793527 0.02410712 0.24068859 0.2835998 -0.15913424 -0.0058124033 0.23568192 0.039445966 -0.07437669 0.35002282 0.101131134 -0.07686753 -0.1803985 -0.0340149 0.016140603 0.39161044 0.30740407 -0.34239554 -0.029159816 0.06375666 -0.107937545 -0.14549164 -0.26187053 0.06517602 0.18385138 0.27918717 -0.056943417 -0.206061 0.2029968 0.0027576913 -0.043576274 0.40355387 0.095444046 0.056001894 -0.040430024 0.0008497464 0.16323833 0.10951845 -0.021417808 -0.038351215 0.20467667 -0.24493892 -0.090784244 -0.17523007 -0.028446898 -0.03751552 0.1877266 -0.22184579 0.007686745 0.14429325 -0.046324816 0.07727085 -0.33021164 0.11856406 -0.19893435 0.16545756 -0.26294383 -0.057001665 -0.10005814 -0.13227908 0.30202982 0.09469492 -0.112011865 -0.021750536 -0.05076358 -0.09595073 0.08294379 -0.31110945 -0.20664068 -0.15310764 0.251858 -0.035706278 0.17716615 -0.21494767 -0.23367293 -0.12808922 -0.11054887 -0.22459315 -0.027634343 0.20761983 0.04930884 -0.09731687 -0.020862544 0.40727824 0.0070727933 -0.12558712 -0.01550427 0.08974709 0.022348555 -0.09879814 -0.15206315 0.2366217 0.05105641 -0.22107014 0.18660986 -0.11234113 -0.21008919 0.12947647 0.07631408 -0.30669647 -0.013383322 -0.053662628 -0.1734733 0.09584347 0.375472 -0.17751466 0.23875578 0.20935455 -0.2002747 0.112126805 -0.18814285 0.2158923 0.09028247 -0.030211253 0.1016949 0.1772747 0.045912106 -0.21643098 0.20408559 -0.103818245 0.013601049 0.17426462 -0.18431543 -0.04737681 0.05670693 -0.1533808 -0.1736439 -0.15734719 -0.21091384 0.027955895 0.08900695 0.03224795 -0.15723711 0.040027387 -0.13832033 -0.032970354 -0.20199728 0.06947552 0.07749864 0.21147944 0.32714668 -0.22745745 0.020706931 0.00574881 0.11988045 -0.015389422 -0.30969617 -0.15401192 0.003719331 0.26842585 -0.13161515 0.25952312 -0.17508817 -0.07870559 0.16204357 0.20990504 -0.34272683 0.21939452 0.10031827 0.22091337 0.151578 0.24664146 0.035866324 -0.14891547 0.13453531 -0.051076137 -0.20721786 0.27305898 0.0741536 0.178911 -0.2529157 -0.13134663 -0.11220626 0.283706 0.038031913 0.23660849 -0.07820135 -0.122955434 0.11596287 -0.07383712 -0.05009092 -0.038449593 -0.14354274 0.08199118 -0.009996803 -0.19940624 -0.022912987 -0.18225501 0.12898147 0.17916566 0.0415178 -0.30923614 -0.08723813 -0.14630704 0.3150829 -0.22396319 -0.080048114 0.18075682 0.00997866 -0.023097264 0.046893723 -0.1829783 -0.29651105 0.25073856 0.15349191 -0.037783317 -0.060410473 -0.18630719 0.23960578 -0.11499114 0.29249465 0.07074035 -0.19610785 0.08487494 -0.12702398 0.37097958 -0.063048676 -0.2921032 -0.34428585 -0.38522667 -0.085727446 -0.060633715 -0.2765984 0.1351395 -0.035655104 -0.004744299 -0.3088087 -0.11229812 -0.18598856 -0.019040467 0.0046247896 0.028427968 -0.06215923 -0.21455379 -0.19382958 -0.37299982 0.15905002 0.037275054 0.049028974 0.2678286 -0.13311544 0.01697235 0.022200666 -0.11005482 0.17342311 0.35746005 0.33651286 -0.20135874 -0.25629476 -0.2766002 0.21805759 0.04081015 0.12339959 0.040665865 -0.25185204 0.02030228 0.03665083 -0.23028646 0.13921775 0.10749293 0.1816402 -0.20647748 -0.09342814 0.12823349 0.20234406 0.028600467 -0.33887407 0.060555495 0.15830033
animalswith -0.100496404 -0.049078293 -0.09557396 -0.04917877 0.1596493 0.12490426 -0.14415894 0.17116643 -0.1289023 0.22845683 0.10913683 0.18257819 0.16706824 0.033595547 -0.10412646 -0.23702599 -0.14796342 -0.01598359 0.036710065 -0.14694928 0.19790141 0.08026918 0.23341577 0.16633888 -0.25295496 0.05021339 -0.18415534 0.031245816 -0.0965581 0.0715055 -0.038383473 0.10849013 -0.118749835 -0.0746481 -0.07485806 0.007156934 -0.3195999 0.12411685 -0.26018128 -0.081690714 0.09234226 -0.24299112 0.031173391 -0.010041537 -0.2897469 0.17974599 -0.04137394 -0.10577438 0.13876727 -0.042223644 -0.0758491 0.015915804 0.014828266 -0.27075753 0.027828077 -0.13681649 0.05313696 0.30847773 -0.12907481 -0.13648303 -0.163217 0.03526629 -0.082508035 0.29644054 -0.06187943 -0.34432018 0.109785125 0.102408014 -0.25457132 -0.07542131 -0.122364506 0.012499753 -0.010397585 -0.24965353 -0.20580225 0.31876498 0.040475182 -0.054593142 -0.017929057 -0.4357705 0.0018486555 0.07410046 -0.23298688 -0.22731686 -0.010907961 -0.034211654 -0.03795065 0.08245828 0.12741917 -0.07946727 -0.3035371 -0.03401244 -0.08328939 -0.31416675 0.029561082 -0.09449406 -0.17918019 -0.039499614 -0.2811255 0.10992713 -0.13198711 0.27950752 0.1364088 -0.115609325 -0.2904719 -0.214722 -0.07592099 -0.2136805 0.21306516 -0.07868891 0.10096444 -0.14783353 -0.19943169 0.10386241 -0.18828939 0.22453474 0.1673853 -0.05572735 0.14187048 -0.072586454 -0.006555052 0.08475874 -0.10644954 -0.2904131 -0.05681427 -0.07494631 -0.3261161 -0.0074034315 -0.03936221 -0.31585327 0.20499241 -0.13138093 0.000113616275 0.09411873 -0.14107242 -0.16913041 0.1464877 0.09258463 0.034733485 -0.06218167 -0.04342193 -0.3133566 0.2532905 0.08862704 -0.2880246 0.11830412 0.10785107 -0.026847782 0.2162835 -0.18986116 0.12915146 -0.16542788 0.12222491 0.12417734 -0.20543632 0.34064212 -0.20018534 -0.2095332 0.096256524 0.04523385 -0.055119354 0.13421553 0.13000832 -0.32748973 0.15023911 0.09253655 -0.19889647 0.084862985 -0.059155818 -0.1457061 -0.1997301 0.29630664 -0.24975714 0.20712234 -0.031049782 -0.09979756 0.10850599 -0.086900406 0.03187067 0.09044981 -0.029219847 -0.13983504 -0.016892496 -0.094822556 0.019509459 0.11688623 -0.08297632 -0.12686424 0.16862361 -0.18636152 -0.11043308 0.14539069 -0.1270574 -0.15986978 0.07662633 -0.13135557 -0.07893654 0.06997429 0.12918282 0.10819827 0.15316518 0.06980101 -0.037205514 0.004248868 -0.36358 0.034581207 -0.23791496 -0.28176636 -0.0942876 -0.036302637 0.13214374 -0.10597037 -0.31770054 -0.16903898 0.22237362 0.01730764 0.16620821 0.17374939 -0.1472904 -0.19122235 -0.02750995 -0.11754686 0.27068046 0.0975795 -0.15358631 0.19469438 0.048654854 0.015719544 0.41327572 0.02294699 -0.1362927 0.2859156 -0.26465073 0.18471836 0.32854697 0.06758602 0.021431167 0.15340066 -0.1639409 -0.29727393 0.048572633 0.30804956 0.0025122655 0.19973356 -0.044017594 -0.2312739 -0.12096167 0.2700467 -0.2287048 0.34224853 -0.18171957 -0.22657888 -0.12591071 0.005278192 0.03319069 0.19636697 0.13338138 -0.18026517 0.100218356 -0.039925788 0.20707607 0.051794767 -0.07244651 -0.09201155 0.0681128 -0.054454364 -0.035635646 -0.22476336 0.04908199 0.04393016 -0.22461674 0.19861226 -0.25990802 -0.19026482 -0.16055496 0.015546475 0.041942883 -0.15672833 -0.16688305 0.10505243 -0.059774183 0.09474508 0.22757982 0.4495353 0.120788686 -0.28009024 -0.20363094 -0.21309376 0.20276469 0.24229656 -0.17373422 -0.27901605 -0.008155073 0.11268151 -0.083739035 0.3991715 -0.06411981 -0.07400365 -0.00095514604 0.17977713 -0.26641366 0.35558042 -0.2125481 -0.0722066 0.2139496 -0.0019181335 0.17582017 -0.2294712 0.06410987 0.32311738 0.27162346 -0.09163148 -0.018975072 0.05872507 -0.011849401 -0.1287259 0.12447242 -0.21963365 0.036999844 -0.106598035 -0.16172192 0.29976034 -0.09451622 -0.17053418 -0.13575506 -0.26752457 0.15462361 -0.3047915 0.25405854 0.1966039 0.08905787 -0.28194183 0.032301493 -0.20556462 0.33744183 0.017671833 0.21083844 -0.21992141 -0.06721555 -0.10589309 -0.20910536 0.21817568 0.2116614 0.03584839 -0.2437613 -0.0069717034 -0.39747494 -0.053760752 -0.1383094 -0.061380528 -0.23012944 -0.14487317 0.13379622 0.1904494 0.06578693 0.0027929053 -0.17760779 0.052313596 0.28537348 0.05720804 0.03161763 -0.032351404 -0.13014966 0.057923336 -0.14362118 0.3214888 0.004042246 0.28486922 -0.12383604 -0.3314097 0.1115655 -0.041733254 0.18620194 -0.24039182 0.03613975 0.0030049512 0.4329877 0.18008715 -0.074944645 -0.14758572 -0.06828867 0.23641115 -0.05406973 -0.017740784 0.13993403 -0.17023766 0.23526935 0.012362288 0.10171269 -0.15369928 -0.18784821 0.20261855 0.1764663 -0.030744143 -0.17125435 -0.12066975 0.060719665 -0.1278952 -0.28813675 -0.10416872 -0.020515127 -0.25125173 -0.2219175 -0.10664878 -0.16810621 0.20517214 -0.048690725 -0.107310876 0.069590494 0.0051040323 0.12643671 0.021399496 0.05115637 0.14813447 0.11698002 -0.322759 0.29583406 0.034163628 -0.15065163 0.094977304 0.24925274 -0.08480922 0.03000704 0.20003703 -0.16799957 0.09181247 0.028259752 -0.09383859 -0.07514564 -0.09763357 -0.15705505 -0.23458907 -0.2951324 0.08618649 -0.13324454 -0.1920282 0.15299083 0.13225529 -0.072663516 0.036766708 -0.02220418 0.10588736 0.22752151 -0.24248873 -0.1809016 0.19212611 0.03602676 0.08250285 -0.15691249 -0.042108253 -0.16172601 -0.17173725 0.15982367 -0.06757582 -0.18400723 0.003727668 0.052088153 0.1102382 -0.038284384 0.06737032 0.022760903 -0.19135556 0.13445742 0.13336286 -0.04009302 0.11126042 -0.11636545 -0.3275187 0.31104538 -0.02920716 0.0728206 0.2329717 0.33331934 0.05247795 0.110604525 0.10802767 0.089511886 0.11060117 -0.0856862 0.07692047 -0.2755032 -0.01484769 -0.11759162 0.09452957 -0.20395164 -0.007903077 0.22460347 0.16766772 -0.007648852 -0.08143376 0.02892242 0.033866443 0.19497406 0.07464027 0.34773055 -0.036723115 0.12577982 0.06612539 0.22068524 -0.08523527 -0.04151626 0.07329689 0.051900655 0.20605314 -0.022438137 0.11736623 -0.1748717 -0.3012518 0.13611366 -0.04598361 -0.018159084 -0.009025762 0.14722699 -0.066629104 -0.15922096 -0.02402329 -0.08874057 -0.11910541 0.069699675 -0.10499584 -0.04518939 0.12473016 0.17389825 -0.038025126 0.17427854 -0.05016133 0.07165791 -0.15288766 0.1170667 0.27924895 0.104900934 0.029001188 -0.09033495 0.23395205 0.074189916 -0.24901135 0.016891124 0.005689535 0.18304509 -0.26323488 -0.275961 0.1747595 -0.13883922 0.085849755 -0.1464767 0.07461414 0.045231804 0.06436208 -0.025422996 -0.2923888 -0.15468282 0.27210063 -0.112291336 0.053855717 -0.23515901 0.10893141 0.1699031 -0.26051062 -0.30914763 0.08368595 -0.017625028 0.099932075 0.017511588 -0.072608694 -0.11088682 0.08495995 0.054843288 0.002985641 0.19749644 -0.011348473 0.052026626 0.15076393 0.13715635 -0.120682575 0.021961728 0.2130501 -0.25247082 -0.13141973 0.19060518 0.08040521 0.35058975 -0.43693528 0.14110936 -0.11931681 -0.037430163 0.027274217 0.2758898 0.011213083 0.08667875 0.25296217 -0.041059203 -0.10026396 0.10970593 0.20528637 0.19911869 -0.05762523 0.118443586 -0.24420695 -0.034337487 -0.050532036 0.07107902 0.22375438 -0.06769022 -0.06284691 -0.12938069 0.055991113 -0.2881817 0.009529193 -0.076221466 -0.014339405 -0.14528269 -0.15136948 0.050442867 -0.03697383 -0.0072376872 -0.25055814 0.36409572 0.29294223 0.07709754 -0.22904609 -0.096980125 0.10227453 0.048302907 -0.13941653 -0.20774637 0.08889588 0.15012445 -0.0583176 0.011405198 0.06677725 -0.1646347 -0.32423875 0.13908188 0.111998364 -0.090735346 0.1483333 0.18490376 -0.37868708 -0.0703466 -0.017059308 -0.2737738 -0.20993932 -0.3139013 -0.047957946 0.007354182 0.048584573 -0.27653793 0.11250068 0.12629633 -0.049911037 -0.00026590395 0.11620697 0.17357898 0.13418114 -0.20687157 0.13600847 0.31781065 0.037849147 -0.022887455 -0.12698191 -0.19806165 0.34146863 -0.07275641 0.29330721 -0.17203519 -0.30922484 -0.10248863 -0.1617038 -0.0017696006 0.31708556 -0.03099251 -0.07118378 -0.07513417 0.029781671 0.13080166 -0.14899708 0.07837549 -0.364441 0.08991582 0.25591612
teeth -0.19791658 0.13161024 -0.016735556 -0.23632863 0.12426586 0.20569755 -0.025874687 0.06886001 -0.044291567 0.18932001 0.24863303 0.33187866 0.19166242 0.05634172 -0.05364174 -0.19742192 -0.09465279 -0.13929076 0.0799545 -0.22307025 0.104474746 0.17527288 0.24824415 0.119684726 -0.1375136 -0.037424456 -0.13803166 0.123024024 0.03307223 -0.034589827 0.1791015 -0.0047754403 0.059842564 -0.019307641 -0.02555152 0.17528747 -0.20560634 0.2617942 -0.25661796 -0.110216975 0.0058729667 -0.21872677 -0.10153712 -0.05763708 -0.27086535 0.08571302 -0.15780346 -0.046475373 0.1661336 0.027386775 -0.0068073296 0.040527537 -0.05879331 -0.2191087 -0.18068118 -0.117854655 0.0544007 0.2427608 -0.09945413 -0.18870686 -0.14452463 -0.029388517 -0.12788865 0.21201989 -0.021847581 -0.41205674 -0.032977793 0.108811796 -0.15837884 -0.06684467 -0.27965692 -0.03225161 0.0606352 -0.30638918 0.008332372 0.22766332 -0.10372219 -0.1796915 -0.057719808 -0.5114445 -0.15700574 -0.0813264 -0.074749224 -0.18741527 -0.07221463 -0.020701036 0.087311804 0.11753108 0.021255983 0.08230687 -0.2776409 -0.089421056 0.08605831 -0.28321937 0.13508965 -0.06252377 -0.08653759 0.08623468 -0.30932623 0.17947184 -0.11408633 0.33876538 -0.07677785 -0.17650758 -0.32160693 -0.26081643 -0.19593665 -0.277684 0.10740011 -0.049187202 -0.07668467 -0.26841104 -0.011802411 0.3068276 -0.29247102 0.24996334 -0.07984257 -0.015978916 -0.03865908 -0.0286384 0.13518138 0.07184086 0.0026039416 -0.3680316 0.08153286 -0.17197187 -0.36222854 0.0634013 -0.13482048 -0.28587005 0.23264821 0.03317099 0.00856083 0.08472842 -0.029675053 -0.08488533 0.15479423 -0.033299375 -0.12294872 0.013693442 0.20693517 -0.3396551 0.31258705 -0.1633866 -0.30358544 0.029155465 0.084906526 -0.2232578 0.2069266 -0.16206138 -0.0062068175 -0.025700774 0.2386817 0.07458619 -0.2742661 0.32455623 -0.218489 -0.17182769 0.19051145 0.1922367 -0.11672258 -0.09535441 0.07385851 -0.2953642 0.04069077 0.22096089 -0.13185489 -0.14099938 -0.11539346 -0.12524582 -0.27509975 0.45982566 -0.20592184 0.35404292 0.1979463 -0.002356935 0.16637395 0.13289942 0.109565035 0.21235871 -0.041779455 -0.276134 -0.12145408 -0.05329131 -0.012695582 0.012253803 -0.13375822 -0.22464252 0.08653809 -0.24775898 0.1761422 0.13107683 -0.056378942 -0.22914995 0.06117385 -0.23402977 -0.09777828 -0.13605975 0.19456853 0.29444006 0.093757436 0.02235469 -0.1532902 0.056787044 -0.27138278 -0.14556235 -0.15796655 -0.1949145 -0.11240588 0.029234888 0.1558996 -0.060925726 -0.32302967 -0.13326387 0.30720243 -0.1322476 0.2516716 0.18757421 -0.07516761 -0.06869157 -0.19234672 -0.1684033 0.17997593 -0.04156108 -0.0065610283 0.19999443 0.025026083 -0.098186836 0.4730585 -0.13316812 -0.1935041 0.37659192 -0.4001095 0.10840513 0.33451298 0.122666135 -0.053339195 0.3115174 -0.1934089 -0.32312375 -0.0690432 0.3670935 -0.21757333 0.17896721 0.08731988 -0.2598031 -0.19057314 0.18581003 -0.20028457 0.36648467 -0.15270618 -0.21407403 -0.24146833 0.16890948 0.16886114 0.11164647 0.048446063 -0.18844798 -0.02992288 -0.065619305 0.18014286 0.13251427 0.085512795 -0.08867455 -0.029040406 -0.1656762 0.034613244 -0.22415112 -0.03341348 -0.07558154 -0.19931073 0.15316534 -0.14842704 -0.20114873 -0.022188246 0.07365094 0.03406738 -0.18224958 -0.11333777 0.18648985 -0.06374482 0.0670641 0.079610236 0.48665076 0.09478103 -0.37400585 -0.05209888 -0.23095457 0.2914117 0.38197374 -0.26274726 -0.40434605 -0.13561173 0.29260734 -0.2501827 0.4030515 0.13365422 -0.0074693435 -0.0044455957 0.028648911 -0.15710571 0.45156175 -0.24129662 -0.3360929 0.15220404 0.09461141 0.32750294 -0.2536115 -0.09539178 0.31334558 0.21373332 -0.06868516 0.017166145 0.13985994 0.13524745 -0.036202844 0.14646387 -0.20933421 0.14187774 -0.155993 -0.0010721241 0.32842523 -0.0646712 -0.31113935 0.02150056 -0.21988167 0.108756244 -0.3131955 0.14007628 0.047720887 0.18563257 -0.3163564 -0.13913006 -0.19990064 0.41507244 0.10263918 0.0145309465 -0.20568654 -0.019286435 0.02372246 -0.28418186 0.34605733 0.2987417 0.15588592 -0.26728886 0.11213376 -0.40627798 0.015271674 -0.20401652 0.0042255768 0.05718135 -0.10333683 0.24568805 0.2086359 -0.053025242 0.11242381 -0.13764425 0.20966288 0.1824662 -0.10942425 0.14084974 0.22594486 -0.05275502 -0.005049983 0.05320725 0.21871123 0.021610435 0.36443028 -0.045316573 -0.3157057 0.22574799 0.037292045 0.10024438 -0.25935608 0.24322362 0.31419274 0.38960642 0.25151876 0.05938861 -0.14758877 -0.0036330554 0.2498644 -0.21702218 -0.18159482 0.026477627 -0.031396214 0.08811534 -0.21086861 0.037564572 -0.037225906 -0.27830833 0.10498761 -0.033969954 -0.14210035 -0.16838536 -0.2302356 0.03544515 -0.15193696 -0.28498915 0.029347457 -0.16486654 -0.07932831 -0.13870305 -0.23227054 0.008614607 0.23537439 -0.008130258 -0.2199456 -0.01646999 -0.008210306 -0.05892095 0.08265468 -0.13505797 0.12721258 0.016944885 -0.32891327 0.24577813 0.1729676 -0.20490852 -0.086983435 0.10271768 -0.11400746 0.07585482 0.2075306 -0.1494283 0.099797875 0.21881302 -0.042091027 -0.0285967 -0.26133287 -0.06078687 -0.34789494 -0.16761829 -0.026856914 -0.017025536 -0.12983032 0.21712302 -0.010506607 0.06488234 0.11322488 -0.08489331 -0.007892855 0.27282992 -0.05880542 -0.25067943 0.18732628 -0.061622135 -0.12885039 -0.09003804 -0.06913022 -0.008614527 0.010472491 0.09485812 0.05716722 -0.07925739 0.104839884 0.01264268 0.16370042 -0.034505256 0.14368884 -0.04859498 -0.0070481836 0.18096413 0.19978984 -0.064966924 0.1822296 0.019294402 -0.2720357 0.26991725 -0.08775653 0.010999976 0.22996141 0.23439169 0.02153912 0.11542352 0.093138814 -0.09849593 0.19398881 0.06724917 0.021799427 -0.27096248 0.022120396 0.05572248 0.13233626 -0.17394154 0.19257341 0.18288343 0.13819642 -0.17729844 -0.22865152 0.01715825 0.1894996 0.26621255 0.0074487203 0.291173 -0.1611717 -0.0030761943 0.05942703 0.17556566 -0.025628835 -0.036759622 0.13237156 0.07723432 0.265604 0.014943865 0.23485163 -0.14563726 -0.18868859 0.19402227 -0.03694668 -0.13916107 -0.0007980626 0.059617575 -0.16346999 -0.1292719 0.05834052 -0.15514329 -0.097068466 0.11536255 0.06194893 -0.06982713 0.15982899 0.22148517 -0.12998869 0.09308863 -0.15344375 0.25406855 -0.16192436 0.09145591 0.15993555 0.20094693 -0.042297155 0.19396967 0.17912224 0.15526149 -0.1868375 -0.012561649 0.107138254 0.024962857 -0.30596346 -0.26294628 -0.023813827 -0.14791973 0.07052339 -0.084362276 0.03089317 -0.08662158 -0.07018498 -0.101139866 -0.31470388 -0.13439934 0.14873147 -0.095717125 -0.021525323 -0.19523282 0.07640498 0.061232135 -0.25081825 -0.33314383 -0.14898497 -0.02915407 0.2772676 0.03927557 -0.03910047 -0.28270322 0.14691171 -0.09328798 -0.21255912 0.30360255 -0.10840236 0.041035794 0.12560543 0.1657185 -0.05532617 0.11129603 0.19683552 -0.2284414 -0.20597571 0.058812458 -0.004053367 0.14109556 -0.45341647 0.078395426 0.0056838985 0.15587538 0.21331584 0.34895802 -0.1306194 0.051935285 0.1936656 0.03726393 0.032826345 -0.09001889 0.13657974 0.2232566 -0.05654905 0.058319002 -0.2805217 -0.18303259 -0.14068633 -0.041497093 0.29130027 -0.24861802 0.02396626 -0.09060315 -0.13144425 -0.2950167 -0.055838373 -0.12554374 -0.045104694 -0.087190896 -0.04575412 -0.054954525 -0.23323199 0.12605663 -0.19532506 0.39181256 0.2867138 0.08121968 -0.28202465 -0.014688774 0.06899245 -0.15995254 -0.07154443 -0.3508829 0.14346488 0.36719444 -0.24808557 0.03299267 0.039321005 -0.19905601 -0.1678623 -0.012591084 0.073488824 -0.04009577 0.2954597 0.08060137 -0.32215747 -0.10256442 0.014605412 -0.1708586 -0.2111758 -0.33551693 -0.0026227708 -0.09578094 0.07851468 -0.33702382 0.13276002 0.03150334 0.103603475 0.08146325 0.11768969 0.05516578 0.0590506 -0.12361778 0.027302228 0.26530895 0.03899051 -0.17322549 -0.07068522 -0.14539218 0.1977911 -0.04859887 0.22801055 -0.14427897 -0.24542017 -0.02334449 -0.3411861 -0.21137738 0.22126733 -0.17958938 -0.07297414 0.0762695 0.1117068 0.321406 0.060405023 -0.14069274 -0.30416724 -0.00041981103 0.31655085
animals 0.24968685 -0.10333296 0.02710858 -0.14871529 0.22149235 0.21523611 0.012070685 0.18504407 0.04334509 0.22172727 -0.25081393 0.03069987 -0.11542573 -0.075432725 -0.13308547 -0.3128155 -0.29195678 -0.023286585 0.12651676 -0.12164698 0.2316161 -0.31067538 0.09918991 0.49579957 -0.22532949 -0.18318371 0.107167214 -0.13182162 0.109405935 0.026779646 0.1530038 -0.102222756 -0.036066983 -0.035114262 -0.026891671 0.24864739 0.17589457 -0.28150886 0.052913625 -0.24722694 -0.39678308 -0.021142317 0.22418469 0.03495176 -0.17343621 0.114049494 -0.009846246 0.21286823 0.08620278 0.08437665 0.23120297 -0.2020499 -0.18542281 0.105426 -0.13905841 -0.14531645 0.26181772 0.024281817 0.021009093 0.015096193 0.35432017 -0.15064767 -0.10689186 0.27591497 0.08480822 -0.24932845 0.14817698 -0.2527404 0.088197716 -0.12827986 -0.30133185 0.21430594 -0.1324358 -0.25365308 0.07096272 -0.0349488 -0.1025793 -0.18141975 -0.027758999 -0.38342902 0.077668674 -0.13595502 -0.1626946 0.11807242 -0.15836956 -0.09942885 0.031846233 0.06321566 -0.11934474 -0.12131055 -0.020564714 0.06358458 0.03672479 -0.033619616 -0.12942398 -0.38271007 0.089575626 0.27934 -0.24413703 0.10260332 -0.28142288 0.34398836 -0.030674009 -0.12437682 0.026441365 0.0045171953 0.12583072 -0.18156628 -0.11672595 0.24728903 0.09093019 0.017287264 -0.11795267 -0.030291677 -0.17782931 0.42081958 0.33455855 0.04848461 0.10498721 -0.29377824 0.07632962 0.11796063 -0.093056746 -0.0064306757 0.07849504 -0.17605819 -0.21908066 -0.07227375 0.041016776 -0.10073563 -0.11546869 0.2676016 0.15510851 -0.027708698 -0.10229518 0.06008481 -0.017471444 -0.1155108 -0.06303361 0.024409527 0.028949518 -0.11211924 0.016508276 -0.18576641 -0.21358976 -0.27459437 -0.109626286 -0.16884375 0.061976645 -0.27876025 0.06543311 0.08093255 0.13371624 0.04318303 0.064848274 0.28603387 -0.42648265 -0.07426574 -0.18820818 0.21378772 -0.14633188 -0.14809188 0.23600756 -0.21056135 -0.19270127 0.041064493 -0.2488305 0.07333425 0.31081715 -0.07223468 0.10089786 0.2350158 -0.15219855 0.009422355 0.25145888 0.25882486 -0.16139801 -0.17013729 0.009379253 0.20999171 0.045108795 -0.18444197 -0.009850811 -0.26388037 0.10598422 0.01916223 0.031012498 -0.11012111 -0.06253075 -0.111028954 -0.26590893 -0.101381406 0.17508723 -0.3983222 0.050882295 -0.27365786 0.12383697 -0.022270152 0.24038725 0.15721191 0.057703055 0.30247375 -0.13334319 -0.13827178 -0.29866597 -0.21121714 -0.07650726 -0.19851951 0.24485593 -0.30515316 0.21744108 -0.04709784 -0.12480659 -0.31121072 0.051150393 0.12061816 0.3644184 0.28780603 0.0058518522 0.08926214 0.0014733451 -0.10751476 0.16583283 -0.18369693 -0.016742794 0.16300747 0.22122069 0.15457568 0.24024622 -0.16710296 0.17119767 -0.1230491 -0.33933446 -0.18177776 -0.099254474 0.26683998 -0.15256305 0.17567469 -0.10060999 -0.39533287 0.21775132 -0.04396389 -0.31439358 -0.061444417 -0.21648261 -0.07205641 -0.13379602 0.34591487 -0.18014248 0.07592915 0.15272358 -0.03561657 0.10280412 0.09181871 0.17554335 0.023115896 -0.12841085 -0.20803931 0.06511889 -0.005970228 0.058651987 -0.24466527 -0.17032966 -0.16991723 -0.12130637 -0.24148993 -0.27499282 0.112737656 -0.36870077 -0.17369905 -0.0134043675 0.2708165 0.005372585 -0.284354 -0.07602541 0.1389212 -0.19607738 -0.09777775 0.3172652 -0.041507315 0.15017086 -0.09742002 0.15839992 0.5328647 -0.2850042 -0.15562138 -0.029732956 -0.06961169 -0.037664656 0.15248191 -0.10162981 0.020897564 0.24835187 0.19497412 -0.27582023 0.40870357 -0.06684913 -0.15542269 -0.048824333 -0.03832435 0.14710122 0.12902525 -0.05699477 -0.2599658 -0.027185183 0.17583528 0.21903755 -0.2685755 0.11966459 0.31597856 0.02700275 0.018883524 -0.22930604 0.08601362 -0.11715298 -0.3236229 0.28905648 -0.08453251 -0.030859774 0.18299054 0.17016259 0.191739 -0.24338031 -0.17437057 0.17005238 -0.24968177 -0.19832529 -0.10388307 0.30651686 0.09960992 0.24933922 -0.20955011 -0.12081494 -0.19595952 -0.14174211 0.111033835 0.12741567 -0.11802982 0.115340516 -0.13937238 0.076986 0.3238589 -0.12563144 0.07915665 0.07618267 -0.17248617 -0.4312038 0.32199743 -0.26412985 -0.15255709 0.0928747 0.26266253 0.044383027 0.24884619 -0.16203807 -0.04199207 0.07277135 -0.04436898 -0.22110112 -0.08517741 0.17573372 -0.16731721 -0.22798851 -0.26278284 -0.2731789 0.062033396 -0.10459105 0.0536718 -0.3359441 0.23456451 0.28109965 0.22837615 0.12645958 0.0962249 -0.10471811 -0.05097776 0.46692508 0.08059952 0.06494395 -0.014116591 -0.14760596 0.0029343602 -0.18429083 0.044652063 0.22528443 0.078744344 0.2751031 -0.37766823 0.00010447364 0.024244687 0.018868502 0.12992774 -0.2605185 -0.19911708 0.048804656 -0.0670732 0.035893716 0.24435356 0.14223936 0.0148802465 0.10845643 -0.19960181 -0.17804965 -0.22974844 -0.31960177 0.07068253 0.037432794 0.09348538 -0.078241214 0.038502138 0.1558669 0.029916035 -0.2515301 0.22723274 -0.18276595 -0.044598132 0.16747393 0.24496908 -0.07096388 -0.17623591 0.37945014 -0.27796373 0.0052882126 -0.14086024 0.05189711 -0.21580984 0.053091146 -0.12726107 -0.17933899 0.09243467 0.021263713 -0.26949722 -0.11006166 -0.32905248 0.1741644 0.11892838 0.26356706 0.35221982 0.18559726 0.25455704 -0.007832694 0.11765626 0.028111069 -0.023271345 -0.178709 -0.14228655 -0.09665752 -0.07840484 0.1815439 -0.33754402 -0.07724563 0.3008718 -0.043576654 -0.15043475 -0.061859928 0.105621554 -0.011337098 0.3502999 0.16905478 -0.19306818 -0.044847924 -0.0051885266 0.46137014 -0.16528663 -0.21706286 0.073552735 0.16682823 -0.34679106 -0.13039422 0.14331675 0.28294948 -0.13916832 0.24767825 -0.07880521 0.11582436 -0.22659548 -0.0032740233 -0.123128906 -0.28886938 -0.05635693 -0.30942735 0.2566624 -0.10050971 0.17479016 0.09720202 0.23245303 -0.062031318 0.031690545 0.0053918883 -0.014018322 0.28474087 0.08670601 0.02069102 -0.10169437 0.11101268 0.081718035 0.043116525 0.26611963 -0.0056829914 0.015980119 0.30549502 0.086655445 0.24932526 -0.20403339 -0.26798317 0.23285441 0.15082426 -0.027004365 -0.11224807 0.22591642 -0.2416927 -0.24250333 -0.18076435 -0.12928778 0.10878949 0.3418923 -0.12373657 0.12802608 0.17718755 -0.032547772 0.008040681 -0.11041544 0.05162439 0.12400324 0.16842096 0.04578964 0.030381974 -0.37282085 -0.026448403 -0.023372171 -0.07036504 -0.19007646 -0.001589114 0.15198806 0.30186895 -0.10253582 -0.1448737 -0.23981377 -0.14017557 -0.07547888 0.07989582 0.08890574 0.014136405 0.17244703 -0.09746933 0.14920714 -0.092307754 0.09551163 -0.18455598 -0.33764553 -0.18613996 0.199995 0.1619788 -0.2410493 -0.04616644 0.06691275 -0.19738743 -0.17164384 -0.2765841 -0.13537945 -0.042963203 0.14626934 0.27502438 0.1815457 0.13439168 0.3529239 0.06074837 -0.12959526 0.30327702 -0.0344925 0.22335504 0.16634704 0.25693193 -0.09038844 -0.060234036 -0.0031707669 -0.1380371 -0.2519132 0.17874645 -0.1173254 -0.039835107 -0.011998318 0.2800791 0.10095687 0.24173903 0.17036545 -0.037953567 0.013976343 0.06840961 0.21972013 -0.2028273 -0.12742013 0.047686495 0.3118824 0.22519451 -0.25502816 0.2168944 -0.11869135 -0.16381437 -0.14900342 0.20624314 0.29087618 -0.13222347 -0.4227257 0.07056762 0.156734 -0.20624389 -0.19236228 0.04114565 0.20607568 -0.07442338 -0.19421174 0.026134968 -0.34681377 0.16515549 0.1315884 0.33365613 0.21063523 -0.033704598 -0.2808759 0.07125342 -0.034300864 -0.042601254 -0.2799693 -0.37601444 0.14689462 0.24924669 -0.20467915 0.19467726 -0.3227655 -0.22347169 -0.036315743 -0.14231604 -0.17837052 0.23948367 0.4115691 0.19259918 -0.12380288 0.050339125 -0.113678016 -0.06690897 -0.01052351 0.12422525 -0.19504458 0.08121317 0.19375649 -0.17398019 0.2266461 0.008899965 -0.07956575 0.11194444 0.09510151 0.31657246 -0.13033749 0.19888975 -0.17974456 0.3920104 0.0029187095 -0.20966305 -0.1945908 -0.3149204 -0.00012255815 0.03375935 -0.10792221 -0.35778412 -0.30868673 -0.16686791 0.18421708 -0.15174529 0.36534792 0.0357211 0.12402779 -0.24960804 0.22070158 0.316426 0.093572356 -0.06905581 -0.15042734 -0.2676773 -0.08633431
eating -0.13272198 -0.08990149 0.13029365 -0.31929076 0.10790841 0.37741736 -0.12996309 -0.059651583 -0.21223935 0.2136606 -0.102360286 -0.12613676 0.15199448 0.10153847 -0.13131337 -0.15532419 -0.2805757 -0.042482432 0.1297219 0.12659119 -0.0054092435 -0.1828753 -0.0058537344 0.08452562 0.03346738 -0.07952252 0.1499438 0.07071756 0.22536692 -0.01206466 0.009769116 -0.039938558 -0.03637293 0.31875172 -0.08951945 0.04743202 0.09192581 0.057079345 -0.049207963 -0.26725113 -0.44555056 0.17900248 0.1323442 -0.028597038 0.046492513 -0.05508116 -0.09463851 -0.10376307 0.07416911 -0.03448634 -0.052457146 -0.02734055 -0.077196054 -0.025305798 0.035447285 -0.17071903 0.057249017 0.10251038 -0.023764217 -0.052561257 0.20270894 0.12960142 0.14973408 0.21925333 0.1019563 -0.107954435 0.18604957 0.10620174 0.20149104 -0.0072037484 -0.24795969 0.1009054 -0.11920558 0.012472724 -0.17501514 0.24711655 -0.13103364 0.23340148 -0.26042986 -0.3596558 -0.18204527 0.050788593 -0.009417926 0.21895507 -0.14958967 -0.071328774 0.1489193 0.073332 0.050419584 0.27647436 -0.01327295 0.19524245 -0.22774553 -0.10575082 -0.055978708 -0.27972543 -0.1553072 0.048706558 -0.32471207 0.12128719 0.10756509 0.44065514 -0.0708577 0.010947698 -0.2611565 -0.25472224 -0.276991 -0.19424023 -0.1662303 0.021427905 -0.19874014 -0.06356536 -0.33170423 0.21496835 -0.13786404 0.056444775 0.35484114 -0.18115711 0.01087181 -0.012560279 0.07684272 0.17018446 0.087248996 -0.09510541 -0.07938097 0.04217115 -0.27190444 -0.11928624 -0.20386742 -0.08207036 -0.37973392 -0.03832002 -0.22327262 0.13329262 0.09841481 -0.051770933 0.01920224 -0.0048828996 0.2771622 0.09873603 -0.1551617 -0.22910759 0.3862002 -0.45245278 -0.06512165 0.02687459 -0.018165892 -0.24658895 -0.09111042 -0.090752274 -0.0107185505 -0.18950649 -0.1485069 -0.0124649 -0.08878246 0.19725868 -0.14699158 0.0022113668 -0.15076919 0.14564054 0.015865847 -0.11395311 -0.014386961 -0.042944506 -0.21888687 -0.07972647 0.11388665 0.040765967 0.17049572 0.041702624 0.116962016 0.40255535 0.04365215 0.054586068 0.109265886 0.2817949 -0.14243259 -0.13873465 0.14424422 0.20373525 -0.045589954 -0.007097458 -0.20204566 -0.035615694 0.0732707 -0.2086123 -0.030741794 0.0125611285 -0.028624829 -0.0631779 -0.2027558 0.08888817 0.10106211 0.112015866 -0.117031224 -0.2088042 -0.12522088 0.06382077 0.06235989 0.32761198 -0.32953537 -0.035379272 -0.04747247 0.067431666 -0.078839004 0.023393963 -0.17817654 -0.049669784 0.129613 -0.055298533 0.06430954 -0.053932127 -0.101381436 0.01765045 -0.073193595 -0.08358093 0.13298692 -0.07597093 0.099391416 0.017611966 -0.19248183 -0.00803516 0.30365467 0.22240682 -0.14004552 0.1090035 0.16819498 0.0837285 0.2891434 0.14660038 -0.28193372 0.23429924 -0.41907609 0.23294272 0.07572763 0.2158471 -0.15849064 0.04688817 0.0433919 -0.13438955 0.006712915 0.19788289 -0.42631817 -0.08595876 0.3081853 -0.0053100083 -0.08047725 0.18870053 0.07855217 -0.1413007 0.14070602 -0.09112438 -0.13361123 -0.0856905 -0.08482869 -0.014446451 0.021319134 -0.19490616 0.08896827 -0.025157968 0.20765415 -0.115621224 0.09115636 0.08976545 0.017898586 0.029998662 0.16548298 -0.028971357 -0.09759823 -0.07357843 -0.19821098 0.28254488 -0.15168372 0.07119061 0.09940077 -0.0039022842 -0.108972795 0.013752682 0.36144 0.2936171 0.1680154 -0.22933276 0.036118012 0.3556675 -0.022303492 -0.2104594 -0.18121274 -0.1184377 0.21137184 0.336702 0.022030443 -0.04923522 0.21210726 0.19814087 -0.38608372 0.40215474 0.123293586 0.26377714 -0.28065526 -0.065462135 -0.17581245 0.4311116 0.1322284 -0.3433532 -0.13649614 0.27069986 0.1673018 0.19552197 0.20811415 0.38864982 0.20455526 0.17004634 -0.106193714 -0.07659515 -0.028352093 -0.13534422 -0.1969365 -0.28123254 -0.18326251 0.014504304 -0.034493502 0.24843775 -0.14684728 -0.27430537 -0.25970003 -0.3944287 0.012555241 -0.41045362 0.15098779 0.096707754 0.0803324 -0.22167392 -0.121323615 0.29286578 0.08313412 0.103954166 -0.011796546 0.09302349 -0.056758348 0.08712424 -0.2934768 -0.04135541 -0.062365603 0.123876944 -0.18688704 -0.07865372 -0.21318667 0.22915548 0.06381632 -0.23872194 0.150441 0.09924929 0.080174975 0.2139883 -0.19185299 0.043310955 -0.06393482 -0.021475725 0.1691748 0.05218945 0.013438233 0.12563153 0.0796778 0.06509785 0.054224394 -0.019798381 0.15234157 0.3353737 -0.3521147 0.1584995 0.0793689 -0.19120768 0.05397806 -0.26594657 0.0691994 -0.09204756 0.10126251 -0.11828794 -0.08689273 -0.019746799 -0.06885071 0.25335535 -0.0010878688 -0.04095205 0.059664667 -0.16571856 0.12151045 -0.26643297 0.2142458 -0.24782896 -0.40150085 0.029608477 0.079164356 0.18829611 0.024935175 -0.18267211 -0.09917336 -0.03916114 -0.09030739 -0.11145035 -0.20780128 -0.039824504 0.048986193 -0.2973046 -0.2747577 -0.16017479 -0.016479079 -0.15772855 -0.12577002 -0.015088939 0.09019661 -0.04540345 0.16213304 0.18071917 0.19367367 -0.0793724 0.21626832 -0.17737848 -0.23727973 0.18832606 0.23662168 0.03665228 0.12582387 0.12126783 0.04975699 0.05770726 0.5142707 0.31956097 -0.21878597 -0.38515502 -0.21143277 -0.21094726 0.027884042 -0.3158543 0.1612671 0.26924816 0.12605189 -0.05983448 0.11277798 0.028593345 0.19155002 -0.18654011 0.44553205 0.17581959 -0.09239087 -0.083664976 -0.25287092 0.2291123 0.112364925 -0.030029355 -0.27959555 0.003916924 0.0065891445 -0.18061915 -0.330915 0.24469933 0.22896585 -0.043798517 -0.27884927 0.04591957 0.083846025 -0.21701407 -0.019938426 -0.24375471 -0.25023976 -0.23290202 0.19122444 -0.4027104 -0.06843084 -0.10012801 -0.13317159 0.14037289 0.12949276 -0.15085818 -0.2593387 0.030832285 -0.1941559 -0.19722137 -0.48476565 -0.06507075 -0.35722435 -0.034830097 -0.06770271 -0.20624211 -0.0759343 -0.13292514 0.09845342 -0.008091564 -0.031837974 0.056028623 -0.0056649465 0.29178217 0.11663563 -0.04616778 0.02984297 0.09500194 -0.017029181 0.21423687 0.037169207 -0.2122347 0.01124819 -0.15395062 -0.10483384 0.19930428 -0.064790554 0.08287474 -0.020813012 -0.013179654 -0.1197861 -0.039613273 -0.04804184 -0.07908042 0.037383176 -0.26758748 0.2905159 0.29014915 -0.14195369 0.24242687 -0.021644782 0.009286773 -0.24031244 0.15320079 -0.13949071 -0.04011378 0.13853446 0.13879901 -0.029257458 -0.04022442 -0.16471758 0.21172743 -0.14917797 0.1836477 0.14785354 -0.022559252 0.08777007 0.10086162 -0.23679797 -0.10639864 -0.11009937 -0.3204256 -0.25671247 -0.21969883 -0.14893815 -0.13712436 0.03641815 0.04417362 -0.060900617 0.021483412 0.025333116 -0.15254897 -0.14221914 0.37573108 -0.2714885 -0.10983506 -0.15949722 0.27995202 -0.073241964 -0.2659852 -0.029932052 -0.2695008 0.07969906 0.02215994 0.38123775 -0.09931078 0.0048673055 -0.112702414 0.05811681 -0.43336368 0.3400833 0.0021779782 -0.21169376 0.06508508 0.16324839 0.09626147 -0.24672562 0.13315153 -0.19361065 -0.18207878 0.24089694 0.1712141 0.43833202 -0.2962973 -0.0010858072 -0.05501398 0.192905 -0.03915729 0.062178493 -0.042578366 -0.025812136 0.032243375 -0.1894629 0.15963267 0.19223337 0.20324834 0.10954956 -0.10377158 -0.22991592 -0.046987664 -0.04733773 -0.05216486 0.067504525 0.41398048 -0.21448945 -0.0032258877 0.23353274 -0.014641111 -0.04788658 -0.018589934 0.16872254 0.20615022 0.06981371 -0.17695722 -0.2700828 -0.035916336 0.020513488 0.18688782 0.017664693 0.15335299 0.1957891 0.05670382 -0.017052108 0.4781234 -0.20246004 -0.07854825 -0.023929197 0.08831828 0.32768598 0.15887038 -0.19320399 -0.2819999 0.0064868843 0.1751879 0.21312967 -0.16989774 0.0447036 0.14248806 -0.041516095 -0.16138618 0.15415652 -0.16773605 -0.24956264 -0.13134009 -0.020573929 0.073592834 0.053055175 0.1542409 -0.053388674 -0.19949417 0.117039636 -0.16331089 0.2169393 0.086368926 0.27545148 -0.04492918 -0.10502838 0.25067118 0.08769035 0.084216364 -0.23551625 -0.23985098 0.07602446 0.16037618 0.06418386 0.009361979 -0.05573244 -0.13739672 -0.35620052 -0.15625036 -0.03740742 -0.118331835 0.18377024 -0.09570832 0.07586085 0.23717397 0.07870766 0.21223615 -0.057393808 0.11164148 0.17279242 -0.059178833
dwelling 0.078228734 0.029704064 0.04445675 -0.052391633 -0.089627884 0.11547212 -0.02129788 -0.031248938 -0.18947719 -0.09228367 0.07311386 0.17743932 0.10025392 -0.17763734 -0.049122255 0.138242 -0.14620072 -0.21728577 0.14905377 0.03015657 -0.1905463 0.020487648 -0.13758993 0.1711872 0.012051597 -0.18632706 0.044931088 0.20206435 -0.011997992 0.22179641 0.086878106 -0.123253964 -0.04993609 0.017975032 0.12527306 0.0455782 0.011230299 0.24329923 -0.054001804 -0.08240188 -0.119989425 0.24475831 -0.1286328 0.020851009 -0.06957245 -0.017581407 0.06861682 0.15361528 -0.104497164 -0.04137973 -0.066320516 -0.11994323 0.16321737 -0.1694123 -0.36713314 -0.11556141 -0.17245372 0.16776597 -0.12240105 -0.27264032 0.14542305 0.0069476403 -0.13922276 0.35483062 -0.00050456886 -0.321627 -0.093508326 -0.16055806 0.12893009 0.08709742 0.11855849 -0.058809537 0.18120809 0.08218637 -0.006765722 -0.034734353 -0.17811562 -0.06270139 -0.18494114 -0.23971789 -0.05573446 0.27388546 -0.26108092 0.18157183 0.0074893655 0.024364835 0.104621 -0.0790456 0.22411036 0.24056369 -0.06387149 0.041709542 -0.29852977 0.13870884 0.23251994 0.06529344 -0.059998635 0.10780686 -0.099437416 0.19970882 0.12858285 0.18356778 0.27023596 0.10100121 -0.08778311 -0.3653092 -0.20842819 -0.035058733 -0.18892758 -0.033053298 -0.14055388 -0.3188242 -0.0908015 0.29147995 -0.050494175 0.36762398 -0.029765282 0.075814016 -0.0994216 -0.07360859 -0.11658452 0.008909816 0.090828866 -0.08718431 -0.1662866 -0.13432254 -0.28132826 -0.16757953 0.051623117 -0.2416166 -0.24850553 -0.14010397 -0.13378678 -0.15604472 0.100885004 0.06355743 -0.14382644 0.068129234 -0.080129616 0.011183229 0.27405497 -0.021128241 0.34499356 -0.23920372 0.043292403 -0.130457 -0.091628104 -0.19087574 0.044739407 0.048987925 -0.13171494 0.10416098 0.17564425 0.28780955 0.0654803 0.17386866 -0.0105863465 0.0050002844 0.14987025 0.32482964 0.068971105 0.087808944 -0.066637546 -0.10112815 -0.1755064 0.3203307 0.121802606 -0.007904857 0.23402464 0.06662984 -0.15868723 0.22098613 -0.013966111 0.14484946 0.27925092 0.21444261 0.06568721 -0.33601 0.21636403 -0.044295117 -0.1331863 -0.264968 0.13897903 -0.3589283 0.16025913 -0.10951588 0.17453966 -0.09093873 0.17649628 -0.08500659 0.09972942 0.18510424 -0.04294788 0.050335467 0.054623425 -0.09452411 -0.10830354 -0.2246789 0.14516065 0.1355683 0.06649408 0.17966448 0.055203937 -0.12440462 -0.29226497 -0.03216638 0.07704561 -0.2523632 0.15078987 -0.16445005 -0.11854391 -0.19038187 -0.39086917 -0.14463148 0.29969087 -0.19123888 0.31988114 0.32054502 0.010179264 -0.19848697 0.15720935 0.16372418 -0.04656952 0.08418616 0.10985811 0.20795794 0.111186996 0.17602526 0.025253937 -0.09511937 -0.25458533 0.1658595 -0.020815987 -0.15571466 0.45128125 0.27781245 -0.18007451 0.11186602 -0.24681695 -0.2146336 -0.120958805 0.2836268 -0.24867555 0.14286172 0.21587312 -0.074726984 0.12686825 0.14162853 0.14586394 0.08595659 -0.1415359 -0.16052267 -0.18328337 -0.0661871 -0.1496443 0.30577353 -0.050684277 0.03091804 -0.0036199277 0.18913111 -0.24758928 -0.31486657 0.16744229 -0.25929955 0.03770223 0.185815 0.11533855 -0.16149591 0.07772233 0.035375584 -0.12342043 0.3442621 -0.0007452685 0.11303767 0.12973103 0.08469527 -0.11465832 -0.12545939 0.2650779 -0.03282121 0.12676401 -0.0068788086 -0.13262485 0.39131707 0.10127217 -0.12769422 0.1699627 -0.25572172 0.3030733 0.35633814 0.18357578 -0.12241663 0.10207042 0.28245002 -0.36700484 0.2613442 0.06360392 0.1420056 -0.25375012 0.09422999 0.20444542 0.34589767 -0.19425958 -0.28543675 -0.037843786 0.14615692 0.37978217 0.013289064 0.23723496 0.33335477 -0.09617882 -0.19551456 0.10225737 0.1812854 -0.017523736 0.057426248 0.15149352 -0.22182523 -0.024592914 0.06629951 -0.096053265 0.14628533 -0.08964471 -0.047127355 0.07285056 -0.11719592 -0.03327346 -0.33382636 0.051185183 0.19373015 0.040598877 0.008379848 0.111857295 0.20588122 0.028367288 -0.06547051 -0.22624144 -0.16046986 0.19978863 0.20474589 -0.25455973 0.17724942 -0.026149666 -0.12682828 -0.0916795 0.09348837 -0.11353634 0.027362647 0.1683454 -0.2609153 -0.2232765 0.017684374 0.07563838 -0.0255736 0.18684478 0.0264097 -0.09892201 -0.19324522 -0.22079463 -0.2757099 0.11508474 0.23790944 -0.25183207 -0.004397654 0.015425036 0.06562613 -0.053870775 0.30413902 -0.35071737 0.18879922 0.05595356 0.11745689 0.26620147 -0.29894838 0.24700676 -0.02803158 0.093749896 -0.104828045 -0.20275706 -0.2576502 0.05650171 0.17202462 -0.03867214 0.2226735 -0.15875304 -0.14292221 -0.053212363 -0.18251084 0.18826461 -0.24422508 -0.21134634 -0.14731462 0.08242681 -0.12651631 0.10811317 0.15437575 0.19933324 -0.06913672 -0.15846488 -0.22003746 -0.262895 -0.25301504 -0.23206472 0.03343437 0.063775025 -0.1472054 0.123741224 0.051996507 -0.06483629 0.25572485 0.12381749 0.013956944 0.117387496 0.124119155 0.19318248 -0.15216146 -0.0021282376 0.23061064 -0.23854302 -0.16736735 -0.042063653 0.034338046 -0.029133344 0.045256305 -0.027727772 0.16119711 0.3787033 0.2090196 0.0895479 -0.32503274 0.05075487 0.10249556 -0.013760433 -0.028204523 -0.21840753 0.21346892 0.2461534 -0.09143699 -0.18743116 0.12690696 0.21595582 0.12572247 0.21385634 0.10264209 -0.15105091 0.25890967 0.018432656 0.17732187 -0.14978087 -0.24338034 -0.16893795 -0.07115481 -0.067280136 -0.12854147 -0.29839733 -0.07253394 -0.1419225 0.10135149 -0.24741948 -0.21101485 0.05950753 -0.004869942 -0.02603245 -0.2530482 -0.11971828 0.046092905 0.14838423 -0.15917766 0.1438879 0.016631369 0.12167079 0.113249466 -0.0020033498 0.0897253 -0.04923291 -0.22053838 -0.039331503 0.16622789 -0.40425158 0.1734514 -0.27621496 0.013084055 -0.07781176 -0.103040315 -0.20924418 -0.002891519 -0.011820569 0.10809146 -0.08046889 -0.039344855 0.05195783 0.32905397 -0.04673838 -0.14785762 0.34481466 -0.2530339 -0.12776299 0.14079465 0.065502346 -0.344446 0.0756714 0.18137382 -0.008083069 0.027713086 -0.2583792 0.24041155 -0.026879234 -0.08375925 -0.08271548 0.109517865 -0.18831754 0.011649922 0.12380516 0.026265517 0.16033001 -0.059885915 -0.04287005 -0.07389544 0.30793646 -0.10713914 0.07515806 0.042037345 0.22711605 0.19374846 -0.11810075 0.13502152 0.3177864 -0.010182559 0.033729356 0.291931 0.2512284 0.1697951 0.084396504 -0.24646346 -0.02166896 -0.229904 -0.13221508 -0.058935817 0.092649266 -0.070691936 -0.12241042 -0.10818447 -0.060074754 0.15809596 -0.11402217 0.21882665 -0.064071834 -0.30510214 -0.15420097 -0.29333693 -0.05039399 0.08070316 -0.17245688 0.19674022 -0.36489785 0.05802169 -0.150415 -0.07598721 0.025473705 -0.20014788 0.1938614 0.1297406 -0.014675271 -0.22729993 0.11270285 -0.15095632 0.14112994 -0.33299884 -0.020815548 -0.012523454 0.20709783 -0.09930758 -0.06302763 0.04503205 0.051636647 0.26571918 -0.08030856 0.050115492 -0.022996379 0.047658518 0.18575612 -0.13353181 0.1118304 -0.17758064 0.22318882 0.14579378 0.2533697 0.03563882 0.18271516 0.09707341 -0.063754275 -0.08440415 0.16871779 -0.16792083 -0.14903566 -0.26906177 -0.11586629 0.11524599 -0.12216177 0.12799154 -0.051392496 0.012110825 -0.34353983 -0.251116 -0.08277323 0.035126437 -0.017672788 -0.17539048 0.08164911 -0.01623967 -0.0067615714 -0.19530377 -0.25544128 0.0027568014 0.16317692 0.09645706 -0.0016240296 0.022915935 0.13564749 -0.03123429 0.106603414 0.0032509593 -0.26122928 0.023751 0.11686918 0.1310673 0.2422513 0.05495779 -0.11164814 -0.2538988 -0.18827769 0.21792823 0.18723553 -0.05521435 0.15162557 0.3443679 -0.005664216 -0.03118345 0.099211864 -0.07438499 -0.21140042 -0.21349855 -0.043932937 0.10641834 0.14281464 0.1126692 -0.3302335 -0.20592394 0.20646936 0.18414822 0.21052769 -0.19854587 0.16184248 -0.11349739 0.034216918 0.13460958 0.2677811 0.2880868 0.036269534 -0.30028045 0.05884755 0.13314663 -0.04657972 0.236088 -0.024338441 0.0960293 0.044321403 -0.32117638 -0.04211634 -0.089237615 0.0924879 0.20354064 0.15195984 0.022285134 0.203447 0.12340789 0.0054183686 -0.043903545 -0.1612223 0.20441285
animalwith 0.13322224 0.18710822 -0.104451165 0.090843365 0.25634608 0.3177588 0.27733788 0.40222487 0.10972531 0.27048576 0.078023314 -0.20268849 -0.19852868 0.012901914 -0.07937239 -0.3590293 -0.33477616 0.13356479 0.24238518 0.2113509 0.11082124 -0.30394462 -0.028693419 0.08339078 0.1307835 0.2254004 -0.15525363 0.12848887 -0.029251734 0.22064222 -0.1590449 -0.0050343736 -0.11860382 0.2749145 -0.000466495 -0.026579719 0.16745846 0.0426001 -0.15294833 -0.3503616 -0.10373322 0.015294661 0.09117331 -0.09459852 -0.051035367 -0.17094305 0.032873556 0.29780126 -0.23442002 -0.13564964 0.23516303 -0.20549397 0.12780711 0.083947115 -0.021262424 0.11266136 -0.070699416 -0.17361304 -0.017981727 0.11264273 0.39194453 0.15394917 0.13399997 0.4700713 -0.06203726 -0.19513814 0.25854194 -0.036856 0.2482722 0.12408116 -0.19421606 -0.11111488 0.056386225 -0.33494997 -0.08783497 -0.165075 0.005344203 -0.04228558 0.074589245 -0.07971651 -0.24237363 0.2738818 -0.16765416 -0.18269898 -0.13962018 0.17840016 -0.13953498 -0.07140642 -0.08513706 0.18432426 -0.09747399 0.02119863 -0.31556934 -0.0075910967 0.009375427 -0.106827565 -0.049132086 -0.0014497237 0.0646676 0.13705166 -0.1312321 0.40774432 0.22301467 -0.30087262 -0.19575074 -0.06012512 0.039602246 0.012213936 0.091426864 0.12207006 -0.25721985 -0.38883096 0.071180105 0.030554583 -0.036873214 0.3151903 0.20875052 -0.1396725 0.13537918 -0.1328866 -0.18640375 0.17627396 0.068580315 0.0038006415 -0.2888153 -0.18156861 -0.1640051 -0.14781983 -0.021540726 0.12601233 -0.051529795 0.20970075 -0.17211345 0.009864975 -0.030757852 -0.277929 0.14795633 0.08166381 -0.024251096 0.18416381 0.3295688 0.15509123 -0.10614849 -0.115849204 -0.07223324 -0.11699752 -0.2197892 -0.24093397 0.0056431685 -0.25684574 0.32273155 -0.040609792 -0.2227125 0.056805033 -0.23917659 -0.07267634 -0.3572549 0.16713442 -0.041905798 0.05814326 0.22117448 0.16616184 -0.11401775 -0.0060585244 -0.01473189 -0.05639277 0.020374818 0.18735118 -0.063884504 -0.05049678 0.14798793 0.36801374 0.123267286 0.07603577 0.32234234 0.36304766 -0.2558782 0.2188796 0.16789337 0.11951242 -0.2931483 -0.049577985 0.08185708 -0.26996216 0.1495863 0.053797092 0.07393523 -0.23732483 0.057980485 0.057360016 -0.2479566 -0.08086553 -0.24581279 -0.0053876187 0.07009726 -0.29117596 -0.15438615 -0.058188457 0.36128733 0.10413746 -0.09698113 -0.16463329 -0.28472784 -0.065536454 0.051857617 -0.16455698 -0.23624219 -0.3458791 0.11369335 -0.43854275 0.27591062 0.04982847 -0.34969392 -0.17910136 -0.19107874 -0.027378868 0.053747777 0.22511971 0.36142877 -0.061036564 0.15385391 0.10457977 0.013282999 0.21656269 -0.16995846 0.24533051 -0.09624492 0.28732413 0.11276718 -0.07343276 -0.17019123 -0.1819254 -0.13838555 0.07881296 0.3331453 0.18413661 -0.148755 -0.023144348 0.06630591 -0.098486096 0.08699609 0.35664752 -0.38985908 0.30655748 0.11718927 -0.13591106 -0.14804986 0.2735354 0.17637882 0.03907577 -0.037330125 0.103866816 0.19080158 0.28141338 -0.19572087 -0.06561368 0.11478614 -0.008238236 0.036063395 -0.17175187 -0.11546675 0.029020254 0.050422724 0.007009607 0.2295504 -0.017160945 -0.17161602 0.20096406 -0.005747799 0.23116414 0.085500255 0.27888295 -0.16330272 -0.23200619 0.029920554 0.17205177 0.1197643 0.14106178 0.14011921 0.12942216 -0.0910103 0.08398872 -0.075879164 0.33577845 0.08420333 -0.0373679 0.023685137 -0.27276447 0.12899148 0.21428183 -0.008801867 -0.21877153 0.17439184 -0.020150531 0.00021362939 0.10906159 0.23273021 0.15237117 -0.00032443707 0.32621613 -0.14178789 -0.15262306 0.0024718356 -0.20918939 0.20222716 0.25069857 -0.0017336329 0.16801459 0.18121406 0.18807672 0.19179484 -0.07399476 0.037057128 -0.06334483 -0.30378065 -0.11174619 -0.114882804 -0.059530906 -0.009605147 -0.08977929 0.17830114 0.028578667 0.09770659 -0.16932888 -0.093130425 -0.40805694 -0.078197055 -0.45571184 0.22704576 0.20624581 0.15736751 -0.06497194 0.07602303 0.08915198 0.30484414 0.3019006 0.15633681 -0.08578246 -0.08651543 0.16225067 0.14558077 0.107595354 -0.07495253 -0.02328116 -0.18846504 0.18995681 -0.12103221 0.17744587 -0.02948075 0.0025143875 -0.010901471 0.24462824 -0.07710008 0.14191392 0.11492961 -0.18534902 0.19079737 -0.2661134 -0.17392501 -0.3009707 0.23404212 -0.012454954 -0.31775472 -0.10759711 -0.3006327 -0.024903428 -0.034910508 -0.01586159 -0.19567996 -0.10770185 0.037012327 -0.18558057 -0.14259775 -0.0144771645 0.2659692 -0.17796654 0.27019948 0.1517012 0.0008495232 0.037321467 -0.09301558 0.1577787 -0.2908705 0.025406286 0.20454977 0.16782449 -0.13146885 0.055481687 -0.13504632 0.028339457 -0.22911207 0.10285774 -0.10413182 -0.23492938 0.29965594 -0.26052862 -0.11143678 -0.029127311 -0.11355508 0.01161806 0.0010347947 -0.24422142 -0.017975003 0.018822044 0.0430919 0.21455123 0.038476095 -0.24593678 -0.2565978 -0.025848389 0.30109626 -0.008222377 0.18063036 -0.30251056 0.21807858 -0.2711786 0.108205885 -0.06689137 0.21676816 -0.1929488 0.106875576 0.117460124 0.019674072 -0.12680809 0.09962248 -0.16485406 0.24040298 -0.013069144 -0.11422258 -0.39358556 -0.2895206 0.12946644 -0.0503443 -0.18968445 -0.11332502 0.10198152 0.36721027 -0.13459718 0.13848785 0.21430148 0.23604786 0.07718937 0.3394611 -0.0046962355 0.05324474 0.25241295 -0.071066715 -0.07299487 0.08364266 0.037471123 -0.35906255 0.24136205 0.0699656 0.0076452303 -0.26648396 -0.029310917 0.110675484 0.34408385 0.060832646 -0.21364297 -0.07098882 -0.26993865 0.41572705 -0.20046781 0.14994285 0.07701004 0.018256769 -0.08629497 0.14819458 -0.04008813 -0.049373593 0.05071946 0.16478513 -0.1801881 -0.14678876 0.12582277 0.07448813 0.16630755 -0.39536834 -0.055467185 0.026953284 0.17176111 -0.2176296 -0.024190571 -0.10044856 -0.23208608 -0.092596315 -0.03154847 -0.19947474 -0.24540678 0.22232912 0.31085458 0.052779216 0.08937382 0.33226448 0.1718743 0.020130023 -0.24733365 -0.048696116 -0.25187302 0.025180804 0.13216922 0.2261467 0.12597394 -0.0800792 0.15319964 -0.011302671 -0.0047321417 -0.09067956 0.040925797 -0.039520543 -0.083772 -0.16202372 -0.2655052 0.30131 0.0967047 0.10668385 0.21358122 0.30558223 0.10900023 -0.18313341 -0.09761312 0.12971696 -0.12314202 -0.10387276 -0.28292125 -0.06732426 0.0897759 0.17846492 0.025097013 0.056562275 -0.14140077 0.04109781 -0.07107346 -0.0865207 -0.21254916 -0.2767763 -0.2530018 -0.10247137 -0.17600822 0.051106334 -0.14636621 -0.034747086 0.2184714 0.06476362 0.15302765 -0.17812186 -0.041487556 0.036904976 -0.2256937 0.18465057 0.46406382 0.15539096 0.07733716 -0.36195934 0.17003572 -0.23286895 -0.10715737 -0.0015236691 0.0934157 0.2301908 0.11358449 0.19884366 0.1712419 0.22536397 0.10968498 0.035072394 -0.30167195 0.108040616 -0.2197003 0.012312658 0.16553123 0.20561656 0.05486958 -0.31603616 0.18745297 -0.18491855 -0.33902386 0.09277767 0.0010281954 0.22949736 -0.44864246 -0.031738304 0.26461536 0.21799041 0.16798179 0.022289727 -0.035029557 -0.18123297 3.0864245e-05 -0.24362023 -0.061339278 0.014662912 -0.07008432 -0.22995523 -0.11989195 0.068307154 0.07927338 0.033604883 0.04830507 0.22928554 0.36564916 -0.19068028 -0.31614482 -0.2001268 0.1481592 -0.19627948 0.07903227 0.07922573 0.28831568 -0.1986901 0.078372516 -0.3028637 -0.15022783 -0.04346246 -0.16898508 0.33081585 0.01610177 -0.18984762 -0.16755973 0.31935024 0.19557768 -0.08750062 -0.11187404 0.036664326 -0.124061935 0.09556884 0.067799315 0.0877619 -0.31309274 -0.18346794 0.10739078 -0.017883888 0.012129363 0.2384797 -0.047911145 0.18339871 -0.046120778 0.05539381 -0.35485283 0.16952664 0.23013566 0.1720013 0.20859462 -0.28234625 -0.17322318 -0.27816397 0.060873773 0.21388356 0.065350324 -0.18302983 0.2859976 -0.113783225 0.027591405 -0.1565752 -0.06093605 0.08105621 0.09820456 -0.16362448 -0.07911724 -0.017716635 0.21507987 0.05711413 -0.023836372 0.05846463 -0.038872067 -0.2690822 -0.08168742 0.05419162 -0.09920534 0.13630167 0.067725204 -0.15532844 0.13026677 0.11640572 0.23706667 -0.08955218 -0.07981373 -0.1384108 0.3180414
moving 0.14774857 0.11801504 -0.1317063 0.08159557 0.18645059 0.09056102 0.08301964 0.24367799 0.06453511 -0.08374154 0.26692122 -0.092146434 -0.2767824 0.008467691 -0.23451652 -0.29840794 -0.17919666 -0.104863815 0.042731162 0.11472224 0.08430697 -0.22516501 0.27063507 0.10701973 -0.23536687 -0.017539987 -0.1804936 -0.0051957406 0.013706455 0.18789749 0.26456547 -0.2129176 -0.15285118 0.20826383 0.006824832 -0.14231086 0.08936625 -0.20262231 -0.24044901 0.049833097 -0.43939987 0.19938268 -0.24438378 0.043434896 -0.26321977 0.050054695 0.011938835 0.14264934 -0.16397892 -0.031621933 0.26201805 -0.033839315 -0.032329585 -0.00024709027 -0.21295947 0.03636193 0.02207435 0.027549982 0.14445741 -0.055749312 0.023205454 -0.041501805 -0.2621533 0.3645592 0.16960464 -0.16095567 0.11113418 -0.19321042 0.09570158 -0.022491848 0.08913895 0.07775864 0.07832212 -0.21086523 -0.03725511 0.15080321 -0.3223307 0.10559772 0.07507943 -0.37528482 -0.21554865 -0.065660864 -0.3420046 0.07860814 -0.18061452 -0.034745052 -0.12133287 0.16855381 0.17452763 0.35133132 -0.35065627 0.11578546 0.07216753 0.045550637 0.2502505 0.0039753746 0.14128284 0.12807252 -0.28704295 -0.089902185 -0.20686303 0.07333967 0.22232266 -0.21111673 0.038747054 -0.3920638 -0.13202271 -0.11518209 0.0051231035 0.0078255255 -0.038970586 -0.39735872 -0.3340023 0.26605824 -0.28663492 0.3031103 0.054233354 -0.15782467 0.01018428 0.05164102 0.0049373554 -0.10145843 -0.09115918 -0.2996072 -0.18195632 0.07017801 -0.4446467 0.0021375506 -0.22371218 0.021608511 -0.01062377 0.14559786 -0.023790712 0.080523565 -0.08421835 -0.1560398 0.2340177 -0.21505176 0.050025273 0.1511351 0.30547938 0.10781995 0.31284592 -0.21355598 -0.14089413 0.0135950325 -0.11189111 -0.008313267 0.054149017 0.06944224 -0.035266176 -0.17650189 -0.056155913 0.02121832 0.031954568 0.20875415 -0.051115062 0.2186961 0.04175335 0.27538013 -0.1969931 -0.2201829 0.05228203 -0.27258548 -0.07322379 0.31293163 -0.174717 -0.03857625 0.049904015 0.19154215 -0.23081112 0.07652382 0.19266938 -0.0052505997 -0.030701166 -0.06789381 -0.1859661 -0.034336604 -0.0107200965 0.1600961 -0.1538442 -0.040517382 0.07350623 0.00415975 0.21198764 0.08122686 -0.08669332 -0.13678847 0.027861139 -0.14564486 -0.18962859 0.105602615 0.15523359 -0.23639776 -0.1688304 -0.35068807 0.11060561 0.013789772 0.17737295 0.24919502 0.14720678 0.24888249 -0.20772491 -0.0061614946 0.027864676 -0.21664095 -0.036684394 -0.18201189 -0.078466624 -0.19212049 0.25014025 -0.19252658 -0.20331846 -0.29067987 -0.0025822183 0.0062953252 0.16432194 0.17969744 0.22205642 -0.2549665 0.19673868 -0.062371105 0.2347095 0.15306799 0.096317574 0.12444768 0.04682635 0.046516098 0.018248409 0.02780848 -0.22878416 0.14396511 -0.21054146 -0.108074114 0.2987896 0.32597703 -0.18475258 -0.015704606 0.06400803 -0.34466076 0.16231425 0.3505673 -0.3893903 0.25668922 0.035603564 -0.012137038 -0.20572461 -0.075534195 -0.06396687 0.080966696 0.08800898 -0.24722536 -0.02482394 -0.06660868 0.077391274 -0.009158735 -0.008387434 0.11845029 -0.11230134 -0.15571436 0.03625896 -0.06615836 0.03602151 -0.07472327 0.21107711 0.0027122714 -0.034324665 0.049737662 0.085573494 0.11166282 -0.2559896 0.043724634 -0.18138933 -0.11686335 -0.14918827 -0.016833255 0.08012764 -0.07400033 -0.074255265 0.04750374 0.0891719 -0.16226329 -0.010514123 0.5217959 0.0934446 -0.10905578 -0.09954833 -0.32986096 0.31407118 0.3126006 0.05391554 -0.26269147 0.08955451 0.3037577 -0.1955534 0.30374247 0.09574264 -0.08286728 -0.0018184523 -0.11558126 -0.06009174 0.22774887 -0.005143304 -0.028695442 0.11429339 0.24589959 0.3466374 -0.1462525 -0.024527349 0.5924314 0.09292033 0.04198649 -0.026218543 -0.07598278 0.12975837 -0.166081 0.054727767 -0.1419509 0.24031582 -0.15139304 0.10448747 0.08790685 -0.1199478 -0.27723297 -0.16374278 -0.4040926 0.1193004 -0.09298488 -0.03152789 -0.018579647 -0.060640037 0.009953842 -0.17469738 0.030959282 0.32265538 -0.085675664 0.031929743 -0.19246149 -0.06378246 0.19368757 0.051085465 -0.008385114 -0.03499371 0.14826491 -0.2491781 0.032106347 -0.35867628 0.35506794 0.10056661 0.10593535 0.030358307 0.04009118 0.1406427 0.014225519 -0.25206542 -0.07907912 -0.16210844 0.07651837 0.05280389 -0.10368161 0.21600516 0.146714 -0.112995796 -0.16970478 -0.20063367 0.27885914 0.023155967 0.24264248 -0.029400244 -0.025111932 -0.06279352 0.17233706 -0.10314389 -0.3316316 0.06603542 0.04918438 0.36406305 -0.025830064 -0.33139148 -0.17302546 -0.18372819 0.20653072 -0.0450445 0.011029288 0.0542326 -0.16810596 -0.0071217446 -0.019272422 0.23588799 -0.05414718 -0.028743481 0.19054592 0.024075594 0.0957448 -0.010673661 -0.20871754 -0.1675791 0.14021406 -0.025821213 0.14296691 0.07370445 -0.12734567 0.13151477 -0.12440655 -0.09429023 -0.10274171 -0.14121808 -0.11406804 -0.04403865 -0.032320373 0.22433509 0.030788016 -0.14689092 0.025641093 0.27137867 -0.2832467 0.28946668 -0.027775941 -0.022331512 -0.033767913 0.09799464 0.20268941 0.22670212 0.017895259 -0.06490218 0.0684082 0.2182077 -0.13306522 -0.1358861 -0.22221465 -0.23042299 0.17510465 -0.08799261 -0.23464625 -0.09007033 0.19758536 0.1325654 -0.076880805 -0.18203625 -0.022989336 -0.02921306 0.011954903 0.17540336 0.1302746 -0.26201952 -0.000755994 -0.17130335 -0.09914209 -0.106151134 -0.36017913 -0.23753051 -0.0051369364 0.11326956 -0.107025765 -0.27135196 0.17372179 0.14164437 0.30849174 -0.10061704 0.1931969 0.16497877 -0.22262608 0.24779491 -0.14123766 0.06853925 0.055449296 -0.10354016 -0.41734526 0.19429743 -0.029210782 0.12830009 -0.14077872 0.26439163 0.08554151 -0.023575144 0.086465605 -0.021677267 -0.10059448 -0.4520118 0.082099736 -0.27794573 0.005541604 -0.108952664 0.062176153 0.11659619 0.13095418 -0.14105096 -0.02460316 -0.08954027 -0.01702196 0.31959748 0.1662183 -0.0100782765 -0.08743896 0.36158958 -0.092410155 0.14231405 0.08158061 0.33276966 -0.26342025 0.012796996 -0.2808449 0.18086976 0.14407665 -0.12633066 0.011894018 -0.0023916946 -0.2223567 0.10697019 0.12197327 -0.02633132 -0.14133084 -0.074148305 -0.1252355 0.1341724 -0.018941898 0.038566295 -0.049196646 -0.101792365 -0.17210746 -0.030783448 0.07214281 -0.22437206 0.21433522 0.028134944 0.1857742 0.26655295 0.10592137 -0.23081455 0.20106189 -0.018109813 -0.15236981 -0.0862363 -0.16243985 0.22848949 0.17500125 -0.10877509 -0.110833794 -0.28823957 0.02343161 0.047470607 -0.15660812 -0.084967226 -0.054054823 0.060532592 0.08553313 0.1492716 0.02774672 0.21245174 -0.13925426 -0.15302561 0.41730565 0.04852469 0.052836377 -0.2998266 -0.042289265 0.10096321 -0.016859714 -0.005822372 -0.22507489 -0.0034525723 -0.0380593 0.046329767 -0.0266567 0.067058004 -0.07656759 0.03647367 -0.33084434 0.0657224 -0.02177067 0.031399373 0.16251305 0.055352163 0.373498 -0.218598 0.30670056 -0.20869626 -0.13325405 0.08713462 0.09813239 0.38352025 -0.35914105 -0.13347025 0.022473922 0.32939732 -0.10239928 -0.060971655 0.116112106 0.02621733 -0.008765637 -0.2451806 0.24365582 0.20487674 -0.014811864 0.1130678 0.05289678 0.14754933 -0.2712247 -0.31918988 -0.19464068 -0.110419154 0.08564237 -0.48507038 -0.16775227 -0.11480278 0.11285025 -0.22111306 0.16704726 -0.18487921 0.094603635 -0.21010982 0.2049499 -0.07539224 -0.3384624 -0.023465285 0.105884574 0.33162424 0.059892252 -0.12103075 0.0025457465 0.22775209 0.23591572 0.11513707 -0.02474582 -0.14277062 0.095232636 0.17397685 -0.026605913 -0.020406466 -0.16191696 0.0010867671 0.1706353 0.31798494 -0.037348323 0.036329694 0.13215557 -0.11419557 -0.16252415 0.09360157 -0.20125428 -0.18140526 -0.22471216 0.12035704 0.123993896 0.035532467 -0.09339006 -0.11366256 -0.19523677 -0.033513505 -0.20890065 0.13435017 0.21712533 0.20938744 0.06417911 -0.048572462 0.21951686 0.36372754 -0.041656822 -0.027580844 -0.2673807 0.11181308 0.03391448 0.056620773 0.21070555 -0.22167286 -0.079799205 -0.064825565 -0.2898009 0.16685152 0.20699263 -0.09934305 0.20374379 0.060534567 -0.017887572 0.25404853 0.06982691 -0.04166302 -0.12804155 0.0154404985 0.2506652
