321 680
has 0.12745981 0.2723704 -0.17332006 0.05774694 -0.14005436 -0.04048176 -0.11779273 -0.10877542 0.2630639 0.014543068 0.17522943 -0.0050549833 0.11699697 0.064397976 0.00063553656 0.088604905 -0.17217562 -0.021896582 0.16537896 -0.10374703 -0.046384595 0.20983781 0.100836895 0.016925449 -0.13719855 0.1302168 -0.040446885 0.11269459 0.16604732 0.14558738 0.1831969 0.031947948 0.14347368 0.2686509 -0.18691526 -0.06168576 -0.37451306 -0.10163722 -0.18548185 -0.22685052 -0.18279956 0.33620137 -0.21003161 0.2170003 0.049455695 -0.16018936 0.049371768 -0.13526735 0.14348537 0.118927866 0.03450142 -0.077997416 0.26026165 0.035426315 0.031494256 -0.07717923 0.24726896 -0.023934051 0.22847417 -0.097284414 0.23511161 -0.0054553156 -0.21474496 -0.14182703 0.019202996 -0.20174019 0.22761264 0.11483012 -0.11483204 -0.07262228 -0.13244978 0.15425785 0.05190883 -0.2505348 0.020169413 -0.027647322 0.15475403 -0.033176117 -0.009319385 -0.02259136 0.15971725 0.16438846 -0.09776199 -0.07448813 0.21562931 -0.0496939 0.11035058 0.32532567 0.054078523 0.00969373 0.080625854 -0.00092235004 -0.13410544 -0.31921667 -0.05978039 0.3016936 0.21153705 0.13510087 -0.05933494 0.058231566 -0.0410726 0.03755867 0.14132607 -0.057418466 0.18841042 -0.043121435 0.075035736 -0.05979031 0.08184292 0.10570972 -0.11337266 -0.13592395 -0.24399365 0.060024645 -0.12147463 -0.16412601 0.20279858 -0.20287272 0.12878333 -0.2426356 -0.12961285 0.044626188 0.001311291 -0.1870255 0.21651728 -0.036521863 0.14682353 -0.14066863 -0.03294222 0.044472795 -0.2830319 -0.13483149 0.029585201 -0.077745445 -0.060716756 0.0017629393 0.012741082 -0.0026903567 -0.117129356 0.09223765 -0.18705206 -0.1581209 -0.02315578 -0.005596453 0.18633084 -0.07005746 0.04744092 -0.036391117 -0.0316298 0.048410106 0.057591785 0.014946118 -0.16762891 0.1444418 0.13793163 -0.045837075 0.16094673 -0.00635587 0.18488775 0.19696029 0.049011774 0.13079208 0.16854884 -0.031920634 -0.104625925 -0.040048156 0.12407886 0.06450407 0.18797816 0.15724705 0.12913668 -0.0052868975 -0.029675605 -0.16352914 0.050239347 0.059171718 0.06981291 -0.05693209 -0.1344942 0.22808261 0.067869514 0.17340392 0.053350076 -0.19590338 -0.015482877 0.20408034 -0.00054204254 0.059708938 0.15820403 0.16966125 0.13654304 0.0047075558 0.26577732 0.05158943 -0.13471252 -0.07345158 -0.09070176 -0.1277585 -0.0014328022 0.22781906 0.12824506 -0.12720984 0.07663075 -0.2795921 -0.21946985 -0.20995773 0.120581895 -0.13419914 0.03006183 0.003487657 -0.081330456 -0.024179226 -0.0038907297 0.065244265 -0.013804441 -0.26072666 -0.06693648 0.26288787 0.05774687 0.20265062 -0.14951578 0.30082223 0.1766606 0.2098786 0.019694854 0.10367362 -0.04679481 -0.022388259 0.13043813 0.27056506 -0.11263009 0.12220206 -0.041753735 -0.12820154 0.10959437 0.20872153 -0.027862852 0.2579213 -0.15521151 -0.010049786 0.08890293 0.19006379 -0.017493855 0.13213791 -0.11117861 0.011993293 -0.23028603 0.08333735 -0.08711481 -0.06620866 -0.15033425 -0.12997007 0.06459911 -0.09910286 -0.045581102 0.07206823 0.088773586 -0.17045829 0.063936785 -0.044185326 0.06319905 -0.0458359 0.10006003 -0.107735574 0.12019914 -0.066508316 -0.08550981 0.030272169 0.07184539 0.15053838 -0.06924984 -0.15547462 0.040195245 0.096421316 -0.2682883 0.33851576 -0.154308 -0.007705282 -0.0029761137 -0.07165334 0.038905863 0.042948946 0.10213664 -0.02198878 0.078221105 -0.22986795 0.14701469 0.027729059 0.037541077 -0.029470751 -0.10254789 -0.0624805 -0.076492555 0.25272307 -0.29149354 0.021893118 -0.008979011 -0.24794194 0.008597436 0.14679165 -0.04313638 0.1708031 0.055430617 0.11796784 0.15729825 -0.044249278 0.12167525 -0.049057133 0.09948052 0.117261976 0.1184542 0.05329803 0.058935456 0.11445517 -0.177578 -0.029319584 -0.00076275994 0.044315245 -0.26314458 0.28013536 -0.154617 0.017300908 0.0024118407 0.16425662 -0.06274698 -0.106758386 -0.19569258 -0.15207617 -0.08325053 0.1592604 -0.15123887 -0.0275089 -0.04914844 -0.05087671 0.13032976 0.08778534 0.07778942 -0.21769348 0.07333577 0.2738539 0.003198917 0.04012367 -0.14250611 0.28108546 0.12307575 -0.13320586 -0.26005295 -0.121726155 -0.035205107 -0.08237255 0.12838991 0.26053318 0.15118495 0.07132896 -0.1628434 -0.037348416 0.08022561 -0.107011475 0.15873107 0.15562241 0.16194281 -0.01731002 0.106154054 0.075709134 -0.10804645 0.26975235 0.033737205 0.033547577 -0.07544703 -0.09239387 0.11793961 0.021430539 -0.099895194 -0.18143108 0.09614158 0.20859791 0.05354688 0.1499632 -0.33626035 0.15255389 -0.033262253 -0.012881305 -0.19165833 0.13886249 0.20240279 -0.0058570458 0.17364009 -0.079255275 -0.025138432 0.0729471 -0.21551923 -0.17764056 -0.12981728 0.01216728 0.005996894 0.15037075 -0.055919677 -0.10270687 -0.19237795 0.092920765 0.29670876 -0.11078231 -0.059056893 -0.049172454 -0.16200177 -0.049895283 0.04382707 0.00070139335 -0.015549725 -0.028372064 0.008363023 -0.30586013 0.10306805 0.18166304 0.31197074 0.07457007 0.03612034 -0.11074623 0.22694504 -0.11878129 0.22314455 0.015229398 -0.041524593 0.009708597 0.15621755 0.080940396 -0.1419484 -0.023097508 -0.110876 -0.0897044 0.060940944 0.0802312 0.1473127 -0.16632208 -0.019017119 0.32630837 0.055757158 -0.09041961 -0.004891898 0.036969244 0.07848093 -0.013191482 -0.0390265 0.086495325 0.19487542 -0.054547384 0.20360725 -0.0079110535 -0.15836295 -0.24454911 0.010439999 -0.2081537 0.15198515 0.0069482685 0.024338117 -0.035944134 -0.04360235 0.23940721 -0.18501475 -0.08925185 0.08279195 -0.061775632 -0.023152422 0.045198847 0.16518137 0.10267867 0.19080469 -0.14490908 0.14232129 0.064198345 0.13964014 -0.24777626 0.0644953 -0.21794893 -0.12770657 -0.22225088 0.14369334 -0.17361292 -0.37638003 -0.08516179 0.032828625 0.080463536 -0.051514734 0.13348123 -0.14325835 0.13283208 0.23341346 -0.010861229 0.1438033 -0.03407862 0.14998807 0.06937741 -0.031388946 0.04976409 0.054694787 0.05928343 -0.06152638 -0.14309849 0.26469386 0.1716621 0.10024762 -0.041493703 0.080110304 0.030462557 0.05469985 -0.03589126 -0.1254909 -0.11258349 -0.2264601 -0.041925624 -0.0077868584 0.017755063 -0.10802083 0.17691652 -0.07459538 -0.10527777 -0.07215278 0.2543626 0.10688807 0.08238258 -0.11086724 -0.168322 -0.110310525 0.024195274 -0.16923553 0.20945473 -0.047341764 0.13225734 -0.10333687 0.02233922 0.11408921 0.018640881 -0.032825727 0.1535896 -0.10702494 -0.01123546 0.2235135 -0.14862101 -0.0154347075 -0.0900164 0.17407893 0.029796654 -0.23306218 -0.06477551 0.024051314 -0.01565258 0.012154704 0.030024342 0.13817605 0.12797697 -0.0684993 0.19529182 0.13044327 -0.1669628 0.18707405 -0.024778191 -0.08945761 0.041514494 -0.20584355 -0.11126086 -0.07104758 -0.03428059 0.23321271 -0.0017712871 -0.0037248721 -0.24352853 -0.03133172 -0.29016155 0.12998612 0.21761268 -0.16927949 -0.046562415 0.20962168 -0.036125515 0.19817126 0.09935482 0.1709104 0.12555568 0.16004728 -0.08630806 0.26214474 -0.015256568 0.074821256 0.19703577 -0.09141322 -0.07174285 -0.18495575 -0.22463048 -0.3414413 0.022640292 0.12454241 -0.049295705 0.005754654 0.01652214 0.17466052 -0.34606448 -0.18683453 -0.0043065837 -0.22042195 -0.13776995 -0.2830217 0.07074177 -0.21849987 -0.037603352 0.027218744 0.16675547 -0.08709938 0.100245394 0.08011687 0.39003745 0.24152672 -0.112938814 0.027432656 0.012310355 0.22858927 0.09428521 0.033174507 -0.025164047 0.20749496 -0.06725507 0.11468786 0.13987201 -0.26354024 -0.0640683 -0.32328773 0.049180716 0.24543838 -0.049669117 0.15360756 0.21946448 -0.0035950947 0.054573476 0.30607405 0.05319187 0.2744926 0.03940001 0.060596406 -0.18462908 -0.08918285 -0.008634329 -0.034357212 -0.13870193 0.18960972 0.12196394 0.22993368 0.3942071 -0.018489772 -0.16342343 0.23062952 -0.23833407 0.3392617 0.07086071 0.01098019 0.20220037 -0.13765465 0.083966054 0.111740455 -0.13384137 0.06875883 -0.21506326 -0.11979797 0.051269174 -0.080804035 0.2593816 -0.22005445 0.13095453 0.011637345 0.10098675 0.03048403 0.16890119 -0.2120449 -0.021225575 -0.15645908 -0.10211327 0.21928042 -0.018124288 0.0015095434 0.08535373 0.13836136 -0.018952047
type -0.03527969 0.11645729 -0.1883241 0.06917831 -0.0510033 0.2538383 0.01908642 0.0680043 -0.034536548 0.004844501 -0.1746722 -0.112056404 -0.10948578 0.032018557 -0.077313796 -0.13944572 -0.034611568 0.05534409 0.23887219 -0.22598223 -0.061381876 -0.079644 -0.18131892 0.2649883 0.105279975 -0.019836228 0.13851044 0.15355387 -0.11178199 0.2704226 0.118293814 0.112666026 0.08087926 0.1979291 0.13034312 0.22614507 -0.04595785 -0.19082047 -0.17654972 -0.3588594 -0.1628293 0.25398 0.061070748 0.07686408 0.22889753 -0.38806814 0.10955003 0.079699576 -0.18958114 -0.15484408 0.119532585 0.0499372 0.14514638 -0.027993103 -0.022704527 -0.20322323 -0.017456448 0.14881214 0.108985186 -0.06482753 0.3035066 -0.18053333 0.043379646 0.13039756 -0.15380962 -0.04535753 0.23562375 0.1878716 0.02053789 0.14132036 -0.16996142 0.30210334 -0.26354948 -0.035318404 -0.009743009 0.030077478 0.06929301 0.03236601 -0.096352525 -0.0064746873 -0.07594091 0.3181096 0.023918228 0.04167934 0.17916915 -0.10372199 -0.1849125 -0.025419297 -0.05887556 0.08862954 -0.080514215 0.026827736 -0.05653136 -0.4110613 0.1187277 0.08772036 0.25683713 0.20008785 -0.107687734 0.0657289 0.066286944 0.12570554 0.21671523 -0.00056163187 -0.0644791 -0.16292086 0.0032188292 -0.02057401 0.02650999 0.25010315 -0.27111664 -0.08425984 -0.041048568 0.18289517 -0.13884243 -0.11986063 0.24050127 -0.13535468 -0.02155288 -0.11958627 -0.19091177 -0.04114306 0.15720968 -0.19965537 0.026388006 0.13951719 -0.039893914 -0.046490178 -0.32973295 0.1750368 -0.29863504 -0.18124202 0.18568791 -0.17573982 0.23728274 -0.077436514 -0.12320177 -0.12176753 -0.059506208 -0.06388803 -0.08743867 -0.2543292 0.14256306 -0.1322873 -0.03784824 -0.09909679 0.2306982 0.119759746 -0.095905125 0.029577821 0.124471195 0.29542938 -0.12586524 0.22117731 -0.21452013 0.16158763 -0.019540055 0.012622226 -0.100575976 -0.028837044 0.2527015 0.015082546 0.053159665 0.069662675 0.087768994 0.26815912 0.014021968 -0.13638963 0.24604687 0.11097584 -0.24280696 0.25374237 0.17408559 0.1305048 0.24275261 0.07699949 0.05772039 -0.023920152 -0.16785438 0.006658967 -0.077234864 -0.077645235 0.017753161 -0.117567115 0.06434358 -0.093807094 0.15754747 0.029595029 0.14597665 0.28238812 0.112177975 0.08126097 0.09289984 -0.23236789 0.0695349 -0.14269 -0.09024022 -0.22735001 -0.20674272 0.27263072 0.018443257 -0.17659302 -0.080168754 -0.11228464 -0.39415997 -0.0428044 0.08665687 -0.011910657 -0.004836155 -0.103936546 0.15222785 -0.12681083 -0.09655264 -0.085148856 -0.028330134 -0.0021862364 0.16070856 0.19623242 0.24704757 0.20775536 -0.032826886 0.32407734 0.20217666 0.22287539 -0.04251151 0.2514046 0.0008273301 0.04088013 0.24304268 -0.007815012 -0.13483433 0.15665603 -0.17543533 0.050540518 0.13781852 0.23305929 0.08177529 0.123519 -0.20921518 -0.28506815 0.14808564 0.1874363 -0.041797966 0.088724405 -0.06796153 -0.09232029 -0.35814005 0.08975516 -0.11342629 0.11728143 0.0027920257 -0.12653993 -0.030854808 -0.061352175 -0.17567667 0.15049212 -0.056616094 -0.07202806 -0.038806323 0.06145851 -0.16155867 -0.070048735 -0.031233948 0.1760883 0.15470912 -0.22528361 0.07229449 0.066378586 -0.14356793 -0.1781828 -0.21337995 0.07592931 -0.12542486 -0.10956562 -0.1407094 0.11024439 0.084042475 0.12873644 0.2517358 -0.31137827 0.09693923 -0.016794128 0.0032421092 0.16749424 -0.019088 -0.13468222 0.0019695044 0.05875664 0.23418313 0.20487116 -0.07202071 -0.19880049 -0.04553137 0.314958 -0.35572657 0.197813 -0.19590014 -0.09121357 0.028200142 0.25638092 -0.03527276 0.2101404 -0.13152537 -0.057603307 0.1647278 0.025338985 0.1918555 -0.012346364 0.04657967 0.17815472 0.22719212 0.24532606 -0.17134263 -0.116088316 -0.28068864 -0.12854403 0.04649031 -0.0881345 -0.16398753 0.12917757 -0.11511515 -0.014868959 0.054097045 0.32516563 -0.2864409 -0.03231091 -0.22962274 -0.059368327 -0.13894437 0.18934499 0.17891909 -0.08742362 0.011591993 -0.089811936 -0.03474792 0.20175679 -0.22071868 -0.22586186 -0.20051989 0.21622051 0.025303042 -0.03541897 0.040879644 0.16311203 -0.10391081 0.1531247 -0.4601964 -0.22315325 0.07315535 0.07898552 0.041517947 0.13491933 -0.18838958 0.1957642 0.040974125 -0.06966302 -0.007426951 -0.03218899 0.14188844 -0.0074106613 0.18887833 -0.19547123 -0.2177282 -0.059545044 -0.27382624 0.13338344 0.15750735 0.13427608 -0.12755 -0.04615904 0.16345412 -0.07264544 0.020747986 0.06130234 0.088511206 -0.18091767 0.3719173 0.0034427496 -0.21540813 -0.17902179 0.1432669 0.052563723 -0.12670414 -0.1182916 0.2229236 -0.0652883 -0.2607074 -0.17939381 -0.27697405 -0.078905135 -0.02337914 -0.25960654 -0.08955404 -0.06525516 0.11991665 -0.031342 -0.06431095 -0.07031283 -0.20633277 -0.028822418 -0.01299077 -0.22626224 -0.03643846 -0.01862339 -0.2117019 -0.098722145 0.22832936 -0.10827954 -0.19757971 0.009432291 0.08196999 0.01915628 0.09375282 0.014076845 0.018034019 -0.044724982 0.06554291 -0.1860915 0.31967536 -0.1352513 0.16727082 0.01617277 0.0010826694 -0.28743136 0.2651686 0.20890205 0.05968896 0.10204452 -0.18419772 -0.29234847 0.09578315 0.024034897 0.0039441437 -0.24294868 -0.051714275 0.2868962 0.073256664 0.11247186 -0.08555571 0.1624699 0.018241676 -0.11766286 0.10000461 0.0602805 -0.17065439 0.17650464 0.013792415 -0.14995271 0.04883056 -0.1689188 0.018218154 0.17047198 -0.17969939 0.08256791 -0.01958691 -0.1476481 0.03323085 -0.20074864 -0.03294651 -0.014344919 0.22827384 0.095433906 0.23424649 0.24329919 -0.09855421 -0.08683753 0.17280605 -0.23614098 0.03913649 0.11997042 0.28547996 0.05400499 0.17199008 0.15370384 -0.14572495 0.030084044 0.084296145 -0.108484596 -0.18849261 -0.09881903 -0.09803241 0.20759182 0.053924978 0.23748852 -0.23749474 -0.14972235 0.12363675 -0.17066318 0.1771627 0.06535273 0.16920605 0.08419783 0.15697446 -0.004148827 -0.19009924 -0.21039641 -0.02829596 -0.03982908 0.21727797 -0.10315096 -0.13946958 -0.05907742 -0.05323897 -0.13642466 -0.15474355 0.16610405 -0.030395616 -0.25598457 0.11216681 -0.028802026 -0.009863458 -0.078529336 -0.23341341 -0.053590935 0.13100088 0.11251554 -0.23077722 -0.008295547 0.18447246 0.008796221 -0.048902344 -0.2074118 0.10817644 -0.15700579 0.12894128 0.018792467 0.07648494 0.14299627 0.08727208 0.13247193 0.08789203 -0.029313188 -0.02224245 0.044177033 0.14615269 0.056960355 -0.09647595 0.034176968 0.019626219 -0.09949208 0.011373649 -0.11538317 0.034921434 0.18641235 0.192323 -0.0065076877 0.21753441 -0.22858289 -0.058945544 -0.16521025 0.1637655 0.2456053 -0.054773904 -0.03483867 -0.08255909 0.098106734 -0.12499532 0.07539503 -0.12629963 -0.101917095 0.08445938 0.058489844 0.3155804 0.026740437 0.19112623 0.06950158 -0.07182019 -0.04430566 0.07067725 0.20979652 -0.10674125 0.168255 0.22229859 0.16912326 -0.08489014 0.25828606 0.059113353 -0.17433402 0.20050298 -0.30451235 0.39062953 -0.1668736 0.05401138 -0.0027354532 0.05408833 -0.122112535 0.1220757 -0.1651467 -0.061872084 0.23962194 -0.07860662 -0.0658605 0.08074276 -0.046389636 -0.1167819 -0.1601177 -0.10207305 -0.07598203 -0.0045663044 -0.37822562 -0.06148752 0.18726704 -0.37352175 0.015255251 0.016090173 0.18200594 -0.1595366 0.068136714 -0.038678773 0.19029918 0.021313583 -0.20064871 0.1162118 -0.15504895 0.35719317 0.07826412 0.2923561 -0.056226652 0.18854044 -0.04828194 0.20453645 0.35912836 -0.3071104 -0.3051292 -0.38930118 -0.030677142 0.2452358 0.14100644 -0.09240626 -0.07978877 -0.18083204 0.046400808 0.011928122 -0.047955826 0.18274714 0.16426715 -0.004551895 -0.043231923 -0.07682482 0.05515875 -0.1559786 0.19768505 -0.14003198 0.040328532 0.2150743 0.29056567 -0.17564629 -0.0731867 0.31331822 -0.035194606 0.18580087 -0.068058275 -0.19844659 -0.08062666 -0.22196865 0.017028164 0.13762724 0.23341012 0.05546608 -0.1483052 0.024314616 0.2045784 -0.07964651 0.22485161 -0.15378577 0.05125838 0.030122807 0.16080762 -0.0329557 0.05268807 0.080928355 -0.067984976 -0.18187103 -0.19167112 0.07381871 -0.077884056 -0.15724514 0.1676758 -0.2242794 0.06223118
body -0.1483422 0.01017797 0.26350734 -0.1688083 0.28233433 0.14873019 -0.18408012 0.2796347 -0.0069936165 0.18785307 0.14130874 0.15411021 -0.07721779 -0.012065439 0.099222325 -0.16669804 -0.18937767 0.06302922 0.32214695 0.16081627 0.22487079 -0.05929598 0.12117604 0.12306985 0.004686924 0.1200995 -0.09185868 0.061442614 0.21770923 0.22161034 0.18480603 -0.07120831 -0.0107809305 0.46402854 -0.25150713 0.08334427 0.0735495 -0.04442424 -0.07519149 -0.1332779 -0.21368623 0.14119184 0.03744665 -0.21370609 -0.25381905 -0.30267107 -0.1240777 -0.11905465 0.15488185 -0.08119477 0.16267668 0.026528921 -0.18282476 0.15015313 -0.07080002 0.04256771 -0.0019509627 -0.11018089 0.044699077 0.00666364 0.26872808 -0.10572006 -0.18450135 0.17651887 -0.04690822 -0.25096714 -0.11413728 0.07413875 0.18999952 -0.043364577 -0.18090087 0.17946121 0.057033423 -0.00085444463 -0.077203326 0.20736276 -0.031818975 0.087026455 -0.28425512 -0.20311208 0.032893497 0.15922335 -0.456437 0.12014977 -0.20424685 0.020395026 0.065668084 0.22449313 0.09321318 0.100281306 -0.23258227 -0.030854564 -0.061430812 -0.14694858 0.23428915 -0.2791537 -0.019779935 0.07158569 -0.32100192 0.086986385 0.02647614 0.3077429 0.3093185 -0.16631581 0.13247535 -0.2313093 -0.1395291 -0.15324244 -0.08489901 0.18702455 -0.0005941614 -0.23285419 -0.30533415 0.01646229 -0.23437679 0.19911435 0.20531578 -0.10880235 -0.03390235 -0.19481203 -0.009554564 -0.10455138 0.15204601 -0.36839762 -0.097211584 0.014479463 0.016375778 -0.23252837 -0.3213961 -0.19587576 -0.3399285 0.10509482 0.04348118 -0.13772297 0.20764875 -0.2357412 0.05008763 0.06349291 0.2689191 0.29363462 0.21995187 -0.07245615 -0.010003701 -0.2252176 0.02638107 0.09548514 -0.12620759 0.00321756 0.10107802 -0.2747518 -0.029915214 -0.23326634 -0.00704065 0.056273144 -0.028037371 0.20367339 -0.06389885 0.120186664 -0.18044482 0.21788889 -0.16774899 0.00012284526 -0.042499363 -0.18509929 -0.028649768 0.19275554 0.25418434 -0.021394903 0.1799938 0.20008281 0.0029105095 8.951096e-06 -0.025112113 0.2966741 0.13312367 0.10544332 0.0014178087 -0.07288672 -0.028273948 0.03627516 -0.16457905 -0.1418152 -0.025935408 -0.13464725 -0.27053994 0.14605129 0.13800761 -0.086572975 0.0070257126 0.1657536 -0.08652725 0.1886675 0.11178247 -0.042639054 -0.23098713 -0.21487461 0.053690605 0.35871926 0.21410798 0.29685026 -0.13509211 0.33431724 0.038490776 -0.08039503 -0.47508693 -0.1820389 0.07057237 -0.2591736 0.15562816 -0.25917682 0.063351296 0.010072765 0.036475547 0.15334007 0.05730854 -0.024050584 -0.038093314 0.16756573 0.3019596 -0.12064125 0.072682984 0.21629791 0.1891948 0.089873634 -0.1762008 0.31547317 0.17065416 0.18547729 0.40347636 0.24922429 -0.25071043 0.06946653 -0.26001856 0.20779015 0.06604503 0.10523901 -0.30142805 0.037392225 -0.27851248 -0.31028515 0.058632124 0.24544454 -0.055545192 -0.106912136 0.12611611 0.022598198 -0.08971629 0.13619873 -0.15730368 -0.028245201 0.09299835 -0.11836647 0.020199934 0.0106910765 0.10668933 0.077764645 -0.0325533 0.04852885 0.089139305 0.014852471 0.06035361 -0.0928189 -0.007784834 0.0044226362 0.099716775 0.12754345 -0.15015736 0.009784086 -0.17512631 0.2364132 -0.061119094 0.10112139 -0.26380157 0.026874064 0.056585573 0.0014382849 -0.121631384 0.06270819 0.21066342 0.052348983 -0.10766089 -0.10111497 0.014486669 0.4237137 -0.07460145 -0.1586934 0.0816476 -0.106433116 0.30906212 0.13880976 -0.17162988 -0.24406138 0.11878283 0.330741 -0.29314038 0.29055175 0.2487423 -0.1353043 -0.2468627 0.008359261 -0.14835545 0.11607046 -0.1711611 0.021658769 -0.16848685 0.031104827 0.36870268 0.2105582 0.10819566 0.46277595 0.109043896 -0.05417056 -0.21644984 -0.19139059 0.055103768 -0.01679432 -0.18701218 -0.1527767 -0.0076776356 0.018844958 0.025389671 0.33881208 -0.063090205 0.034339435 -0.12793165 -0.40403405 -0.04875653 -0.48439786 0.2942478 0.3222391 -0.08729215 -0.14740005 -0.089194305 0.12816517 0.18269987 -0.042712793 0.15979779 0.17864276 -0.26830563 0.0071858773 0.019214477 0.17643434 -0.24615227 0.15397444 -0.15223482 0.08854917 -0.4484885 0.09926974 -0.13194764 -0.01647529 -0.044273008 0.0071899234 0.25946507 0.0078124194 0.019294072 0.1220639 0.08067038 0.010625097 -0.15094686 -0.0022806386 0.12359304 -0.045657154 -0.20841841 -0.16804 -0.1676229 0.23236237 0.1328321 0.02368208 -0.16243063 0.012120682 0.32576525 0.09673909 -0.08009685 0.075233474 0.3825275 0.22172056 0.16812395 0.24118242 -0.27047843 0.14295103 0.23845059 0.13499404 -0.20237225 0.065659404 0.044196457 0.11787589 0.24813338 -0.3061332 0.14213705 -0.1335589 -0.30008334 0.005073528 -0.27703482 0.100234404 0.0200674 -0.05552241 -0.20067963 -0.08845948 -0.08567877 0.13964769 -0.023749568 -0.10337798 -0.07176541 -0.25114816 -0.2440716 0.23580755 -0.28583324 -0.0067270123 -0.15077037 -0.2304395 0.23589623 -0.16959804 -0.05609944 0.036128875 -0.07493961 -0.13066861 0.23654939 -0.02382585 0.016628554 -0.19927825 0.0054305852 -0.10778135 0.17364314 -0.015404985 0.1769898 0.22431014 0.18062665 0.2424888 0.0639569 -0.29153368 -0.29582345 -0.08544526 0.027015353 -0.3946121 0.03696627 0.39887166 0.0856906 -0.14495584 -0.08013139 0.16153695 0.26910236 -0.21916512 0.30906355 0.053063937 -0.122621305 -0.10796886 0.052714247 0.00029621657 -0.042390946 -0.22280978 -0.2250075 0.017315747 0.055411767 -0.33958334 -0.08905388 0.08325692 -0.06701633 0.232683 -0.2475859 0.18133558 0.07307069 -0.2727268 0.26272902 0.0050756615 -0.21175203 -0.1344183 0.043539926 -0.2727298 0.24309582 -0.123256885 0.012728027 -0.11680304 0.18346593 -0.15551011 -0.20724861 0.027521355 -0.13143975 0.03555695 -0.52760994 -0.20741068 -0.22340155 -0.1981181 -0.08670805 -0.2036802 0.058931604 0.000692722 -0.019355286 -8.632539e-05 -0.026365036 -0.119166456 0.19813687 0.066200815 0.28157395 0.15797563 0.106466174 -0.009817 0.19845405 -0.15754575 0.109138526 -0.16751443 -0.16414106 0.047787245 -0.13425513 0.30712733 -0.29342958 0.05078618 -0.3030543 -0.25911587 -0.04097981 0.052909516 -0.15961504 0.0049849376 -0.12936527 -0.12127507 0.16490138 0.12850554 -0.18110268 0.21307367 0.17176574 -0.13521723 0.17971902 0.003590709 0.070232585 -0.14740404 -0.21676548 0.29806128 0.20184967 0.020638712 -0.19761465 0.11771218 0.067109175 0.005020137 0.0428293 -0.21254428 -0.02243165 0.12151789 0.20982821 -0.26696604 -0.27298066 -0.30234388 -0.059083022 0.109243795 -0.18763576 -0.0061571253 0.33341712 0.038678147 0.007886527 -0.03987151 0.18028642 0.034023352 -0.26585862 0.43936712 0.044521138 -0.08100187 -0.2777328 0.1327622 0.17748031 -0.028885292 -0.1936255 -0.09489964 -0.009163857 0.09507958 0.193571 0.117790304 -0.031611945 -0.09620367 -0.03540155 -0.47855476 0.26732728 0.10293564 -0.18492228 0.23752122 0.2032866 0.33661813 -0.28180164 -0.03211263 -0.24133985 -0.11181848 -0.081416905 0.067393064 0.3692546 -0.2716505 0.112571836 -0.21090455 0.19739284 0.026890174 0.061555717 -0.0321389 -0.14308837 0.071760364 -0.12656811 0.24352181 -0.05551545 0.0032948533 0.2510262 0.11437888 -0.09317968 0.046986185 -0.21272661 -0.10512059 -0.15756685 0.009599958 -0.567858 -0.019033523 0.054686397 0.1423358 -0.32100743 0.36226857 -0.17341578 0.14109434 -0.127135 -0.07005418 -0.012092662 -0.17405109 0.2426454 0.17842217 0.55810344 0.19687545 0.073896445 0.13599601 -0.06766394 0.28609073 -0.07027882 -0.03692424 -0.23429081 -0.17447373 0.377038 -0.0953511 0.14887281 -0.003566646 -0.125165 -0.21955174 0.2609671 -0.032818712 0.27089098 0.31710157 0.10251838 -0.2636778 0.3164396 -0.29189593 -0.26484385 0.081126936 0.04647574 0.2477639 0.0022308205 0.010035615 -0.029367322 -0.13708504 0.0016994278 -0.10791446 0.050156895 0.07836901 0.1304259 0.04600352 -0.026281912 0.43384528 0.11633243 -0.027994497 0.06666414 -0.050913982 0.040812936 0.19490255 0.2592962 -0.02208224 0.092056744 -0.091959506 -0.27380323 0.062032007 -0.05525306 -0.16221128 -0.22195534 -0.12254037 -0.15949091 -0.075113654 0.09636268 0.08159353 0.072766 -0.088813394 0.05650616 -0.099109404
Type 0.16834041 0.09810053 -0.032684892 -0.0069695776 0.46248153 0.06255855 -0.09604256 0.27763078 0.12185965 0.19957545 -0.10219522 0.05852962 -0.15625864 -0.11532944 -0.13723244 0.09685347 0.0644134 0.15081844 -0.057937216 -0.24173576 -0.11015779 -0.02510476 0.15272549 -0.1106933 0.0137741035 0.000807308 0.030329004 -0.20611535 -0.058834136 -0.111581676 -0.11894519 0.122042365 -0.013596888 -0.016516112 -0.10230191 0.08457362 -0.0924457 -0.18333843 0.13929394 0.12411429 -0.046207126 -0.17761517 -0.1727537 0.085684225 0.022410588 0.14993067 -0.10127167 0.12434976 -0.06983991 0.17590976 -0.16965923 -0.031815227 0.2908715 0.089763656 0.056324743 -0.38216478 -0.035586867 -0.10634604 -0.28077123 0.22516109 0.12287276 -0.08376553 0.07227878 0.34267858 0.019781034 0.06149766 0.3627872 -0.06887097 -0.045692198 0.20063563 -0.12494882 -0.08139882 -0.06643814 -0.09617184 0.16774386 0.085025854 -0.21956128 -0.1405189 -0.17265998 -0.00020222689 -0.22457649 0.124656774 0.11341699 -0.24874176 -0.05632303 0.010697605 0.14130194 -0.22512168 0.086559735 0.15626298 -0.11707832 0.28537616 -0.33576965 -0.13700633 0.002488158 -0.2038691 0.05590836 -0.16314983 -0.20753285 0.019421592 -0.109946795 -0.034027405 0.024291573 0.009851195 -0.122550555 0.13771993 0.06815346 -0.13475864 -0.15259293 -0.059900783 0.088083 -0.28883845 -0.0032357676 0.25319257 0.017864885 0.059385825 0.02798523 0.087405674 -0.005069594 -0.012554733 -0.05717697 0.10779489 0.08444332 0.2206006 -0.04169055 -0.10861111 -0.013817224 0.15566993 -0.25831655 -0.19126427 0.19214575 0.05734581 -0.1690949 -0.2847013 -0.018472651 -0.18048313 -0.016644316 -0.019365963 -0.047047406 -0.05355657 0.039149057 0.30579928 -0.16699985 0.23740073 -0.07933852 0.1431225 0.15450299 0.09561286 0.020748 0.24054323 -0.10021541 0.29857683 -0.13751109 0.084698625 -0.09224114 0.3214466 -0.27056518 -0.19230396 0.1082559 -0.13584529 -0.033304572 0.13483588 -0.07441013 -0.27384815 0.056936495 0.19129927 -0.15041058 0.02605031 -0.1315537 -0.22671095 -0.2504842 0.2648693 -0.065759294 0.344083 -0.030899836 0.010868956 0.05135123 -0.017433655 0.042047266 -0.034787495 0.18083957 -0.17841595 -0.14322574 -0.18143502 -0.2809371 0.05832751 -0.121288426 -0.09949405 -0.05528768 -0.052927136 0.10792244 0.19278535 -0.11044025 0.11506701 -0.2601803 -0.12351182 0.27492628 0.16146664 0.14818361 -0.10122034 -0.068006866 0.08651888 -0.24203558 0.1901698 -0.064060606 -0.08238423 -0.38968435 -0.20386666 -0.07352862 -0.16499723 0.2991257 -0.11771632 -0.14023255 -0.099071 0.18715969 -0.17654885 0.37749502 0.03850905 0.13354404 -0.12626259 -0.04933528 0.07684365 0.23652361 0.109405436 0.32726103 0.15851545 -0.012410645 0.1440643 -0.06511512 -0.15449786 -0.30354416 0.048129894 0.26526517 0.18901058 0.1386569 0.14303105 -0.2674635 0.040034406 -0.03937818 0.11480301 0.07648828 0.018925287 0.02477166 0.009188897 -0.0671781 0.12168996 0.06665061 0.019958034 -0.101356685 0.38748503 -0.06503244 0.12519427 0.116343476 0.10975164 -0.07431779 -0.18907198 -0.2272892 0.015648363 0.059208393 -0.1565881 0.30554527 0.08448934 0.071103245 0.17968774 -0.070810184 -0.22234876 -0.15510368 0.21228704 -0.12445006 -0.015600877 0.09956539 0.279268 0.03664314 0.0137330275 -0.24330951 0.21132551 -0.018392123 -0.1240538 -0.19970913 0.04895141 -0.001646359 0.14312278 -0.33124232 0.29740754 0.10783333 -0.04112576 -0.22046551 -0.22387461 0.07388234 0.21219163 0.016881842 0.007546525 0.004404079 0.09630365 0.09830736 -0.03922207 -0.2952551 -0.026103703 -0.16142228 -0.1301856 -0.17844456 0.23156494 -0.1949089 0.00547599 0.15197192 0.2032475 -0.1130338 0.029596929 -0.13098976 0.1964955 0.20495453 -0.04635906 -0.07449977 0.10969443 -0.09073632 0.022921775 0.06371694 0.015453381 -0.09203494 0.11122346 -0.29122308 0.16655198 -0.07841592 -0.4285026 0.05617661 -0.2564242 -0.05335979 -0.06830059 0.14505 0.1365149 0.09659897 0.0068005244 0.11299257 -0.12381679 -0.11847001 -0.103420556 0.14432174 0.12025421 -0.007970687 0.10858397 -0.012437089 0.1095841 0.29177058 -0.33424935 -0.34700036 0.20008919 -0.1391486 0.21728432 0.28099477 -0.16549636 -0.13653271 -0.059379008 0.2344522 0.03346929 -0.052069675 -0.12766515 0.11656348 0.15331444 -0.05659733 0.11912945 -0.059830096 0.116015725 0.21788904 0.05228778 -0.0037447126 -0.0155932605 -0.06883427 -0.19824709 -0.14199138 -0.2581764 0.009163212 0.043796334 -0.04837499 0.028977789 -0.043280713 0.09552217 0.19328514 0.0709633 0.17871393 -0.20167305 0.030068725 0.15688007 0.11830052 -0.26761055 0.31078887 -0.061267328 0.1946251 -0.03689459 0.11678651 0.033911917 -0.26118407 0.1536915 0.21724854 0.023472738 0.0861981 0.10253305 0.12342663 -0.0117740035 -0.16153836 -0.08207919 -0.4010765 -0.0453083 0.007858149 -0.16598663 -0.19222373 0.11748478 0.04737169 0.041686002 0.34321547 0.027492926 0.18226048 0.025899624 -0.22287531 -0.026093436 -0.04914847 -0.12625676 0.32311678 -0.14331251 -0.05838215 -0.16622722 0.24800007 -0.2276364 0.0148727875 -0.10081932 0.0007075116 -0.09996909 0.32444683 -0.09960296 0.067803845 -0.11910922 -0.17263444 -0.23525856 0.08966571 0.055216707 -0.19469035 -0.27747276 -0.11759411 -0.2878735 -0.06544701 0.27679268 -0.38605112 -0.07761817 0.08776322 -0.34137902 -0.27851462 -0.1367492 0.13050051 -0.04061561 0.27869332 0.17214885 0.28448433 0.014518493 -0.27357584 -0.06047451 -0.2170924 -0.033663146 -0.2657949 -0.044703346 0.26936695 -0.19965461 -0.10493464 -0.23137693 0.20250082 0.41253772 0.12865782 0.1327715 -0.22846222 -0.28918648 0.14578559 0.09740663 0.15511698 0.07097447 -0.22019069 -0.017360125 -0.12041578 0.025572758 0.05722235 -0.032211844 0.0041425736 0.17877878 0.13684852 0.17176586 0.16248743 0.010060131 0.07805583 -0.004390491 0.05228083 0.119535916 -0.006605139 0.20542628 -0.030482614 0.19082361 -0.239675 -0.004399693 0.2802928 0.0654984 -0.18544729 -0.26421782 -0.29702747 0.08463783 -0.25428522 0.050632436 -0.15406649 -0.01638255 -0.021118714 0.20726906 -0.036619533 -0.12636018 0.3282864 0.04986342 -0.11034129 -0.3039591 0.4274409 -0.3146352 -0.05627814 -0.06409128 -0.045903575 0.042554393 -0.099592224 -0.048350655 0.091640376 -0.005931495 -0.09085002 0.19830246 -0.013197832 0.117602766 0.15547875 -0.2614052 0.016669445 0.023039924 0.32241988 -0.09328308 -0.2608903 -0.22913592 -0.037441157 -0.21077767 -0.17283988 -0.07931629 -0.009528499 -0.22013249 -0.027342997 0.34970623 0.15940073 -0.0933935 0.058171686 0.06043613 -0.18572226 -0.10112337 -0.07985848 0.02592766 0.060959775 0.29285547 0.12172122 0.27127844 0.23181526 -0.09888127 -0.12008 -0.04335956 0.09453352 0.28913182 0.33773056 -0.06782007 -0.09640027 0.13575797 0.060923487 0.0039986162 -0.011885621 -0.036318194 -0.09671658 0.030131027 0.10386361 0.047446102 0.08549735 -0.065666914 0.16234635 0.021308227 0.042089812 -0.28596276 -0.041140597 0.1519251 0.04483898 -0.040128846 -0.03810024 -0.11596339 -0.15055612 -0.09004784 0.11823948 0.043671116 0.10925699 -0.058986265 -0.07977691 0.008682189 0.1155194 -0.16248767 -0.09368547 0.055328906 0.3874412 0.03950857 -0.08895974 -0.013013221 0.16012971 0.2780603 -0.0565468 -0.04560185 0.076301314 -0.20370252 -0.0059354585 -0.04757331 -0.31522775 -0.0069853947 -0.20548989 0.1581123 -0.23415068 -0.48390618 -0.02672996 -0.39541307 -0.049663853 0.06775542 -0.18004423 -0.09351038 0.14665955 -0.029562121 -0.10604046 0.019683482 0.08684405 0.16165893 0.0022266614 -0.065577425 0.123958275 -0.036707696 -0.24767119 -0.4683811 0.17763576 -0.106439 0.14205256 -0.005534387 -0.049474165 -0.07065442 0.20712379 -0.31180155 -0.090529874 -0.26068738 0.106709026 -0.20701772 -0.037134785 -0.27522078 -0.4194606 -0.15814243 0.09289539 0.16548051 -0.05881163 -0.3031238 -0.05070325 -0.12800084 -0.284215 0.030470785 0.16954698 -0.00046285315 -0.18137106 -0.17177162 0.27370661 0.17513476 -0.10850331 0.13028269 -0.0980989 0.03661616 -0.10569852 -0.035422985 -0.06327737 0.011687869 0.10468075 -0.15201893 0.11139806 -0.1983736 0.24949078 -0.20990312 0.09446983 -0.025089463 -0.042041484 0.42232564
animal -0.11989837 -0.04906016 -0.13692531 -0.21425904 -0.20465106 0.1436184 0.14393206 -0.014711534 0.13366789 0.019472893 -0.08172752 -0.011634311 0.024819104 -0.16065623 -0.13466293 -0.077687584 -0.33013508 0.1714336 0.2618548 -0.31191397 0.1260934 -0.0450995 -0.016439432 0.06584326 -0.09274809 -0.12025551 0.2175073 -0.09624722 0.27303585 0.1570808 0.2749103 -0.04594852 0.01096879 0.31938177 0.00532948 0.05124933 -0.01189443 -0.018901005 -0.30957264 -0.3687989 -0.1861151 0.37183052 0.14943151 0.038192566 0.18793863 -0.07246794 0.072521836 -0.022402931 0.049503233 0.09539623 -0.015488286 0.00609583 -0.07298409 0.057717822 -0.35054505 -0.010160443 0.1269863 -0.14276412 0.025976537 -0.21936806 0.22891685 -0.0859623 -0.02528924 -0.23110066 0.193188 -0.2187188 0.31857085 0.1461799 -0.030273104 0.086654015 -0.034685645 -0.042912476 -0.13414952 0.0454229 0.27713972 -0.1476102 -0.042939033 -0.12372836 -0.054223087 0.11103644 -0.0030960778 0.15054183 0.08326422 -0.13435598 0.11688454 -0.0830388 -0.053496473 0.16798276 -0.065098226 0.0039165094 -0.025461799 -0.10544039 -0.014364122 -0.093518816 -0.17780338 0.12619162 0.09579145 0.22111191 0.06254937 0.25148305 0.05609561 0.14829773 0.17438787 0.17657076 0.20262447 -0.23830318 0.17265593 -0.0077816453 -0.16827236 0.077450536 -0.02250521 -0.06957302 -0.33376798 0.0014696342 -0.1734255 -0.16922922 0.20677935 0.07425541 -0.018059347 -0.17979541 0.02433213 0.021947198 -0.01714638 -0.2395548 0.1612135 0.030080788 0.18159635 -0.2971342 -0.05205676 -0.10419168 -0.32822594 0.1655806 0.12915616 -0.21161424 0.1539313 0.013721202 -0.18752584 -0.33260235 0.017303506 -0.017554047 -0.14452417 -0.0226043 0.11262363 -0.16795948 0.100929685 -0.07445679 -0.027109254 -0.028908439 -0.030745845 0.15377517 0.14899278 -0.01978956 -0.18826756 0.13774876 -0.13425162 -0.17866148 0.12094542 0.0947314 0.16252922 0.17256935 0.042036057 0.17912023 -0.08273857 0.16198029 -0.22192307 0.008113782 0.19427621 0.16190386 0.2616027 0.19729654 -0.027051322 -0.13122824 -0.11287905 0.052721128 0.42738044 0.097894885 0.032394283 -0.15109025 -0.12635729 0.34519085 -0.026918191 0.0018916971 0.15348256 -0.25484788 0.024666883 0.006894042 0.0468936 -0.037881944 0.05646255 0.23090184 -0.01220939 0.14063251 0.1553854 0.12630592 -0.09158046 -0.19671546 0.14630084 0.07205133 -0.006107979 0.25148925 -0.048911545 -0.053798445 -0.08590237 -0.2100556 -0.13697945 -0.17324634 -0.021190641 -0.07402977 -0.010357277 -0.13767162 -0.17266709 0.07078962 0.026358057 -0.05948707 -0.03755986 -0.26509222 0.05253217 0.3660261 0.24063207 -0.0009331087 0.11960693 0.07441934 0.10301821 0.07049058 -0.07782001 0.15897694 0.066293 0.17175236 -0.060361557 -0.0155417705 0.009003019 0.05904379 0.023545338 -0.05653995 0.02799756 0.1199539 -0.081225485 0.23828362 -0.36005324 -0.08206201 0.1437139 0.19347659 -0.21300028 0.0865824 -0.08328752 -0.09566515 -0.13907756 0.19290043 0.09890268 -0.08174062 -0.0016828465 -0.10030281 0.17696995 -0.23464517 -0.065603554 0.2319466 0.0862247 -0.21462008 0.20532557 0.03741121 -0.05948172 0.042022847 0.21435168 -0.14786081 -0.032952867 -0.047893226 -0.036446214 0.015132582 -0.1893211 0.059841864 0.042978156 -0.07316683 0.12785362 0.014845334 -0.20033748 0.219671 0.03772532 -0.07963334 0.2908254 -0.040303715 0.17880234 0.073906414 0.11977674 0.24731101 0.050927974 -0.13998681 0.038061142 0.06337812 0.16988978 0.059117362 -0.037441034 0.1350066 -0.23614417 0.20282999 -0.20983379 0.2597959 0.10545982 -0.16904673 0.09500166 0.030939221 -0.005073276 0.15967292 0.10647028 0.039153468 -0.20824772 -0.008804658 0.030970117 0.0002715716 0.14392042 0.16486076 -0.0071983202 0.022221042 0.09727017 -0.11183342 -0.15817003 -0.11017137 -0.0031098367 0.024236057 -0.2579978 0.019787868 -0.11053624 -0.057962906 -0.097624175 0.22782777 -0.24816768 -0.08807131 -0.34611568 -0.14007516 0.021648865 0.12874083 0.059409328 -0.062913805 0.19338796 -0.12609714 0.045625884 -0.0035920828 -0.08043717 -0.08793174 0.097586244 0.19801657 -0.0838484 0.086866625 -0.17927258 0.060938425 -0.081602335 -0.08183201 -0.20047002 0.037970755 0.18694963 -0.013327302 0.18749216 -0.0042106607 0.099580266 0.14923057 -0.29000244 0.11683642 0.20230407 -0.059115943 0.038000453 -0.09884828 -0.0787499 -0.03120005 -0.26114807 -0.15624292 -0.19514085 0.2965717 -0.045274317 0.005553166 0.04109257 -0.100045115 0.18455319 0.22275391 -0.13252804 0.06605696 0.16973114 0.014714269 0.34869665 -0.038185123 -0.08337089 -0.09564026 0.038708422 0.1741005 0.14523964 -0.04621506 0.2939527 -0.18198736 0.20984383 -0.34607047 -0.16541041 -0.075698346 0.085037835 -0.2262055 0.09617907 0.035787236 -0.16267937 0.26727545 -0.21643357 -0.08992856 -0.017715931 0.15317513 -0.14148259 -0.11166082 -0.16770196 0.10771425 -0.25632688 -0.06838195 0.10384444 -0.14620215 -0.04432377 -0.06365607 0.12540372 -0.015272184 0.0030636622 0.31432366 0.24062991 -0.17189172 -0.20878007 0.13452436 -0.03849022 -0.05695314 0.38939464 -0.026888257 -0.053848136 -0.3535721 -0.06316107 0.035920072 0.089292675 0.27597538 -0.2555572 0.0350244 0.21524547 -0.1285572 0.0021277647 -0.35525328 0.069502264 0.39696506 0.18658485 -0.09155645 -0.06356043 0.20919737 -0.024477484 -0.010033004 0.25981045 0.1407923 0.18274815 -0.20036358 0.054187916 0.07562318 0.080741495 0.025124403 -0.00886254 0.038223065 -0.18883577 -0.1378781 -0.02282321 0.023870451 -0.16693224 0.22568704 -0.17257774 -0.19178496 0.19708058 0.094444305 0.07559784 -0.19126667 -0.005492844 -0.20994389 0.39376134 -0.1930324 -0.117985845 -0.084516786 -0.096896455 -0.07672422 0.16934189 -0.23956175 0.09149112 -0.2006014 -0.07390807 0.054139752 -0.30781084 -0.14848197 -0.02512908 0.2359911 -0.01761609 0.13613258 -0.17473905 0.0986218 -0.016275559 -0.07044675 -0.025136765 0.1638691 0.3506251 0.14764656 -0.22888376 -0.004615808 0.09658826 -0.0021594805 -0.19132426 -0.1909396 0.006306587 0.08739321 -0.10219511 0.13747129 0.18873042 0.12183743 0.014592117 0.19352932 -0.19971128 -0.16271953 -0.024574282 0.2359912 -0.13262476 0.009690601 0.0033599325 -0.08064749 0.025789639 0.063347876 -0.13915278 0.4074822 0.28469908 -0.284283 0.21759711 -0.14070153 0.19895127 0.30047658 0.0026283194 0.18139222 0.26620173 0.25873572 -0.22477387 -0.07400041 -0.19577958 0.10258603 0.15460825 -0.14473629 -0.012884663 -0.038552377 0.04801535 -0.13380647 -0.080189206 -0.029768838 0.24060895 -0.047398712 -0.28922358 -0.1940762 0.3553622 -0.22909196 0.13554524 -0.0965276 -0.035670277 0.052347332 0.08535502 0.18583263 -0.09737784 -0.07470196 0.062164996 0.09086881 -0.07450314 -0.010220301 -0.20015603 0.06506022 0.36873367 -0.049125873 0.4187831 -0.011806685 0.045062315 -0.11558614 0.26371187 -0.29648224 0.16288136 0.1638787 0.14897719 0.10492059 0.22906548 -0.17624168 -0.09813505 0.27913585 0.065721676 -0.030776642 0.3268489 -0.1204635 0.052621678 0.037593734 -0.1295751 -0.124208674 0.25796056 0.0299374 0.1543431 -0.15312716 -0.16829 0.16233005 0.0303439 -0.009830457 0.05263296 -0.20021665 0.047677618 -0.34423688 -0.29469332 -0.028952362 -0.21051219 -0.19404235 -0.040771957 0.23123509 -0.3858522 0.025866788 -0.018320134 0.38131836 -0.21296296 -0.03934193 0.10456489 0.16963102 0.25099486 -0.024434585 -0.09012288 -0.33186483 0.21661437 0.27608368 0.039788824 -0.27799904 -0.12734616 0.050324313 -0.021729806 -0.025357477 -0.125713 -0.32522935 -0.16856034 -0.005722169 0.22808786 -0.10656928 -0.057946097 -0.16117623 -0.22095558 0.10071404 0.142582 -0.24102622 0.18129504 0.0061996575 0.09236108 -0.20189534 0.06587163 -0.017228168 0.11080011 -0.01780241 0.27261716 0.026575621 0.2056637 0.16455775 -0.1319228 -0.018375784 -0.0042437157 0.22562504 0.3402116 -0.19980738 -0.006038982 -0.12801619 -0.022798698 0.30262747 0.2794707 0.14712475 -0.097110465 -0.45827997 -0.35351887 0.041563258 0.037447304 0.121240474 -0.0816442 -0.112701684 0.16028978 0.1687194 -0.19117892 0.108067706 0.13389856 0.092162624 -0.14781407 -0.23951931 0.28146893 0.27790818 0.0068571046 -0.12288795 0.0047120885 0.035263725
http://www.semanticweb.org/inm363/AwA2#hasBodyType -0.10147897 -0.06528024 -0.14419374 0.03901529 0.4204217 0.10326602 -0.16686024 0.21015914 -0.18819281 0.074264534 0.072458304 0.13134281 -0.093786106 0.01758519 -0.25709817 -0.12987655 -0.08243262 0.14067383 -0.13289775 -0.16451964 0.21653906 0.08820717 0.16257405 -0.11713545 -0.24658844 -0.012498356 -0.09260237 -0.14519255 -0.0661677 0.26343265 -0.3090145 0.039123256 -0.115374774 0.016419407 -0.24829383 -0.1866878 -0.16461763 -0.04753968 -0.23725857 -0.25740162 0.005984815 -0.15562211 0.123830654 -0.072966896 -0.10779558 0.27654895 0.29118547 -0.08226114 -0.014804011 -0.08027724 -0.29846647 -0.18631178 0.19406998 -0.23759937 0.29262605 -0.1504578 -0.20914221 0.31700963 -0.27973577 -0.08805695 -0.03328129 0.041449126 -0.06522126 0.40631324 -0.083983615 -0.42321655 0.22811407 0.15929164 -0.31025964 -0.13615389 0.048316047 0.0055906563 0.035162833 -0.26665288 -0.20795335 0.21857911 0.117262885 -0.02488327 0.07958882 -0.2845072 0.19018474 0.17695683 -0.24091199 -0.37437537 -0.13924904 -0.008424587 -0.21595249 -0.07105367 0.0488548 -0.1074569 -0.20920563 -0.050395127 -0.227888 -0.10265421 -0.07222529 -0.3138001 -0.10408072 -0.060461465 -0.3408019 -0.16067286 -0.090898775 -0.024092566 0.19713074 -0.06448992 -0.4424456 0.12305547 -0.017682742 -0.12424744 0.12023134 -0.022826929 0.27820748 -0.2238771 -0.25894308 -0.12724778 -0.01400661 0.24105915 0.1604839 -0.22509438 0.19787791 -0.24155386 -0.051435478 0.2807172 -0.16914302 -0.030594977 -0.089949034 -0.065709606 -0.28677613 -0.07493656 0.17943454 -0.3894742 0.3938322 -0.020923367 0.13278535 0.22575411 -0.14092103 -0.19985844 0.1174361 0.3489929 0.21495795 -0.09248152 -0.24479261 -0.13550068 0.049513035 0.22776867 -0.21081254 0.19585752 0.08444377 0.096147664 0.14361347 0.047594387 0.13391079 -0.19851351 0.14489658 0.1852781 -0.09316506 0.31051043 -0.18322942 -0.24622726 0.17845115 -0.027226474 0.11763297 0.34240833 0.15058681 -0.30705547 0.2057648 -0.056580912 -0.21533266 0.0970761 -0.14152779 -0.2599582 -0.3972916 0.4009691 -0.18709445 -0.054033116 -0.22953269 -0.14780436 0.15679802 -0.17568357 0.11530685 0.031729218 0.102288164 -0.013300894 0.11319847 -0.0907465 -0.004818113 0.09965658 -0.10495265 -0.18383281 0.08087061 -0.11682686 -0.23553593 0.017509613 -0.22050284 -0.11538808 0.11162774 0.009230722 0.033557724 0.28965268 0.08699391 -0.14811884 0.15825613 0.24461319 -0.1780576 0.0005007057 -0.2854047 0.24355853 -0.36581773 -0.32322294 0.020613845 -0.08102341 0.15540934 -0.24443406 -0.40731382 -0.23627074 0.074142374 0.17419648 0.23793389 0.067109525 -0.16282247 -0.304971 0.13305448 -0.21881026 0.34130782 0.10028982 -0.018816818 0.098464556 0.2160739 0.23892458 0.05768117 0.047673523 -0.19186632 0.063077725 0.021063458 0.1315948 0.42061633 0.02875929 0.08058495 0.018829972 0.019153723 -0.24801725 0.066655025 0.08420963 0.26755035 0.30746225 -0.36577326 -0.15334497 -0.13325395 0.38283998 -0.12725286 0.39425832 -0.13366133 0.05509792 0.12240931 0.0054962724 -0.06384629 0.07844836 0.17880158 -0.18121386 0.07166782 -0.11832582 0.20531647 0.0500898 -0.0295144 -0.08410761 -0.013692184 -0.15955843 -0.07368698 -0.27656505 0.1303346 0.12296056 -0.2017678 0.16787687 -0.1602311 -0.0146965915 -0.13412745 -0.05726253 0.13570192 -0.0020671773 -0.2797696 -0.07867503 -0.008399462 -0.06195728 0.25270355 0.39244425 0.24809292 -0.38110316 -0.34268406 -0.15150875 0.0062080314 0.046697076 -0.028179452 -0.062154293 -0.11526048 -0.117890105 -0.06621649 0.29362944 -0.41449994 0.11353155 -0.05068113 0.12295372 -0.2419179 0.38546485 -0.16618663 0.15880689 0.18891211 -0.032346014 0.066746615 -0.21713969 0.2655588 0.33326736 0.31740105 -0.11894851 0.08120072 0.13918844 -0.09279943 -0.20452154 0.06569733 -0.16745533 0.09720048 0.01596818 -0.24246605 0.36708537 -0.0350809 -0.20227154 -0.33353263 -0.24302581 0.2596858 -0.31522113 0.2815768 0.34136423 -0.03884705 -0.26953235 0.10149395 -0.26622108 0.2564768 0.12139797 0.3076155 -0.17075142 -0.0065711783 -0.056246497 -0.16951163 0.06536594 0.21743308 -0.09718995 -0.3718634 -0.0103144 -0.17141038 -0.07196877 0.22684242 -0.12617671 -0.2618825 -0.21162833 0.19334123 0.21574229 0.24602939 0.041873712 -0.068047315 -0.08319702 0.27363515 0.04855998 0.041385174 -0.102627926 -0.20016636 0.25789207 -0.2623968 0.26229948 -0.09512138 0.009462513 -0.28634307 -0.2261342 0.025803668 -0.06459933 0.0382107 -0.2685477 -0.08350983 -0.24374901 0.33973148 0.19665642 0.082299896 -0.30825686 -0.21069025 0.14602132 0.15165314 0.032510146 0.10181782 -0.1762082 0.2348085 0.1977328 0.093222536 -0.25508165 -0.14149772 0.10698309 0.20835282 -0.06300248 -0.13936384 -0.069984496 0.18892634 -0.14676498 -0.16175234 -0.22720113 0.04561495 -0.36498952 -0.2759743 0.16490145 -0.20125693 0.17586698 0.045544673 -0.09658734 0.077741995 -0.12917219 0.17377186 0.156851 0.15495996 0.060780644 0.17734197 -0.2467725 0.2443631 -0.067450814 -0.12184283 0.1641578 0.24274902 -0.22968784 -0.017932007 0.27841792 -0.07706608 -0.053778168 -0.04183787 -0.16224119 -0.040456325 0.17075144 -0.30149367 -0.27556083 -0.17299055 0.17945392 -0.19795233 -0.2246509 0.26969767 -0.03301055 0.040535763 -0.008447062 0.06117788 0.28175536 0.04056395 -0.34735054 -0.11803514 0.036262836 0.15269515 0.1549482 0.044771705 0.1628669 -0.2907992 -0.04522068 0.05295562 -0.21027108 -0.31398448 -0.0001323072 -0.080996275 0.0249287 0.1703962 -0.179281 0.015879123 -0.24046311 -0.034085102 0.047448352 0.10731983 0.103559345 -0.27486068 -0.39106464 0.29512545 -0.13199809 0.10817625 0.15091786 0.23704243 0.09141698 0.07466252 0.15629499 0.031977355 0.08983786 -0.2575649 0.2165523 -0.1318557 -0.037674587 -0.22337236 0.022052623 -0.16833334 -0.1730337 -0.017159639 0.27068236 -0.016018912 0.08789615 -0.021931514 -0.12983079 -0.024116058 0.10683988 0.28569695 -0.12478536 0.31185228 -0.061905753 0.14217736 0.018283531 0.034014992 0.30434787 0.050138697 0.24983889 -0.031955607 0.13824366 -0.11966862 -0.12654231 0.21921799 0.19944327 0.20844232 -0.039217856 0.41395938 -0.018317014 -0.1977163 -0.113446854 0.1651774 -0.18885532 -0.096171804 -0.23590986 -0.1158435 0.13149364 -0.07589097 0.0032665175 -0.025217528 -0.029109916 -0.080795415 -0.15256861 0.09319453 0.32869366 0.14538705 0.16524075 -0.20846316 0.0875169 0.023322063 -0.29949993 0.124055386 0.0031984996 0.105968714 -0.24928501 -0.25823617 0.28236657 -0.12218162 -0.061050206 -0.25172606 0.20146677 0.04132635 0.12636927 -0.12743075 -0.33667818 -0.118255295 0.38009304 -0.06299455 0.25214356 -0.11591543 0.01935925 0.14880458 -0.13843499 -0.12777828 0.18560284 0.039030693 -0.083924636 0.038506605 -0.20209548 -0.022668825 0.13349912 0.01479864 0.0165372 0.09587463 0.036923736 0.026997315 0.07106663 -0.04063409 -0.35929933 0.07150998 0.20377295 -0.3241391 -0.049518302 0.15119383 0.16163723 0.30071563 -0.3464315 0.24042635 -0.12032264 -0.021613637 0.122693375 0.16340035 0.1574203 0.14519393 0.15977128 -0.23698236 -0.1775791 0.22110768 0.30933663 0.05762325 0.07126837 0.24363038 -0.051246814 0.15996012 0.07165986 0.2147648 0.26687503 0.21485224 0.07568429 0.10404013 0.16134478 -0.10667278 0.15507342 -0.18176287 -0.09064371 -0.19949052 -0.2065626 -0.021738756 0.007678337 -0.1770788 -0.5188466 0.45869544 0.102701016 -0.013205677 -0.1141644 -0.14440972 0.13564633 0.12715764 -0.15719566 0.11562399 0.06114465 0.05837447 0.15498573 -0.17946498 0.17372271 -0.074871264 -0.2761002 0.39868155 0.12494549 -0.038765505 -0.08520787 0.22950254 -0.36675104 0.20814613 -0.19590251 -0.1976969 -0.23672296 -0.32478213 -0.18735299 0.048251003 0.04682829 -0.36661944 -0.012900856 0.06051522 0.020624874 0.018802792 -0.080114156 -0.026424207 0.1979122 -0.33388978 0.32016298 0.45180345 0.096951574 0.054206703 -0.2371209 -0.13915245 0.35595354 -0.07329574 0.10697724 -0.06450611 -0.26434302 -0.2019533 0.032541294 0.21333995 0.30805612 0.1704911 -0.08978683 -0.12675858 -0.08219371 0.033698 -0.23776545 0.22295026 -0.35067204 -0.007843064 0.44994634
http://www.semanticweb.org/inm363/AwA2#hasColour -0.13622001 0.18052101 -0.01081415 -0.29217935 0.23933282 0.22812255 0.32577947 -0.13145112 0.06906967 0.15610647 0.18564871 0.24804558 0.028132018 0.10979415 -0.103149176 -0.14411142 0.14681625 -0.014135439 -0.12903807 -0.16163379 0.18044342 0.20893551 0.21508484 -0.30507967 -0.02464002 -0.10756346 -0.12046633 -0.1435789 0.1143093 -0.22737929 0.09939795 -0.02138967 0.35618553 0.11931089 -0.114951156 -0.014687443 -0.19946694 0.18150778 -0.016340839 -0.31899473 -0.04031389 -0.2157919 -0.17797886 0.019129973 -0.1338481 0.11776358 -0.06927952 -0.022378664 -0.009949328 0.29029137 0.013869079 -0.14041917 -0.05225233 -0.052404247 -0.047595847 -0.023489453 -0.2232639 0.11676229 -0.11286804 -0.082811505 -0.13652956 -0.0366944 -0.06707211 0.17916033 0.18795112 -0.2760163 0.07596788 -0.0038738116 -0.11322181 -0.0034085226 -0.3261883 -0.20419097 0.006740552 -0.35263485 0.23587193 0.048133347 -0.1670732 -0.29357818 -0.060412776 -0.22086124 -0.20864077 -0.123731434 0.28191066 -0.2873775 -0.06906183 0.22225446 0.16029635 0.06781721 -0.30590048 0.21416733 -0.19098864 -0.24086311 -0.0739437 -0.04444611 -0.080286585 -0.22970384 0.0952467 0.110366076 -0.22185294 0.14720803 -0.11435431 0.17355831 -0.24528277 -0.0342363 -0.38726458 -0.11904778 -0.13416734 -0.21798584 0.055504955 0.060202956 -0.17873 -0.29476675 0.15166073 0.28971222 -0.1101142 0.24278978 -0.1380975 -0.10894508 -0.05791743 -0.06323036 0.16335347 0.15873364 -0.024524584 -0.047942486 0.099513985 -0.240524 -0.18870628 0.051668867 -0.039966203 -0.3807428 0.352038 0.2128463 0.10251292 0.109089 0.16775401 -0.055208996 0.033873823 -0.092158906 -0.1844013 0.106023625 0.22299479 -0.023160642 0.045381606 -0.004478528 -0.22143885 0.008969665 0.21052288 -0.24782835 0.068788216 0.031348515 -0.1692796 0.065271266 0.22502105 -0.036524806 -0.15798588 0.0619469 -0.1627702 -0.16581263 0.3343896 0.1229163 -0.12100855 -0.14067285 -0.057957686 -0.30337128 0.102915525 0.17160156 -0.12601076 -0.26678285 -0.14278074 -0.21153702 -0.35632142 0.4771945 -0.12918948 0.3234582 0.2403025 -0.17917253 0.253402 0.32193974 0.022896217 0.27368397 0.04214471 -0.20816438 -0.17302085 0.09858058 -0.20002882 0.13016114 -0.225932 -0.24501538 -0.0022597013 -0.2698661 0.24504848 0.0750842 0.09740345 -0.13047075 0.1049547 -0.2516061 -0.046574697 -0.086435385 0.22749147 0.13938728 0.06782087 0.06727325 -0.34244025 0.19144481 -0.095580585 0.031918775 -0.26369765 -0.035604987 -0.13024169 0.017805886 0.23234485 -0.04526944 -0.34715766 -0.24416807 0.24147373 -0.15924995 0.39373037 0.13639598 -0.21525317 -0.042755883 -0.14393581 -0.25403965 0.17869167 -0.08332601 0.17374468 0.080112234 0.104233444 -0.060279604 0.25023898 -0.2313287 -0.3012109 0.06281412 -0.14424154 0.20654273 0.29721728 0.14971368 -0.3387307 0.18634956 -0.15212835 -0.04262423 -0.20929699 0.16745356 -0.11035685 0.28785667 -0.040431105 -0.111676864 -0.20418073 0.048913687 -0.18795921 0.41210207 0.043057416 -0.03893374 -0.092734806 0.29355714 0.18800882 -0.21430531 0.06108775 -0.30570135 -0.13744831 -0.3563174 0.04368352 0.22463286 0.038151346 -0.13671276 -0.23775768 -0.32224476 -0.006627073 -0.11348519 -0.0053080576 -0.057609066 -0.08253471 -0.023630407 0.04020362 -0.23841727 -0.06720067 0.10200494 0.2081517 -0.056249075 -0.30912852 0.23028013 0.084442765 0.17156109 -0.0088035995 0.3047839 0.33277705 -0.36865178 -0.08460935 -0.07927211 0.121603 0.21710746 -0.2004816 -0.1788352 -0.31551868 0.27755105 -0.36169177 0.22560294 -0.009746247 0.055828325 0.047036994 -0.2504328 -0.10173488 0.43569806 -0.25500435 -0.31290853 0.21015877 0.1349477 0.15397345 -0.27481323 -0.084850475 0.08127516 0.16129915 0.023825014 0.1649685 0.24555004 1.9461195e-05 0.05088577 0.07000577 -0.06797936 0.17646766 -0.04692029 0.12243104 0.15043978 0.12231613 -0.32398307 0.008745238 0.016487818 0.1711992 -0.1323672 0.10527369 -0.07509789 0.116174996 -0.3637314 -0.21246773 -0.21874245 0.24903351 0.09200191 -0.047134664 -0.07418931 0.06788904 0.18316689 -0.22870511 0.09794911 0.3846527 0.054758202 -0.3226786 0.06579727 -0.24416462 -0.03222827 0.13185224 0.0029565264 0.20291914 -0.16816643 0.30057684 0.19150996 -0.121493004 0.085944034 -0.049830575 0.082734644 0.11872894 -0.08701074 0.14377286 0.31748682 0.0647701 0.22500929 0.12359368 0.06064758 -0.17865266 0.16176738 -0.02927593 -0.23286775 0.20092809 0.13531102 -0.21415815 -0.10910047 0.27185142 0.19819503 0.32089 0.32720235 0.2851998 -0.22286314 0.15900542 0.19798994 -0.146198 -0.3343337 0.021613803 -0.036727063 -0.055685274 -0.13434093 -0.06315901 0.18096775 -0.26114842 -0.20490088 -0.004578933 -0.33082855 -0.26033136 -0.27640495 -0.09829901 -0.07161465 -0.08449029 0.0034358266 -0.21249604 -0.01213937 -0.21876101 -0.1895334 0.13589698 0.37431526 -0.0044078133 -0.14820343 -0.077577144 -0.10749009 -0.18231322 0.26239842 -0.1949327 0.112055264 -0.14220749 -0.17657422 0.22169513 0.10301751 -0.31363273 -0.08695928 -0.07377622 -0.36342895 -0.057330493 0.22591548 -0.057407916 -0.103227675 0.29969168 -0.15633361 0.08210071 -0.2708964 -0.07988152 -0.38231733 0.12048652 -0.02447651 0.008474226 -0.19931167 0.23031792 -0.15594879 0.20551671 0.21842591 -0.29129335 0.042675484 0.25609034 -0.16341908 -0.22265066 -0.04387913 -0.043918688 -0.29328528 0.039760355 0.03858778 0.11434465 0.17497161 0.08822083 0.19420287 -0.0058642398 -0.082959674 -0.19490533 0.26738855 0.28299785 -0.06947807 -0.2207613 0.092047825 0.1060607 0.25054106 0.19412363 0.3487207 0.016777331 -0.29342338 0.106908046 -0.12547104 0.026934855 0.12756991 0.18846662 0.033670146 0.06948249 0.16087364 -0.20902456 0.25917134 0.1773468 0.10762538 -0.04958009 0.1075225 0.15047604 0.17703795 -0.05569665 0.2938948 -0.017429367 0.23821473 -0.3072198 -0.12959236 0.030621223 0.32370752 0.08088946 -0.14286394 0.22849436 -0.16786188 0.039671525 -0.18822348 -0.03298962 0.20784165 -0.054375287 0.28369784 0.14656074 0.41717678 0.26816934 0.34016186 -0.049109966 0.06839029 0.35121107 0.04887123 0.0663106 0.054967605 0.2422364 -0.27065042 -0.10960662 0.1745135 -0.11556641 -0.12853557 -0.011588622 0.15598446 -0.085682616 0.16085523 0.24407417 -0.14598772 -0.019896673 -0.10821223 0.36854923 -0.07146262 0.1441434 0.03629053 0.3734193 0.091845974 0.1471228 0.11556337 0.13107063 -0.19435053 0.08395018 0.2051673 -0.1110565 -0.20617959 -0.14581245 -0.13498135 -0.1804772 -0.04643735 0.13930006 -0.042532463 -0.31366056 -0.10877513 -0.27794856 -0.22659214 -0.15615483 0.085530385 0.19178414 0.12595415 -0.004599274 -0.013913366 -0.07110477 -0.14412789 -0.17171083 -0.19609033 -0.046075482 0.19237126 0.13550706 -0.095016934 -0.24625333 0.16446239 -0.21032438 -0.29901075 0.29919368 -0.20344687 -0.0029835228 0.008658014 0.045863967 -0.3218974 0.16931139 0.07165653 -0.2619585 -0.16947822 -0.0910037 0.03632173 -0.095357955 -0.30224767 0.04636549 0.27800006 0.18510725 0.37765312 0.3740965 -0.028492477 0.058907416 0.08171049 -0.027453698 0.056256067 -0.06281131 0.05721358 0.19759715 -0.021589642 0.07506213 -0.20664197 -0.068383455 -0.144056 -0.021705873 0.1558116 -0.083485454 0.12895669 0.04051917 -0.21341807 -0.16450636 -0.023055084 -0.14039554 0.014685904 0.00061047095 0.091792725 -0.23110129 -0.450917 0.15335146 -0.515037 0.29337147 -0.078003675 -0.17660274 -0.22342576 -0.11132133 -0.04899097 -0.26216412 -0.121607795 -0.1267292 0.17638688 0.2274957 -0.10842646 0.028370535 0.25219595 -0.33596548 -0.25903293 -0.06664784 0.16138743 -0.07762318 0.18162107 0.13792747 -0.19488434 0.13792007 -0.20700893 0.00056644867 -0.16836306 -0.22657736 -0.10788731 -0.06289385 -0.1635528 -0.2561025 0.15772742 0.02166915 0.29102337 0.16244653 0.038136784 -0.28312677 -0.13432375 -0.22284883 0.061265897 0.02493513 0.11737274 -0.17425592 -0.058753025 0.015867723 -0.016651856 -0.037050366 0.046705995 -0.1019139 -0.1209106 0.082733355 -0.10265568 -0.1856176 0.07770073 -0.13096166 -0.102747984 0.1670429 -0.027891232 0.310218 0.0827556 -0.28044918 -0.23854825 -0.008204199 0.43822226
colour 0.39138472 -0.02144426 -0.07725604 -0.09252576 0.18332775 0.14270689 0.043508746 0.07468751 0.2598957 0.007813731 -0.17567493 -0.02444326 -0.20462725 0.016552111 0.015501251 -0.22401027 -0.2552419 0.062128242 -0.03297127 -0.12102633 0.113517754 -0.12414782 -0.00035156196 0.17771688 -0.0906018 -0.17875691 0.07688013 -0.15367141 0.17271084 0.042146612 0.33487424 -0.011249163 -0.1046766 0.12457422 -0.1220467 0.31800297 0.18224722 -0.2712564 0.041862253 -0.11004799 -0.27254522 0.100374065 0.21471089 0.12245695 -0.017096853 -0.032306634 -0.069972485 0.078228824 0.15355468 0.18918325 0.25803208 -0.36198804 0.045050144 0.06442686 0.017304223 -0.07878494 0.22494961 -0.065068744 0.08317631 0.054019645 0.3899427 -0.12005085 -0.31579897 -0.04878976 0.18596962 -0.16172083 0.13230164 -0.117550604 -0.053377513 -0.2940557 -0.19706003 0.25424471 -0.17059246 0.0036065734 0.17481318 -0.13959096 -0.064321466 -0.1951034 0.07812561 -0.2311086 0.23270178 -0.31281218 0.08816584 0.11655274 -0.11843554 -0.06325109 -0.0119373575 0.19339925 -0.027335573 -0.058741793 0.016900565 -0.09838995 0.055994708 -0.0723548 -0.16514121 -0.3111486 0.10195863 0.20165052 -0.3080859 -0.09386585 -0.3422087 0.32444808 -0.016675195 -0.11854148 0.27989832 0.051420018 0.18830241 -0.05110072 -0.17911588 0.2525982 -0.03342099 0.03709078 -0.21815117 0.060041334 -0.1497371 0.16694099 0.21715508 -0.02276184 0.15513518 -0.2040806 0.002689392 0.16492286 -0.099334404 -0.053163223 0.23780622 -0.14044093 -0.27926245 -0.20908347 -0.092554376 0.13840638 -0.108953975 0.20747356 0.11915985 0.08582133 -0.1083712 0.24924497 0.055558775 -0.33850926 -0.0736164 0.04866582 -0.1745595 -0.07569094 -0.12721482 -0.19297113 -0.046790894 -0.23268001 -0.23566326 -0.18130802 -0.09929253 -0.13962537 -0.17759013 0.080800906 0.117545806 -0.054094452 0.23487736 0.14711194 -0.17121978 -0.0827169 -0.030109197 0.23438163 -0.04751094 -0.14641479 0.14868848 -0.21315566 -0.2793803 0.09234883 -0.29162323 -0.0001303339 0.20737876 0.0018147087 0.14394039 0.2631426 -0.0341915 -0.26506934 0.103348665 0.24019375 -0.15167972 -0.1839793 -0.016546866 0.23126234 0.11733607 -0.01903107 -0.019674094 -0.3759032 -0.09570947 0.1109417 -0.06693851 0.04094296 -0.19097464 -0.20000641 -0.1514162 0.010364733 0.36979404 -0.26322314 -0.06440991 -0.3786378 0.25761315 0.05538333 0.21780074 0.24818332 0.14850704 0.27404222 -0.1936675 -0.1854048 -0.281168 -0.2594657 0.09177153 -0.3749106 0.23965701 -0.21555494 0.15167682 -0.07446192 -0.14353141 -0.16009781 -0.11789474 0.16653866 0.3342337 0.23881547 0.18690734 0.13272502 -0.10526291 -0.10567778 0.22810066 -0.029970698 0.03759423 -0.01988831 0.41391093 0.055602506 0.09499814 -0.006088718 0.10878534 -0.079998545 -0.19598335 -0.22696505 -0.013011295 0.38174927 -0.21965411 0.04391901 0.015062565 -0.16333547 0.15528075 -0.18266624 -0.40696535 -0.19042741 -0.23359959 0.117209844 -0.25952747 0.17844035 -0.048601072 0.03220677 0.15982853 0.20486856 0.11065652 0.041159954 0.12914121 -0.0654535 -0.252855 -0.08348386 0.015106508 -0.13085382 0.17662704 -0.18877779 -0.09743738 -0.08872425 -0.16651857 -0.30004048 -0.29177627 0.17897438 -0.16007075 -0.08267564 0.16964035 0.24387811 0.1513085 -0.13387266 -0.10026526 0.2647539 -0.32506123 -0.10630593 0.31104192 -0.18857352 0.14814667 -0.12764399 0.19186239 0.4637755 -0.07773925 -0.10760866 0.00043325397 -0.007817217 0.069559015 0.12513198 -0.08530786 0.032234173 0.15080257 0.23575832 -0.34377253 0.41763732 -0.26964465 -0.19456661 -0.123909146 -0.04809913 0.082105525 0.07583398 0.16319723 -0.21948816 -0.024724945 0.12065426 0.26019204 -0.23078698 0.20779969 0.23385593 -0.05930241 -0.0057726935 -0.088818975 0.08966423 0.060890287 -0.2883805 0.19477087 -0.045274887 -0.053654406 0.28393507 0.12469986 0.29202846 -0.05911613 -0.1972652 0.10365479 -0.26783824 -0.29532993 -0.1765855 0.2331408 0.11355223 0.17317632 -0.044294614 -0.053486343 -0.20480506 -0.20825431 0.14283913 0.076428704 -0.17142735 0.19724968 0.09510229 0.20463327 0.20529474 -0.18890363 0.028406763 0.04596976 -0.26443362 -0.43102348 0.20035812 0.060764447 -0.22158746 0.18503162 0.2232091 0.022138081 0.059732877 -0.23742771 0.075899206 0.1978978 -0.087354116 -0.068593666 0.04774185 0.20764062 -0.23819934 0.1142205 -0.025654765 -0.18947186 0.023708455 -0.2155659 -0.086782224 -0.26512498 0.18072577 0.13128981 0.27096602 -0.042599857 0.09416592 -0.06648027 0.04619684 0.2224309 -0.12670074 0.10139077 -0.18531592 -0.23661707 0.030095907 0.03431645 -0.023527326 0.285003 -0.025578532 0.13660005 -0.41877538 0.07556073 0.1706959 0.14558576 0.005159928 -0.24560362 -0.24631932 -0.010088157 0.052300192 -0.048536673 0.2426331 0.16352233 0.14260446 0.10381423 -0.16624662 0.023398703 -0.20708853 -0.2606373 -0.124795385 -0.03262428 0.15395032 -0.018789275 -0.032552194 0.0244079 -0.00036247206 -0.09149328 0.35092747 0.01541808 -0.061426908 0.23636481 0.015911726 -0.15823828 -0.21613714 0.17588498 -0.1399791 0.10137861 -0.15773791 0.14408492 -0.2649845 0.04324079 -0.066082954 -0.11729896 -0.010132453 0.14667812 -0.27524456 0.2339007 -0.38984272 0.05249823 0.31123367 0.25497505 0.022873018 0.10780207 0.12671213 0.28104523 0.099363044 -0.02387984 0.15730424 0.03867329 -0.33295748 -0.038427312 0.015198245 0.19726822 -0.35286468 -0.05070546 0.22858322 0.038659677 -0.14012696 -0.012533835 0.21447915 0.015353082 0.38016242 0.19426206 -0.18209255 -0.059263308 0.0897978 0.1897049 -0.09798508 -0.28263098 0.023612268 0.14651683 -0.29577193 -0.054790944 0.16841012 0.34996316 -0.13122748 0.28732365 -0.2099356 0.16415276 -0.28491047 -0.11133979 -0.16312614 -0.5703741 0.06375905 -0.26297107 0.25319365 0.042917617 0.058914717 -0.011366247 0.1406976 -0.152442 0.14294834 0.019264925 0.06370497 0.27111343 0.13369896 -0.121417806 -0.07728578 0.16034535 0.1105818 0.11587749 0.19391778 -0.029010454 0.065942936 0.20749475 0.027574282 0.28035653 -0.17444342 -0.36955082 0.3074381 0.116151474 -0.100037895 -0.37091544 0.33555067 -0.1535377 -0.22211616 -0.048767168 -0.15270884 0.0768257 0.2547827 -0.10338627 0.40953115 0.1806839 -0.00323427 -0.025158687 -0.11848056 -0.20506091 0.16431388 -0.042974066 0.36101353 0.005769341 -0.13141818 -0.23675233 -0.048885107 -0.08922033 -0.209519 0.028212221 0.08780528 0.26131213 -0.051674988 0.051735308 -0.25196117 -0.075132 0.04250516 0.24406376 0.021834373 -0.104426354 0.11046915 -0.08500542 0.19122118 -0.02421162 -0.037821945 -0.22406596 -0.2637395 -0.070330694 0.2486446 0.2710324 -0.3082437 -0.04409849 -0.10973451 -0.22030906 -0.10350334 -0.38441196 -0.1382306 0.022040159 0.10525377 0.28597453 0.21408266 -0.06020195 0.023905974 0.00033076596 -0.3299317 0.22811216 0.087995045 0.12220389 0.054159217 0.1527392 -0.053324565 0.10482598 0.08142082 -0.16587563 -0.011293536 0.107805595 -0.09809191 -0.1845043 0.18650039 0.27114818 -0.005671897 0.2808358 -0.067614816 -0.23690031 0.08013995 -0.009998092 0.1122954 -0.051647462 0.02757209 0.19494466 0.23157515 0.4107544 -0.14940332 0.19690333 0.0942805 -0.31708497 -0.27067804 0.0737913 0.31719986 -0.2071829 -0.32446367 0.1554643 0.19106027 -0.1857766 -0.068376616 -0.031004328 0.2647389 0.1737557 -0.32139754 0.0804702 -0.17264557 0.29802114 0.14607903 0.33354682 0.08730816 -0.06752197 -0.34798813 0.090980686 0.0027557316 -0.23915304 -0.20437454 -0.39236572 0.1533881 0.2169053 -0.2372226 0.30832577 -0.29152066 -0.18515013 0.10849798 -0.021335581 -0.24591218 0.40010807 0.3155519 0.07386405 -0.24072638 0.13667381 -0.0611 -0.11157134 -0.13486852 0.29627696 -0.07677544 0.1412752 0.29654318 -0.21083857 0.13851197 0.123657145 -0.27120316 0.14818855 0.04121912 0.2972016 -0.22516668 0.25385582 -0.081966594 0.27516106 -0.11764848 -0.17027517 -0.3013743 -0.19676025 -0.18877001 0.07458528 0.03278154 -0.23673105 -0.15639925 -0.16596647 0.18318026 -0.19449136 0.24117608 0.13221426 0.15759729 -0.17252117 0.27664083 0.33074394 0.23659758 -0.14791493 0.0213698 -0.20286396 -0.06851566
movement 0.0937689 0.016619183 -0.024285398 -0.24940027 0.06187063 0.26946944 -0.19605556 -0.2436934 -0.097595066 0.18815565 -0.14379106 -0.2295586 0.16147931 0.15282074 -0.11004103 0.003131648 -0.023137461 -0.012646652 0.18720545 0.07863015 -0.077208035 0.13001944 -0.14169496 -0.044471454 0.17155674 -0.1920796 0.26235625 -0.04567912 0.23099218 0.13496085 0.041426115 0.08685323 -0.039791696 0.25804424 -0.23577988 -0.02119995 -0.03779128 0.055207945 -0.19259104 -0.25524297 -0.29723266 0.28575018 0.107203424 0.11826653 0.11767053 -0.17959924 0.015412796 -0.09541628 0.06273376 0.13654526 -0.19117717 -0.031666268 -0.024984485 -0.05020646 0.10878685 -0.030707179 -0.093393385 0.18181236 0.14902852 -0.0029659092 0.22779962 0.02472522 0.15620163 0.069246754 0.17983739 -0.100983545 0.2200444 0.1279957 0.13336568 -0.12962823 -0.1868408 0.1404896 -0.17037967 0.040200755 -0.11617131 0.25325707 0.07529522 0.17917879 -0.19076417 -0.19822934 0.09606471 0.11297404 0.062413704 0.1294002 -0.10171345 -0.095214374 0.14538555 0.31389046 -0.04110145 0.34712526 0.09439001 0.012535309 -0.32673573 -0.16506512 -0.2598474 -0.19863127 -0.08907292 0.014516109 -0.32443595 0.023794336 -0.012807246 0.19443731 -0.04537956 0.21261348 -0.11926586 -0.05009378 -0.056021612 -0.036006972 -0.1612353 0.16171175 -0.2630911 0.011378055 -0.19130503 0.15533736 -0.020607227 -0.25763923 0.3665336 -0.176172 -0.08765016 -0.111378044 0.100339085 0.20172961 0.05895196 0.07046103 0.035805568 -0.112215295 -0.10902464 -0.1524571 -0.082610965 0.025663465 -0.28908086 0.03170365 -0.04959864 0.10455801 0.20354925 0.15572235 0.14415058 0.008226572 0.31176513 0.24312575 -0.42621595 -0.32714087 0.17173934 -0.46506542 0.07225738 0.031714093 -0.110997625 -0.085926965 -0.27763963 0.028707305 -0.09825893 -0.26064518 -0.1628998 -0.044554796 0.022039667 0.26514086 0.018142972 0.021233797 0.028587447 0.053755943 0.04201372 -0.09787284 0.111322 0.008561228 -0.29287896 -0.19095914 0.03086434 0.03531449 0.12751809 -0.07415874 0.17765301 0.41313645 0.013925974 -0.031312205 0.046061452 0.2778204 -0.033321355 -0.10776187 0.06676318 0.13468133 -0.15046225 0.097526535 0.00528935 0.112497024 -0.15326923 -0.14476806 -0.24823426 0.19911103 -0.09180417 -0.13086197 -0.12897669 -0.1786394 0.18883237 0.03602219 -0.15607606 -0.19521162 -0.14464939 0.022897558 -0.13990842 0.44807222 -0.06862753 -0.16512892 -0.21887983 0.046087373 -0.055720244 -0.0019100016 -0.1113418 -0.2574286 0.3082762 0.06904981 0.17772613 -0.068648525 -0.10175372 -0.09819508 -0.30116835 -0.00095674116 0.07441785 -0.111710675 0.113790825 0.16250667 -0.25790465 -0.18260114 0.27197912 0.2503412 0.008625959 -0.00019830224 0.24070667 0.08402612 0.1872586 0.15738752 -0.19677635 0.22362599 -0.07309208 0.13813393 0.10192605 0.22977534 -0.28235364 0.08548738 0.17763735 0.11591567 -0.03568755 0.015201122 -0.32004756 -0.10709961 0.060768303 0.016668357 -0.2500701 0.22651753 0.043130025 -0.07099753 0.10881532 0.05656823 -0.12784708 -0.1526252 -0.07258683 -0.050738584 -0.19514178 -0.14816028 0.10385681 -0.25846258 0.2119286 0.040919606 0.16804735 0.0015474167 -0.13192002 -0.06771914 0.13954824 0.045650765 -0.06617879 -0.0048984177 -0.09474887 0.10272356 -0.010056335 0.1276061 -0.053655457 0.075239204 -0.15547505 0.16119707 0.31310207 0.032145005 0.075111434 -0.2680754 0.106567524 0.1590663 0.13959372 -0.26265174 -0.019597072 0.1533559 0.10285714 0.10583713 0.07761075 -0.08869588 0.15036006 0.1362756 -0.31915918 0.27681047 0.028533509 0.35639724 -0.116901785 -0.0314696 -0.40359548 0.5254022 0.26222935 -0.033533376 -0.15441291 0.04345542 0.10499832 0.1605123 0.3172308 0.27070996 0.09016854 0.28118998 -0.08003695 -0.09337959 0.026412446 -0.15624028 -0.20229684 -0.13623662 -0.14700492 0.12449277 0.029697912 0.28322786 -0.11908423 -0.25541618 -0.26276657 -0.3189331 -0.036581356 -0.28438586 0.24283175 0.043732088 0.049994852 -0.21573257 0.06075707 0.10179853 -0.066286445 0.2350199 -0.059238285 -0.09681002 -0.018302172 0.26925832 -0.14148146 -0.13934933 -0.08909632 0.015216484 -0.079807945 -0.28049737 -0.19808072 0.0066019027 0.3403479 -0.17941001 0.11333654 0.26967648 0.07413592 0.26934028 -0.21156852 0.13569656 0.11481093 -0.028158333 0.12150617 0.22210476 0.032882083 0.025432376 0.23007458 0.17511337 0.090153344 -0.16557367 0.2302576 0.09956488 -0.30619287 0.13887359 -0.018885022 -0.17616607 -0.08943418 -0.2959136 -0.009969873 -0.1412377 0.061410632 -0.15595737 -0.07422733 -0.15522756 -0.10367461 0.12772556 0.1751889 -0.045365337 0.18951117 -0.15617254 0.22429745 -0.308691 0.10528489 -0.13785873 -0.38279152 -0.002775246 0.008753273 0.08187993 0.058585145 -0.20722947 -0.24017668 -0.1479716 -0.30588844 -0.02283208 -0.057818778 -0.13763627 -0.055344556 -0.17509644 -0.27214828 -0.20952488 -0.031555884 -0.2195795 0.013726012 -0.24886577 -0.008318073 -0.17591608 0.19686118 0.18022546 0.26844168 -0.023323882 0.19369112 -0.16762426 -0.08079377 0.19470258 0.11897113 0.22262444 0.1435233 0.045426454 0.095132895 -0.10444963 0.17262097 0.24650557 -0.10003164 -0.30679697 -0.20292968 -0.19890398 0.08918459 -0.34699434 0.117246784 0.34700987 0.030249875 -0.2237809 0.05393013 0.0014013922 0.24938233 -0.046467576 0.19272903 0.20869738 0.124749444 -0.2925611 -0.15518734 0.10402925 0.041911375 0.16400298 -0.19765517 -0.116784304 0.0052892976 -0.28070676 -0.17027906 0.1442008 0.21222915 -0.17188781 -0.24184787 -0.032092966 0.08491517 -0.013926643 -0.16165288 -0.18259174 -0.060066532 -0.16847228 0.12971127 -0.2062995 -0.064010516 -0.052306727 -0.041393735 -0.038883533 0.079489194 -0.085024066 -0.08649018 -0.064132504 -0.21462044 -0.14619033 -0.49835464 -0.18347771 -0.28067788 -0.12597473 0.023793733 -0.2180975 -0.12996584 -0.19475701 0.1676777 -0.06422014 0.045621198 0.14619836 -0.047906294 0.2441717 -0.094499595 0.07464781 -0.14718072 0.11421504 0.08713075 0.13179415 0.007913294 0.022291442 0.19710961 0.022796063 -0.19903089 0.25955057 0.113591656 0.1387254 -0.023969783 0.05428695 -0.24125253 0.14183854 0.24619761 -0.034369487 0.08739029 -0.13934939 0.3527628 0.2725208 -0.24481113 0.26284525 -0.17865425 -0.01757616 -0.3887179 0.15525818 -0.2507121 -0.24159683 0.040056575 0.17716226 -0.15797117 0.10658587 -0.18801312 0.108763926 -0.19646692 0.23370835 0.17929895 0.10641009 0.13481688 0.017951056 0.065194696 -0.09530579 -0.11844129 -0.25213826 -0.16875902 -0.30233556 -0.23802662 -0.37322462 0.033502433 0.024093037 -0.117286175 0.055653725 -0.094108246 -0.12555327 -0.2061005 0.34296072 -0.16620493 -0.20607504 0.124921545 0.12832838 -0.03428783 -0.09481128 -0.15048368 -0.18662137 0.124576025 -0.00866694 0.2934458 -0.034856927 -0.13422056 -0.14489523 -0.15470481 -0.39431977 0.15447493 0.18301928 -0.41325462 -0.062089704 0.041149512 -0.086604044 -0.06733394 0.13666762 -0.063103385 -0.0071158805 0.23304777 0.043744206 0.3160239 -0.21625283 -0.023611069 0.07794843 0.10885354 -0.08201518 0.12724476 0.09661281 -0.21483277 -0.0017092737 -0.08731076 -0.008835289 0.16856338 0.108117394 0.0966079 -0.03353419 -0.18332237 0.17591065 0.15797184 -0.1779399 0.06421391 0.28265053 -0.13468386 0.05532636 0.28587624 0.14142905 -0.033912625 0.14528753 0.057054047 0.22740448 0.2125457 -0.2670594 -0.12206758 -0.01523532 -0.033044722 0.100430466 0.001980392 -0.09473874 0.21002859 -0.060673498 -0.11177402 0.55337733 -0.30008143 -0.034229178 -0.12635553 -0.03290358 0.3061333 0.19454348 -0.07302524 -0.04600501 0.0019051902 0.0731133 0.26509535 -0.11158072 0.06252855 -0.059291154 0.090307966 -0.15721738 0.038418666 -0.1132219 -0.028210353 -0.040824737 0.15201811 0.06534868 0.05866965 0.3137464 -0.029735036 -0.18832229 0.049269438 -0.22118561 0.2937926 0.043389883 0.14052448 -0.00485343 -0.069923565 0.17608732 0.0004737059 -0.33027846 -0.2050242 -0.24649838 0.11490531 0.040586885 -0.012641684 0.026731266 -0.033926804 -0.13253622 -0.2520665 0.039439768 -0.057935547 -0.18794736 0.21988551 -0.0674059 0.04740929 0.1566385 0.070255324 0.12726046 0.032169838 0.29554775 0.29207152 0.11507546
habitat 0.3095345 0.17650488 0.010411923 0.042606775 -0.16093768 0.030571086 -0.054264087 -0.11729274 -0.11563704 -0.20262732 0.0573616 0.14460114 0.1305831 0.04738166 0.12539263 0.09261958 -0.113670826 -0.19838108 0.06143163 0.17144302 -0.08510393 0.23744315 -0.1699366 0.011361098 0.25602627 -0.28778875 0.17263655 0.11121384 0.15588942 0.23748188 0.3347694 -0.11652719 -0.13104437 0.058816932 -0.03437049 0.18407807 -0.10710461 0.1360018 -0.12288158 -0.018495213 0.07010896 0.30275056 -0.07578194 0.03856415 0.017929208 -0.11090644 0.13408077 0.2028104 -0.00046359366 0.1732715 0.00876498 -0.35696334 0.25053057 -0.047106747 -0.2239731 -0.0011744968 -0.16002631 0.04291838 0.039598152 -0.3036443 0.2946728 0.003589426 -0.14982097 0.2859424 0.06440453 -0.41101083 0.039309353 -0.1431601 0.053242493 -0.0583293 0.16050594 -0.17850706 0.016018428 0.17720994 0.139012 -0.2306434 -0.085987285 -0.14944144 -0.07685109 -0.1009853 0.1308387 0.057324823 -0.0679581 0.20511831 0.039644573 0.082563795 0.014609073 0.1303078 0.14053622 0.19904464 -0.21512565 -0.1600044 -0.394503 0.06805723 -0.041669738 0.12983383 -0.016528588 0.11600848 -0.20622674 0.08598606 -0.016430441 0.20026231 0.20343703 0.14481632 0.07297113 -0.29825482 -0.11356736 0.08096655 -0.4082721 0.14359945 -0.3051763 -0.24365419 -0.23205881 0.34486952 0.08393056 0.21383898 -0.021599045 0.04381268 -0.07234165 0.094723746 -0.09392258 0.06790161 -0.061735194 0.022662211 0.036957882 -0.26837942 -0.16071908 -0.3444796 0.016538661 -0.108517624 -0.19471608 -0.14740951 -0.1587191 -0.17651485 -0.039435156 0.2660965 -0.22180879 -0.17198217 -0.20251636 0.13612519 0.18046309 -0.17998363 0.16173774 -0.1194983 0.1911886 -0.12434358 -0.20956603 -0.25996986 -0.07001524 -0.005532634 -0.2663715 0.18713626 0.18256667 0.31423366 0.25548837 0.06123282 0.17323384 -0.08884784 0.31400347 0.2906179 0.082573645 0.101492345 -0.12707195 -0.15981556 -0.27536264 0.35020825 0.068157636 0.068544 0.38424698 0.16298196 -0.044181485 0.14352316 -0.0219301 -0.0037640296 0.2100368 0.1210108 -0.033399552 -0.21796425 0.2913504 -0.022519518 -0.06764257 -0.08600541 0.32356918 -0.23919752 0.09395725 0.055194512 0.2234967 -0.048209373 0.086346015 -0.14025028 0.19480872 0.13171464 0.20768921 0.15458328 -0.049552195 -0.19826561 -0.16186649 -0.26486367 0.04426797 0.1997104 0.11722357 0.27688256 -0.021808207 -0.20242958 -0.40001902 0.06557487 0.095429175 -0.4621146 0.18126912 -0.16091308 -0.06723887 -0.18435478 -0.38169554 -0.06649443 0.17032118 -0.17913319 0.2738051 0.35913342 0.116551116 -0.10451603 0.103165306 0.13240086 0.0005220374 0.23077017 0.233529 -0.010893211 0.3330779 0.25079498 0.09938071 -0.06650729 -0.33401975 0.18923353 0.06475586 -0.25866213 0.39215916 0.4717921 -0.32039294 0.26314002 -0.18721978 -0.0283554 -0.15339036 0.08038404 -0.3560976 0.13049474 0.1655639 0.119310506 0.031083232 0.11734382 0.19894423 0.10798367 -0.075874195 -0.015292392 -0.18149954 -0.17639323 -0.15876216 0.26714724 -0.17365703 0.051634237 0.015101835 -0.12076466 -0.19191928 -0.17446414 0.16511218 -0.34115434 -0.03199349 0.09081181 0.01166425 -0.11645351 0.09803097 0.008861182 -0.0902072 0.22940162 0.335582 0.21395119 0.15898517 0.3926087 -0.076118074 -0.06682957 0.32776543 -0.33912677 0.18461102 0.09663091 -0.01102546 0.34175697 0.29249594 -0.08474585 0.35408488 -0.14283642 0.27224654 0.26667792 0.20823565 -0.108057424 0.12354982 0.32834682 -0.42173886 0.24681011 -0.010308184 0.026127048 -0.22857605 0.19903505 0.13175112 0.27809924 -0.17496228 -0.21412481 0.05975361 0.11621898 0.28147843 0.02383353 0.29092634 0.1914545 -0.24257338 -0.064417504 0.15536898 0.18104097 0.024420144 0.15526891 0.1386834 -0.15741146 -0.14883772 0.16669665 -0.016763153 0.26925853 0.071032576 -0.19254375 0.25796226 -0.043617487 -0.124609284 -0.2880975 0.1887663 0.2353477 -0.13603082 0.014723512 0.22730882 0.16034971 -0.19781819 0.015698325 -0.22552995 -0.39560157 0.24204484 0.32430574 -0.11102526 -0.047852907 -0.14787136 -0.21079975 -0.009234999 -0.0046077366 -0.14002202 -0.06904794 0.29241258 -0.24608074 -0.044890873 0.31878978 -0.13287511 -0.12000951 0.088451676 0.07000873 -0.069657095 -0.34170404 -0.14281593 -0.04573467 0.28090918 0.21693574 -0.016210156 0.21632768 -0.042020008 -0.05901952 -0.07252766 0.14906259 -0.31217456 0.23585762 0.026577333 0.29075897 0.12759428 -0.32910228 0.25099382 0.08591685 0.05046497 -0.120953955 -0.12364939 -0.40268755 0.101266764 0.25370923 0.018101998 0.16060945 -0.19826709 -0.1781602 -0.038070783 -0.41076034 0.20501822 -0.13075773 -0.06410219 -0.16227332 0.0401476 -0.31527933 0.0302686 0.20763794 0.08534176 0.0070839413 -0.30369765 -0.011564935 -0.15293463 -0.24661912 -0.22624092 -0.0011212517 0.09598523 -0.011383446 -0.077076405 0.09013226 0.013333711 0.03327504 -0.005451037 -0.25182074 0.22050516 0.27092943 0.33718067 -0.21080747 0.21300045 0.16745934 -0.12996562 -0.29588974 -0.093836114 0.1007104 0.1233517 -0.05096651 -0.10072306 0.11902791 0.10396796 0.18066224 0.17518878 -0.29317012 0.2594217 0.03672678 0.10441377 -0.048242807 -0.23326094 0.3652433 0.14567864 -0.16516161 -0.27375188 0.080459036 0.2614932 0.07778147 0.02839576 0.19458161 0.014574482 0.094584614 0.16818815 0.089430206 -0.25732756 -0.21664721 -0.18414913 -0.18713939 0.00896375 -0.22996591 -0.19819677 -0.11657682 -0.17711987 0.20733877 -0.11724048 -0.2638739 0.066147536 0.14604397 -0.11487687 -0.024208866 -0.15502879 0.04669864 0.32454276 -0.073063836 0.36170596 0.0967968 0.2908182 -0.0014352447 0.04287793 0.02626458 0.10751884 -0.42228898 -0.12217287 0.10448902 -0.56461287 0.2447282 -0.21636246 0.020882351 -0.015874708 -0.070009485 -0.1353027 0.13035959 -0.14241397 0.2727194 0.00078599574 0.04181772 0.1449696 0.1853755 -0.34696397 -0.15691893 0.30319655 -0.061866745 -0.04485261 0.095442094 -0.06980662 -0.2508284 0.13872571 0.23382847 0.019091574 -0.11012915 -0.11659425 0.18091065 -0.045146547 -0.22177541 -0.35748312 0.32938474 -0.045312814 0.0030020417 0.17015085 0.1271858 0.29341513 -0.12024489 0.05629935 0.08279927 0.26259977 -0.1785201 -0.0010420757 -0.016273525 0.21866338 0.092443064 -0.19099812 0.42829373 0.33880997 0.14374691 -0.031890772 0.30102763 0.31053007 0.15025054 0.15295994 -0.22641367 0.035990324 -0.31004038 -0.045495085 -0.22756289 0.15797646 0.099304594 0.006651457 -0.20977947 -0.20309506 0.10017392 0.05002321 0.24917008 -0.083616875 -0.25041276 -0.3585186 -0.23882638 -0.087959394 0.13801798 0.07028248 0.1431718 -0.20781578 -0.11972809 -0.08529327 0.00035920544 -0.14660326 -0.21752839 0.24337985 0.07253212 -0.050808422 -0.07056951 0.008643733 -0.31172615 0.04085309 -0.42990676 -0.030303463 0.10323277 0.1198378 -0.20399216 -0.15767796 -0.024405828 0.16711068 0.26607773 -0.01975236 0.21994503 0.026126571 0.14213823 0.13437317 0.09142249 0.15519552 -0.1398851 0.14676479 0.110536374 0.12318543 0.11280234 0.16741763 0.033375412 0.17265645 -0.03234839 0.2835399 -0.22849584 -0.032861505 -0.16004771 -0.07479651 0.25771084 -0.25243428 -0.11345325 -0.038415074 0.10252741 -0.31434757 -0.2986318 -0.1427505 0.12144791 -0.041183367 -0.09042592 0.073566325 0.13158377 0.23474015 -0.34297952 -0.06846802 0.07676843 0.2579465 0.106241435 0.1591512 -0.084611826 0.12642108 -0.14130728 0.1555079 -0.10408778 -0.44957307 0.016138032 0.11888359 0.14235187 0.25105134 -0.07311514 0.14066622 -0.18216394 -0.27454612 0.3303597 0.23909846 -0.026566552 0.16029945 0.31179285 0.1504315 0.008439244 0.20308232 -0.26103395 -0.24868983 -0.16432133 0.24652155 0.23370612 0.21674663 0.28159094 -0.23602271 -0.19597788 0.43486413 0.024973953 0.40392575 -0.1796592 0.2777045 -0.095247984 0.22062966 0.25579274 0.29847065 0.044130277 -0.0045040483 -0.3207343 0.09068697 -0.056697194 -0.111512996 0.30387062 -0.048306536 0.06764231 0.1914673 -0.20112877 -0.2932456 -0.005143575 0.32769126 0.20227431 0.20714952 0.13000862 0.2878633 0.18840915 0.040152986 0.15257001 -0.19866028 0.40169713
http://www.semanticweb.org/inm363/AwA2#hasHabitat 0.20356171 0.24905547 -0.3468872 0.1779209 0.3577315 0.3843188 0.24877231 0.38080302 0.21767592 0.137667 0.0910673 -0.24631661 -0.38312447 0.031234067 -0.108824834 -0.33521727 -0.1815011 0.20339733 0.2249795 0.05906454 0.108405754 -0.14285676 0.063078135 -0.18331401 0.0705757 0.25039738 0.0047594034 -0.16335735 -0.058712512 0.26628748 -0.30373904 -0.011593533 -0.1843742 0.2324225 -0.13202903 -0.2920311 0.08624095 -0.020614233 -0.24230096 -0.3760438 -0.10290537 0.007666916 0.0167667 -0.045892734 0.08688848 -0.015919305 0.09826577 0.23980233 -0.37254792 -0.07573588 0.12564725 -0.31409547 0.32104233 0.20270969 0.19022857 0.047637712 -0.12408241 -0.15312813 -0.23784356 0.2117163 0.15365286 0.17163305 0.029048244 0.48569983 0.0661507 -0.15418625 0.44748193 0.008606739 0.13123871 0.07145355 -0.13501255 -0.272529 -0.11854873 -0.36813363 0.028524566 -0.19975142 -0.08145109 -0.21936908 0.09000758 0.028340425 -0.13384372 0.25980288 0.1005908 -0.3062213 -0.116603106 0.3738668 0.0009846684 -0.19306141 -0.03787086 0.267873 -0.093353994 0.08149451 -0.5216418 0.08888016 -0.19541411 -0.19610858 0.06436393 -0.017138697 -0.056869324 -0.035816584 -0.29524943 0.21371698 -0.06955037 -0.17009188 -0.36542124 0.19895895 0.2244066 0.14144094 0.09181572 0.17877428 -0.18340231 -0.4353243 0.06495858 -0.02017318 0.08291694 0.12183096 0.18834245 -0.19801833 0.039985184 -0.094448954 -0.19495735 0.16149491 0.090298176 0.41192433 -0.19024213 -0.2809663 -0.08401636 -0.0073448033 -0.14728612 -0.046368603 0.1692328 0.30105582 -0.17880772 0.058678642 0.021440465 -0.24597345 0.26033592 0.147293 -0.15429303 0.12215167 0.24189962 0.30357563 -0.25394264 0.06798364 -0.0040207463 5.1912728e-05 -0.017625963 -0.12136587 -0.0761148 -0.04422581 0.15805753 0.1443936 -0.14336649 -0.097913414 -0.07313684 0.18066101 -0.2971957 0.107106104 0.0739824 0.025844228 0.23606537 0.2480413 -0.1559301 -0.20973441 0.00750205 -0.023796571 -0.061877374 0.23393132 -0.04805517 -0.21078165 0.0070794933 0.3825217 0.20333643 -0.09555393 0.34844524 0.26249442 -0.22117087 0.23231724 0.2307123 0.03682791 -0.23125172 -0.027913895 0.15497914 -0.26062596 0.04717049 0.034023438 -0.09371781 -0.39541784 -0.12670645 -0.03941212 -0.15301447 -0.28661293 -0.22822593 0.07639287 -0.0939878 -0.257659 -0.08738652 0.10750882 0.45450324 -0.07091792 -0.059879147 -0.10266023 -0.37765157 -0.15335278 -0.019575205 -0.09032589 -0.3333679 -0.3285375 0.14166218 -0.44967452 0.32008845 -0.023375731 -0.3637174 -0.36063308 -0.21173951 -0.04462264 0.32415864 0.0049463804 0.26286882 -0.21416293 0.1503313 0.04298551 0.11984783 0.11476632 0.046008173 0.14439839 -0.09388761 0.348306 0.0572911 -0.22428201 -0.25274286 -0.20522268 0.19744344 0.16685158 0.30520335 0.26895246 -0.21835782 -0.12337772 0.2025823 0.119635336 -0.013234442 0.18961774 -0.24679309 0.33168587 -0.072466925 -0.025674459 -0.30023596 0.2053603 0.28718245 0.19107805 0.15069327 0.1472498 0.25247675 0.25743747 -0.18153997 -0.25874048 0.056654274 -0.055782598 0.0074977675 -0.3695334 0.11218903 0.3014461 -0.035825126 0.10576754 -0.094576836 -0.20931491 -0.24274945 0.1885855 0.21662544 0.27792656 0.0034383165 0.18934368 -0.00025799827 -0.14422628 -0.06421678 0.07097216 0.30999225 0.32372886 0.0049255076 0.122656174 -0.08277616 0.025004467 -0.043951407 0.23996781 0.3315536 -0.13141115 -0.12933694 -0.30523816 0.040471938 0.0041022813 0.052899536 -0.21372966 0.11934478 -0.040982116 0.037286565 0.026652038 0.033705413 0.14516357 0.08503889 0.09826383 -0.14214933 0.067380644 -0.17731775 -0.025263293 0.09361488 0.18481421 -0.03193766 0.2097678 0.21361552 0.06991951 0.18771686 -0.08353196 0.16832954 -0.15208928 -0.27796534 -0.07285659 -0.23263039 -0.006276569 -0.11464825 0.079246856 0.14607005 -0.07196511 0.21574819 -0.30921614 -0.21563299 -0.35541755 -0.12141476 -0.33851427 0.39096293 0.24869208 0.0036001918 -0.1953736 0.19861795 -0.008492319 0.3388514 0.21672735 0.16929471 -0.111044526 -0.112825096 0.18274094 0.19372088 0.051748123 0.14392835 -0.20029195 -0.22570844 0.11734956 -0.0038856969 0.20890121 0.30882475 -0.20178986 -0.0122920275 0.2132641 -0.104090266 0.17719771 0.19860351 -0.2607345 0.31156185 -0.119045995 -0.11720049 -0.13793048 0.23804596 0.08385437 -0.22602706 0.037343953 -0.3973348 -0.07846417 -0.17056397 -0.14736496 -0.19521119 -0.037356153 0.013495841 0.014388326 -0.3172567 0.011902648 0.1696474 -0.18892583 0.25307372 0.27780363 0.35066903 -0.22827595 -0.17762151 0.12217483 0.038015682 -0.21931915 0.16607912 0.15519208 -0.20789 0.013909245 -0.04466052 -0.032318365 -0.15828666 0.14156818 -0.018011654 -0.2734175 0.2310552 -0.41174418 -0.029711049 -0.080172144 -0.10460199 0.05880379 0.050929874 -0.2542944 -0.085591204 0.008675545 -0.013694003 0.2917938 0.22708781 -0.22361353 -0.0500043 -0.07557672 0.37811694 -0.047060724 0.118179224 -0.3427712 0.19566046 -0.42068857 0.0351374 0.03692653 0.12793286 -0.14193763 0.05382381 0.050523024 0.072659686 -0.18126659 0.06411392 -0.31969336 0.22050859 -0.12930606 -0.06771085 -0.15787163 -0.34765577 -0.053595137 0.11084926 -0.089544654 -0.13563888 -0.07973679 0.26036495 -0.34844992 0.2654866 0.049220588 0.013973791 0.1060492 0.18403217 -0.09568096 0.11858487 0.09381768 0.032020405 -0.055457212 0.1771013 0.06906844 -0.3138667 0.32371712 0.10408752 0.066659905 -0.51159394 -0.012860729 0.13980386 0.27724844 0.15056676 -0.37524286 -0.042061083 -0.1861973 0.23533756 -0.0700273 0.34876755 0.13579255 -0.24683152 -0.1792139 0.074533045 -0.11897356 -0.05007743 -0.100829 0.14167988 -0.16670415 -0.0964996 0.22097932 0.13640507 0.17585513 -0.30427864 0.075796664 0.2595928 0.11197898 -0.22291116 -0.09541465 -0.0786657 -0.05958653 -0.3267713 0.12740396 -0.30710676 0.07327736 0.39360785 0.35936552 -0.17125548 0.13995786 0.28930247 0.12756896 0.20003699 -0.20023324 -0.31798887 -0.12352294 0.02929271 0.0637569 0.18747726 0.27602836 0.12590301 0.24538913 -0.021759026 0.03049898 -0.0874838 0.20544507 -0.005538897 -0.1460369 0.24087028 -0.26489657 0.36897776 -0.09010498 0.16692401 0.37303725 0.18539603 -0.054637842 -0.09959753 -0.087959714 -0.08651633 -0.07017132 -0.23667343 -0.23995802 0.0066434806 -0.05158664 0.008160243 0.14816904 0.23029135 -0.16314659 0.015440525 -0.11347127 0.011516035 -0.24595124 -0.19807555 -0.18672569 -0.118597895 -0.06699234 0.0681331 -0.10987338 -0.057357438 0.1420662 0.07943905 0.33685505 -0.1928843 0.06518286 0.003183949 -0.31406742 0.29942527 0.47042963 0.32072082 0.26092285 -0.12901138 0.07413285 -0.19418949 -0.113066 -0.00092950714 0.27473855 0.3489005 0.018346846 0.08973611 0.025120333 0.07624417 0.2567533 -0.037826966 -0.23346296 0.0050843363 -0.18250275 -0.13832392 0.018969709 0.1734884 -0.18172516 -0.16116905 0.15008289 -0.15952168 -0.2578198 0.019975951 -0.120829344 0.15414277 -0.39692295 0.03546243 0.12195685 0.27838385 0.3092019 0.23791942 0.23438506 -0.06827431 -0.14761914 -0.3324234 -0.13773184 -0.09930542 0.06519482 -0.16306166 0.097041085 0.2413994 0.09927655 0.11973444 -0.030254584 0.34358004 0.50379604 0.03822403 -0.29291046 -0.09573807 -0.028273998 -0.15812832 0.20516694 0.12081271 0.25603274 -0.22146577 0.09734674 -0.4089441 -0.1632574 -0.17170584 -0.47735727 0.3600061 -0.25045228 -0.099016234 -0.26880252 0.3273135 0.05972527 -0.059492838 -0.027791552 0.2415425 0.066264 -0.08618442 0.12678067 0.08811444 -0.09992172 -0.31712022 -0.07773478 0.06880938 -0.030000117 0.16002473 -0.12728345 0.21564312 -0.15196668 0.13949378 -0.5875293 0.16918409 0.1359096 0.25459942 0.13093297 -0.2887766 -0.34068376 -0.3219719 0.10894275 0.13340083 0.18301049 -0.21458152 0.18872994 -0.2951275 -0.12411964 -0.22187723 0.044090908 0.2006814 0.025930123 -0.25737062 -0.2699384 0.03350637 0.08534054 0.14441812 -0.045450162 0.112350285 0.012125723 -0.09388468 0.004162503 0.1166713 -0.17695923 0.26132613 0.009442893 -0.17256099 0.11829686 0.2610141 0.15561894 -0.19617881 0.02878613 -0.059387214 0.49669054
group 0.26313287 0.123809665 -0.12861215 0.1726412 0.041377753 0.1709611 0.18477963 -0.030737437 0.16210103 -0.19405788 0.16783555 0.020956632 -0.33116928 0.022864502 -0.13581553 -0.32989213 -0.14316273 -0.15182588 0.030529162 0.20512058 -0.022987051 0.13683671 0.32818145 0.090521745 -0.058370985 -0.028288618 -0.054344863 0.025469828 0.0059132744 0.3012164 0.30385435 -0.011494424 -0.21787131 0.30037737 -0.13114797 0.00043525093 0.0096135745 -0.18386318 -0.3211807 0.023422988 -0.23968463 0.14793001 -0.101895526 0.20551202 -0.08909968 -0.011004047 0.07835501 -0.13599756 -0.22933583 -0.059497964 0.142214 -0.28450707 0.22880715 -0.093077436 -0.027906591 0.06717539 -0.016146543 0.04613493 0.32502612 -0.13202652 0.1880999 -0.31660545 -0.23882933 0.16078776 0.121322796 -0.2813508 0.289812 -0.2402462 -0.12071129 -0.005687226 0.15329999 0.09549335 -0.10137042 -0.034069255 -0.036274076 0.013424001 -0.12728547 0.12281719 0.24510975 -0.08038819 0.018260933 0.015034773 -0.14912197 0.0075298646 -0.12300715 0.11548101 -0.33070785 0.10196727 0.04571088 0.26772818 -0.16498588 -0.23240836 -0.029434768 -0.0629713 0.19296041 -0.016557492 0.2848495 0.13749276 -0.10890195 -0.015138169 -0.11931378 0.13877155 0.22175899 -0.15023881 0.06705008 -0.2614385 -0.03628478 -0.16357827 -0.10380568 0.16508543 -0.12694304 -0.2506446 -0.24993038 0.12013831 -0.084019005 0.015924342 0.006291278 -0.19883782 -0.09237623 0.09578529 -0.15159264 -0.058685374 -0.091557786 -0.22741 -0.043783665 -0.13245034 -0.27751905 -0.12513143 -0.13119318 0.08140622 0.11448211 0.14077295 0.07005464 -0.0016395721 0.026080042 -0.19222455 0.2713964 -0.16456121 0.029108081 0.2825924 0.10535491 -0.062031046 0.121177346 -0.088098355 0.08496413 -0.04944508 -0.15338296 0.030770095 0.031903747 0.10746041 -0.08678653 -0.19999784 0.023141153 -0.028137527 0.23283334 0.28569055 0.017550858 0.13037528 0.25383753 0.12153983 -0.06568534 -0.30663368 0.029424494 -0.15644337 -0.18543564 0.0936725 -0.091134466 0.078636624 0.30017292 0.10189023 -0.14365113 -0.05699817 0.030470287 -0.12189645 -0.17001735 -0.0076654633 -0.18134615 0.049441148 0.13314359 0.0039296146 0.07894952 0.13142987 0.2211017 0.10763358 -0.033797063 0.10247994 -0.079924464 -0.2518651 -0.07278515 -0.04395842 -0.0047333147 0.14412859 0.25288755 -0.16432193 -0.2417344 -0.2063898 0.08452499 0.10791397 -0.087113656 0.30560175 0.1886035 0.36917734 -0.15321378 -0.17422672 -0.27819383 -0.016241325 0.18261379 -0.20682473 -0.124235295 0.0052003986 0.12477515 -0.1463728 -0.21157771 -0.19011956 -0.04459529 -0.034846757 0.1965567 0.2800292 0.2010752 -0.07882652 0.116648905 -0.117903136 0.028322276 0.20794919 0.14147858 0.063332535 0.2435954 0.07637761 -0.040638722 0.19841349 -0.08043529 0.15629044 -0.05721634 -0.10930912 0.24813272 0.28477466 -0.15112711 0.052107487 0.13549809 -0.075690955 0.05404073 0.19109236 -0.32512447 0.29887024 -0.180945 0.12679319 -0.32812974 0.026350321 -0.09781769 0.07375792 0.0017361499 0.06859832 -0.10362509 -0.15985662 -0.08027908 0.014608859 -0.2906494 0.031171909 -0.10202547 -0.21849427 0.0408634 0.20112371 0.17219308 -0.096719235 0.14748138 -0.07276181 -0.16624403 0.20612134 -0.02482279 0.2771454 -0.17812131 -0.065297015 -0.07013818 -0.1526287 -0.2296684 0.120174974 0.110240564 -0.004796434 -0.13984267 -0.14394686 0.108995914 -0.053971045 0.08520227 0.41133192 0.35043383 -0.06260051 -0.052231383 -0.13241433 0.12595336 0.036687307 0.023865473 -0.28458428 -0.032391228 0.29906437 -0.12297511 0.2642294 -0.06555985 -0.018555742 0.23885934 -0.010259981 -0.041012473 0.13319547 0.015628623 0.085080504 0.13335223 0.023193715 0.23631155 -0.094883285 -0.022409374 0.21863368 -0.008798785 0.20424913 0.07487641 0.018064795 0.09250078 -0.06256041 0.091483325 0.032873765 0.052666113 0.027354294 -0.11884389 -0.010555857 0.064116955 -0.23262408 -0.22018048 -0.3041256 0.09040809 -0.102799095 0.06004859 -0.091651864 -0.15425536 -0.07457134 -0.03632786 -0.18432632 0.22781704 0.014440137 -0.026877385 -0.21113665 -0.023228776 0.2806757 -0.026009228 -0.03153066 -0.029969893 0.10619848 -0.1350117 -0.03576142 -0.3213826 0.039141446 0.22478524 -0.035457734 0.04865481 0.1847564 0.05858744 -0.15537131 -0.15341665 -0.06418899 0.012810314 0.091406696 0.14520125 -0.07168313 0.32715565 0.068805404 0.10693057 -0.0887234 -0.17137676 0.023935935 0.022573713 -0.021588832 -0.08856044 -0.1599346 -0.09202201 0.1607037 -0.051179916 -0.19042827 0.021708557 0.16614805 0.21541479 0.051212657 -0.16609593 -0.10195299 -0.015552167 0.2467394 0.054722223 -0.13298811 -0.07541343 -0.20574126 -0.038749266 -0.058471147 0.16961615 0.09099348 0.03866259 -0.014042255 0.08245863 0.048720717 -0.14470553 -0.29113778 -0.062223155 0.13134244 -0.07449826 0.32756057 0.047450285 -0.09836434 0.10674121 -0.16723047 -0.045402817 -0.07871798 -0.25846484 0.0065010325 0.091016114 -0.12252847 0.12359122 -0.10824007 -0.0043462 0.01110948 0.20590416 -0.4201995 0.22455506 -0.20596504 0.10212092 -0.06866394 -0.22538395 0.13416514 0.30429316 -0.027697908 -0.19282697 0.016723795 0.044798296 -0.07157295 -0.004185359 -0.13075915 0.07731102 0.048505094 -0.0132796215 -0.18946178 -0.2176702 0.34671256 0.024746682 -0.36417097 -0.04406703 0.09980212 0.12081992 -0.01888423 0.009759223 0.11482828 -0.053331014 -0.09203576 0.0049865297 -0.026817502 -0.22293508 -0.24906 -0.2639383 -0.15302369 0.14093688 -0.1330564 -0.10909217 0.14408714 0.06766425 0.14125441 0.03441192 0.122950844 0.26160988 -0.067389324 0.12738031 0.050725188 -0.03356077 0.051524647 -0.123929925 -0.18468678 0.2901611 0.027467728 0.25822538 0.038341798 0.2319553 0.061733548 -0.008377057 -0.06508794 0.050319426 -0.20049478 -0.3681757 0.061385527 -0.26526985 0.025403526 0.040851388 0.065755524 -0.06561176 -0.057042755 -0.07381716 0.065364905 0.021111347 0.065760426 0.25375456 0.17003603 -0.13082811 -0.13943452 0.28634316 -0.008514861 0.17674908 -0.07691673 0.069766626 -0.13037996 -0.12190222 -0.15629269 0.15398778 0.16809049 -0.1760688 0.088278495 -0.07019376 -0.3162612 -0.014530491 0.2696567 0.13997425 -0.14449205 0.11968594 0.10371159 0.0672419 -0.23239867 0.050875865 0.025962582 -0.08793018 -0.00033083808 -0.22460955 -0.026094362 -0.17254256 0.014950351 -0.20639475 0.3545435 0.049108688 0.38759428 -0.27561736 0.09187854 0.16912833 -0.009487918 -0.08647181 -0.12502983 0.19673428 0.12610921 0.19769454 -0.06094549 0.0567389 0.040414378 0.060043745 -0.104197204 -0.21777986 0.044757903 0.11085499 0.1014038 0.19380526 0.028008986 0.08771204 0.033250462 -0.042651065 0.2762326 0.021392033 -0.016976787 -0.19793409 -0.128365 0.14249702 0.18101902 -0.18496838 -0.083135694 0.07832836 -0.077945024 -0.057162784 0.019087143 -0.070521176 -0.19922505 -0.21497647 -0.2585757 -0.082624875 0.105774626 -0.13062124 0.10868653 0.06468221 0.2744099 0.015391935 0.17159608 -0.030357623 0.020706456 0.14578578 -0.037375648 0.20882049 -0.21086387 -0.11563165 -0.06109308 0.1098395 -0.23012115 -0.14494266 -0.064178206 -0.17665215 0.00013921244 -0.122013554 0.25299183 0.22514075 -0.12836038 0.21354994 0.12431678 0.14661288 -0.05211124 -0.286138 -0.1375654 -0.18936536 -0.14237848 -0.35610002 -0.142001 0.03708898 0.16304322 -0.14055113 0.2615772 -0.3101225 0.09560021 0.07160997 0.06781067 0.1843357 -0.23400865 0.045869917 0.10230798 0.225337 0.043446694 -0.13794518 -0.010300401 0.13637693 0.14763576 -0.08318853 0.04679151 -0.07138551 0.14280453 0.16073272 0.08052376 0.17029242 -0.17849527 0.19251794 0.092281796 0.22565296 0.09006693 0.16055676 0.1241668 -0.0051952824 -0.2728093 0.21612732 -0.20554522 -0.08127162 -0.20140696 0.18762115 0.2584121 0.04467407 -0.07540667 0.013961956 0.038445286 0.23100826 -0.31882054 0.3160753 0.15935639 0.049970433 0.062475372 0.007326526 0.19492225 0.20895526 -0.31254345 -0.10218418 -0.22487481 0.0076342123 -0.0008297195 0.12717625 0.23787029 -0.14913653 0.023582 0.096150026 -0.06171099 -0.10621126 0.17282866 0.024118025 0.10602219 0.06983292 0.05970652 0.228552 0.042781588 -0.03814927 0.11308013 -0.116715886 0.36471167
