342 680
has -0.08334949 0.095240556 -0.31021538 0.0032672698 -0.18202756 0.029678999 0.018086478 -0.07315874 0.047727812 0.10741572 0.1937328 -0.09937348 0.005329242 -0.02446745 0.068163365 0.17820808 -0.20317702 0.0012947395 0.019659588 -0.27874732 -0.09712045 0.22276501 -0.029005429 -0.047595713 0.04090422 -0.059376996 0.023546834 0.035615545 -0.14525793 0.07716017 0.05696236 0.09503933 0.17244111 0.19921829 -0.18443719 0.11562756 -0.13154124 0.15477407 -0.25682336 0.022774294 -0.15165666 0.3014517 0.06755102 0.18743534 0.2065999 -0.07611612 -0.0018737086 -0.04938613 -0.0008159615 0.0055720345 0.049493738 0.17261152 0.18815427 0.063357994 0.095978275 -0.2644768 0.11918378 -0.06329133 0.029824294 -0.20323613 0.14614539 0.0029167992 -0.20500802 -0.061284766 0.17073202 -0.14143373 0.17811446 0.02318492 -0.2849538 -0.14305711 -0.20969087 0.29456863 -0.024632588 -0.21538973 -0.0979904 -0.042475674 0.051991478 -0.15625878 -0.0076931682 -0.0902505 0.14357428 0.22564611 -0.19819798 0.03838993 0.23381744 -0.16291429 0.20407079 0.19755758 -0.086134665 0.14037952 0.047736898 -0.06453317 -0.0385001 -0.348753 -0.09318431 0.1609835 0.4104928 0.18353203 -0.1218725 0.18208258 -0.009410697 0.07665645 0.10743789 -0.17083922 -0.18705378 0.084895 0.1956025 -0.03264823 0.097705156 0.043716595 -0.22748037 -0.13838114 0.028070642 0.16341108 -0.1653074 -0.13892995 0.09595197 -0.057701454 0.11519312 -0.053611916 -0.13672842 0.11542896 -0.12208519 -0.06784209 0.11230923 -0.0053266957 0.09748221 -0.085292324 -0.265145 -0.25264984 -0.024371093 -0.13974497 -0.050126724 -0.03967905 0.037274852 -0.006220501 0.25190702 0.12950543 -0.15461752 0.14610349 0.046179224 -0.0051955148 -0.08410048 -0.0029305532 -0.06786831 -0.008095369 0.118813135 0.14344649 -0.049762663 -0.009323969 -0.1102216 0.26092237 0.08291122 0.19130765 0.2283496 -0.02860757 -0.029076083 0.033111084 0.11890194 0.039254792 0.1647259 0.08021555 0.26484284 -0.03667806 -0.059665307 0.019253459 0.23257527 -0.056936223 -0.0646268 0.1283665 -0.17717814 0.09247861 0.001234597 0.007823217 -0.10895487 0.062037073 0.031354498 0.013490081 -0.17885986 0.06111985 0.15915859 -0.046315182 0.07311819 -0.075290605 -0.110370874 0.1717091 0.0495 0.22748502 0.14234392 0.10620172 0.25016057 0.11590686 -0.03978303 0.000778221 -0.053879853 -0.061631903 -0.04732221 -0.14262354 0.036034092 0.27985302 0.21127082 -0.17344205 -0.13422272 -0.09512309 -0.21997938 -0.16483974 -0.010317104 -0.0038692162 0.007391727 0.042100348 -0.024013141 -0.24436459 -0.13421725 0.024348812 -0.09023306 -0.14734839 0.01476541 0.2014004 0.052714176 0.1231823 0.050263543 0.23484099 0.23047435 -0.033909217 0.07735606 -0.0120822545 -0.049045343 0.0342061 0.010382885 0.052322786 -0.12416467 0.2186451 0.087300144 -0.106183864 0.32114682 0.28933808 0.1973239 0.068272434 -0.10152992 0.053588085 0.059063002 0.014370919 0.21309288 0.1632765 -0.107129335 -0.05239303 -0.14725782 0.11351375 -0.13971765 -0.0044233366 -0.21128559 0.01014975 -0.08657541 -0.25122386 -0.11765121 0.20846702 0.06038748 -0.19042088 -0.0387102 0.10004008 0.24080998 -0.124089554 0.15425295 0.06545559 0.06478111 -0.16752587 -0.12109353 -0.124528214 0.079429016 0.10508945 0.08594881 0.008864443 0.15751216 0.15836187 -0.19932288 0.13026257 -0.08471731 -0.16913971 -0.09582183 -0.12985481 0.046675596 0.05630156 0.13100646 -0.043975435 0.007776363 -0.25142452 0.17089589 -0.03855687 0.14293551 -0.15087886 -0.044154868 0.019593004 0.023159137 0.07641324 -0.110775046 0.058145497 -0.2787535 -0.23586375 -0.19067243 0.11856713 0.019876309 0.3425354 -0.06282897 0.10655763 0.20081289 0.052303135 -0.15831377 -0.34714574 0.18000549 0.37154815 0.25416318 -0.14459674 0.074039236 0.103525124 -0.019922316 0.15592681 -0.16429158 0.06073755 -0.10298597 0.18753232 -0.06271721 0.05712746 0.05760038 0.13145663 -0.16717793 0.055323746 -0.055175014 0.0005643649 -0.07515114 0.031403728 -0.020065496 0.043711722 0.11525698 -0.04196553 0.021464393 0.04341354 -0.24473494 -0.23293205 0.13133141 0.34705552 -0.031381715 0.13577008 0.01631691 0.29675242 0.02786228 -0.1494875 -0.3400635 -0.18623787 -0.058971975 -0.048812978 0.03288526 0.13364723 -0.039289396 0.28324038 -0.177513 0.06808632 0.12343683 -0.0510951 0.14173359 0.044297077 0.13669129 0.064745516 0.12104266 0.19062288 -0.28665993 0.12830885 -0.09244849 -0.001725069 -0.13321984 -0.031623073 -0.040600624 -0.024309231 0.010534205 -0.18744355 -0.04972103 0.028476838 0.2397538 0.21854365 -0.27852616 -0.005469037 0.10704411 0.039207675 -0.14118192 0.054381963 0.12644762 0.12035427 0.20648724 -0.14605725 0.08057035 0.21956077 -0.27911544 -0.16098276 -0.14936495 -0.23036659 0.18026179 0.15447792 -0.029437698 -0.14006627 -0.22147027 0.11477208 0.22989938 -0.09096261 0.0328219 -0.08757811 -0.16435544 -0.026252815 0.057879888 0.03358047 0.030952133 0.12785417 -0.038353834 -0.07518549 0.12085309 0.028227072 0.19366604 -0.036207616 -0.0039657415 0.025222862 0.09724397 -0.20187755 -0.007970575 -0.055093765 -0.20791982 -0.18505056 0.2793179 -0.07160048 -0.15990919 0.10430616 -0.09906876 0.070098 0.24894957 -0.038787834 0.24837823 -0.11474077 -0.14983974 0.04588815 -0.014506544 -0.14404306 -0.1909206 -0.10551818 0.10449492 0.1585236 -0.15567575 0.2786447 0.20158415 0.13548826 0.24171403 0.036900155 -0.0748497 -0.121440604 0.105975784 -0.03076145 0.03071509 0.20184113 -0.13058598 -0.016529819 -0.31681043 0.017218586 0.0017064713 -0.096488155 0.25669628 0.059663795 -0.09148116 0.09306524 0.1579953 0.027302044 -0.08177153 -0.32435423 0.11671914 0.101648495 0.09661582 -0.11705175 0.042529855 -0.14175005 -0.17728727 -0.036223944 0.0678072 -0.10801936 -0.22308569 0.16497175 -0.016369447 0.2931032 -0.07975142 0.16554466 -0.25479746 0.0836673 -0.059740398 0.10582901 0.031065349 -0.021444207 0.033175454 0.19921847 0.11915548 0.07220028 0.14747421 -0.083365224 -0.1966885 -0.011609218 0.073248416 0.08434805 0.092459284 0.12008728 0.08707713 -0.052634858 -0.015859522 -0.071736254 -0.037249535 -0.13162644 -0.09699414 0.003757172 -0.10600181 0.16244502 -0.0623354 0.055684324 -0.32356495 -0.07124436 -0.15188749 0.08258941 0.012513826 -0.062969066 0.039136097 -0.048164137 -0.103021204 0.14000075 0.0030855036 0.11132918 0.061958525 0.07004439 -0.075872675 0.25145686 0.046422284 -0.0024813933 -0.15623757 0.20467447 0.13370675 -0.066611715 0.22784817 -0.103446744 0.1656939 0.18362854 0.11157925 0.11615153 -0.14575748 0.106678955 -0.07954445 0.036134057 0.1699333 -0.17634761 0.20107998 -0.019867726 0.2557898 0.060696445 0.08919076 -0.04769133 0.041149456 0.035615493 0.08907768 -0.082695834 -0.058654953 -0.14488667 0.14421065 0.13721795 0.10198936 0.022517245 0.09348599 0.0038722474 0.02264714 -0.028079357 0.09695613 0.14561072 -0.13562295 0.031003973 0.07961165 -0.06543743 0.15962163 0.18493992 0.2632091 0.016984213 0.24822259 0.0122618 0.12526599 0.049099244 -0.027781766 0.13819379 -0.10601437 -0.11576151 0.010272949 -0.31273112 -0.15795957 0.27099618 0.1049932 -0.14451885 0.24319671 -0.10320077 -0.082823485 -0.20705488 -0.14901036 -0.15375654 -0.19557382 -0.32851303 -0.19040531 0.14714094 -0.22878528 0.046018675 0.06687032 -0.32583225 0.0018294319 0.15478608 0.14113587 0.28907156 0.12579282 -0.091450065 0.054672725 -0.11085788 0.25703278 -0.036148764 0.16757932 0.13371335 0.13882536 -0.038049586 0.2004321 0.08389234 -0.07706116 -0.03842982 -0.2050215 0.12533331 0.08341708 -0.117198415 0.047425736 0.047039285 -0.17956446 -0.1673929 0.2191628 -0.13597633 0.07037238 0.048974603 0.052436426 -0.12742263 -0.10325186 -0.008395893 -0.10542483 0.009502934 0.069024 0.17367384 0.06565383 0.12318566 -0.23732273 -0.1402581 0.08285814 -0.07793282 0.17807598 -0.052827135 -0.13207759 0.037948176 -0.24959575 0.09842004 0.15784109 0.032624185 0.26439264 -0.298012 -0.18723582 -0.08480855 -0.13337982 0.19391619 -0.26075846 0.07814364 0.15600099 0.1437779 0.031262435 0.17946099 0.04350654 -0.0143658435 -0.050820135 -0.2351064 0.11331234 -0.21429066 -0.10211685 0.13851443 -0.020863237 -0.041650467
type -0.03808064 0.13082683 -0.15564954 0.117851086 -0.025408506 0.18852693 0.11681185 -0.12188739 -0.090114795 0.061852288 0.12994093 -0.086825974 -0.03643098 0.05776085 -0.04452925 0.043640777 -0.124316014 0.107621595 0.058266923 -0.11828502 -0.16372491 0.13660112 -0.10299774 0.029429842 0.08097034 0.066176675 0.021902269 0.069360614 -0.2031841 0.124908775 0.04903375 0.107175805 -0.016831424 -0.012198596 -0.024777498 0.12565334 -0.08010647 -0.116901405 -0.12738027 -0.07755174 -0.26053092 0.21371391 0.16779636 0.16895923 0.23752321 -0.077927515 -0.047734383 0.050807964 -0.17470308 -0.01766541 0.051886715 0.09249725 0.30957946 0.031426646 0.07897419 -0.26618966 0.025117286 0.09631906 0.036821194 -0.11776615 0.215102 -0.13432875 0.109424055 -0.007485763 -0.094499685 -0.041564193 0.27317747 0.06926266 -0.10875543 0.031063242 -0.11601675 0.31165692 -0.22757043 -0.18306538 0.097460456 -0.03008037 -0.028463328 0.0132161565 -0.18113767 -0.032456208 0.040768374 0.18906024 -0.115697585 -0.042559355 0.25155464 -0.124933064 -0.08107055 -0.1516694 -0.074621886 0.10378744 -0.12261547 0.12319022 -0.021986734 -0.10511822 0.11425144 0.07589185 0.26565576 0.12200303 -0.098136306 0.17855541 0.0046485276 0.07200144 0.23454942 -0.18993305 -0.043265536 0.060008883 0.0746389 -0.1110904 0.064257465 0.12017794 -0.12804805 -0.092928044 -0.01188655 0.2439548 -0.012829287 -0.03898859 0.08743322 -0.08350453 0.07204088 -0.04652509 -0.15915795 -0.087427415 0.035860993 -0.33353922 -0.034452315 -0.105070546 0.030656725 -0.037874255 -0.23515204 0.09405067 -0.11336859 -0.15748179 0.21941537 -0.04823531 -0.06595922 -0.20996016 0.058276005 -0.071020894 -0.15931681 -0.015949944 -0.012933542 0.045794677 0.027673574 -0.1512481 -0.073349856 -0.14083911 0.21091744 0.1991281 -0.039380666 0.23184207 0.07104564 0.10458119 -0.1515266 0.18560635 -0.005020897 0.024372807 -0.09588762 -0.048265915 0.03958766 -0.15142758 0.26743123 0.018221997 0.07991569 0.06570508 0.030269776 0.122265816 0.08468684 -0.0970251 -0.014850421 -0.09817514 -0.13800353 0.33455858 0.051611997 0.15565808 0.0027710227 -0.13213426 0.07631172 -0.10995427 -0.34944367 0.030481946 0.13226922 0.016450495 0.06596424 -0.28431696 -0.018410811 -0.014796242 0.08214515 0.08103523 0.20080972 0.1556581 0.22263727 0.11246982 -0.05609837 -0.1359273 -0.08650929 0.004946371 -0.08058509 -0.058711 -0.18683909 0.085755035 0.11226736 -0.14158887 -0.058075994 -0.017450135 -0.21286662 -0.16959517 0.05847371 0.013421249 -0.030945491 -0.0045768493 0.06432883 -0.098417245 -0.10742767 -0.19110774 0.06036992 -0.05535276 0.20868294 0.21907738 0.1813988 0.18855608 0.11362084 0.22619839 0.26304778 0.15871128 0.025331918 0.11258461 -0.12599264 -0.071320474 -0.027760083 0.037063126 -0.2801171 0.038704492 -0.020268364 0.025826931 0.2383585 0.14716198 0.036126334 0.06388238 -0.1417531 -0.07126461 0.076805554 0.24695775 0.0027870375 0.3335447 -0.18090056 0.023983289 -0.059597615 0.16033784 -0.109546885 0.011654156 -0.040706143 0.12423665 -0.080979854 -0.08542054 -0.27698505 0.23348308 -0.041605864 -0.1797724 -0.048218794 0.053589124 0.087791376 -0.10574488 0.05961507 0.023368295 0.08384184 -0.21261051 -0.15459932 0.08404162 -0.20003583 -0.076223336 -0.020328376 0.2819841 -0.16570707 -0.2365414 -0.19551057 0.22256255 -0.03711606 -0.24328266 -0.07615412 -0.1431189 0.019871335 -0.08536287 -0.1352764 0.15102476 -0.03344033 -0.0812744 -0.11488685 -0.02383588 0.16094168 -0.0036873638 -0.020041484 -0.05302336 -0.17081593 0.085100755 -0.14096871 -0.076785944 -0.28892434 -0.148479 -0.08786793 0.120512515 0.14833383 0.19596112 -0.12968807 -0.0661726 0.22799988 0.16084288 -0.15219133 -0.12423835 0.13770638 0.24363628 0.29318362 0.16690892 0.043761265 0.08191708 -0.28660285 0.020551031 0.09438953 0.0031141855 -0.19003735 0.116639785 -0.203639 0.0012988237 0.09633669 0.15925051 -0.18819448 -0.0034431964 -0.14200664 -0.1482541 -0.13675135 0.021653417 0.09139143 0.0860834 0.030137986 -0.059716497 0.011034999 0.067189835 -0.17134283 -0.20588645 0.004497907 0.22278228 -0.13987933 -0.12044956 0.022649935 0.19490579 -0.21042052 0.05045221 -0.28187978 -0.2304065 0.031213373 -0.084678195 -0.047627177 0.07296555 -0.15480427 0.11744897 -0.15578446 -0.15439656 -0.09260816 0.055193484 0.14817151 -0.12722728 0.12811476 -0.2549036 0.07417976 0.20558059 -0.20610069 0.16173263 0.062118247 0.14309065 -0.073104836 0.009226631 -0.031551283 -0.11861262 -0.06406647 -0.22782375 0.01522152 -0.09221761 0.28163806 0.13717559 -0.29519552 -0.20653467 0.041108925 0.06174215 -0.1495912 0.044422597 0.23203954 -0.18535918 0.09289607 -0.07223074 -0.07581267 0.104683295 -0.20990096 -0.18217064 0.13353235 -0.16552548 0.30872118 0.17533149 0.12934718 -0.09729303 -0.15561764 -0.14911541 0.001389242 -0.23119578 0.088565685 0.016724313 -0.25286204 -0.2562419 0.050147954 -0.10381847 0.048986167 0.20971234 -0.069486976 0.074592315 0.16344747 -0.009509531 0.120061144 0.038821567 0.082882576 -0.13503426 0.177071 -0.24091583 0.2047288 0.08306787 -0.036193173 -0.0718236 0.09725064 0.06017406 0.12848267 0.11078731 -0.09276317 -0.000895106 0.005551755 -0.03112319 0.12278105 -0.024661386 0.012566627 0.097742945 0.113669805 -0.06498367 -0.12506525 0.13308986 -0.0945341 0.07844246 0.060670212 -0.00919202 -0.08814033 0.24279515 0.07593788 -0.072415814 0.091531515 -0.21106538 0.13580084 -0.016255317 -0.14453031 0.11578588 -0.13803273 -0.07390684 -0.052708816 -0.08004169 0.0805281 -0.11042697 0.0025169086 0.058369208 0.059374947 0.13946742 0.018868443 -0.055487745 0.14774904 -0.43504828 0.09773251 0.15908773 0.33158395 0.14621802 -0.034059275 0.011221388 -0.22719783 0.055892523 -0.031764705 -0.13012432 -0.2656369 0.017986761 -0.18861878 0.32201418 0.04263987 0.21940771 -0.221318 -0.15276335 0.052954808 -0.078550346 0.1067443 0.045885965 0.084811494 0.025997754 0.09823212 -0.022365564 0.13210629 0.089817375 -0.18333966 -0.12875012 0.22619613 0.06889929 0.054304183 0.120172344 0.18020941 -0.09164176 -0.037422534 0.023208084 -0.05279024 -0.092511505 0.17872594 0.05337437 0.07261324 -0.027541451 -0.058340404 -0.25914943 -0.08829479 0.030829478 -0.16587795 -0.13343677 0.05009318 0.07078857 0.00070181105 -0.161838 0.09222528 0.1163932 0.023528192 -0.100654595 -0.059672058 0.16783912 0.20228894 0.12236381 0.0514572 0.014656073 -0.21822955 -0.05809525 -0.02648205 -0.09796064 -0.07988024 0.063381515 0.28688934 -0.11176155 0.030516608 0.09072263 -0.14961912 0.06939213 -0.08965124 -0.06278491 0.08221318 -0.04467222 -0.09897149 -0.021615688 0.2671377 0.07972324 -0.08402101 -0.07544522 0.1336693 0.071074836 -0.25263813 -0.041871805 -0.04495451 0.070912994 0.026492005 -0.100151874 0.18689461 -0.05087924 0.1584209 0.096886925 -0.20832229 -0.0016474739 0.062786765 0.04709829 0.09554146 -0.047168262 0.18600698 -0.028820673 -0.03729585 0.40596923 0.1601412 0.10009487 0.31851864 -0.04560071 0.27973762 0.010064498 -0.043886688 0.18404408 0.08134104 -0.28989398 0.1248807 -0.28059903 0.03483868 0.18964154 -0.015398892 -0.11347482 0.18045758 -0.055643577 -0.049491644 -0.19222863 -0.071162105 -0.15736648 -0.07287278 -0.19622946 -0.17305917 0.030377554 -0.32065466 -0.08155214 -0.010871348 0.009895695 -0.051751208 0.08025656 0.062686175 0.13587265 0.113493726 -0.04252589 -0.014741233 -0.031954534 0.20406972 -0.011460797 0.097432405 0.035402026 0.034376234 -0.07486746 0.18113089 0.16974291 -0.20551926 -0.14797975 -0.2748433 -0.11463353 0.1642707 0.122069634 -0.03859149 -0.15451354 -0.02217978 0.050681315 0.041850056 -0.23797525 0.17135288 0.05175607 0.13106306 -0.007248796 -0.0050992183 0.12127155 -0.14953998 0.04359164 -0.13129573 0.1828259 0.09738462 0.28584778 -0.2936473 -0.13936546 0.22044168 -0.011040069 0.13717723 -0.112398766 -0.16401696 0.056695014 -0.21502534 0.09079823 0.054832753 0.045715507 0.13194832 -0.23744458 0.07683765 0.11279153 -0.12900278 0.14329073 -0.15580957 -0.053546008 0.03106638 0.12100034 0.0763607 -0.013182795 -0.0006144858 -0.026374241 -0.066703334 -0.2045658 0.10908899 -0.27935112 -0.106682085 0.09134586 -0.21952508 0.10563194
Type 0.098986045 -0.1269198 0.32523003 -0.46990082 0.3290959 -0.15550879 -0.4357244 0.19694418 -0.3866679 0.24250504 0.26017457 0.07724778 -0.284046 0.13369569 0.08255139 -0.18118225 -0.28394657 0.10330848 0.3960721 0.12042326 0.21350273 -0.29366755 0.19842313 0.25457218 -0.02368661 0.13767056 -0.07737652 0.17384651 0.3745691 0.24599203 0.27003157 0.093526006 -0.0060542044 0.29356188 0.024979437 -0.06819387 -0.042972334 -0.07642925 -0.039095376 0.10702594 -0.19940433 0.059989415 0.018228758 -0.14552464 -0.11234066 -0.16064583 0.012996638 -0.09947329 0.038516875 -0.15791109 0.27297184 0.011300166 -0.16308984 0.013754195 -0.064156234 0.17599566 -0.0064838263 -0.3100673 -0.04360495 -0.14837092 0.15107898 -0.1062136 0.0028292688 0.121880665 0.08085108 -0.25141057 -0.23126401 -0.2128453 -0.0019333131 -0.3446743 -0.039570328 -0.24147427 0.19176704 0.20184414 -0.46789593 0.37551683 -0.056261964 0.16325165 -0.017113289 -0.28649813 -0.13207825 0.11919789 -0.29897198 0.16760097 -0.27520674 0.06972493 0.13670078 0.27720207 -0.11285064 -0.03560688 -0.2241488 -0.013328178 -0.057722267 0.11623654 -0.057456724 -0.23100142 -0.41886857 -0.05597787 -0.29901102 -0.15092401 -0.0063733724 0.29677355 -0.07452427 0.0062653776 0.06791461 -0.2404434 -0.092122465 -0.2290229 -0.31299293 0.13306259 0.056067914 -0.43102968 -0.35986218 0.059798047 -0.24915533 0.1615165 0.22544576 -0.16361563 -0.08187804 -0.09592582 -0.1034948 -0.10921819 0.05850436 -0.28988278 -0.116890185 0.1632682 0.0046945494 -0.107864715 -0.16909589 -0.13064925 -0.16682485 0.17300656 -0.024496157 0.09568232 0.30502644 -0.3358317 0.0049500936 -0.08165132 0.4052151 0.17982912 0.10493848 0.06069248 0.08527925 -0.17010204 0.13407111 0.06732661 -0.2031752 -0.01692188 0.07160298 -0.17647597 -0.106393285 -0.27227822 0.05557915 0.061972246 -0.10779081 0.017244693 -0.19842719 0.27828905 -0.14693204 0.28512132 -0.31854597 0.0469489 -0.31801543 -0.29281422 0.114839345 0.21180071 0.11923784 0.11660072 0.1034715 -0.024136322 0.12222207 -0.113733195 -0.36707819 0.37610236 0.0015354351 0.21236117 0.13974904 0.041871063 0.32238033 0.012286245 -0.41550758 -0.087070115 -0.12463925 0.123046525 -0.07967397 0.22099528 0.27319315 -0.19260484 -0.12184722 0.18739447 -0.097639 0.27300933 0.028435048 0.081624225 -0.22417642 -0.29720876 0.1689914 0.286698 0.21610168 0.27912042 -0.11908402 0.29039 0.11224109 0.022219077 -0.17500821 0.0512466 -0.12232127 -0.3424914 0.17338634 -0.16647467 -0.029221302 0.19116446 -0.12063134 0.19810438 0.0099288905 -0.09678776 -0.21652417 0.095773384 0.2341932 -0.10605437 0.12123408 -0.03648384 0.3459695 0.09313283 -0.12452223 0.27190548 0.20898113 0.14346999 0.37610984 0.17548567 0.09517582 -0.05325433 -0.094544314 0.25943217 0.002832613 0.18139681 -0.3112349 -0.015928501 -0.20198624 -0.04576218 0.14799601 0.1922119 0.037981108 -0.20118359 0.01627474 0.18447015 0.0050278073 0.13805833 -0.25500873 -0.06880452 0.06734636 -0.17815688 0.0026032717 0.23864688 0.40517953 -0.18751657 -0.33504182 0.22958244 0.10823202 -0.066472776 -0.15755564 -0.10846391 0.05385813 0.07818735 0.017204184 0.28950575 -0.08881578 -0.07789758 0.024183432 0.1491867 -0.07335491 0.0055405 -0.25500742 0.07126798 0.31318966 0.10367052 -0.12551478 0.045111675 0.102847345 0.13596612 -0.21691626 -0.063799284 0.043451067 0.4515793 0.08157785 0.0007751611 -0.096467294 -0.30929628 0.25386778 0.23315911 -0.2429351 -0.22686374 0.24733126 0.24051413 -0.14147015 0.41727608 0.41005376 -0.07139453 -0.32030755 -0.24978967 -0.08753549 -0.22594473 -0.19425634 0.09069872 -0.17844729 0.082434334 0.25190783 0.24877362 0.10281185 0.37115964 -0.09980378 -0.10354524 -0.2561668 -0.08505175 0.234952 0.118254766 -0.2593272 -0.2445964 -0.037268147 -0.07268788 0.010826567 0.20736644 -0.26165974 0.0023262755 -0.14437541 -0.3538556 0.025625149 -0.36545354 0.38109127 0.10681889 -0.18829212 -0.101104155 -0.015733868 0.08397889 0.25363553 -0.11585785 0.25875688 0.121917166 -0.20643632 -0.03670018 0.05559078 0.12203731 -0.32103541 -0.058029942 -0.02378291 0.35695487 -0.35623547 0.047558784 -0.09038099 -0.039396953 -0.1998086 0.010097347 0.37151358 0.09015801 0.008468515 0.20663093 -0.068934955 -0.04833459 -0.041530166 0.19780919 0.007389611 0.07568672 -0.18837066 0.07569155 0.10784769 0.13629292 0.19576162 0.14776888 -0.21966189 -0.12260688 -0.12211405 -0.043107983 -0.11945408 0.055420645 0.30865833 0.21217632 0.07817752 0.14376053 -0.0815363 0.20139377 0.3291855 0.05562648 -0.09821752 -0.049658094 0.10825248 0.110157005 0.09286959 -0.3102952 0.09500021 -0.07834545 0.009035525 0.20729442 -0.11642557 0.21571486 -0.084900655 0.15549976 -0.21552907 -0.046191256 -0.09397131 0.21870156 -0.18961996 -0.14688732 -0.22331832 -0.1732053 -0.14008266 0.19323857 -0.1749857 -0.026948944 -0.15545553 -0.3386315 0.25250173 -0.22730213 -0.07836717 0.015985558 -0.07938682 0.059894916 0.17355122 0.13682832 -0.18122737 -0.1436048 0.018916164 -0.13451307 -0.055452563 0.24216706 -0.02901554 0.14907482 0.13335717 -0.03658654 0.1260549 -0.1905556 -0.21459597 -0.26118442 -0.3459326 -0.26804185 -0.15093946 0.28949717 0.025043374 -0.0001855352 -0.02770592 -0.18133387 0.00952239 -0.15206517 0.31207046 -0.06109737 -0.18211804 -0.07853904 0.16537352 0.07062548 0.12324018 -0.22706299 -0.3026384 0.07954534 0.08552223 -0.19417332 -0.18663631 0.26699105 0.06576973 0.5379602 -0.22208756 0.22501934 -0.061879426 -0.24822004 0.20446551 -0.2212103 -0.15557817 -0.057653256 0.1797464 -0.067836106 0.13175276 -0.24191299 0.047163103 0.08174805 0.043102916 -0.1298744 0.002405408 0.012407166 -0.15125552 0.009312181 -0.34136546 -0.2377663 0.07979459 -0.38146088 -0.05660964 -0.34897566 0.11821764 0.41950196 -0.12903327 0.24327399 0.025211023 -0.05213435 0.30044752 0.30825925 -0.043788034 0.035092063 0.17074513 0.08869454 0.18857716 -0.19104126 -0.044425976 -0.03931474 -0.21151629 0.036922954 -0.24358907 0.25435594 -0.26523215 0.184185 -0.122308694 -0.13728549 0.15930007 0.11038444 -0.042146023 0.15063415 0.02803342 0.0051519503 0.28753045 0.0127104735 -0.14512782 0.11827447 -0.20726119 -0.10222431 -0.021207202 0.067511976 -0.067904875 0.026648428 -0.2692478 0.117509305 0.3043977 -0.1269123 -0.26180813 0.08250019 0.05987351 -0.10829079 0.2035319 -0.27076793 0.07008817 -0.16369234 -0.04213644 -0.15083289 -0.5053912 -0.23016137 -0.14072995 0.19861148 -0.18854453 -0.13732459 0.2985556 0.030847764 -0.15884599 0.1319168 0.13624562 0.03556571 -0.42546052 0.45869932 0.17469837 -0.13591807 -0.28785992 0.23877668 0.12249104 0.06625024 -0.15991166 -0.17784603 0.08963347 0.08402485 0.12902758 0.27077857 -0.08071025 -0.18196002 0.091540605 -0.25760671 0.35775173 0.1151448 -0.14275706 0.18164082 -0.085068665 0.19632946 -0.24408717 -0.16412038 -0.3226582 -0.073274255 -0.18258578 0.058695722 0.08994785 -0.10149151 0.050947193 -0.10256965 -0.022231739 0.10659121 -0.017096253 0.23661217 -0.13682988 0.024485918 -0.029927013 0.20858622 -0.11864489 -0.10692365 0.27327004 0.2619775 -0.13220654 0.11906723 -0.22780612 0.01193769 0.06547385 -0.07586612 -0.08356948 0.055723272 -0.09503478 0.10029462 -0.27691573 0.16087294 -0.0978961 -0.022928655 -0.11507123 -0.030119188 -0.051996425 -0.20794015 0.029995078 0.14872026 0.11143788 0.29108632 -0.10634164 0.067943685 0.03411866 0.09485074 0.11966926 0.08338243 -0.193136 -0.14307645 0.14307314 -0.047628634 -0.012685586 0.13803065 -0.12862465 -0.43283725 0.23214208 -0.09134707 0.21825585 0.2836927 -0.06014528 -0.2898289 0.3016944 -0.3103057 -0.025826143 0.03070852 0.028600711 0.22285801 -0.11357056 0.077891454 0.081066415 -0.12054142 -0.075275116 -0.038525667 -0.14020321 0.059211344 0.19421479 0.06587949 -0.12951271 0.35009697 0.0828286 -0.07659896 -0.08070802 0.22890098 0.066344075 0.03695111 0.30299047 -0.024076099 0.057860795 -0.16468607 -0.17276861 -0.1351867 -0.099545084 -0.019653795 -0.20919003 0.03309437 0.019643078 -0.025431111 0.23775792 -0.017324746 0.0832656 0.06533538 0.2713668 -0.055737957
animal 0.08458795 -0.014854042 -0.17094171 -0.040574927 0.11112714 -0.03652008 -0.024635715 0.28844416 0.13366956 0.22444944 0.20026128 0.010236194 0.12459536 0.051213384 0.104533084 0.1040881 -0.2594409 0.056802336 0.10347171 -0.48442653 -0.15309526 -0.025674943 0.00146813 0.12895942 0.20648427 0.18172772 0.024994785 -0.07998511 -0.012080289 -0.21466936 -0.10847717 0.26000032 -0.10923958 0.0469787 0.06807915 0.12655172 -0.15808956 -0.21588288 -0.17574136 0.029436935 -0.0022172914 0.24642406 -0.04701721 0.21128821 0.13656224 0.09159609 -0.10742683 -0.13335879 0.102772735 0.20357865 -0.020114832 -0.035010062 0.27693716 0.15631656 -0.06143457 -0.22969459 0.12273819 -0.27174446 0.0701968 -0.080670044 0.10570996 -0.12779817 0.09761319 -0.26578072 0.13515966 0.05856114 0.28179896 -0.01746353 -0.29684356 -0.121829376 -0.015732553 0.092850156 -0.18236728 0.041883685 0.035672106 -0.15140148 -0.1315117 -0.34190002 -0.0848105 -0.07680732 0.023238871 0.11789452 0.17004168 0.1780758 0.10643735 -0.23627356 0.16846274 -0.05257432 0.0686088 -0.053122584 -0.018913364 -0.09631337 -0.10009739 -0.24772835 -0.13706544 -0.09700276 0.065472655 0.02996448 -0.0600552 0.14515233 -0.21236089 0.020500068 0.10711082 -0.14384972 0.011730585 -0.15961957 0.28102958 -0.033680137 -0.0826094 0.115727074 -0.12378935 -0.18285856 -0.07278994 0.16743661 0.015368515 -0.1900696 0.14594963 0.07598777 -0.044624563 -0.0431972 -0.25808635 0.12775914 -0.039073795 -0.1920065 0.17284298 -0.21201612 0.2862199 0.06554708 -0.084230915 -0.06314305 -0.030151973 -0.19137284 -0.039728083 -0.07733176 -0.2305149 -0.26117754 0.075143546 -0.12430662 0.11483661 -0.12816536 -0.21521522 0.02627185 -0.104534045 0.010659925 -0.2935808 -0.11964096 0.009095102 0.34364924 -0.14494644 0.24110715 0.009246794 0.18329956 -0.22222033 0.13109396 0.08755351 0.05448854 -0.05828145 -0.1980682 0.18409757 -0.010602644 0.081438445 0.06619627 0.17889361 -0.22071183 0.07010968 0.13549483 -0.17329016 0.11076218 0.053662665 -0.09796043 -0.038233325 0.19809747 -0.124681026 -0.0015475345 -0.21078487 -0.10698377 0.01703005 -0.31948707 -0.33433777 -0.17414142 0.13704567 -0.21503471 -0.06975448 -0.49170077 -0.1484532 0.34724054 -0.12867583 0.13206138 0.08868975 0.14386591 0.12911202 0.10107632 -0.054605782 0.16891238 -0.15076056 -0.19117065 0.10154614 0.21065705 0.13516122 0.059589814 0.094943784 -0.10817524 -0.07371132 -0.056219153 -0.07455367 -0.5517173 -0.10490567 -0.16825306 -0.007455153 -0.08146585 0.00036444922 0.08567455 -0.26896337 -0.055209193 -0.047101676 -0.044163283 0.22617093 0.39575216 0.008206147 0.11463626 -0.1569523 0.13477042 0.294961 0.099075876 0.10166036 0.07952555 0.19551687 0.0110747805 -0.041838568 -0.12481045 -0.13028343 0.2110351 0.1559484 0.016287059 -0.105355054 0.13573764 0.06193309 0.11260333 -0.29462698 -0.1241111 0.07811864 0.2604931 -0.05072298 0.22190644 -0.18954359 0.090249814 0.00020539787 0.11604975 -0.1834609 -0.051418453 -0.13554455 -0.0431678 -0.023879549 -0.16401935 -0.31188133 0.020899424 -0.028526176 -0.07930138 -0.06565797 0.109172314 0.3753846 0.05607349 0.2677552 0.19690754 -0.0962809 0.04439264 -0.23442507 -0.07052274 -0.017338881 -0.03151651 0.14938977 0.15661204 0.20352142 -0.08424628 -0.23214255 0.3279572 -0.059285596 -0.48148596 -0.0658162 -0.09742764 -0.004873238 0.082012594 -0.015824419 0.3117623 0.09764333 -0.16204223 -0.2629382 -0.14319704 0.16996664 0.2675287 -0.1908095 0.1250208 -0.07657736 0.086315505 -0.008080171 0.13943705 -0.31766853 -0.36721027 -0.27676225 0.06831313 0.006123292 0.35677576 0.008994985 0.052126363 0.11690801 0.26734447 -0.14333883 -0.06985197 0.11225098 0.28631106 0.1771339 0.037351895 -0.036838725 0.081868365 -0.06412397 0.17156729 0.19073237 -0.15283616 -0.15941563 0.13256116 -0.17637885 0.10287731 -0.14295965 -0.035700537 -0.07413262 -0.14376804 -0.0639722 -0.113588944 0.107443616 0.15223771 0.08418241 0.015009334 0.33219644 -0.07791229 -0.03399608 -0.05004298 0.12837146 -0.029970836 0.16878036 0.20459281 0.07355218 0.27669692 -0.11335148 -0.09508955 -0.16711801 -0.09854007 -0.17804371 -0.1507726 0.25201008 -0.20943369 0.032891087 0.22531673 0.1129165 0.25067246 -0.10555663 -0.18718496 0.124102555 0.3150659 0.008906328 0.056710348 -0.082644284 -0.24999578 0.22200641 -0.008737139 -0.11007645 0.3112582 -0.19448012 -0.079744555 -0.065771945 -0.10433161 -0.052875116 0.17764471 -0.055603653 -0.09830337 -0.11905322 0.017526615 0.38108325 0.052151833 -0.10809893 -0.29776594 0.020422181 0.01551598 0.008518395 0.18126926 0.4826797 -0.2949772 0.33747283 -0.2390399 0.14400002 0.16954245 0.0017701263 0.01801306 0.16944401 0.1019672 0.2073359 0.21877347 -0.14361821 0.040039398 -0.11906573 0.055316765 -0.06736748 -0.12996295 0.16160479 -0.17538038 -0.26442465 -0.20558088 0.10047067 0.03572551 0.3568096 -0.1414301 0.12450542 0.047302693 -0.02726153 0.09461879 0.2246462 0.12393293 0.07911202 0.0024289687 0.0751851 -0.16357802 0.22083968 -0.017532554 -0.10431009 -0.15776558 0.07602542 0.011562528 0.12505135 -0.14429492 0.06680742 -0.23221129 0.0906265 -0.032838054 0.14690259 -0.1645358 -0.14881338 -0.052544903 0.12513824 -0.1986957 -0.18254185 0.023972644 -0.06642518 0.15061934 0.1306883 -0.013762675 -0.17647575 0.0057101552 0.028400823 0.04968987 0.022016235 -0.0073160627 0.1020974 -0.08306502 -0.17620991 0.025742853 -0.21105152 -0.10448197 -0.17009468 0.08166203 0.13879812 -0.062007032 0.021018473 -0.09846509 -0.06114402 0.06648677 -0.068282396 -0.03680907 -0.06937421 -0.3997046 0.2105765 0.001505602 0.16550796 0.19629748 -0.088332675 -0.08714426 -0.1648973 -0.075239696 -0.012747661 -0.21071297 -0.35972652 -0.018315466 -0.11092802 0.35350084 0.15946688 0.2266555 -0.35760137 0.1990973 -0.0615209 0.03898561 0.16127245 0.08778874 0.22340012 0.23988077 -0.12435778 0.18041342 0.26521993 0.03712475 -0.12772493 -0.114219844 -0.1757683 -0.021142397 -0.1910493 0.040940087 0.097283386 0.0151486145 -0.07888895 0.24941075 -0.10979557 -0.09418724 -0.008297105 0.1325239 -0.1260933 -0.11073641 0.23848432 -0.133332 -0.10973023 0.14808379 -0.12484383 0.20789929 0.085664675 0.11068309 0.027819855 -0.052402925 -0.0029889592 0.24773543 0.016928012 0.2747349 0.044044252 -0.09313023 -0.09061631 0.14016065 -0.054227553 -0.030833283 -0.24009085 -0.05334645 -0.0831992 -0.26965466 -0.15778577 -0.10736907 0.07839312 0.011213427 0.23040383 0.27244493 -0.2365309 -0.016008968 -0.08379588 -0.08252603 0.09420542 0.055134263 -0.089773916 0.13564093 0.035378218 0.17546724 -0.16169263 -0.07980307 0.26581568 -0.07066933 -0.05555636 -0.13881841 -0.17847985 0.17233525 0.24886502 -0.3113923 -0.042842593 0.06375151 -0.11815315 -0.045011815 0.20847595 -0.10906936 0.062030714 0.13918328 0.046372168 0.15736139 0.21657395 -0.11004441 0.2620929 0.16048916 0.1521493 -0.12743777 0.2734468 0.07224858 -0.0022521557 0.21823591 -0.26087227 0.019742453 0.101909615 -0.29465058 0.06797798 -0.023505744 -0.0035899524 0.13653034 0.17043927 -0.15509018 0.28660157 -0.18377154 0.11335943 -0.21971264 0.043170188 0.10538817 -0.13928857 -0.18793833 -0.117589846 0.050589632 -0.3630266 -0.17046672 0.07291409 -0.30241448 -0.104067676 -0.2474593 0.11736379 0.15371747 0.042471956 -0.022378432 -0.24397022 -0.20236036 0.23544687 0.19982351 0.0064451825 -0.02128382 -0.05031187 -0.10153857 0.035752583 -0.021705534 0.061606146 -0.046040412 -0.23190035 0.13325335 0.15669265 -0.27594355 0.11989023 -0.18008316 -0.26737103 -0.2134094 0.05612533 -0.29699042 0.25358093 0.091192916 0.12259996 -0.27194348 0.110511184 -0.024270928 -0.10942893 -0.20387597 0.10648341 0.01925426 0.08767338 0.13867702 -0.30572686 -0.22264448 0.16195183 -0.20646054 -0.012013726 -0.2244586 0.053901915 0.0020287794 -0.12575158 0.11586242 0.2919688 -0.049889095 -0.10049806 -0.44702944 -0.21626061 0.12015628 -0.2578601 0.20359895 -0.21687403 -0.024587192 0.023482403 0.0040664263 -0.0867229 0.0645401 0.17197841 0.07369497 -0.02014474 -0.16258395 0.24698108 -0.18734032 0.07994966 0.10748175 0.0056696013 -0.02395044
attributes -0.15121707 -0.23423673 -0.2739562 0.0033422103 -0.012212008 -0.061074596 0.13265018 0.28120443 0.12823881 -0.011004963 0.14372356 0.03221231 -0.038718328 0.054859877 -0.06440661 -0.21803574 -0.3722914 -0.02245599 0.27239835 -0.45513648 -0.047989056 -0.11237458 0.13241825 0.22387676 0.1181779 0.18778905 -0.22281809 0.0022844533 -0.0005975189 -0.1616672 0.099654876 0.23906566 -0.041541263 0.2727511 0.24930596 -0.1395413 0.102003634 -0.1454475 -0.39811656 -0.18242383 -0.10959612 0.24851364 0.0077917622 0.15387617 0.21375093 0.16422524 0.062028356 -0.15622199 -0.086086445 0.19645192 0.013985644 -0.048409715 0.21124743 -0.099546805 -0.18741639 -0.08229442 0.15702695 -0.2766874 0.1684412 -0.26547432 0.02465807 -0.13969944 0.1393693 -0.41867536 0.2625918 -0.124824174 0.39680278 0.11462044 -0.25806496 -0.07102148 0.07944606 -0.12149909 -0.20227587 0.20488647 -0.10213 -0.26900527 -0.12757641 -0.14992218 0.113548286 -0.21760269 -0.0036091572 0.20269619 0.27460274 -0.022091407 0.0017264863 -0.16284089 -0.09827886 -0.030490333 -0.09114796 -0.14594805 -0.20616779 -0.14521027 0.25155205 -0.17595181 -0.059724495 -0.13087544 -0.017131599 -0.078760736 0.18227583 0.078619435 -0.08770163 0.21327782 0.1804961 -0.020607935 0.053229153 -0.2960997 0.30717912 0.07850772 -0.046214975 -0.005634218 -0.18244365 -0.12131495 -0.20251735 0.034879606 -0.1507008 -0.041000083 0.18951753 -0.019423163 -0.21703576 -0.12738061 -0.22391552 0.16801828 0.17443143 -0.3145035 0.17133597 0.0025261147 0.0801352 -0.14913698 -0.0076053212 0.076587394 -0.19355012 -0.1274435 0.27160344 -0.15850197 -0.07634742 -0.25104457 0.05752785 -0.23259327 0.26269537 -0.27525 -0.22899893 -0.09333655 0.061725266 0.013676703 -0.26952013 -0.3657047 -0.01605414 0.20838855 -0.063389875 0.34135824 0.23498666 0.03903966 -0.18701182 0.16374387 -0.13313363 -0.07146144 0.037516672 0.09571854 0.16299434 0.09558644 0.036468696 0.10863294 -0.007419676 -0.016043762 0.10928321 -0.014070984 -0.005641778 0.21342583 0.26238057 -0.13827376 -0.21627752 0.17197895 -0.19964184 -0.1680918 -0.06899027 -0.030888736 0.08776283 -0.24769422 -0.26025727 0.10736255 0.044464074 -0.061992984 -0.022006478 -0.45372894 -0.05338659 0.23008652 -0.048639897 -0.00313592 0.11983733 0.21026185 -0.1376622 0.18518874 0.055328857 0.23352277 -0.13705336 -0.17232351 0.15054135 0.20298833 0.037449263 0.14236616 -0.02080751 -0.027979022 0.033348516 -0.26054946 -0.053969193 -0.49856842 0.08619744 -0.07402207 -0.13264357 -0.1346814 -0.20776173 0.018622067 -0.35625738 -0.034998674 -0.036321126 0.061038483 0.13285686 0.44347212 0.07655264 -0.10635694 -0.0085993195 -0.11978362 0.44810632 0.0983677 -0.071186155 0.21308781 0.40209797 0.114470065 -0.028745195 0.016794316 -0.107341 0.29777977 0.08733695 -0.13383822 -0.0779024 -0.12063187 0.0029961898 0.30447993 -0.46820933 -0.29556608 0.15066783 0.36573854 -0.17514288 0.38732472 -0.49605906 -0.053688157 -0.2025231 0.20393294 -0.05215109 -0.17411579 0.06098474 -0.00031876622 -0.07378393 -0.38403 -0.36862102 0.17696676 0.011157909 -0.26119882 0.13994657 0.28971228 0.36236626 0.10385791 0.23365164 0.18062092 -0.1979687 0.056769084 -0.14390108 -0.06448512 -0.14049168 -0.033144824 0.012862407 0.04042395 0.02867207 -0.23894517 -0.15997617 0.1774866 0.13621852 -0.49953493 0.018143944 0.017168023 -0.16450801 0.09876756 0.16421059 0.3738531 0.043364327 -0.11583922 -0.40217242 0.104789905 0.37165126 0.22558375 -0.34519196 0.24488518 -0.114302136 -0.027419802 0.14015639 0.35658643 -0.24536029 -0.10148713 -0.08781106 -0.008695906 0.03565732 0.22793487 0.013492918 -0.08568786 0.03822249 0.15534906 0.023903826 -0.0822351 0.10624989 0.22892796 -0.0028394538 0.034135003 0.106495984 -0.08750227 -0.022834213 0.20524246 0.1398275 -0.15811062 -0.040746603 0.16171043 -0.1115394 -0.04027576 -0.08379694 0.0123976525 -0.36144668 -0.11795432 0.04096792 -0.18497063 0.002171521 0.14585562 0.011745776 -0.11272525 0.25545883 -0.27414003 0.25844768 -0.0257714 0.044645783 -0.08750654 -0.022307074 0.24873994 0.039622195 0.12781717 0.054565005 -0.04342124 -0.103934124 -0.050632447 -0.11028513 0.0012694008 0.27100578 -0.014550725 0.22284298 0.14273776 0.0041946103 0.32424128 -0.23107961 -0.09901069 -0.030000035 0.4677786 0.18385558 -0.14639403 -0.05407181 -0.17531526 -0.023026792 -0.07123003 -0.012545276 0.56569 -0.12001702 -0.08411917 -0.05123566 -0.17988591 0.05782019 0.08533103 -0.084124506 -0.110438764 0.098332725 -0.015900077 0.27447778 -0.14486618 -0.072010726 -0.21528038 -0.027971333 -0.008872876 -0.08290313 0.022725794 0.48820612 -0.4435116 0.38260952 -0.34496808 -0.019666195 -0.053745694 0.11781506 0.05134788 0.30085734 0.14386494 0.10483971 0.14536871 -0.24429618 0.13524915 0.05585892 0.12572832 -0.23914471 -0.04375677 0.0082851825 -0.038457032 -0.2824434 -0.30384836 0.14509246 0.053281702 0.2937277 -0.35643268 0.18635051 -0.01020611 0.013378871 0.34617093 0.34345418 0.17982663 0.064736255 0.17947312 0.052481864 -0.09641044 0.2483944 0.10879883 -0.23290318 -0.095329836 -0.21052712 -0.047777545 0.13030715 0.013028785 -0.16215864 0.016385961 0.18823458 0.026743812 -0.109413944 -0.25844517 0.013734914 0.2707352 0.42860228 -0.20089805 -0.2045551 -0.036542658 -0.107281156 0.15712956 0.46759245 0.18834762 -0.0906331 -0.17905279 -0.014237585 0.16949342 -0.067477845 -0.0021646363 0.08266542 0.22805277 -0.27449322 -0.080911376 -0.27937332 0.06456642 -0.11322332 0.20589408 -0.10335891 0.20415646 0.21862487 -0.0051785167 -0.19720206 -0.12894852 -0.06922782 -0.036083907 0.17141673 -0.36736766 0.03618099 -0.17657617 -0.07450828 0.2716211 -0.014914225 -0.11911498 -0.033450197 0.077069774 -0.23791943 -0.036150046 -0.16377515 -0.04699904 -0.23044033 0.2314177 0.16954418 0.32444647 -0.43421292 0.07038852 -0.14485046 -0.037772078 0.05180173 0.11922888 0.38408005 0.016736954 -0.09869326 0.087480746 0.30023515 0.19765969 -0.092418246 -0.045870446 -0.12624638 0.17219554 -0.3036957 -0.048673246 0.16872862 0.16127318 -0.2682266 0.31407845 -0.3747668 -0.2868863 0.1717498 0.28770313 -0.2838667 0.0787527 0.15927723 -0.055271927 -0.034673706 0.2057443 -0.2077306 0.33134377 0.20089315 0.064712726 0.029222922 -0.25421256 0.016349426 0.20427094 -0.028308047 0.23676682 0.16196367 0.11010063 -0.29531783 0.21212526 -0.11550619 0.082049005 0.018515944 0.0026249904 -0.048915133 -0.10462284 -0.34420645 -0.15561254 -0.20529053 -0.07565413 0.17656688 0.21203694 -0.22473578 -0.08061967 0.08213285 -0.2693666 0.29288673 -0.038660727 -0.033930443 0.28894854 0.21292682 0.26747102 -0.29810756 -0.1574138 0.313175 -0.09730847 -0.05309453 -0.2310038 -0.27029282 0.20183435 0.32930836 -0.4083172 0.1555923 -0.119744875 -0.27445826 0.06635073 0.085855834 -0.095562115 0.1931139 0.10621371 0.15766771 0.13456148 0.26744407 -0.13553913 0.023437686 0.16142042 -0.00979653 -0.10463279 0.37171736 0.01756469 0.047338158 0.15070288 -0.22414535 0.021662502 0.24295917 -0.24403791 0.30668363 -0.15651886 -0.04308107 0.25593212 0.11370465 -0.07962998 0.122484416 -0.25286528 0.35137948 -0.23830469 -0.09282272 0.09168065 -0.25166678 -0.070465006 0.22809584 0.02094824 -0.43763322 -0.074497804 -0.23721275 -0.14019395 -0.31164443 -0.13876985 0.1996097 -0.053939886 0.1137653 0.0924388 -0.1947412 -0.4098064 0.31653342 0.26953143 0.07654174 -0.15758929 -0.098309346 0.12607802 -0.02916526 0.10303976 0.26273462 -0.1241491 -0.3146587 -0.05362699 0.20621121 -0.19803832 -0.11492432 -0.16182737 -0.29630893 -0.20914471 -0.28707045 -0.51235384 0.34716734 0.006505085 0.04688785 -0.30608457 0.0012441479 -0.036545157 -0.010351823 -0.15443347 -0.014629142 0.09119096 -0.24059626 0.12225431 -0.26800135 -0.0032695371 0.11497709 -0.24308074 0.09319809 -0.27468523 -0.110436425 0.11035321 -0.19027913 0.28141448 0.53343946 0.08002106 -0.28721184 -0.47071528 -0.41550764 0.19832626 -0.035910506 0.15534523 -0.26794323 -0.27778783 0.07047324 0.06184815 -0.17436105 0.34973666 0.07941627 0.17090186 -0.21975069 -0.3399034 0.25551596 -0.0009877078 0.0846553 -0.09396496 0.11590077 0.10313932
body 0.026270136 -0.028348492 -0.34906697 0.29929826 0.0529405 0.15490687 -0.066199884 0.16227034 -0.26858896 0.15279038 0.1532595 -0.08895714 0.025047777 -0.026257092 -0.2369954 -0.16146396 -0.2129916 0.018464483 -0.036017176 0.032591995 0.12981404 0.12556785 0.26626265 -0.025394574 -0.22658737 0.015863985 -0.038789663 -0.034777448 -0.20183599 0.28224173 -0.2473301 0.0694296 -0.16909894 0.0010859345 -0.22583294 0.02312954 -0.09037778 0.084098056 -0.3237953 -0.15935129 0.1460765 0.017124468 0.29918367 0.06395407 -0.0831023 0.127416 0.12681137 -0.11566782 0.0007228998 -0.086367935 -0.13148527 -0.05051913 0.20079698 -0.2893927 0.28738052 -0.13084629 -0.1578735 0.33277717 -0.09392082 -0.16429967 0.04649031 0.1213008 -0.048644096 0.14942595 0.06343053 -0.42697465 0.35712114 0.20588073 -0.33974808 -0.19971149 -0.0111173205 0.13697107 -0.088350296 -0.2956123 -0.28696376 0.20275524 0.27924785 0.04957142 0.033715617 -0.25084302 0.1672469 0.23954813 -0.28013396 -0.2318688 0.15493175 -0.041435182 -0.11519274 -0.024700932 0.051820748 -0.07871974 -0.21881598 -0.2060009 -0.16715236 -0.30349302 -0.045482334 -0.20024818 -0.13159795 0.082740515 -0.34682178 -0.016511882 -0.17559902 0.066466756 0.21775803 -0.060255352 -0.31805426 -0.10227206 -0.018455736 -0.049539182 0.23464347 -0.043105066 0.14130628 -0.1167511 -0.12526235 -0.01590582 0.03900826 -0.015486029 0.19418576 0.014177078 0.31003198 -0.115083 -0.23765568 0.13285743 -0.3103012 -0.11227376 -0.13445047 -0.084436275 -0.24240957 -0.10588482 0.21243936 -0.33453193 0.16002652 -0.1937451 0.059126996 0.17993356 -0.18487923 -0.07034145 0.13634592 0.24228907 0.05476658 0.18221316 -0.21612476 -0.29929197 0.045483675 0.073803075 -0.19158247 0.1271763 0.09355945 0.16636772 -0.012017519 -0.04262019 -0.004608337 -0.2566338 0.10917155 0.18841672 0.06820817 0.34232762 -0.1357957 -0.18082643 0.33102694 0.15462151 0.14513391 0.281072 0.269584 -0.29574278 0.20116532 -0.015987959 -0.3035337 0.22205527 -0.09625817 0.1038197 -0.116734475 0.34516376 -0.33061606 -0.13185608 -0.17505094 -0.098460294 0.13331018 -0.18424366 -0.0642265 0.14633866 0.19302067 0.05908523 -0.009662369 -0.11998888 -0.03418645 0.08872565 -0.2325136 0.043309465 0.19847414 -0.12665376 -0.25087073 0.12329153 -0.098988585 -0.014905688 0.00047451112 -0.069177054 0.020571651 0.15713944 -0.01913882 0.028277196 0.24902038 0.061932985 -0.109072834 0.0344596 -0.24449936 0.18940228 -0.16661894 -0.4596973 0.0065378346 -0.00070220925 0.112131655 -0.32777157 -0.3458841 -0.25446743 0.07425261 -0.02218947 0.1798132 0.35743186 -0.09959497 -0.2011499 0.06869675 -0.118878506 0.32330692 0.19332181 -0.122748554 0.20006165 0.07189166 0.1901802 0.07893402 0.115002654 -0.0007720565 0.087261185 -0.16451624 0.047932204 0.34068966 0.10922311 -0.06477919 -0.07237066 -0.012859948 -0.15902323 0.09044586 0.25763962 0.21087372 0.4612135 -0.21831931 -0.08939329 -0.24844848 0.31980863 -0.107169576 0.28870028 -0.16524482 0.063111275 0.09052722 -0.12738156 -0.15022893 0.33579257 0.18550606 -0.1748943 0.052124288 -0.24797775 0.29663017 -0.10989713 0.08781848 -0.097358406 -0.13162795 0.0017487535 -0.04271337 -0.28563604 0.120487556 0.19664419 -0.055423215 0.15533425 -0.25663868 -0.055425037 -0.32436383 0.0806439 0.016865963 -0.0032314402 -0.076296404 -0.025975244 0.071511306 0.03956993 0.09939764 0.42259333 0.06793993 -0.4589287 -0.15893373 -0.23627299 -0.003507446 0.12178981 -0.14116198 -0.07525784 0.015366006 -0.104985856 -0.110561535 0.25298983 -0.28163412 -0.06964515 -0.10012193 0.3488469 -0.20801756 0.31372333 0.055755526 0.12541772 0.11021527 0.012269149 -0.035084683 -0.33175892 0.46270964 0.4037907 0.23231494 -0.09223747 0.044259198 0.00043287687 -0.1447625 -0.4113714 0.019000322 -0.018098723 -0.18006855 0.06393501 -0.25540063 0.41499484 0.061687075 -0.14050771 -0.24026206 -0.2764931 0.14171791 -0.28910977 0.24517977 0.24958138 -0.014396841 -0.069869734 0.26170617 -0.22981992 0.22364937 0.15147035 0.1122868 -0.2800558 0.08424477 -0.044303413 -0.15711088 0.1855131 -0.14508864 0.012961747 -0.2852788 -0.09704179 -0.40801215 -0.18314742 0.06460882 -0.24946323 -0.11859926 -0.08702793 0.16429116 0.14174664 0.18095541 0.026989214 0.094772555 -0.24263181 0.28679872 0.07046392 -0.045095135 -0.23595169 0.00020222978 0.45336103 -0.36049724 0.20814943 -0.11266747 0.104711115 -0.28832906 -0.26142675 -0.11806399 0.0059840004 0.011334707 -0.43876612 -0.18984835 -0.15196964 0.29415354 0.1456284 -0.26577583 -0.24784103 -0.21896736 0.26575267 0.2288614 0.17484908 0.20227005 -0.19639304 0.16906123 -0.03558592 0.1871694 -0.15725178 -0.1764091 0.046218626 0.20527665 -0.05013126 -0.120193355 0.17618795 0.19997896 -0.06690809 -0.19054887 -0.15778342 0.074892536 -0.37743658 -0.2111894 0.12803432 -0.25505224 0.015591248 -0.07095164 0.030413046 0.07306769 -0.010829618 0.0522909 0.11819345 0.22507517 0.25224668 0.4166265 -0.25522536 -0.0152678965 -0.09880802 -0.05008631 0.26842526 0.12096331 0.049528908 0.12992609 0.12264045 -0.13303415 0.00034831962 -0.064687006 -0.14852087 0.048089903 0.12850346 -0.036668513 -0.34513438 -0.08494123 0.18611187 -0.25682855 -0.064946264 0.2738895 -0.028131912 -0.13394476 -0.07179843 0.25725764 0.30271018 0.039235402 -0.10444214 0.09566616 0.0062811277 0.029890846 0.20731224 -0.11871903 0.13897854 -0.19216627 -0.15847883 0.3446771 -0.28825757 -0.26185295 0.011938525 -0.07839193 0.05968146 0.12788995 -0.20031393 0.1353667 -0.07114165 0.0066051213 0.21038666 -0.03428019 0.16611639 -0.10230665 -0.39685705 0.1948778 -0.076479055 0.23137946 0.29527137 0.29361784 0.10654723 0.1486903 -0.044740643 0.04511482 -0.14608593 -0.528857 0.17712194 -0.37542757 0.10230463 -0.2107054 0.18433942 -0.23382017 -0.12451311 0.05063871 0.2254202 0.15372479 0.0018619323 0.027195683 0.12540452 0.07618686 0.12235488 0.2771043 -0.11212802 0.15498702 -0.057010558 0.16650404 -0.1257495 -0.0413773 0.22073215 0.22222231 0.2549827 -0.053817425 -0.047783107 -0.16596363 -0.15725285 -0.12085984 -0.00854131 0.21630791 0.089382 0.24040514 0.02785422 -0.15390915 -0.1842205 -0.013387981 -0.07350156 0.03658533 -0.34859848 -0.032103688 0.23405838 -0.08179252 0.015281356 0.18700834 0.082895555 -0.08319851 -0.067441225 0.118988045 0.42110237 0.020785956 0.07111414 -0.2674365 0.13789357 0.14233266 -0.38922012 0.13372399 0.039885093 0.33433035 -0.06277026 -0.00038353517 0.15352066 -0.26735413 0.044204567 -0.19276538 0.28064707 0.18493542 -0.006456119 -0.035487786 -0.33247927 -0.19284254 0.20043895 -0.027220711 0.07526941 -0.24614485 0.115046196 0.19363882 -0.12104869 -0.35210595 0.2283624 -0.10483783 0.015296772 0.16830572 -0.22899167 -0.052679025 0.085244745 -0.021298276 0.14709146 0.109601595 0.09709301 0.10789124 0.14117962 -0.03772732 -0.2917937 -0.08187404 0.278402 -0.16734226 0.07739581 0.25596195 0.050747503 0.30246398 -0.29587877 0.16532168 -0.20445207 -0.05185216 -0.17006998 0.018435588 -0.08589508 0.14610519 0.20373985 -0.15488099 -0.23003528 0.26449004 0.17604204 0.05535513 -0.19302791 0.052108105 -0.1623121 0.07524209 0.03552286 0.04765649 0.10634877 -0.08267132 -0.038714807 0.039735388 0.2288554 -0.24694473 0.09547391 0.051668905 0.040025182 0.024417706 -0.31939724 0.11089903 0.058265675 -0.11691668 -0.08160095 0.4130731 0.2324228 -0.025663372 -0.27143222 -0.16070285 0.09878482 0.08578092 0.019921206 -0.16062231 0.080278784 0.06808489 0.09457305 0.0012403887 0.002169335 0.031570062 -0.1498498 0.4289054 0.056123182 0.062251214 0.051238474 0.36354297 -0.17678958 0.070328884 -0.0134181725 -0.24114916 -0.23104726 -0.22730568 -0.059064493 0.36624905 0.19203016 -0.44951057 -0.11619512 0.2511012 -0.024695188 -0.004945059 0.0044174185 0.10886887 0.31153065 -0.1606371 0.29035932 0.33088574 -0.09469646 -0.044594117 -0.35879663 -0.04656268 0.30745497 -0.112033255 0.15855256 -0.24162164 -0.22790796 -0.11595865 0.070863575 0.102617286 0.25896776 0.19797395 0.17268644 -0.044289608 -0.035478078 0.14862119 -0.2653528 0.16585186 -0.13286899 0.032927677 0.3083841
physical 0.060458325 0.0011158484 -0.19726257 -0.08113437 0.16291817 0.23973131 0.29670793 0.14494613 0.11574554 0.24811935 0.29861408 0.1410668 -0.032796044 -0.033133805 0.07744899 -0.19509734 -0.24702294 0.22473681 -0.04386618 -0.21906003 0.24633564 0.018344969 0.40055466 -0.053112235 -0.012902738 -0.022130765 -0.28331414 0.013556195 -0.11332262 -0.10789287 0.0027940124 0.1484235 0.09587615 0.0055391085 -0.025035797 -0.0008587261 -0.015331505 -0.06437659 -0.2792492 -0.1216456 -0.104081385 -0.04671263 0.08507885 0.16834259 -0.004623714 0.036179397 -0.057799514 -0.08718398 0.044066235 0.13582785 -0.06565578 -0.10126147 0.22397068 -0.010558772 0.13131994 -0.09529038 -0.03547257 -0.044237662 0.003778113 -0.22311066 0.10674892 -0.15875992 0.13127859 -0.12762676 0.23840158 -0.212032 0.30932638 0.097021915 -0.14935124 -0.19649352 -0.27190855 0.046693843 -0.2939963 -0.2585957 0.049087327 0.07875497 -0.09764411 -0.4084167 0.10925926 -0.3577283 -0.15180032 0.013477017 0.16323493 -0.030305257 0.04088712 0.12667578 0.2092464 0.076019466 -0.24778216 -0.047754668 -0.11603807 -0.052697495 0.16730666 -0.11463865 -0.007951001 -0.13956045 0.07695077 -0.023344973 -0.07684537 0.1397659 -0.2287902 0.29518643 -0.06916008 -0.062279787 -0.41522157 -0.040025853 0.06952634 -0.16909282 -0.05178521 0.14354338 -0.17690162 -0.033455964 -0.011977967 0.06452918 -0.105182484 -0.010577991 0.23414826 -0.18117383 0.01940017 0.02346982 -0.11044038 -0.006634004 -0.08330493 -0.120679125 0.043519426 -0.11225951 0.06955697 0.12888932 -0.064170115 0.0077995146 0.1409813 -0.01777247 0.23496984 0.110736266 -0.2368225 -0.21842548 0.20229432 -0.16056165 -0.10192977 0.07291268 -0.052868903 -0.027640563 -0.077889115 0.10428633 -0.24652372 -0.24881457 0.07906111 0.08568958 0.02216576 0.20057523 0.012389893 0.039459188 -0.006731355 -0.020741161 -0.014201664 0.048237618 -0.22976063 -0.15869726 0.3325144 -0.14197056 -0.011536819 -0.14246306 0.079629675 -0.19800723 0.27320474 0.044317894 -0.2745085 0.013766049 -0.19326694 -0.18745989 -0.14916322 0.39111868 -0.04194962 0.19186956 -0.14511403 0.024673484 0.11187009 0.07184911 -0.073692635 0.19223176 0.25462952 0.02928037 -0.24616931 -0.16989185 0.06351494 0.093412474 -0.077040985 -0.13690211 0.022311168 0.016051596 0.046711765 -0.07479714 -0.016992208 0.07113679 -0.0895211 -0.2879674 0.06928636 0.06629149 0.15207429 0.22079436 0.1425341 -0.13297302 -0.041634627 -0.00048936915 -0.13249667 -0.1719336 -0.22496499 -0.27591366 -0.25849438 0.001327602 0.041839868 -0.12878427 -0.24921346 -0.36307552 -0.036617525 -0.050335463 0.2605072 0.34054196 -0.10791206 0.0043884036 -0.039724533 0.05306087 0.31679314 0.0063415654 -0.17868446 0.11162077 0.0042358697 -0.13569906 0.24535488 -0.36379346 -0.19596653 0.14391126 -0.20344253 0.031489257 0.10284894 0.14852838 -0.109286524 0.10689673 -0.19830786 -0.05170119 -0.053566977 0.2970222 -0.008869497 0.4809399 -0.4107083 -0.17001885 -0.06511439 0.08585469 -0.1879649 0.11810247 -0.090006225 0.09946149 0.03913328 0.15848036 -0.027148224 0.0002768117 0.2007233 -0.39529076 -0.06349543 -0.12414183 0.33266893 0.16472776 0.23193389 0.082610734 -0.122490674 -0.09288491 -0.14143692 -0.25242168 -0.13586809 -0.09209474 0.046427008 0.23012252 -0.099413544 -0.34989947 -0.06474416 0.23476684 0.060082257 -0.16573316 -0.12936282 0.024639765 -0.045132883 0.15313908 0.043299086 0.23715664 0.17721456 -0.3032761 -0.055186436 -0.24840565 0.08367314 0.049338993 -0.13684566 0.06293702 0.001811706 0.0122815585 -0.12657984 0.27977368 -0.1745552 -0.114938475 0.04662188 0.19030376 -0.009929151 0.3384882 0.010002829 -0.13434714 0.25360006 0.36281505 -0.047763713 -0.23836464 0.16937543 0.27361077 0.22215873 0.02519255 -0.02812106 0.19838916 0.08302233 0.049927827 0.040965322 -0.05219323 0.019394457 0.018089674 -0.031727694 0.1366325 0.09797119 -0.15612638 -0.09884479 -0.11570163 0.20885246 -0.09657192 0.16017784 0.04806735 0.09393384 -0.1780059 0.068974204 -0.2441995 0.067831084 -0.085202865 0.056783427 -0.27570748 0.22288811 0.057133816 -0.2714078 0.27728558 0.08398222 0.044951543 -0.114688754 -0.20762898 -0.43614814 -0.056525767 -0.07818363 -0.100123115 0.24797456 -0.06780588 0.10359343 0.21032742 -0.06310833 -0.015024926 0.032946892 0.087227724 0.25517693 -0.023675319 -0.14493154 -0.10034806 0.049384132 0.23727784 -0.17524502 0.08293727 -0.30982286 0.19220549 -0.16101548 -0.19455297 -0.009391854 0.053005833 -0.036016803 -0.07417675 -0.0138282655 0.068406165 0.30673075 0.2966876 0.06974825 -0.4043952 -0.0054546646 0.16512887 0.01923286 -0.12106467 0.37356752 -0.080630474 0.032839958 -0.19238171 -0.063296 0.16463058 -0.0011573111 0.11770845 0.10441851 -0.18277211 -0.060632452 -0.017750278 0.014182602 0.16780531 -0.12496423 0.3094326 -0.1431204 -0.016436938 -0.037144944 -0.20544213 -0.09334275 -0.02310374 0.051247373 -0.07005236 0.32759842 0.10287469 -0.060370523 -0.022162994 0.01356335 0.23043516 -0.055640467 -0.104463235 0.10258575 0.05000517 -0.065071106 -0.050661217 0.12566492 0.041321505 -0.13717657 -0.017626414 0.07467431 -0.1238652 0.35875925 -0.09629339 0.05901449 -0.2071428 0.13561463 -0.25944492 -0.0013581371 -0.048285134 0.07904159 -0.029750738 0.2558632 -0.014312873 -0.16287456 0.08214411 -0.070485875 -0.036121782 0.06011087 -0.12241749 -0.024158863 -0.093287155 0.018527875 -0.26163265 0.033275653 -0.030706305 0.0952108 0.121510684 0.031472042 0.04570001 -0.117864445 0.021870814 -0.102718964 0.13226147 0.34110683 -0.089416996 -0.11691659 0.12770703 0.07707591 0.21573214 -0.026624091 0.20569058 0.0963378 -0.30893183 0.011482702 -0.2612957 0.16027364 0.41642222 0.0976356 0.11570498 0.18680686 0.16300733 -0.17485252 0.03951887 -0.12480792 -0.070883 -0.07959137 0.27460212 0.025654899 0.29302776 -0.20947817 0.22832026 -0.13149248 0.12227922 0.06812398 -0.23175953 0.11302328 0.20530036 0.06006731 0.074813 0.2417385 0.08899871 -0.101986416 -0.11942159 -0.03284883 0.18810943 -0.16715002 0.124243975 0.08452881 0.15846573 0.07549328 0.07173501 0.085754484 0.009933047 0.072482064 -0.018563716 0.050242722 0.06500093 0.17579986 -0.17959799 -0.11491106 0.15354677 0.03250598 0.05024515 0.13839139 0.14074214 0.0066681067 0.10884542 0.15767968 -0.047503535 0.012331037 0.000111404195 0.1863412 -0.24624936 -0.028931074 0.020182423 0.04197566 -0.047098167 -0.04488137 0.08030995 0.18430404 -0.27418613 -0.225917 -0.056816522 0.011691076 -0.15978652 0.0069632023 0.1499521 -0.3967316 -0.131284 0.18431234 -0.033927605 0.005003383 0.097131275 -0.19745615 -0.24605356 -0.043392006 0.08245231 0.23320979 -0.12956649 0.06864605 0.12747116 -0.25394058 -0.13796683 -0.42797026 0.043380283 0.133986 0.0020422947 0.285683 0.23527068 -0.23921728 0.209766 -0.07923622 -0.023138564 0.2082839 -0.14173472 0.08269576 0.20076188 0.29842538 -0.13090321 0.0639086 0.2584421 -0.06171188 -0.10838764 0.30665907 -0.09474947 -0.13152775 0.07826646 -0.041052837 0.10178155 0.016196812 -0.019418197 0.035968542 -0.13353786 -0.16369043 0.24412109 -0.0669159 -0.003405735 0.06555318 -0.15387858 0.1859746 -0.063921645 -0.06387482 -0.09842656 -0.19838384 -0.16498026 -0.10738374 0.06828439 -0.22652774 -0.06918504 -0.105642974 -0.048129957 -0.3628072 -0.14252315 0.03564048 0.017207209 0.12110813 0.22841108 -0.06958351 -0.32399502 -0.023975017 0.028542962 0.2690643 0.12033102 -0.12419485 -0.19771355 0.03954356 -0.12033017 -0.03760714 0.012653872 -0.3126531 0.09378701 0.07570848 0.067569576 0.12852024 0.118945025 -0.40569216 -0.17435381 0.0060868855 -0.12719965 0.061104164 0.20881362 0.27568886 -0.25695592 -0.092461675 -0.009851068 -0.22958341 -0.09259413 -0.031290464 0.06978541 -0.034580562 0.13246724 -0.29734012 0.06294403 0.24225898 -0.02160774 -0.07293575 0.11233075 -0.123893656 0.024796823 -0.22174796 0.2720614 0.20447393 0.022682559 -0.22687814 -0.303114 -0.07056699 0.07818872 -0.060128953 0.22336076 -0.20995237 -0.11132602 0.0432622 0.011759277 -0.14919701 0.16922995 -0.017537648 0.00057338993 -0.16438873 -0.012725929 0.33234808 -0.017446684 -0.020792853 0.14373438 0.026130358 0.29411656
colour 0.29368672 0.0004631083 -0.0450807 -0.19399364 0.2119828 0.20493351 0.14810263 0.05204707 0.15272246 0.3070144 -0.07538445 -0.041124817 -0.1965986 -0.08037863 -0.021257054 -0.10249211 -0.2841279 0.013495308 -0.055715244 -0.20827214 0.25585002 -0.12579855 0.07833713 0.038194552 -0.115755424 -0.27934816 0.26285943 -0.22008301 0.12118462 -0.056953125 0.27310205 -0.03773508 0.028758304 -0.08524211 -0.30222285 0.30439836 0.31596956 -0.073689796 0.0021792587 -0.3047422 -0.21031363 0.06272555 0.20788781 0.07002152 -0.04001839 0.11970355 -0.027443573 0.05941626 0.12197098 0.18037347 0.16480513 -0.21710156 -0.11313803 0.18985265 0.004136277 -0.18003142 0.17277747 -0.08112582 0.049332324 0.0017682627 0.43391532 -0.10610243 -0.29354984 -0.040730476 0.29035243 -0.3408782 0.24857922 -0.19733551 0.016570896 -0.23733257 -0.25619707 0.24646111 -0.15793422 -0.17686923 0.1643602 -0.10833886 -0.021928469 -0.23576385 -0.078401566 -0.065029 0.24096325 -0.20752057 -0.018744897 0.06754301 0.09295083 -0.061460223 0.21783319 0.17242257 -0.022016112 -0.043593414 0.18792857 -0.17599271 0.10290599 -0.045090493 -0.121554635 -0.2514723 0.10580134 0.313166 -0.40415138 0.08130289 -0.275728 0.22027504 -0.074324906 -0.27442634 0.17286563 0.28008336 0.1855825 -0.045100603 -0.22107048 0.24874435 0.1294672 0.06714503 -0.10398677 0.11545433 -0.12541361 0.0027064418 0.09076445 0.037381086 0.28807077 -0.370733 -0.09690607 0.07807771 -0.17900239 0.040368915 0.20720644 -0.2889777 -0.13722281 -0.23997776 0.055267673 -0.14425117 0.026978144 0.13218473 0.13892 0.07533531 -0.09097726 0.22255218 0.13867705 -0.16387376 -0.19619465 0.26866183 -0.0030078553 -0.028353086 -0.19742969 -0.08145608 -0.062148698 -0.25125554 -0.2046167 -0.13216633 0.008005955 -0.031826124 -0.23110262 0.17594689 0.18303594 -0.032892283 0.2793756 0.13881022 -0.30595368 -0.11354176 0.27436575 0.33466467 -0.03510202 -0.13973698 0.31064236 -0.18408099 -0.218775 0.00340996 -0.15909916 0.031539153 0.11441689 -0.02603125 0.10120893 0.2863281 -0.16133139 -0.16879451 0.24143472 0.3217991 -0.24520208 -0.1469928 -0.031270992 0.3641925 0.24616508 -0.021942137 -0.021203589 -0.2501522 -0.108297035 0.023240995 -0.03714618 -0.019143576 -0.20773916 -0.20371813 -0.15136373 -0.01874266 0.17074813 -0.22740889 0.0076350956 -0.32580093 0.20186311 0.076379694 0.22136857 0.19350448 0.2572108 0.17949934 -0.29309982 -0.093220465 -0.26247126 -0.15511784 -0.13567509 -0.41888782 0.16321248 -0.2181112 0.14788648 -0.13307102 -0.12948059 -0.29058084 0.002751676 -0.040737867 0.39837003 0.38684973 -0.025838802 0.11909245 0.094948165 -0.10094566 0.20890157 -0.22846627 0.08649687 -0.03594491 0.2818239 0.25011247 -0.06647901 -0.12930846 0.06688606 -0.14444387 -0.13837112 -0.19876818 0.0048261276 0.47743464 -0.2913897 -0.011842324 0.04210114 -0.13859236 0.22021669 -0.11603085 -0.19237272 0.029579764 -0.23525842 0.08027293 -0.17980592 0.3222688 -0.034696985 0.0037654513 0.13060337 0.17210694 0.21081416 0.10341929 0.17669913 0.04371478 -0.05567242 -0.27679342 -0.018282738 -0.2074572 0.25035208 -0.1885371 0.019995196 -0.17206477 -0.2706881 -0.26162767 -0.24290341 0.060846098 -0.19446221 -0.07260788 0.14034475 0.16932146 0.21739304 -0.29428104 -0.09755673 0.20205301 -0.26682138 -0.031041667 0.32155123 -0.094356924 0.13906302 -0.08874663 0.133621 0.40678427 -0.15490422 -0.29754543 0.068065174 -0.18904443 -0.07635729 -0.0010195835 -0.117207244 0.051260456 0.10998057 0.17050636 -0.3890773 0.33819133 -0.14614213 -0.20409723 -0.24259356 0.03072075 0.26471967 0.16317625 0.10011393 -0.1836595 -0.09485603 0.20314994 0.12605381 -0.36842582 0.3002205 0.27961653 -0.009953651 0.0006939842 -0.03495339 0.17357348 -0.08183909 -0.33484185 0.10425069 0.038572583 -0.08338824 0.4183801 0.021110125 0.25397167 0.013777512 -0.112134844 0.1923491 -0.1888748 -0.3124967 0.04316551 0.31445128 0.018558541 0.16795304 -0.21390799 -0.03556866 -0.29776123 -0.18162853 0.10730769 0.048786037 -0.09198407 0.2987345 0.04162576 0.05134412 0.3264352 -0.3147551 0.2348379 0.042178717 -0.26344556 -0.46534726 0.17365743 -0.011322981 -0.4484939 0.1322602 0.13762487 0.034287546 0.19687527 -0.24534366 0.03977451 0.27434355 -0.24468973 -0.2419199 0.0039850604 0.14058575 -0.1231264 -0.09082686 -0.045477886 -0.34529716 0.01596626 -0.2045316 -0.044992905 -0.38238537 0.113384075 0.08168535 0.12533493 0.06888347 0.10601506 -0.14724907 0.03291117 0.3582148 0.124816254 0.07007995 -0.120272 -0.23866676 0.08671798 -0.09393227 0.03303628 0.22862425 0.059043318 0.17245477 -0.25949034 -0.031048972 0.14075504 0.10324589 0.061824147 -0.28187883 -0.32627118 0.040113676 0.1828335 0.053587552 0.15746726 -0.007983408 0.19360594 0.14659867 -0.21590576 -0.19095308 -0.1639888 -0.29499033 0.027782891 0.07098581 0.12952611 0.026865453 0.22951497 -0.0051530795 0.12513007 -0.16562483 0.2910591 -0.12955932 -0.14161369 0.039067283 0.17649089 -0.1697789 -0.2125592 0.16939199 -0.24705693 -0.022077238 -0.1374646 0.13669264 -0.3165062 0.1327654 -0.0072451467 -0.012938697 0.2087653 0.11860808 -0.33519325 0.24701759 -0.23223875 0.12609278 0.2330233 0.33039266 -0.08021213 0.33795357 0.22030383 0.1946002 0.12843806 -0.049989674 0.12350888 0.10535595 -0.26713607 0.07675866 -0.1549291 0.21200758 -0.23870139 -0.14978275 0.1932364 0.078491114 -0.16813588 -0.066870004 0.11636757 -0.16908291 0.28991935 0.2650787 -0.42911357 -0.12848458 0.050649624 0.29655206 -0.09026116 -0.1555161 0.06981254 0.21634713 -0.3021104 -0.08647149 0.16789033 0.386158 -0.05963085 0.24994698 -0.114566006 0.13376881 -0.33942038 -0.11931735 -0.11813226 -0.44981337 0.03843475 -0.1509225 0.3823978 -0.102208994 0.05586403 -0.0032334048 0.21537685 -0.10895971 0.2698965 -0.043219205 -0.03140473 0.32504213 0.15649782 -0.07214408 -0.12570971 0.15454766 -0.0081492765 0.044112742 0.18406373 -0.122777164 0.09307648 0.23895237 0.2639115 0.27672067 -0.002543273 -0.28994 0.13767824 0.017230874 0.084792666 -0.29033643 0.23287997 -0.110935286 -0.17337216 -0.040733114 -0.13374007 -0.10977507 0.1409684 -0.069392465 0.27229014 0.1120763 -0.1064161 0.051093705 0.054362547 -0.114258274 0.18669243 -0.0077187493 0.20924437 -0.077488 -0.18975222 -0.026909249 -0.05930235 -0.040769033 -0.20373987 -0.012044543 0.14000683 0.2696183 -0.11483744 0.10757454 -0.23719977 -0.0025116096 0.043144125 0.28474602 0.08616714 -0.14037527 0.21270737 -0.14796284 0.06309584 0.024575457 0.04595176 -0.27392542 -0.3343435 -0.06462328 0.041463647 0.2580464 -0.24932697 -0.11718158 0.07197843 -0.18693282 -0.20080885 -0.3317923 -0.13568226 -0.10653035 0.18108283 0.45525762 0.15962219 0.16084366 0.087645814 0.12071394 -0.203042 0.22226515 0.0737229 0.13520113 0.07753094 0.13298163 -0.2563057 0.07360283 0.14484854 -0.09688912 -0.008049605 0.10010527 -0.18864636 -0.12759104 0.0681424 0.28819424 0.019814115 0.24373776 0.12882084 -0.06156164 -0.05620586 0.12038735 0.26164693 -0.17551753 -0.1643982 0.17894553 0.14692642 0.18061435 -0.24404933 0.1948596 -0.008841601 -0.18661962 -0.16602752 -0.05917132 0.40570942 -0.17418183 -0.36022788 0.17526937 0.14392781 -0.11565326 -0.2250271 -0.080487914 0.32133713 0.12990871 -0.20761073 0.0101451585 -0.30104798 0.31010824 0.022658832 0.3706506 0.13469887 -0.14101537 -0.42487693 0.05882961 -0.1496222 -0.20452097 -0.102859356 -0.36115873 0.28965017 0.26067075 -0.23908916 0.22660197 -0.35693035 -0.24746549 0.064841166 -0.06759347 -0.28795815 0.294838 0.3589839 0.18003048 -0.18823908 0.15446441 -0.04918651 0.07674969 -0.16716023 0.23585653 -0.091927804 0.31823787 0.24943931 -0.28030613 0.1340709 0.030822728 -0.04892793 0.12621367 -0.0074044955 0.1345151 -0.252969 0.08748076 -0.066591546 0.20352748 -0.045066696 -0.060965482 -0.34346372 -0.27790025 -0.15449096 0.014066168 -0.02911298 -0.265588 -0.056168593 -0.034225233 0.26240313 -0.08913381 0.18639988 0.21693203 0.029173842 -0.19314012 0.17194645 0.44802263 0.17248313 -0.09800205 0.016087465 -0.34804368 -0.018708427
http://www.semanticweb.org/inm363/AwA2#hasBodyType 0.12341888 0.07543456 0.10806351 -0.3918362 0.04150074 0.22481017 -0.039619476 -0.29001674 -0.14127819 0.15567201 -0.06409963 -0.16271655 -0.004859564 0.110220484 -0.20745982 -0.037351377 -0.06661195 0.078127 -0.055692695 0.14566341 0.13464399 -0.02520025 0.18602559 -0.15825263 0.030086152 -0.3779408 0.19634469 -0.069466725 0.35918635 -0.0075211376 -0.024994582 -0.0033422206 0.030801442 0.26797837 -0.055598807 -0.1983783 0.20041461 -0.081110515 -0.029651958 -0.15033461 -0.40606898 0.2236915 0.13448352 0.06789723 0.21443628 0.036374226 0.13704209 -0.3200033 -0.012256975 -0.0009110632 -0.16736111 -0.107592314 0.03225227 -0.12276841 0.35285777 0.010474811 -0.04750003 -0.020674832 0.027812956 -0.18711022 0.053361677 -0.00032758326 0.20836392 0.0529989 0.3200129 0.02495288 0.18129432 -0.08268247 0.16600707 0.029081756 -0.11908695 -0.06882002 -0.16262776 0.2491133 -0.19214335 0.21281333 -0.15346935 0.29969862 0.0017117033 -0.10033123 -0.046426326 -0.07022803 0.22568192 0.18486251 -0.20451237 -0.083660506 0.0738446 0.30822554 -0.22128047 0.094521604 -0.034841813 -0.059735943 -0.22636783 -0.032574896 -0.24402453 -0.2801192 -0.29741552 -0.15410614 -0.2984034 -0.038645517 0.000103716084 0.07141973 -0.27136514 0.32325476 -0.33180028 0.035801817 -0.057826404 -0.02049726 -0.30710912 0.13437928 -0.16366917 -0.070964426 -0.4499088 0.15343569 0.00019055424 -0.2817867 0.21834022 -0.29402253 -0.0102384705 0.01622232 0.15115717 0.24900413 0.059096787 0.11283465 -0.013681428 0.028194612 -0.2361163 -0.18310656 -0.038807236 0.15780868 -0.11123729 -0.02275198 -0.050848536 0.11612528 0.15046054 -0.033163484 0.12065694 -0.06547118 0.44669056 0.2086788 -0.321149 -0.30136997 0.27138776 -0.28144184 -0.042805657 0.09290961 -0.176294 0.008803962 -0.11078221 0.054300565 -0.042819664 -0.31190783 -0.11812658 -0.020159379 0.034846533 0.26769477 0.058449503 0.08073535 0.01363861 0.13463068 0.10119962 -0.09535994 -0.0022632587 -0.12425997 -0.1602859 -0.2118501 -0.077556066 0.047279015 0.16697693 -0.049051095 0.14742036 0.4280932 0.014307475 -0.1251196 -0.18395877 0.22153623 -0.029278278 0.1509522 0.324034 0.19575436 -0.12678185 0.20272322 -0.14573012 0.15208556 -0.06328776 -0.16471489 -0.11619495 0.03544154 -0.22214346 -0.06707369 -0.1976251 0.13921456 0.096324354 0.26970392 -0.2618816 -0.13867044 0.044306803 0.12698305 -0.047844563 0.3011338 -0.124044135 0.12266947 -0.01365885 0.050179105 0.10914385 0.21966933 -0.4096701 -0.059231125 0.10970416 0.09214662 0.07852531 -0.093387455 0.046350315 0.044209816 -0.20300646 -0.1353971 0.07617348 -0.23701614 0.019441253 0.029665442 -0.38966194 -0.21248434 0.45010573 0.30511028 0.029217903 -0.0861567 0.34715036 0.21887395 0.3271926 -0.079674534 -0.22639836 0.17975532 -0.13592005 0.1982396 -0.08227683 0.20489646 -0.38478628 0.026155472 0.24745114 0.07431715 -0.060857564 0.14223364 -0.39885536 -0.011006234 -0.045967188 0.15269546 -0.26915652 0.27663758 0.033975888 -0.031701732 0.32056782 0.21686386 -0.14771476 0.017450206 -0.024217647 -0.10980204 -0.16833696 -0.17106636 0.0033125996 -0.26698312 0.19718193 0.08081563 0.15216635 0.16140716 -0.12039572 0.050357908 0.1921356 -0.019596891 -0.024260936 -0.15035638 -0.15575993 0.014191389 0.12482424 0.056114223 0.22441764 0.06435768 -0.051189862 0.136109 0.14595947 0.09047852 0.11783904 -0.20238756 0.17469068 0.23868209 0.2178261 -0.25368956 -0.11645085 0.023416212 0.038237743 0.34100026 0.051608507 -0.05270641 0.1451255 0.031922128 -0.20157014 0.5197115 0.13410011 0.47952324 -0.12356675 -0.039886706 -0.07969627 0.40175706 0.22298783 -0.106494755 -0.22253019 0.28161803 0.073856905 0.20364083 0.12650418 0.41664007 -0.06620678 0.27244303 -0.11396745 -0.002609978 0.026261259 -0.14692311 -0.30632544 -0.056410946 -0.09027202 0.10487506 -0.02941745 0.29299542 -0.0417204 -0.33681145 -0.32392335 -0.28462842 0.17239574 -0.22670642 0.3528955 0.1245956 -0.03224352 -0.32312045 -0.094829634 0.27054793 0.03693685 0.2112583 0.06894998 -0.11026474 -0.05463644 0.18294254 -0.24680871 -0.24210337 -0.06695512 -0.008169608 -0.03943157 -0.10206154 -0.10807153 0.04657516 0.5972842 -0.25718835 0.28432938 0.17243002 0.16426936 0.3645701 -0.30186504 0.0038824833 0.0882963 -0.09835414 0.38968244 0.31068915 0.07494733 0.26811272 0.11088683 0.14013976 0.14949647 -0.18574917 0.23121175 -0.0054074745 -0.49674138 0.123711936 -0.04679959 -0.36802113 -0.05886553 -0.31537625 0.10533284 -0.17555055 -0.081099786 -0.16027737 0.055533197 -0.27287805 0.027462384 0.093807966 0.41780686 -0.23441377 0.13767943 -0.17454419 -0.023286123 -0.22728159 0.12961005 -0.19038486 -0.33914524 0.041955713 0.1868823 0.20358752 -0.06361204 -0.32555535 -0.06429945 -0.10662075 -0.20612943 -0.06599642 -0.2887993 0.048940703 -0.15946756 -0.1932034 -0.25557947 -0.10942049 0.13284785 -0.32841587 -0.027781012 -0.23908311 0.05420131 -0.18433477 0.16089049 0.37009367 0.11183149 -0.042572815 0.30917817 -0.32858604 -0.11710446 0.35582146 -0.020414669 0.12848634 0.13389279 0.21928643 -3.2988777e-05 -0.1171066 0.3950908 0.27672568 -0.010814735 -0.33892626 -0.1384312 -0.24267568 0.031835176 -0.32198143 -0.05097147 0.4227521 0.045901638 -0.24959366 0.1054747 -0.23160358 0.093173936 -0.21896556 0.16320218 0.053133424 -0.075326815 -0.3661318 -0.26372045 0.19401576 0.0726583 0.1642352 -0.24708715 -0.15782534 0.06653105 -0.19939485 -0.32672188 0.087267384 0.20998539 -0.19923165 -0.21809204 -0.1336965 0.1962384 -0.25860175 -0.23202258 -0.18564215 -0.18913999 -0.03378053 0.2349014 -0.11651868 -0.13759036 -0.2327253 0.023813093 0.15972017 -0.012706082 -0.1351024 0.11190883 -0.06541758 -0.2589421 -0.25041422 -0.4062611 0.022953993 -0.301895 -0.21340974 0.08894743 -0.25471726 -0.024009174 0.025195168 0.21048887 0.13702674 0.002490114 0.28751743 -0.029580202 0.33396742 -0.2555283 -0.09792861 -0.32468906 0.03337486 0.12808502 0.27941027 -0.108207114 -0.0972134 -0.053117283 0.039503027 -0.18558013 0.41345176 0.05828366 0.07545164 0.006721454 0.08709811 -0.029267533 0.17533262 0.26108655 -0.12598728 0.26535034 0.018095866 0.3145601 0.12789226 -0.13640517 0.23048326 -0.34242886 -0.021811487 -0.43018642 0.28098336 -0.35952118 -0.08554773 0.12499374 0.2696503 -0.026629448 0.14780442 -0.27524418 0.17140874 -0.08421771 0.13844994 0.28973842 0.018920545 0.3248815 -0.010272214 -0.19973756 -0.12962323 -0.2760889 -0.252009 -0.08065624 -0.28145868 -0.3875955 -0.33416545 0.11440494 0.07827498 -0.06553488 0.3622641 -0.10458948 -0.14167586 -0.26350176 0.43285635 -0.30201617 -0.08993721 0.08102391 0.18245678 -0.029276468 -0.07185531 -0.18779385 -0.1562293 0.17540205 -0.097069144 0.54418993 -0.22581744 -0.038057555 -0.10015729 -0.15087509 -0.31792516 0.26664615 -0.027428659 -0.3820686 -0.010367969 -0.055554338 -0.057867084 -0.1604986 0.05784258 -0.21104658 -0.0815065 0.40607637 0.10784272 0.31999215 -0.10435909 -0.12372987 -0.13788655 0.014926977 -0.11978595 -0.08005768 0.20839491 -0.030334346 0.063553214 -0.20982856 0.087870486 0.2410568 0.140781 0.1358886 -0.029864447 -0.08757155 0.20149513 0.16311997 0.01169493 0.10204658 0.48006818 0.16624187 0.2507879 0.24727179 0.111191854 -0.038514525 0.14162403 0.052322652 0.07737895 0.21187273 -0.16351844 -0.228989 0.013757106 -0.21735466 0.09509732 -0.012790002 -0.06687086 0.22087793 0.037902202 -0.11541938 0.4657573 -0.19337429 0.011068233 0.11126977 0.21607026 0.14265615 0.11702593 -0.24462882 0.027759977 0.22698423 0.30266076 0.39503086 -0.036100846 -0.1639718 -0.10401457 -0.00404549 -0.036127564 0.3233587 -0.19549672 -0.24096285 -0.15077999 0.083938435 -0.022567019 0.0013081328 0.13822319 0.14542678 -0.08881167 0.120149694 -0.3175688 0.21639293 0.008232318 0.12905236 0.0042059296 -0.092064284 0.39261058 0.10514329 -0.1766787 -0.30859125 -0.10429044 0.15585107 0.067953825 -0.02697469 0.19391908 -0.22407249 -0.15782681 -0.249693 -0.072387815 -0.12451125 -0.028381674 0.28849933 -0.15902822 0.14896308 0.29907405 0.042325318 0.16896519 0.13417739 0.28579235 0.22753194 0.11837566
habitat 0.059487205 0.14031535 0.0037836644 0.07320833 -0.3237977 0.06786928 0.105528384 -0.102623306 -0.178692 -0.033397023 0.23853256 0.04388135 0.1854056 -0.21530901 0.014683939 0.25456133 -0.1999311 -0.15050203 0.16336732 0.07129386 -0.19307224 0.24598381 -0.13601217 -0.1309521 0.15265131 -0.112442315 0.2739233 0.14058359 0.0028058756 0.26794708 0.16949384 -0.06441493 -0.057096947 -0.08379836 0.12319773 0.23053376 -0.034900524 0.21248327 -0.082401946 -0.07331003 0.025075875 0.29736575 -0.13467452 0.11213659 0.074942246 -0.17522036 0.10009869 0.19446902 -0.06680181 0.24473949 -0.107450165 -0.16425009 0.24795695 -0.027128177 -0.19797562 -0.11009285 -0.1380182 0.19168676 -0.03909159 -0.38429788 0.09517612 -0.01597395 -0.1477814 0.050801553 0.14196774 -0.33285448 -0.071418814 -0.06464601 0.015159841 0.09850208 0.19352351 -0.036100373 0.035183646 0.04727716 0.26136315 -0.03448889 -0.14116918 -0.23883264 -0.24837904 -0.02539065 0.029931068 0.18928733 -0.10190519 0.19605918 0.25535142 -0.07377819 0.2158195 0.12967007 0.2866296 0.115829974 -0.043752175 -0.121418685 -0.2839655 0.11838286 0.06532554 0.12536354 -0.07295735 0.20796335 -0.1799126 0.16693649 -0.017326096 -0.042364515 0.23103741 0.18168464 -0.03930244 -0.237161 -0.06301565 0.11092511 -0.23142946 -0.082910545 -0.08016988 -0.11409878 -0.22290735 0.26631162 0.114487804 0.22397777 -0.1459419 0.14235483 0.02608042 -0.09847082 -0.09624337 0.040410336 -0.1008206 -0.20243149 0.22822446 -0.17196093 -0.207606 -0.27710348 0.15080447 -0.20776989 -0.2973048 -0.21492966 -0.037555363 -0.22356668 0.06961133 0.20223373 -0.21435547 -0.093309626 -0.16645557 0.0063989945 0.14368732 -0.056981914 0.28020573 -0.16855898 0.0090119 -0.10051193 -0.18937871 -0.21403109 -0.11439136 0.19700897 -0.24155709 0.12227305 0.2724455 0.43515864 0.17531067 0.18814392 0.15235938 -0.060014226 0.36266834 0.27138302 0.1738428 0.2601141 0.074204005 -0.12987879 -0.15121785 0.34986946 0.12479427 0.12075908 0.23185383 0.1568133 -0.07992199 0.26409864 -0.1135677 0.124009766 0.2685648 0.03776448 -0.05123817 -0.4750421 0.14763528 0.04223872 0.063996226 -0.20315765 0.3552835 -0.3984576 0.19804549 -0.27232274 0.22422883 -0.0035268932 0.2646483 -0.09020464 0.081013784 0.06621117 0.021621993 0.18467376 0.06257949 -0.096998945 -0.009230849 -0.13705185 0.14365865 0.17982002 0.23986076 0.16610122 -0.01674262 -0.104259096 -0.29080394 0.031710006 0.024891023 -0.3254325 0.15421884 0.013015641 -0.18542172 -0.10114261 -0.43062025 -0.08668862 0.2054292 -0.19808744 0.4678807 0.3249401 -0.017409999 -0.19831556 0.09592753 0.12243314 -0.008472595 0.14169165 0.13117933 0.041610837 0.25027755 0.1662422 -0.15037829 -0.1213168 -0.29375833 -0.016117617 -0.023670468 -0.20524934 0.3633723 0.15361814 -0.19039164 0.072774336 -0.28540847 -0.10061508 -0.053589907 0.20576456 -0.14490244 0.25305077 0.15652318 -0.020659413 0.12576158 0.12742801 0.25660872 0.16380481 -0.0981083 -0.001276281 -0.15053356 -0.23363215 -0.26590106 0.4551008 -0.028615687 -0.065998435 0.05938627 0.16802505 -0.002023622 -0.25372717 0.2382486 -0.2784651 0.023582442 0.23467591 0.109887466 -0.14692117 0.17143351 0.07423607 -0.041619338 0.39038157 0.1926399 0.087310985 0.086121604 0.31179732 -0.10821438 -0.33158743 0.37339273 -0.2520762 0.21465771 0.045812164 0.029546715 0.39239424 -0.013056102 -0.19097178 0.26735368 -0.19590633 0.2428522 0.42243892 0.14442596 -0.054216765 0.072323725 0.25509128 -0.37684074 0.2247555 -0.13691182 0.16920522 -0.32033017 0.24710348 0.30095428 0.46649134 -0.12700216 -0.17517099 -0.14603873 0.19471283 0.1806207 -0.001958807 0.26341915 0.27218363 -0.2840327 -0.15577194 0.19641846 0.18261577 0.03202197 -0.17215201 0.2507922 -0.2423232 -0.015535239 0.21986334 0.008360845 0.18330158 -0.11530195 -0.035720535 0.118406445 0.093928985 -0.07933259 -0.2302257 0.06989467 0.33472085 -0.081132 -0.040746853 0.17852478 0.12582453 -0.0601829 -0.117504664 -0.30963358 -0.26298547 0.35074845 0.23664519 -0.032095607 0.13686791 -0.21661241 -0.113480516 -0.192784 0.08616027 -0.05151296 -0.12765953 0.21026245 -0.23459104 -0.094956666 0.10407084 0.0482483 -0.13391341 -0.03405971 0.13026197 -0.052302994 -0.17228222 -0.16151164 -0.16145015 0.19364831 0.15794125 -0.05293809 0.120755106 -0.008047847 -0.010857707 -0.27313638 0.15690732 -0.20419884 0.11712003 0.07679511 0.051297307 0.15182655 -0.2413648 0.06372153 0.029249078 0.027807668 -0.10039196 -0.33283058 -0.42965418 0.03511112 0.18887238 0.121729426 0.2782206 -0.022907266 -0.22030006 -0.062134005 -0.2576756 0.09760583 -0.31608582 -0.32440418 -0.31358996 0.055010635 -0.27654624 0.17155999 0.38102853 0.09377871 -0.14808501 -0.19630326 -0.23358497 -0.17317052 -0.18261796 -0.24450605 0.070892304 -0.001915466 -0.065513104 -0.00031864506 0.005376667 0.15917343 0.268819 -0.031069981 0.03018173 0.21599005 0.2990627 0.28105992 -0.09106559 0.08485147 0.098455645 -0.24763367 -0.28522032 0.0072391867 0.116456434 0.16208027 0.002488313 -0.18361832 0.14498162 0.19028042 0.28224257 0.046809267 -0.15823458 0.23079933 0.031651072 -0.06344531 0.012970639 -0.20824927 0.22891247 0.2665654 -0.40882987 -0.24599582 0.26923975 0.25623187 0.21949078 0.09397924 0.06297899 0.027695894 0.10547847 0.08960394 0.12385542 -0.12149164 -0.061038386 -0.06349557 -0.25192666 0.12197483 -0.21867022 -0.38007355 -0.11798707 -0.44200513 -0.02937021 -0.26617563 -0.43523714 0.024931632 -0.013069905 -0.08172489 -0.12665384 -0.28586632 0.09522757 0.27897236 -0.20491941 0.36296475 -0.019741505 0.27724928 0.043809213 -0.105017334 0.08988729 0.11187121 -0.21660163 -0.18120563 0.17569591 -0.5287767 0.23940241 -0.39906186 0.031377215 -0.07127994 -0.025536045 -0.25393406 0.013925905 -0.0055360706 0.32530847 0.03301289 0.03227322 0.0766945 0.20494047 -0.2031459 -0.13066888 0.28060177 -0.21047239 -0.012652958 0.14950588 -0.06820901 -0.3132284 0.18878412 0.22054845 0.041176114 -0.018120823 -0.24261397 0.22182699 -0.2733497 -0.08813379 -0.09091464 0.33241293 -0.14173895 0.10278616 0.36471504 -0.027622726 0.13664053 -0.11827452 -0.1003485 0.009872401 0.22880222 -0.21024571 0.13863835 0.06300758 0.1538677 0.23490575 -0.23570225 0.32333535 0.328381 0.07140781 0.07824793 0.2206299 0.16124974 0.2729929 0.068389736 -0.32619014 -0.04311738 -0.22502708 0.008727863 -0.09419208 0.22183795 0.114513196 0.06925325 -0.14408417 -0.32128888 0.09678241 -0.020431334 0.14918181 0.1376371 -0.23910736 -0.26219034 -0.28215587 -0.08452909 -0.08711339 -0.24816158 0.13156998 -0.16524479 -0.024843354 -0.24631467 0.09940432 -0.07098788 -0.11428275 0.17926103 0.19389404 0.13324508 -0.11245551 0.11964219 -0.3279352 0.13829777 -0.5176319 -0.13353619 0.12849683 0.19797215 -0.100545205 -0.18914896 -0.068810046 0.011101819 0.25123027 -0.026015809 0.29500532 0.1234029 0.025977336 0.19136159 0.16860045 -0.013541363 -0.27952 0.15734577 0.011969789 0.26061207 0.002682587 0.28645286 0.17995852 0.12832025 -0.21780542 0.438293 -0.2610834 -0.06668154 -0.4514356 -0.055891532 0.19685961 -0.12224061 0.067631386 -0.04762312 0.07221783 -0.38805696 -0.2406498 -0.061074626 0.0637834 -0.06648741 -0.21589132 0.013919238 -0.019804804 0.11768884 -0.27649418 -0.16017698 0.15136276 0.11772364 0.12916751 0.25242007 -0.15844591 0.101368785 -0.27638212 0.014382403 -0.15862055 -0.28718826 0.1509418 -0.07322991 0.23607093 0.23696746 -0.17382185 -0.046851575 -0.22598998 -0.15500621 0.32562688 0.1085416 -0.05272832 0.12023077 0.1913629 -0.0066393744 -0.037941583 0.15018538 -0.06279994 -0.22213209 -0.37639785 0.09837943 -0.063276924 0.3738483 0.17939647 -0.33154538 -0.35849264 0.30670393 0.19432877 0.31186897 -0.31296098 0.14266033 -0.14131041 0.09034111 0.32786897 0.34607303 0.13643143 0.08186941 -0.40299496 0.08444187 0.0043354556 -0.29445896 0.3817413 -0.041832116 0.008878855 0.0700633 -0.24696085 -0.14161515 -0.032856196 0.25797215 0.30480704 0.0802753 -0.070975564 0.32837993 0.21024574 0.008437499 -0.0010575302 -0.11916727 0.19409339
movement 0.18540026 0.057654526 -0.19238585 0.017095437 0.20027772 0.37516925 0.28352758 0.09570009 -0.025107678 0.17114022 0.14698851 -0.21151495 -0.12986134 -0.10024179 -0.025605021 -0.17076172 -0.26359627 0.09929792 0.0040749945 0.05420919 0.2717148 -0.15718071 0.0022983153 -0.22189036 0.24884318 0.037792467 -0.11124822 -0.12134542 0.04503464 0.1851744 -0.2517688 0.11062642 -0.13441344 0.16734855 -0.18907182 0.01361613 -0.0821578 0.1727303 -0.3245327 -0.3121266 0.015219343 0.29631197 0.27084976 0.030234238 0.12956429 0.095755465 0.086607374 0.1778788 -0.16799349 0.06266965 0.07448835 -0.23859857 0.1507944 0.14654408 0.049032215 0.13225788 -0.18427067 -0.10378324 0.052923854 -0.078614324 0.37273774 0.22339396 0.17941198 0.29020274 -0.007945997 -0.33523667 0.28244165 0.020077875 0.08885834 -0.16491143 -0.15325905 -0.09834066 -0.06264472 -0.29552343 -0.03840605 -0.16407816 0.04235544 -0.24416287 -0.013956875 -0.04574837 -0.065958135 0.29599 -0.06292194 -0.2019657 -0.030968081 0.12742054 -0.03631223 -0.057123687 -0.22147329 0.13173862 -0.05349563 -0.12631977 -0.33402 0.01376165 -0.24250954 -0.07302939 0.041064583 0.06828958 -0.12580925 0.08736956 -0.18064453 0.31594288 0.15998779 -0.23651862 -0.39914995 -0.012172771 0.14739016 0.11827594 -0.028333493 0.26233643 -0.26151 -0.30998018 0.20385742 0.029012421 0.01258211 0.053377643 0.37670666 -0.16167374 0.19253384 -0.017032292 -0.31470168 0.15972082 -0.106029645 0.049724516 -0.05224911 -0.30847573 -0.039771467 -0.21777494 0.08000308 -0.071325116 -0.022713719 0.059245333 -0.2113658 0.03611647 -0.071607254 -0.21775709 0.3906985 0.1117927 -0.13090217 0.28543538 0.1568838 0.18676761 -0.1950825 -0.09600542 -0.1278381 -0.07375394 -0.18311839 -0.10511673 -0.14914672 -0.062519714 0.0912571 0.022887712 -0.042611934 0.071020685 0.101253666 -0.22306111 -0.18113148 0.09235953 0.2671977 -9.160218e-05 0.10147703 0.10890624 -0.08167859 0.0063545504 -0.040212397 -0.1672242 0.059020393 0.17237023 -0.15254034 0.006113764 0.042135358 0.36851096 0.035726972 0.08737182 0.21897931 0.16840354 -0.14590172 0.060031258 0.16193953 0.18110093 -0.18731704 0.07101988 0.14090854 -0.2868854 -0.031609785 0.19100028 -0.09366256 -0.061354417 0.049178224 -0.03166446 -0.16505821 -0.086198084 -0.21291867 -0.01322254 0.038330786 -0.31470093 0.03031684 0.07078237 0.26042762 0.022875974 0.11279239 -0.26682496 -0.4122414 -0.037214175 0.019379936 -0.07031747 -0.36990267 -0.3852551 0.014501093 -0.37855372 0.324346 0.0020048837 -0.4557329 -0.31636432 -0.12896354 -0.16633742 0.2632973 0.19463876 0.22052044 -0.015527168 0.29972267 0.022255143 -0.032219242 0.15782313 -0.004761119 0.039680623 0.037964396 0.28015262 0.057609733 -0.26051512 -0.2898055 -0.10503461 2.5290386e-05 0.09349676 0.50286806 0.3651954 -0.17554533 -0.027559906 0.14936012 0.06609959 0.051025532 0.17169186 -0.13715157 0.4673723 -0.13757442 0.05262283 -0.23166144 0.3000444 0.16519816 -0.033390343 -0.036433313 0.16928229 0.12655996 0.075371586 -0.083660275 -0.097218364 0.1849777 -0.25849694 -0.07292062 -0.35187787 0.091549814 0.11551828 0.25634986 0.034104016 -0.063483074 -0.0937737 -0.15674157 0.060638595 0.20421872 0.30670086 0.28684822 0.19458683 -0.049008284 -0.08559144 -0.24259345 0.34640357 0.060039278 0.031722657 0.02287948 0.14653349 -0.002419807 0.053543657 0.013139227 0.18377598 0.15648448 -0.20236516 0.15421839 -0.23191224 0.0009142155 0.110492855 0.017448248 -0.2321728 -0.0027009451 -0.032805905 -0.086083815 0.1284716 -0.0007474267 0.075678185 -0.035072844 0.31053013 -0.13217509 0.2023685 0.026623664 -0.086725935 0.123169646 0.24519692 -0.2144774 -0.0005615536 0.36277974 0.28477067 0.2529439 -0.1522529 0.10535412 0.018156696 -0.34934747 -0.14273925 -0.096705936 -0.12908524 0.10824723 0.04033404 0.028597936 0.08863177 0.26068386 -0.13570006 -0.14724436 -0.38671562 -0.08644949 -0.22415395 0.41009778 -0.08652759 0.07734946 -0.18401492 0.4012816 -0.103559926 0.19145231 0.25450283 0.10511601 -0.18692566 -0.039149687 0.32334423 0.12708636 0.066702805 -0.027782064 -0.039140977 -0.15959466 -0.07536872 -0.2622787 -0.06906996 0.030577745 -0.08818314 0.2218794 0.07030215 -0.067250386 0.26361632 -0.1862375 -0.07222113 0.30315542 -0.35165402 -0.16095865 -0.048192956 0.1657969 -0.14079835 0.0026342748 0.15357982 -0.36236525 -0.12244572 -0.22470534 -0.0027302133 -0.22843608 -0.17750904 -0.22192603 -0.057271626 -0.19680956 -0.30192167 0.2676572 -0.09730271 0.30642855 0.34582347 0.031013282 -0.1979366 -0.013111719 0.1494699 -0.117817275 0.02668213 0.2579853 0.10366431 0.051177803 0.07349241 -0.028609926 0.11499553 -0.1594364 0.1717778 0.03294718 -0.5274376 0.09838271 -0.026161293 -0.14119084 0.09051957 -0.27016932 0.1182789 -0.045239404 -0.37042704 0.013835615 0.038443778 0.08679231 0.07642775 0.035015576 -0.17561951 -0.011440895 0.15273729 0.13490674 0.00027290598 0.15944387 -0.0854373 0.35336494 -0.24175876 -0.06788702 -0.0011940161 9.321917e-05 -0.26893154 -0.08502989 0.08018789 -0.13479686 -0.04301431 0.025714291 -0.29385203 0.26954544 0.08312583 -0.073266715 -0.22022039 -0.047229964 -0.048882924 0.09515875 -0.029899202 -0.21145332 0.051763296 0.30480975 -0.24852593 0.110205516 0.0694524 0.3019172 0.19399624 0.27112928 0.0024287503 0.23622027 0.20694152 0.0048958617 -0.12157138 0.004416173 0.27186668 -0.27146244 0.04105803 0.12829965 -0.10579398 -0.39275423 -0.04150483 -0.054021273 0.38289565 0.1568619 -0.36544153 -0.09858301 -0.16525088 0.16662413 -0.12442911 0.3530271 0.15581615 0.032842353 -0.1883013 -0.00365657 0.05698098 0.053060833 0.12566935 0.19842699 -0.21288842 -0.079275504 -0.0115977675 -0.02210061 -0.027247408 -0.42835194 0.07047783 0.07179446 0.3544124 -0.39074627 0.0639576 -0.0665465 -0.06904068 -0.20157921 0.17502086 -0.21157488 -0.052153535 0.3812259 0.3032042 -0.09397687 0.17390421 0.44882095 0.15638052 -0.12684354 -0.22280623 -0.11798062 -0.006033113 0.10907456 0.27976555 0.32604367 0.26069665 0.20414954 0.10996308 -0.051066604 0.2190923 -0.32113683 0.052742187 0.09801825 -0.008983777 0.08713216 -0.15495618 0.18916863 0.12805848 0.19005924 0.34572512 0.33979437 -0.003069463 -0.08323195 0.01111707 0.16589221 0.14063418 -0.18801707 -0.026670318 -0.032473497 0.1341234 0.039207034 0.104746155 -0.013679272 -0.04546098 0.036834117 -0.08287758 -0.068539485 -0.21763445 0.017510513 -0.22038575 0.13395114 0.0033423943 0.04122652 -0.13162017 -0.20345221 0.15176798 0.05512255 0.112222485 -0.24990034 -0.021448288 -0.024991307 -0.35776976 0.22117916 0.4127497 0.37450427 0.09782738 -0.21776702 0.1047578 -0.12709263 -0.09657257 -0.14119366 -0.049407326 0.31409422 0.074089564 0.20180036 0.019106286 0.16658849 0.12765597 -0.009802356 -0.23893908 0.14668366 -0.11174373 -0.10926854 0.104711756 0.083321095 -0.19542643 -0.050486833 0.27226958 0.042630374 -0.13103561 0.2304553 0.07465987 0.12206478 -0.23447788 0.07392738 0.16734253 0.3342662 0.23918419 0.16187912 -0.010286264 -0.24452925 0.04359999 -0.19027199 -0.21767984 0.06052328 -0.23106334 -0.12983474 -0.0124421455 -0.09643074 0.06809779 0.09698603 -0.06701767 0.1063155 0.19311467 -0.095196754 -0.2888592 -0.04006295 0.032018937 -0.05991877 0.06267729 0.02773444 0.32310104 0.041158743 -0.06314494 -0.38425285 -0.1984022 0.011837054 -0.2677011 0.27712917 -0.05745314 -0.3581695 -0.22715782 0.24424812 -0.020340322 -0.14786717 -0.030646197 0.1144101 0.0055599827 -0.06499502 0.13525958 0.047564585 -0.19973342 -0.32342458 0.04793176 0.030541863 -0.06989801 0.16787751 0.09240986 0.33945072 -0.120070584 0.14601535 -0.30196923 -0.03939415 0.14428703 0.22052634 0.23891616 -0.018198058 -0.05480491 -0.36105514 -0.102260366 0.19373517 0.043257292 -0.054213498 0.24638441 -0.15819187 0.031871106 -0.18071231 0.2869051 0.035411064 0.020118937 -0.07798891 -0.35555238 -0.052641686 0.06716771 -0.029892683 0.06554161 -0.082509786 -0.09049436 -0.06447941 0.02381804 0.028146265 -0.24204609 0.21859622 0.08869998 -0.045145664 0.07790345 0.15463938 0.011865337 -0.03626207 0.14834063 -0.05646037 0.3291041
http://www.semanticweb.org/inm363/AwA2#hasColour 0.42057157 0.33078095 0.122255266 0.04805049 0.17474106 -0.0690169 0.21604054 0.064697936 0.038093746 -0.24925756 0.34104812 -0.10476422 -0.37616014 0.10590305 -0.22448066 -0.2839832 0.042251315 0.067460395 -0.047949895 0.2152839 0.10530214 -0.27054334 0.3322622 -0.03392988 -0.271871 -0.0741814 -0.11930964 -0.04199106 0.13404767 0.351484 0.13553941 -0.25749758 -0.14954674 0.3748801 0.02777858 -0.2947464 0.09149439 -0.34326378 -0.0811848 0.20089693 -0.35955158 0.33295533 -0.14636368 -0.05870807 -0.12826982 0.07668532 0.04751289 0.09957295 -0.28615996 0.038026217 0.22575018 -0.013231689 0.09423779 0.057850283 0.011973685 0.20898518 -0.18236092 -0.08424924 0.2871452 -0.18072367 -0.14058009 -0.20236193 -0.261889 0.3894629 0.14142086 -0.058563378 0.013399174 -0.33736438 0.108016916 -0.057403192 0.23789947 0.0018464689 -0.045665987 0.053683594 -0.013372536 0.13680461 -0.33026627 0.14714983 0.22636399 -0.1712797 -0.07920124 -0.11454113 -0.29966104 0.078175925 -0.27752566 -0.04587709 -0.29391202 0.20967646 0.025906974 0.23599258 -0.4319564 -0.015970385 0.113238856 0.2415767 -0.029407332 0.0030971053 0.09861753 -0.010225222 -0.3430719 -0.34797913 -0.21077749 -0.35181478 0.08303448 0.009382319 0.06579895 -0.18766092 0.024039939 0.009649988 -0.056456264 -0.003683803 0.049802434 -0.37423232 -0.30654174 0.24021178 -0.0284601 0.25263652 -0.0597019 -0.24059235 -0.098386765 0.11730342 0.14833397 -0.09033118 -0.041116964 -0.2896466 -0.10317955 0.06883948 -0.35417026 -0.02150743 -0.110071056 0.26073584 0.13138042 0.2254182 0.170291 0.1308045 -0.038214836 -0.31197935 0.08753963 -0.13242707 0.21000572 0.19915861 0.13045175 0.18354726 0.2707908 -0.25134513 -0.04369678 0.09129914 -0.084894955 0.17194642 -0.06502885 0.20602287 -0.118617065 -0.2873847 -0.016153898 0.01760486 0.0606137 0.3753752 0.12537526 0.28984365 0.042363796 0.25824413 -0.16504805 -0.20101047 0.023860315 -0.3129542 -0.0060340026 0.26074502 -0.25251567 -0.16471258 0.17067501 0.056026544 -0.37272725 0.14699878 0.29518577 -0.1677756 -0.2964993 -0.18200473 -0.03328679 0.13123955 0.236667 0.07126186 -0.2713239 0.04839446 0.14380665 0.0993761 0.16159214 0.14596586 -0.12718491 -0.19534157 -0.06446437 -0.15319236 0.039033156 0.083013356 0.21199721 -0.117039576 -0.18993436 -0.23797892 0.19236842 0.09057861 0.17695862 0.068876624 0.26249105 0.36974567 -0.03631133 -0.09967802 0.1798785 0.07687554 -0.033382244 -0.18391639 -0.16956212 -0.24183705 0.32943285 -0.12266184 -0.04635061 -0.30697563 -0.12075357 0.086937256 0.1949721 -0.088578075 0.118421614 -0.25198728 0.10869819 -0.19019538 0.20229945 0.2775896 0.291405 0.03223581 0.27931476 0.13888419 -0.06379074 -0.05918613 -0.081379205 0.07600317 -0.09597279 -0.17332262 0.13857071 0.18085471 -0.31285852 -0.032973178 0.18734339 -0.18676645 0.1574221 0.08290092 -0.38174805 0.19510108 -0.34437704 0.20192568 -0.34380084 -0.09851575 -0.09723818 0.1268033 0.40096664 -0.11483634 -0.09466728 -0.09270052 -0.026256686 -0.15666546 -0.22206056 0.24033801 -0.16893055 -0.16023612 0.079325944 -0.013469004 -0.016361687 -0.20763412 0.15916964 0.07077126 0.041780185 -0.06610199 0.12082469 0.08839208 -0.1516373 -0.032684553 -0.116216645 -0.23792276 -0.07056372 0.006512217 0.01392854 -0.08856892 -0.26148158 0.03473196 0.09368627 -0.18749964 0.010885173 0.33125424 0.39834046 -0.042538688 -0.06950045 -0.19655812 0.2053531 0.35215428 0.16232441 -0.3337931 -0.04321127 0.14091176 -0.11055423 0.32110742 0.08938666 0.099621095 0.29409367 -0.29807392 0.0482448 0.1954836 0.10248465 0.13337338 0.11912414 0.1532516 0.19658259 -0.12644559 -0.21372777 0.37694147 -0.28079408 0.1221751 -0.018257082 -0.0075241323 0.1936487 -0.07558491 0.04327285 -0.05806689 0.3338083 -0.13117926 0.17033926 0.0626465 -0.08478832 -0.21587701 -0.25787136 -0.25324476 0.12986088 0.015384606 0.053872738 0.040419754 -0.14706583 0.027196912 -0.052489735 -0.027904652 0.37679705 -0.1083927 0.11550339 -0.37535256 -0.15279791 0.31126478 0.15554236 -0.42962733 -0.009330414 0.019172583 -0.23851958 0.09352634 -0.25673276 0.26458165 0.3279562 0.19999878 0.09551502 0.050322928 0.28552875 -0.01632211 -0.31973132 -0.14606608 -0.047303718 0.1513803 0.17111342 0.10503245 0.2913692 0.2686181 -0.01632049 -0.16909711 -0.19883323 0.098111495 0.060775626 -0.11541193 -0.09033943 0.088897556 -0.12578808 0.025994167 -0.17007084 -0.3703628 0.18095982 -0.0038126174 0.23480466 -0.100238934 -0.2266712 -0.43082693 -0.0058759726 0.06878703 0.14713033 -0.0074410527 0.03717241 -0.13420998 -0.19103418 -0.018081203 0.17873453 -0.086206876 -0.055461075 0.04958679 0.050544903 0.13440536 -0.19285157 -0.32078445 -0.15678163 0.025246326 -0.0998045 0.11898259 0.0075991787 -0.110000044 0.07081308 0.022894766 0.08262631 -0.024615597 -0.19809966 -0.24398121 -0.04748505 -0.30020437 0.2995962 -0.015723161 -0.2653192 0.21058889 0.17906454 -0.2232878 0.36021602 -0.1675177 0.0032693392 0.135047 -0.15141544 0.20736821 0.19859813 0.13271897 -0.16878134 -0.023716372 -0.059595942 -0.29331204 0.02197357 -0.2332868 -0.079079226 0.11083402 -0.01743624 -0.1071295 -0.37451348 0.2695392 0.08139289 -0.35554612 -0.091690294 -0.1689322 -0.068615735 0.0015634312 0.06455374 -0.021791624 -0.35995775 -0.08689925 -0.25398445 -0.10104134 -0.20031084 -0.16875193 -0.26403224 -0.11656023 0.17110296 -0.16495372 -0.27409455 0.19481744 0.15380639 0.12025621 -0.13835265 0.11153665 0.27160695 -0.4008173 0.018514112 -0.08196459 0.07726532 0.041606937 -0.12128439 -0.31366396 0.11288753 0.031286165 0.2744616 -0.16679497 0.14352147 0.041640718 0.14086129 0.10940506 -0.07269117 -0.22707869 -0.3275368 0.23236358 -0.34845573 -0.22013614 0.06011669 -0.057102144 0.11354899 0.28278586 -0.03647742 0.14013307 -0.05289546 0.24461289 0.2471916 0.20635156 -0.2734816 -0.055386297 0.04255341 -0.12886399 0.26618502 0.20947935 0.20327364 -0.14531788 -0.009823112 -0.13888022 0.22705564 0.15074645 -0.00035629733 0.16092208 0.082477406 -0.16378066 0.16270845 0.48332945 0.23711668 -0.22170614 0.3567334 0.059796087 0.25551245 -0.13141577 0.07896879 -0.04517985 -0.2828037 -0.135118 -0.14309236 0.04865697 -0.36785042 0.20300277 -0.012549487 0.3147954 0.21915354 0.2798434 -0.18025838 0.2308274 0.16996093 -0.046702467 -0.06272513 -0.23143575 0.38006386 0.251679 -0.12546286 -0.07959396 -0.42752507 0.18432847 0.021133265 -0.29227713 -0.28052315 -0.11194033 0.22071508 0.060559075 0.1886495 0.20762827 0.23492219 -0.12839799 -0.36467174 0.56768745 -0.006448645 0.11649575 -0.099159315 -0.2886904 0.077531666 0.3312237 -0.078069605 -0.13676064 0.09308179 -0.15742815 0.21016447 -0.05184886 0.13218084 -0.094875135 -0.25669432 -0.23565003 -0.05946871 -0.0473699 -0.20491178 0.067000575 -0.18985453 0.30904335 -0.32088032 0.26900938 -0.27564394 0.08121453 0.13531499 0.036498234 0.42965266 -0.19920313 -0.26831508 0.084615305 0.352314 -0.14421277 -0.19090919 0.31158295 0.010130291 -0.065400474 -0.17191118 0.17602217 0.26038635 -0.034342874 0.21313147 0.09846103 0.25433305 -0.05856683 -0.16352248 -0.180284 -0.11621924 -0.0020606096 -0.14079471 0.04481118 -0.0068390807 0.30155402 0.01258071 0.30573204 -0.3036552 0.02251864 -0.12485268 0.21558297 0.004578382 -0.20721437 -0.23639642 0.10455498 0.36323348 -0.007450533 -0.22692664 0.019826613 0.2788648 0.27983376 0.16794121 -0.034668405 0.022401951 0.08674976 -0.14259632 0.12697226 0.10679715 -0.022844383 0.28493664 0.34874848 0.32820752 0.119449414 -0.07693129 0.052556377 -0.02897692 -0.17895764 0.31623405 -0.24070999 -0.20246355 -0.16337456 0.17519538 -0.058006898 0.09187645 -0.06503518 0.20240168 -0.26388198 -0.0625313 -0.23284625 0.09489268 0.19446488 0.21022391 0.16216365 0.025315784 0.45024863 0.4255235 -0.38204774 -0.12477649 -0.2586918 0.26684618 -0.020385697 -0.01701318 0.2160085 -0.3193237 -0.23175414 -0.1010657 -0.22948651 0.21406864 0.33864003 -0.057276044 0.22391295 0.19962785 -0.06545656 0.15333182 0.048940104 0.06617198 0.04557804 0.05384856 0.36197296
