475 680
type 0.20550641 0.20933062 0.123989545 -0.20184831 0.13254051 -0.05650617 -0.13602297 0.07214393 0.04332245 0.29311413 0.26881418 0.089626044 0.0030278028 -0.041876607 0.4195121 0.30220258 -0.17507714 0.14619127 0.15543205 -0.09065137 0.05476714 0.16340902 0.21695697 -0.049327273 0.058930945 0.04793523 -0.15323733 0.11738743 0.10637001 -0.05660187 0.14287534 -0.08188651 0.07390066 0.19107488 -0.32470056 0.047241442 -0.22737642 -0.03354521 0.11315897 0.07216451 0.027662758 0.09487129 -0.07304667 0.19580156 0.018394655 0.060195513 -0.10602908 -0.032249175 0.17440943 0.2527487 0.042124107 0.111462116 0.19206367 -0.008874613 -0.066940345 -0.15048224 0.29883075 -0.24342872 -0.114520915 -0.16763678 0.12736972 -0.1343554 -0.1718557 0.00553358 0.14468834 -0.024298837 0.16426887 -0.016653892 -0.15634295 -0.16835286 -0.21223174 0.03495375 0.030129183 -0.15853122 -0.04005669 0.16362575 -0.076704726 -0.07278439 -0.16599976 -0.118065044 0.09596338 0.13306434 -0.053723406 -0.18130817 0.12826785 0.026024627 0.1638545 0.12255363 -0.006285562 0.10078964 0.032343812 0.009195017 -0.12353239 -0.17590962 -0.2952919 -0.069316514 0.16690812 0.04013743 -0.30269676 0.20910785 -0.023270626 -0.027534623 0.10599974 -0.29683313 0.16951232 0.03953877 0.07187982 -0.092158064 -0.05648298 -0.056786437 0.08406602 -0.17997706 -0.046856932 0.012185932 -0.09068914 -0.07020325 0.13122416 0.034197625 -0.034452964 -0.2005046 -0.20943505 0.028146712 -0.07397022 0.019552497 0.17402403 -0.19447729 0.18971291 0.0020567032 -0.10470383 -0.1070254 -0.0057718046 -0.18044221 -0.16996549 0.0510545 0.12854248 -0.004404831 0.12917188 -0.0038949987 0.012864869 0.09589441 -0.074268736 -0.12283436 -0.21998745 0.16026707 0.14326642 0.015738238 0.007773101 0.0084322 -0.07976634 -0.0047853747 -0.14995398 0.24817798 -0.038072806 0.019532168 0.15015317 -0.01653204 0.07531919 -0.12765016 0.19169514 0.21628828 0.15900032 0.0021438748 0.10596972 0.010466533 -0.24702236 -0.07613544 0.14947909 0.07808753 0.029631406 -0.034252122 0.09517882 -0.049973052 -0.13490824 -0.14183255 -0.1598874 -0.030485036 0.03389774 -0.065224 -0.09085708 0.09728651 0.04987998 -0.013859378 -0.07371515 -0.08482564 -0.27745095 0.104920045 -0.03039796 0.13065319 -0.07033755 -0.017364874 0.12467678 0.050570615 0.15335993 0.07350896 -0.11375618 0.07873508 0.04351146 0.011520933 0.024662416 0.1905839 -0.014616774 0.09264841 0.09356536 0.04297583 0.023365956 -0.024435231 0.15141715 -0.09971936 0.09720201 0.04965398 -0.08436402 -0.103967786 0.018014168 0.12449761 -0.100705296 -0.1661304 -0.1435692 -0.00017460273 -0.021443453 0.2645625 -0.027519612 -0.04527115 0.20621857 0.022732263 -0.1215474 0.015950806 0.0023578568 0.1559142 0.17778516 0.023337293 -0.0486893 0.17541724 0.18600285 0.06386628 0.13997275 0.20756854 0.15460074 0.07348412 -0.14620492 0.16530257 -0.1255501 -0.009254572 -0.017031344 -0.05771046 0.038371813 0.050654005 0.071876705 0.2061807 -0.06398026 -0.16191155 -0.14456894 -0.004509751 0.019432474 0.025556443 -0.04566296 -0.0060726833 0.022214241 -0.119421944 0.026584513 -0.005450013 0.11086206 -0.057310943 0.11430289 -0.14495564 0.11359378 0.18470336 -0.09708639 -0.02765313 0.06352442 0.12152239 0.11484284 -0.030857725 0.11213357 0.1888702 0.0075293193 0.14654472 -0.15284744 -0.097211294 -0.1432735 -0.11069292 -0.03302524 0.058907907 0.14055467 -0.017942823 0.057376444 -0.10736452 0.040684056 -0.11528168 0.09149631 -0.11633474 0.023321113 0.093329 -0.0036401118 0.16013329 -0.07137888 0.06286468 -0.04609107 -0.22251536 -0.20562562 -0.07629483 -0.14715746 0.08741456 -0.054844104 0.102822386 0.09990743 0.12519187 -0.04894706 -0.13402845 -0.016204013 0.18008167 0.03726381 0.089160934 0.04705847 0.047488026 -0.057379737 0.25934267 -0.0016857538 -0.05611232 -0.15051956 0.11345053 -0.20876321 0.3188415 -0.07503358 -0.16857532 -0.025487812 -0.15265422 -0.1000395 -0.079116695 0.011554748 0.10425867 -0.00759172 0.07594623 0.035659205 -0.1340772 0.00301171 0.008539685 0.026263297 0.021511067 0.11813564 0.16371727 0.010466427 0.050583627 -0.010540324 0.048101977 0.024841586 -0.20612368 -0.21186912 -0.118199006 -0.034142807 -0.078850165 0.026297001 0.09375398 -0.006434284 0.08104723 0.059911065 0.013078946 0.12924017 0.077046454 0.032013696 0.20875783 0.013165324 0.14172167 0.10434234 0.23411597 -0.015536969 0.013353509 -0.026921721 -0.06882314 -0.05287714 0.12341255 0.06285115 -0.038995747 0.029566396 -0.060427826 -0.0022100809 0.12994045 -0.14869349 0.030456012 -0.11973402 -0.016060732 0.026642743 0.0894325 0.05242935 0.108070366 0.016557034 -0.16512884 0.18194093 0.039948095 0.042692848 0.07452235 -0.091343366 0.16364418 -0.04722424 0.06129615 -0.060941197 0.112766474 -0.12824811 -0.12182188 -0.14913253 0.11676595 0.11020487 -0.18302782 0.0638978 -0.2048472 -0.08639019 0.04316604 -0.10833174 0.030834254 0.09879267 0.10971563 0.011467672 -0.03799256 0.033059277 0.004285465 0.04695525 0.042668357 0.12557228 0.12528546 0.038959134 -0.17556502 -0.025702259 0.04223636 -0.060313124 -0.13712148 0.13553727 0.0981155 -0.09408764 0.13947205 0.10065792 0.06679453 0.1175825 -0.09032665 0.05146313 0.022461157 -0.1311638 0.06039992 -0.06568396 -0.21222244 -0.09903473 0.04317561 0.015167058 0.11363793 -0.12631823 0.09636341 0.055208735 0.046153247 0.16372949 -0.16686797 -0.14579384 -0.021075217 0.13422069 -0.14569366 -0.04039777 0.08390774 -0.08976814 -0.012963191 -0.04884668 -0.020654375 -0.03576537 -0.12597775 -0.02566474 -0.10440483 -0.15237482 -0.0787887 0.01591991 -0.07257399 0.15661237 -0.15472959 0.23084265 0.039482217 -0.030356022 -0.08006794 -0.05350898 -0.21825925 -0.118976906 -0.20389052 0.045314364 -0.08937988 -0.15163374 0.16277722 0.024696121 -0.012413758 -0.0028803633 -0.059669714 -0.1339332 0.06985938 0.15849425 0.23080483 0.026880529 -0.017229551 0.2037455 0.10010405 -0.21290548 0.034356967 0.11832883 0.124293506 0.026411781 -0.14359726 0.04462844 0.16774127 -0.11778822 0.1610955 -0.076536804 0.18113129 0.057675153 -0.059460353 -0.07613852 -0.16028874 -0.16022079 0.10849788 -0.01585843 0.17231272 0.027568713 0.020024456 0.005038692 -0.03677733 -0.009196261 0.108556725 -0.07307191 -0.08526104 -0.059149813 -0.050580304 -0.12866767 0.101296574 -0.18271865 0.16608788 0.16383396 -0.0495961 -0.04247088 -0.008162477 0.13849795 0.06780488 0.011747969 0.01126076 -0.0072322628 -0.09379373 0.024502244 -0.033736087 0.076959714 -0.024820847 0.27179995 0.08456589 -0.21068838 -0.16290839 -0.050856266 -0.058399044 -0.09321633 0.035882525 0.075597785 0.1754804 -0.040748503 0.014191601 0.08679156 -0.12985276 0.1466108 -0.17110083 0.05657476 -0.012535494 -0.10428499 0.035427265 0.1333221 0.07900877 -0.037312176 0.12704441 0.028419951 -0.06264478 0.0032193882 -0.10380983 0.048232928 0.04527662 -0.11055664 -0.029315263 0.2466596 -0.13286224 0.15648682 0.21398456 0.18165855 0.14226997 0.19821934 0.059925336 0.14564039 0.23889431 0.1541194 -0.110801645 -0.1082518 0.01080338 0.017384058 -0.042403027 -0.0977945 -0.056961212 0.24094142 0.052925963 0.16416654 -0.07210926 0.17385066 -0.22873932 -0.17063086 0.028432123 -0.24047792 -0.14476506 0.023915034 0.22606324 -0.24355228 -0.06711155 -0.022378948 -0.1121048 0.011855368 -0.046358686 -0.029735051 0.19155923 -0.07627513 -0.07505516 -0.009816235 0.015730979 0.2787181 0.06290429 0.047992006 0.09921455 -0.030996084 -0.08984609 0.07823973 0.15691079 -0.27763048 -0.12608747 -0.16123903 0.033914994 0.23771003 -0.28616825 0.030200737 0.23676425 -0.27090794 -0.08980017 0.4178382 0.0017176335 0.3254617 0.03960702 0.07995674 -0.31960487 0.07097909 -0.12977721 -0.061041147 -0.22961554 0.086842254 -0.010242947 -0.004607465 0.01607081 -0.17752652 -0.121926434 0.091677144 -0.15212096 0.13974278 -0.0017029875 0.08066747 0.032563977 -0.14158903 0.2222893 0.021860525 -0.05248534 -0.023511782 -0.14994529 -0.12210601 0.08457576 -0.007705539 0.1958133 -0.19933817 0.051071975 -0.01951815 0.29005447 -0.08625621 0.1870078 -0.027209798 0.13174145 0.038433224 -0.022824334 0.1782864 0.061590433 0.080639735 0.08516469 -0.05325912 0.16816825
Type -0.025682773 0.18441802 -0.15160304 0.27865124 -0.011772381 0.23521313 0.0727416 0.2142462 -0.15056217 0.029471796 -0.08906127 -0.041661408 -0.3042009 -0.02136124 -0.16292161 -0.08131141 0.087103695 0.042646762 0.26297367 -0.2519742 0.060671188 -0.42265248 -0.046862096 0.2587965 0.13586563 -0.0030431414 0.13079299 0.07827293 -0.15451515 0.29538795 -0.08598977 0.042032562 -0.05965098 0.1630322 0.21008693 0.10914592 -0.05013054 -0.047829602 -0.16808693 -0.1575108 -0.22478564 0.22575784 0.03789477 0.35796812 0.34302154 -0.14166847 0.17849164 0.27526855 -0.26866126 -0.032969892 0.14628138 0.04065933 0.059965752 -0.13925216 0.2282609 -0.21864815 -0.122346856 0.090035126 0.07297338 -0.045261905 0.21878514 -0.16125171 0.12623677 0.10263121 -0.16758214 0.073987514 0.012008117 0.03288777 -0.016439475 0.061160866 -0.047341853 0.13978575 -0.1950252 -0.047068242 -0.065928884 0.026267959 -0.02987806 0.20216684 -0.03158404 -0.21664138 -0.26551855 0.29057848 -0.10491659 -0.042739283 -0.051723205 -0.06745091 -0.21395466 -0.110140726 0.01075655 0.088214666 -0.17625996 0.2635244 -0.010040648 -0.050399013 0.24184746 -0.02113433 0.22929803 0.21381803 -0.1581592 0.019977938 0.20743006 0.1062525 0.06281509 0.052880596 -0.16083185 -0.3696265 -0.076126605 -0.20551783 0.035489872 0.1479369 -0.25973624 -0.13795954 0.029129518 0.19367638 -0.18065515 -0.07381801 0.048821762 -0.32212758 0.09705551 -0.16847587 -0.02834791 -0.18970181 0.13242958 -0.2230961 -0.12263425 0.007861163 -0.24455376 0.08679015 -0.16694285 0.26811594 -0.24870495 -0.26172537 0.1737819 -0.18162952 0.1367121 -0.15232287 -0.17949183 -0.03312224 -0.11479616 -0.2505024 0.071078524 -0.1260498 0.2287148 -0.22221802 -0.10645729 -0.024564328 0.15160157 0.07074092 0.08373299 -0.16905774 0.1464009 0.15542807 -0.16549991 0.087878704 -0.0677336 0.15684989 0.04688054 0.04145489 -0.099946864 0.036293894 -0.04312583 0.07735234 0.1269478 -0.02244078 0.17085613 0.07322446 -0.022088401 -0.12968493 0.104259044 0.09110969 -0.2971698 0.22789222 -0.009303204 0.10809832 -0.024943357 0.1668502 0.10017814 -0.07060078 -0.10826626 -0.06294164 -0.081170335 -0.05477431 -0.10398414 -0.2508071 0.11530495 -0.08674319 0.14211905 -0.05078412 0.06532935 0.20124348 0.07351515 0.3376257 -0.007527394 -0.08957309 -0.009908737 -0.098562784 -0.019741522 -0.14017701 0.083473764 0.119148046 -0.14574297 -0.09185881 -0.057720922 -0.046642337 -0.23888874 0.10565665 0.00853471 0.19759229 -0.17366116 -0.07847919 0.111675 -0.06180776 -0.18881708 -0.01510708 0.22370301 -0.01678344 0.05983767 0.14759842 0.19527599 0.07824899 -0.046042304 0.13019623 0.23082446 0.23904106 -0.03365717 0.24932711 0.0283464 0.15580265 0.16972338 0.017039048 -0.13484247 -0.06388749 -0.1579607 -0.03710248 0.2874316 -0.0991792 -0.1815425 0.06465458 -0.09805344 -0.14869206 -0.12534258 0.092562325 -0.05569512 0.25688103 -0.09990977 -0.059065886 -0.09182677 0.17089874 -0.16607387 0.35275376 0.101525374 0.022056237 -0.2410592 -0.013178798 -0.12426244 0.03750234 0.045663293 -0.015518467 -0.055563938 -0.06542878 -0.0925377 -0.18166082 -0.18859574 0.12100823 0.069352455 -0.11576039 -0.068861485 0.07501035 -0.3549192 -0.18168348 -0.15107642 0.23662853 -0.30512145 -0.22628154 0.022004923 0.22320741 0.08897792 -0.012045702 0.11820244 -0.064371206 -0.0588841 0.008269829 0.09413429 0.17301835 -0.22635913 -0.03353356 0.0036596835 0.1590098 0.14311628 0.16830279 0.099042624 -0.19339094 -0.078750215 0.22497752 -0.16042134 0.17153218 -0.13265456 -0.0028149576 0.22496545 0.111782886 0.09771225 0.06153837 -0.20344111 -0.055388294 0.14185975 0.07457731 0.14065231 -0.041596845 -0.09579853 0.17939343 0.2924087 0.08574586 -0.12364321 0.0030648853 -0.40136188 -0.022590745 0.11363834 0.047162816 -0.017882215 0.25143015 -0.22088087 -0.14369886 0.07537243 0.19086856 -0.33180675 -0.047144093 0.0070261853 -0.25515538 -0.24666011 0.159994 0.111589395 -0.05671143 0.13469204 0.028710283 0.1927154 0.16695571 -0.052932497 -0.16777831 -0.21400678 0.13857628 -0.043141592 -0.24431938 0.0009854451 -0.046282563 -0.10867019 0.22164936 -0.09650024 0.0040458865 -0.025180759 0.12189345 -0.02285422 0.104328424 -0.065817505 0.16283488 -0.04468725 -0.08255051 0.012136295 -0.013158854 0.14504911 -0.07710348 0.13046688 -0.05637774 -0.09888931 -0.15911965 -0.12483098 0.26508808 0.20375153 0.22024904 -0.2285679 -0.17328939 -0.014786207 -0.17420901 -0.036515377 -0.20167321 0.023817496 -0.19707684 0.2289744 0.17518589 -0.23929515 -0.093906075 0.20882016 -0.014355609 -0.083853595 -0.1633734 0.17663297 -0.11885671 -0.21117385 -0.03302807 -0.15405072 -0.09153127 -0.22272524 -0.29290462 0.0785683 0.03196354 0.24750042 -0.01704139 0.14277047 -0.0034688725 0.052160252 -0.062092308 -0.10859193 -0.10239194 0.12953295 0.03251329 -0.028485127 -0.13782616 0.14483845 0.13640824 -0.21046261 -0.005494433 0.11702693 0.017426612 0.05644343 -0.00011283923 -0.11366596 0.011080432 0.18350084 -0.21992941 0.1328811 -0.0092544 0.12785304 0.16157785 0.14079535 -0.13705009 0.017897278 0.16274385 0.27510396 0.08835992 -0.1243087 -0.062289197 -0.07322694 0.13514851 -0.23539747 0.062378515 -0.18326762 0.042472553 0.12331438 0.24254818 -0.05511988 -0.054533765 -0.17074035 -0.11561842 0.054584965 0.06436618 -0.18792142 0.1512645 -0.23101121 -0.1016985 0.066191696 0.009658857 0.018297318 0.19038267 -0.06320864 0.18121822 -0.019073015 -0.16952674 0.26715964 -0.20704044 -0.054273363 -0.017150452 0.1568516 0.14644 0.2256348 0.1962723 -0.0878122 0.005125748 0.15019958 -0.028143443 -0.22989431 -0.053883918 0.10322088 0.03509347 0.038883198 0.16967039 -0.10607577 0.26589692 0.007742121 -0.06406107 -0.08188411 0.00836734 -0.07390219 0.1096309 0.09186524 0.29623765 -0.038251974 0.019860476 0.043060813 -0.2951039 0.22715674 -0.02503323 0.15459426 -0.03931428 0.118627615 -0.10667098 -0.09774863 -0.08122953 -0.20347092 -0.071598165 0.25633097 -0.20838773 0.053230643 -0.27112943 0.021007774 -0.09602453 -0.15476628 0.04486462 0.0057234014 -0.15879317 0.26713252 -0.029898005 0.0037673507 -0.12695308 -0.12944838 -0.15702584 0.26884657 0.14482717 -0.11246003 -0.07968294 0.024779974 0.3698115 -0.06516477 0.04886943 0.114071056 -0.040477905 0.12633099 -0.07438323 -0.01617008 0.08897252 0.20182402 0.024537532 0.18900134 0.02495003 -0.14717346 -0.0051923827 0.013217385 0.016013797 -0.078963414 0.045328904 0.17085963 0.030808419 -0.0726843 -0.17976803 0.0052580317 0.2317384 0.32636118 0.13854726 0.015881417 -0.13579968 0.0038109215 -0.03884646 -0.065232255 0.1879766 -0.015940532 0.16277748 -0.062755816 0.062004916 -0.22113188 0.022247504 0.0135448435 -0.18232447 -0.09732344 -0.09491006 0.34741077 -0.04484843 0.23880124 -0.012678777 -0.07402501 -0.12603901 0.3049637 -0.07650157 0.20126005 0.01537397 0.12913889 0.2985725 -0.17151237 -0.048550818 -0.0028251302 -0.3572469 0.17448802 -0.16817458 0.160509 -0.23379204 0.0927562 0.075175166 0.17535926 -0.28621358 -0.20755932 -0.16122913 0.04778177 0.26255798 -0.10783574 0.08512934 0.08867119 -0.054888193 0.015507598 -0.27230316 0.069301836 -0.021259267 -0.008509826 -0.29798368 0.017732505 0.15853643 -0.44366813 0.011736424 -0.070147544 0.09757227 -0.022483338 0.0130976 -0.010992619 0.14608562 0.09005126 -0.09008388 0.042175137 -0.12241773 0.217027 0.05840998 0.03625577 -0.021437313 0.25437102 -0.021157028 0.12806363 0.199572 -0.23773867 -0.42944717 -0.16083919 -0.008214261 0.12646791 0.1221024 -0.17857103 -0.039427508 0.1066016 0.20002232 0.039930467 0.024420038 -0.01056093 0.22557107 -0.045671377 0.06111233 0.052037325 -9.380806e-05 -0.12107667 0.21244183 -0.1795377 -0.07634014 0.10170685 0.140246 -0.20942697 -0.124468505 0.21984494 -0.13081858 0.13728914 -0.18201484 -0.29668552 -0.15749738 -0.31488693 0.065697774 0.07923037 0.1642299 0.0059079644 0.026679404 0.17319362 0.45793322 -0.08529 0.15084265 -0.24000224 -0.19939582 -0.014119962 -0.12663609 0.0059648855 0.09079081 0.1067848 -0.12615415 -0.20584822 -0.10073052 0.009694328 -0.055316508 -0.044770606 0.1462117 -0.12765458 0.100169234
animal 0.051797397 0.16051078 0.12598355 -0.11659717 0.34456402 -0.20780988 -0.41487056 0.13710202 0.078506626 0.17955829 0.20473589 0.17875814 -0.10667502 -0.02915155 0.36282226 0.008410218 -0.11061232 0.42294133 0.18050855 -0.055380028 0.2830489 0.05299454 0.085000224 0.14203916 -0.0011854882 0.34714144 -0.41454604 0.05992041 0.14612769 0.30135638 0.22983956 -0.1764063 0.010218238 0.21648401 -0.23899205 -0.06290751 -0.28699926 -0.015916212 0.003228074 0.16534999 0.16184925 -0.018039603 0.2409205 -0.20167717 -0.1616484 -0.067322746 -0.3524936 -0.075841956 0.28987336 0.012014445 0.12080325 0.09136971 -0.07117582 0.054788146 0.030955918 0.01478046 0.20843725 -0.23919415 -0.10003743 -0.09467663 0.14082697 -0.041994832 -0.11171026 0.22854131 0.05549273 0.09905469 -0.03355008 -0.1121017 0.12823033 -0.2864856 -0.013333301 0.13867949 0.12855421 0.082156815 -0.2927533 0.14908427 -0.025972927 0.10427918 -0.26442283 0.01947519 0.19014733 0.19694078 -0.2414141 -0.049688328 -0.01181856 0.02378162 0.0013215219 0.059972856 -0.05772418 0.0053482996 -0.17492299 0.099956 0.10745752 0.076418296 -0.14638206 -0.078884736 -0.09478822 0.1567862 -0.31157336 0.24418467 -0.076301076 -0.03652223 0.056472518 -0.36487797 0.23000877 0.034578316 -0.0067582605 -0.10699665 -0.00474318 0.09546381 0.16983083 -0.39597094 -0.1399982 -0.13406782 -0.00031232956 0.19209072 0.18566126 0.14040484 -0.26486295 -0.38067386 -0.2138629 -0.07385233 -0.06767224 -0.13898006 0.05766466 -0.01408646 0.25725257 -0.18969288 -0.1748047 -0.1675019 -0.086090736 0.15872246 0.00823003 0.09316171 0.03324302 -0.28697658 0.13446099 -0.052450366 0.2662835 0.087971345 0.14170188 0.05517567 -0.26258275 0.040183973 -0.094885774 0.22644402 -0.04777993 0.17294018 0.041654024 -0.29203194 -0.2115106 0.18319383 0.072893865 0.15137306 -0.014226734 -0.030117068 -0.011905602 0.20626979 -0.17220227 0.26715308 -0.024250137 -0.02600849 -0.16924763 -0.26363182 -0.112991534 0.16957864 0.08985295 -0.06150197 -0.0053800293 -0.1294507 0.06883683 -0.1297685 -0.35732335 -0.13718773 -0.0026252186 0.042684194 0.14261879 -0.061651297 0.07187207 0.0069768853 -0.18685548 -0.0039142678 -0.092927955 -0.02085867 -0.25380075 0.15779267 -0.039750427 0.0302315 -0.07785955 0.1902812 -0.04017729 0.07855172 -0.045361284 -0.098752506 -0.30374527 -0.11202629 0.15599777 0.21963385 0.13056488 0.06285905 -0.061612356 -0.05489182 0.068926804 -0.004957798 -0.119182535 -0.11370561 0.063006654 -0.2391955 0.09232949 -0.07839742 0.19641677 0.1435008 0.093539804 0.256797 0.062756024 -0.11741332 -0.12521169 0.18352567 0.080576286 0.028890379 0.2573927 0.190829 0.41015604 0.060448103 -0.035347193 0.14374283 0.21405627 0.074923 0.14390525 0.17651418 -0.026700856 -0.00290206 -0.013968608 0.14405161 0.16115603 0.26314571 -0.21609561 0.075332366 -0.24036658 -0.13832079 0.056496907 0.059193738 0.15231985 -0.20244738 0.09695347 -0.043666113 0.08278623 0.311898 -0.22592753 -0.14031795 -0.20463955 -0.2705286 0.02817908 0.121621355 -0.0035792824 0.12891033 -0.03278505 0.100882836 0.33818346 0.07003611 -0.039551303 -0.07511597 0.1583115 0.009956862 0.19647452 0.38725194 -0.3886568 0.0076303855 -0.16028644 0.14338058 0.18694337 -0.00878817 -0.072021484 0.19511813 0.16135123 -0.053067647 -0.06092816 0.13046415 0.040402677 -0.23430365 0.017099036 -0.015331873 -0.023060959 0.24418977 -0.00726716 -0.12669975 0.11253294 -0.22390166 0.2830432 -0.12631778 -0.06860911 -0.16045569 0.17110494 0.19822466 -0.097212344 0.013034617 0.07942389 -0.3157949 -0.23698857 -0.18730947 -0.11033654 -0.15572879 -0.15398295 0.25002533 0.03811504 0.099628225 0.014688601 -0.13196614 -0.02265545 0.41866693 0.1151 0.2026298 -0.18445608 -0.028808549 -0.11940396 0.19288799 -0.018907009 -0.1992969 -0.072428316 -0.040413123 -0.14576079 0.20146854 -0.20620301 -0.013117336 -0.30707672 -0.22762191 -0.16458537 -0.27985466 0.23412426 0.18667631 -0.010366285 0.20231003 0.11540604 -0.1685946 0.25028813 -0.16250093 0.08697213 0.10951793 -0.06571999 0.055054843 0.18925497 0.33467793 -0.050311964 0.13362435 -0.11110359 0.15346342 -0.3129308 -0.4206468 -0.17930722 -0.0614026 -0.25866422 0.1922008 0.251371 0.0010903099 0.19229487 -0.05021322 0.17551853 0.15428093 -0.119709715 -0.0010323494 0.05980243 0.11276691 -0.12859103 0.08588421 -0.22120585 0.24165 0.17759526 0.01545941 0.01578196 0.023866266 0.3687332 -0.026413953 -0.09127234 0.0973638 0.27453518 0.22235493 -0.0586028 0.25078636 -0.3175293 -0.0017153291 0.15230422 0.025434334 -0.03422904 0.2228988 0.09496911 -0.11964409 0.2662015 0.06706219 0.2356541 -0.037853573 -0.007901773 0.22594403 -0.19499217 -0.029556084 0.028466335 0.1192134 -0.10714827 -0.056580674 -0.17436993 0.14092384 0.074510574 -0.2754008 0.17743754 -0.22057955 -0.18394691 0.2754388 -0.09923521 0.0662311 -0.12594856 0.06270918 0.17340794 0.047624804 0.055880297 0.013169251 0.029442739 -0.07960126 0.12863928 0.23014916 0.082264826 -0.36042112 -0.0854757 -0.058463577 0.064172186 -0.10339383 0.16961707 0.31206164 -0.17762905 0.06711769 0.20915018 0.12543699 -0.058466826 -0.18754624 -0.058240343 -0.07004789 -0.09906706 0.17059606 -0.08375437 -0.118536875 -0.15032393 0.11106924 0.061873864 0.07085211 0.17199433 -0.07138854 -0.11336013 0.12752922 0.18623939 -0.14650346 -0.057943568 -0.10378033 -0.09156131 0.10604473 -0.057671994 -0.07218603 -0.13266377 0.0330825 -0.028472511 0.18441409 -0.031132597 0.28215054 -0.16837302 -0.25368404 0.12290574 -0.22664094 -0.0112094395 -0.28929248 0.0041620014 -0.15456806 0.20777327 -0.22089615 0.09945826 -0.1833493 0.023728121 -0.3566013 -0.20467749 -0.18552467 0.04337371 -0.06103467 -0.30122006 -0.033350956 0.11361367 -0.038961444 -0.182392 -0.20216602 -0.026275445 0.10879499 -0.045864984 0.14001188 0.0434795 -0.08922456 0.32606095 0.076955564 -0.018255439 0.16688934 0.17672333 0.1399781 0.046870593 -0.40027246 -0.018847143 0.1084213 -0.2550863 0.20501624 -0.15630232 0.13002326 -0.09238021 0.026181811 -0.2888782 -0.16898257 -0.086931355 0.009588691 0.030532384 0.28462297 -0.025245478 0.06928143 -0.015588574 -0.016410284 -0.14965324 0.19483219 0.12528422 -0.13850299 0.06453454 -0.19197519 0.086885296 0.055427823 -0.29021025 0.14790742 0.11552725 -0.06324521 0.079579145 -0.043683358 0.21918367 0.008035541 0.050292928 -0.23243557 -0.09417135 0.070253916 0.14348908 -0.14981201 0.0069636875 -0.050345227 0.14353496 0.35455272 -0.1681912 -0.36783084 0.046131294 -0.07418135 -0.15485802 0.038547326 0.090643 0.300953 0.030101188 0.4274575 0.13216233 -0.095803596 -0.18521665 -0.08150457 0.23591544 0.055268206 0.11396203 0.2056552 0.15887961 0.008726822 0.08406728 0.14733991 -0.04785825 -0.16988644 0.18123114 -0.17343056 -0.068999656 0.17298335 -0.13007337 0.23198234 0.28848892 0.090643525 -0.17246698 0.14561252 0.12845197 -0.043128263 -0.037612826 -0.016957974 0.15610741 -0.012480952 0.15879029 -0.09039417 -0.09017514 0.08657042 0.021986794 0.022112887 -0.14251813 -0.018763479 -0.058644567 0.0010806568 -0.06636588 -0.034384586 0.34177196 0.23371182 -0.13456233 -0.0002909843 -0.34637383 -0.03297935 0.036754884 0.07446899 -0.36930424 0.043830518 -0.1064615 -0.09749474 -0.24959034 0.2792599 -0.076983765 0.08312598 -0.36349797 0.09356785 0.009471314 -0.13340873 0.2747668 -0.034596898 0.34087092 0.22438511 -0.050993755 -0.0109555675 0.10575156 -0.027504578 -0.1271043 -0.044371936 -0.10506549 -0.1672542 0.2348989 -0.37019318 0.21921708 0.09971718 -0.3392307 -0.2539274 0.5060784 -0.10457352 0.271691 0.0109886555 0.22848688 -0.32023478 0.17187375 -0.19573821 -0.24778078 0.029208342 0.11894479 0.16972189 0.09094325 -0.027688505 0.061333064 -0.19785242 0.07098008 0.010890249 -0.121331155 0.07749434 0.19454883 0.17539483 -0.045230325 0.18290359 -0.14206077 -0.11102614 0.15539217 0.0538896 0.12524728 0.16231568 0.033043068 -0.11726605 0.06411119 0.23659062 -0.3175997 0.07631278 0.077293366 0.047089502 -0.18052518 0.05901303 -0.011834711 -0.14549942 0.0075743916 -0.20353954 -0.011216272 -0.0058000037 -0.0051054615 -0.20566897
has 0.0022083696 0.12478734 0.0039924607 -0.034782786 0.115941875 -0.1055392 -0.061126485 0.13675044 0.04172374 0.09292016 0.21976575 0.16045469 0.030773183 -0.057853255 0.1275236 0.11532358 -0.20916195 0.29026043 0.33912107 -0.115068585 -0.06495357 0.054255668 0.109810375 0.030442713 0.15119724 0.23412661 -0.22438936 0.045923516 0.029661173 -0.06070346 -0.122357704 -0.022162667 -0.11779908 0.058945898 -0.06316052 -0.051287632 -0.26275185 -0.18532228 0.18532354 0.20021981 0.13686252 0.07210548 -0.07987523 0.1004245 -0.06857445 0.13301417 -0.23421673 -0.20905969 0.16958925 0.23744576 0.09984806 -0.044774156 0.14728372 0.02055198 -0.16162232 -0.04784787 0.062118668 -0.322063 -0.14686218 -0.060615983 0.0716931 -0.1256741 0.12436719 0.1430257 0.044789888 0.1627528 0.03982325 -0.0029994021 -0.0712133 0.02336706 0.050558496 -0.19178541 -0.0014028996 0.0006292207 0.2066107 0.04453246 -0.20136894 0.0010503696 -0.047805265 0.0654415 -0.078274354 0.11206017 0.021326084 -0.15467075 0.17877872 0.044489287 0.14003852 -0.02216262 0.031082634 0.1466491 -0.097688325 -0.04336265 -0.22864239 -0.077187866 -0.18192515 -0.020969408 0.13023418 0.101611875 -0.40029663 0.048589565 -0.0101700965 -0.13163675 0.09543897 -0.13515653 0.07165367 -0.1844463 0.22349007 -0.1330961 -0.21539235 -0.048714787 0.154418 -0.40672734 -0.16477388 0.006878079 0.0417151 -0.16645004 0.0104306275 -0.066397905 -0.20628868 -0.15058862 -0.22344534 -0.021635221 0.046838127 -0.087306924 0.055657383 -0.23619914 0.19548579 0.020814477 -0.18473579 -0.1849651 0.064630345 -0.12144546 -0.11918222 0.045883242 -0.07789138 -0.22411956 0.07287706 -0.10929596 0.117471464 0.0060494016 -0.0024579312 0.11906915 -0.40094107 0.03983646 -0.0999169 0.12812601 -0.043014586 0.1760971 0.07050338 0.09621605 0.052411094 0.10401367 -0.3141048 0.23423493 0.108646534 0.026318505 0.02659024 -0.16306353 0.16217996 0.015681462 0.015153204 0.042830348 -0.027728489 -0.3080891 -0.17574891 0.05518803 0.038711034 0.10815855 -0.12107316 -0.047088798 0.23841624 -0.0055163214 -0.08495244 -0.0055232462 -0.07706949 -0.15017904 -0.10050061 -0.17132731 -0.1228408 -0.09874422 -0.021373892 -0.10916715 -0.08594532 -0.15908244 -0.16800335 0.16250382 -0.17485839 0.13176961 -0.06955996 0.1864205 -0.06955702 0.02183411 -0.09105726 0.18904038 -0.13622381 -0.0347864 0.010142875 0.13405648 0.07945364 -0.069932126 -0.21775423 0.013274206 0.15631256 0.046341386 0.21052937 -0.14114213 -0.034949828 -0.21339187 -0.014339749 0.036211263 -0.10012826 0.12746167 0.102887586 0.17300788 0.10639712 -0.20975824 0.11109673 0.12668595 0.11948498 0.048133526 -0.03344099 0.05987224 0.06617804 0.159586 0.048178777 0.07412311 -0.12958162 0.069653645 0.025632586 0.008618846 -0.009051328 0.06370339 0.22658738 0.27271402 0.21299878 0.2255653 -0.1207675 0.0319538 -0.13733298 0.1757124 -0.17904837 0.24962376 0.0055154096 0.064043045 0.13158928 0.2675803 0.23737484 0.20809923 -0.049626887 0.0853707 -0.050926104 0.03428931 0.120313786 0.0735236 -0.15060253 0.11506865 0.039035667 -0.011175849 0.17665263 -0.007208714 0.11877859 0.06988321 0.20443413 -0.010341645 0.049981557 0.3711459 -0.19740586 0.13161911 -0.03197153 0.22030741 0.16518535 0.016085004 0.11816611 0.100346856 -0.062361397 0.20371076 -0.2072831 -0.31468204 -0.11318188 0.032314174 -0.0029053197 0.275364 -0.17285131 0.17545676 0.12901823 0.092853434 -0.13919997 -0.26668766 0.20825116 -0.05957683 -0.013022983 -0.020352548 -0.13182917 0.17649335 0.07301564 0.06413412 0.07641905 -0.3829337 -0.20144112 -0.13686125 -0.06018361 -0.06831999 -0.0117665455 0.15869705 -0.02264767 0.15297316 -0.23776542 0.075132996 0.051245578 0.23674564 0.19775955 -0.020433916 0.13425504 0.06673905 -0.12182821 0.35045674 0.055058595 -0.0023920967 -0.18875644 -0.08109561 -0.28860447 0.27840748 -0.10575286 -0.099112205 -0.052035626 -0.17418064 -0.11315777 -0.15893961 0.07425991 0.17945498 -0.061412297 0.22896668 -0.044181734 0.007781903 -0.05159715 -0.21492843 0.08791365 0.29149002 0.2177928 0.040780492 -0.0538156 0.21055582 0.04159103 -0.09755394 -0.1637353 -0.0789436 -0.08295822 -0.1623972 0.15703642 -0.10212431 -0.1362747 -0.08162138 0.12740092 -0.12412855 0.254642 -0.073197305 0.21766244 0.31322414 -0.050853923 0.06291415 -0.097058676 0.07141553 0.14861345 0.23942548 0.018117616 0.14658378 -0.08440734 -0.21241058 -0.071532875 -0.13196096 -0.087705225 0.0020798766 -0.1941901 -0.08538237 0.087434374 0.3365523 -0.009270702 0.05714429 -0.16704962 -0.12176719 0.03691155 0.14914024 0.15319298 -0.022729095 0.19862148 -0.21422495 0.1760505 0.127325 0.13980015 -0.024201425 -0.11872042 0.065752655 0.1093667 0.16583586 0.121252246 0.2908827 0.014152121 0.064630784 -0.16583773 0.031139906 -0.04900305 -0.15111478 0.050381396 -0.071454905 -0.05736423 -0.0333534 0.036882207 0.021577809 0.14994523 0.0975754 0.2466141 0.17940216 -0.08225087 -0.10186091 0.038846035 -0.2709051 -0.009147216 0.02455551 0.084587105 -0.26508662 -0.06269376 0.027707547 0.1382399 -0.08685584 -0.055897616 0.086785644 0.041696955 0.20930211 0.21555375 -0.04895438 -0.08739888 -0.1417776 -0.06620881 0.05925658 -0.28372824 -0.093300715 -0.06820932 -0.19931531 -0.3899045 -0.06776739 -0.020391118 0.049639698 -0.012888919 -0.055374157 -0.13300844 0.055550285 0.030316565 -0.08043643 0.07563723 0.2358581 0.021205349 -0.17500699 -0.04933387 -0.09534086 -0.014737333 -0.21780367 -0.1136619 -0.08219765 0.16163112 -0.14344993 -0.1682623 -0.18077798 0.099252336 0.05666681 0.0015612103 -0.18646686 0.04937537 -0.06533644 0.21969055 -0.11754526 0.022320585 0.15692693 -0.12833826 -0.11780268 -0.059018698 -0.15638623 0.05459087 -0.07594822 -0.21274337 -0.08766067 0.061281648 0.07370683 -0.08755335 0.09363089 -0.13342033 0.11579017 -0.01745099 0.21090321 0.15931773 0.0133780595 0.19669524 0.3010068 -0.26001713 0.021956446 0.1439336 0.020292819 -0.14184605 -0.28584507 -0.06733912 0.017450327 -0.24246497 0.08298265 -0.022866877 0.031475846 -0.021741912 -0.07593317 -0.28985694 -0.09033792 -0.07961144 0.10067352 -0.019057536 -0.088161655 0.44209722 -0.18250512 -0.06250599 -0.00086556014 -0.19099791 0.063004814 -0.115837045 -0.08848361 -0.045887332 0.0033114604 -0.01521389 0.11054036 -0.23290305 0.18329147 0.10475421 -0.07805105 0.026748642 0.001858495 0.25868076 -0.044592608 0.037617072 -0.33175007 -0.31870884 -0.31607646 -0.014529892 -0.1625429 0.06423584 -0.11203262 0.29573235 0.19363098 -0.3753597 -0.26839343 0.053977586 0.0076260353 -0.23146378 -0.06799632 0.018341541 0.18070388 0.26692826 0.1828336 -0.11121158 -0.016314657 0.1640076 -0.032814834 -0.018786624 -0.091798484 0.058601234 0.10403957 0.30426863 0.020140225 -0.0035421278 0.026617019 -0.16094224 -0.15423615 0.09141098 -0.35731545 -0.03134131 0.07207399 0.011446414 0.19643652 0.028952977 0.057635963 0.16966173 0.20509048 0.1778057 -0.009931962 0.13890754 0.3325029 0.12875324 0.25042617 -0.1938307 -0.1810361 0.031256113 -0.07369478 0.06324064 -0.0014053769 -0.019152211 -0.12778045 0.10761262 0.039891798 0.24292664 -0.1961602 0.1474868 -0.2933139 -0.24263482 0.2525773 -0.1466626 -0.05862891 -0.04449787 0.060949586 -0.31618324 0.062813506 0.06599679 -0.13625512 -0.026683265 0.013270173 0.004114959 -0.07984826 -0.11793483 0.11676194 -0.13932995 0.021404197 0.2713275 0.07803885 -0.00747206 -0.033975188 -0.08007217 -0.008769982 0.101432845 0.090728484 -0.12649676 0.1530961 0.17909157 -0.026599845 0.13772231 -0.29711944 0.07206859 0.07581342 -0.20450434 -0.1925315 0.48024246 -0.03285692 0.32110763 0.023738045 0.069684654 -0.36276576 0.24895127 -0.23228805 -0.2040716 -0.2208461 0.03515884 -0.054604977 -0.07103374 -0.27039012 -0.33489743 -0.34166104 0.05982777 0.060670428 0.12850031 -0.17899875 0.049319576 -0.0042375294 -0.2543486 0.4030051 -0.122217596 -0.033532318 -0.076403335 -0.1906295 0.04535518 0.25217712 -0.09647905 0.24479747 0.025309151 0.13892166 0.010996158 -0.08846961 -0.20291658 0.08602492 -0.07105618 0.040219113 0.27957815 -0.13686547 0.20811525 -0.012614475 0.11175141 0.014060705 0.18618868 0.33075216
animalby -0.037469655 -0.07858196 -0.06033975 -0.04834114 0.009825187 0.07368219 0.07679126 0.1516179 -0.0036045243 -0.04068877 -0.028447196 0.13211666 0.030793916 -0.12671873 -0.016664896 0.019795064 -0.15975603 0.18066214 0.14904019 -0.3190632 -0.01608515 -0.049632832 0.14891426 0.09712094 0.18231182 0.110159695 -0.12298448 0.031420436 0.08893632 -0.2293545 -0.07248629 0.013191289 0.026843753 0.27644435 0.11014366 -0.038258377 0.056031004 0.14232118 -0.005840663 -0.18334985 -0.13583137 0.001455509 -0.10962779 0.24669547 0.08349819 0.19973205 -0.047268484 -0.20495705 -0.024760207 0.11006194 -0.038631618 -0.13557795 0.20433776 -0.1013623 -0.15192407 -0.20537093 0.098047316 -0.1728463 -0.16915333 -0.17279497 0.17056334 -0.32257524 0.013151521 -0.12711582 0.08854768 -0.019855628 0.18271661 0.0018539054 -0.08565587 0.06852255 0.063424125 -0.064128175 -0.017044432 0.14121577 0.14557017 -0.08477198 -0.18094786 0.005733295 0.011654993 0.13762374 -0.04972634 0.08663215 0.22645079 -0.16322128 0.17780876 -0.014664481 0.22547363 -0.038450345 0.18300204 0.07471978 0.11220788 -0.08622968 -0.18537197 -0.1868977 -0.08039153 0.04594878 0.035466846 0.056214787 0.06825855 -0.007923034 0.021509068 0.014585383 0.034537405 0.10978739 0.13264704 -0.0141881 0.33716848 -0.13851397 -0.139377 -0.065127544 0.120647036 -0.03127558 -0.08446619 -0.030060118 -0.18864852 -0.016507315 -0.06734657 -0.07252472 -0.16858892 -0.19487445 -0.14168616 0.04529663 0.14499936 -0.045532934 0.2083464 -0.16435261 0.22835635 0.019328866 -0.030735722 -0.119629905 0.13121851 0.07999327 -0.03304499 -0.15918174 0.22955967 -0.10161813 -0.13339603 -0.0891157 -0.04561969 -0.33724794 -0.23373795 0.24165714 -0.18675542 0.16987582 0.023981089 -0.12215913 -0.039598044 0.1561313 0.06847784 0.31808677 0.048326146 0.12536334 -0.1471533 -0.013883339 -0.05046234 -0.14968036 -0.026175715 -0.11623288 0.052205194 -0.1740596 -0.111881934 0.16475521 -0.073446065 -0.14818415 -0.030689966 -0.038097247 0.22693296 0.046899132 0.20537408 0.044964112 0.04349414 0.1847712 -0.114137925 0.11170128 -0.010042493 0.08072296 0.039840315 -0.1380586 -0.081643954 0.09912417 0.07896761 0.15234126 -0.1691104 -0.26037395 -0.17211452 0.09713954 -0.08810545 0.093497194 -0.19799054 0.09894043 0.0352589 0.1470117 -0.027233126 0.17759645 -0.106006116 0.041208204 0.13848042 0.10369645 0.08031665 -0.106018335 -0.13261075 -0.078581564 0.0995119 -0.22319259 0.11481332 -0.11373353 0.015060801 -0.23197931 -0.113979355 -0.08483342 -0.34228742 0.17325512 0.17164749 0.12626873 0.073471986 -0.0064412993 0.1777643 0.3209615 0.06155794 0.07250783 -0.21232931 -0.044637173 -0.072756566 0.028923256 -0.052133862 0.087520964 0.096666306 0.112232186 -0.08476767 -0.030427337 0.18492566 0.55584437 0.16191182 0.08293702 0.09998223 -0.113623746 8.195628e-05 -0.068970345 -0.27799428 0.07102268 0.018771032 0.15285741 0.039284922 0.16829553 0.06450494 0.0043794415 -0.0046315035 0.2455104 -0.12617049 0.092325345 0.23481046 0.013713864 -0.020101776 -0.09045266 -0.08029461 0.13148224 -0.015440988 -0.22375362 0.4194814 0.1532239 0.31981236 -0.0029024289 0.13917847 0.031403717 -0.12748136 0.122660995 -0.005793833 0.043361016 -0.1819871 0.026912255 0.08122112 0.042879988 0.012863029 0.091179095 -0.1538933 0.08898077 -0.25800705 -0.31607208 -0.15419312 0.18298854 -0.0021705807 0.18593709 -0.119849324 0.030988071 0.040512092 0.016579699 -0.19756468 -0.11630075 -0.009237688 -0.08597639 -0.06294346 0.1653359 -0.18277328 0.29673678 0.08486746 0.25005344 0.087700784 -0.19879194 0.016007744 -0.030947566 -0.17895827 0.22262926 -0.114370376 0.17944272 -0.2007476 -0.095635645 -0.027289616 -0.08680434 0.10542961 -0.14288443 0.13207428 -0.051178508 0.33787307 0.021333745 -0.1151467 0.3489962 -0.015635777 0.06638055 -0.28172305 -0.05180755 -0.43000755 0.14528055 0.038109142 0.018843018 -0.12084374 -0.15687513 0.0045688464 -0.0027047356 -0.02791425 0.3560728 -0.035260513 0.1343552 0.16161816 -0.046392035 -0.05930154 -0.13208804 0.15356322 0.01137747 0.16179071 0.21321109 -0.20287722 0.24155515 0.06893504 0.0060709035 -0.026400985 -0.03775807 -0.17947842 0.0527 0.06817332 -0.027032431 0.04710937 -0.2721355 0.07702799 -0.028796727 -0.09669253 0.21430449 0.42589113 0.33873641 -0.07955938 0.018590327 -0.19068518 0.055700008 0.15080509 0.049226042 0.08933361 0.15143755 -0.098483816 -0.3811265 0.030783746 -0.27834016 0.13534701 -0.048301656 0.04283896 -0.018409586 0.07110796 0.120613925 -0.021530911 -0.083520226 0.057849254 -0.21790072 0.03487397 0.20474637 0.017527051 -0.31303996 0.28562397 -0.13079803 0.16312687 -0.124221034 -0.07967691 -0.052893 -0.07639874 -0.2365812 0.060543783 0.36383164 0.106291495 0.14059423 -0.11773978 -0.076689236 -0.09739045 0.14429142 -0.1490674 -0.20927121 -0.032492556 -0.11928916 -0.15854563 -0.027348774 0.050805002 -0.070988484 0.029407382 0.0011305168 0.19243915 -0.17459 -0.05003776 0.23218381 0.1568541 -0.15219124 0.13160704 0.12304187 -0.053351738 -0.32946014 0.10210351 0.12637371 -0.09572547 -0.28569695 -0.004344631 0.07864679 0.19465975 0.23367058 -0.116750285 0.018250149 0.1896827 -0.17753825 0.10813695 -0.0101160975 -0.2537269 0.08109521 -0.020478588 -0.2302323 -0.32994902 0.08837701 -0.1900786 -0.025770329 -0.02617963 0.14293367 0.18059008 -0.19834104 0.016011441 -0.007987108 0.13079204 0.14413643 0.23057044 0.02278431 -0.25886896 -0.09169095 -0.028697785 -0.21374229 -0.005295878 -0.003952453 -0.10722364 -0.13333017 -0.002904904 -0.029389419 0.067822665 0.0065452913 0.072332256 -0.18330745 0.16345806 -0.09681636 -0.02428556 -0.18262744 -0.040420994 0.21679379 -0.059903216 -0.31230927 0.083086506 -0.22194926 -0.17289923 0.036938753 -0.31384152 -0.1536241 -0.013524366 0.23545225 0.11085228 0.053984724 -0.27182162 -0.0054838583 -0.03739317 0.076465346 0.055640757 -0.2004686 0.05953452 0.19812997 -0.25332826 -0.08133513 0.2962346 -0.023329882 -0.17545247 -0.09841815 -0.24517511 0.23347577 -0.3082103 -0.23641492 -0.036600597 0.11708494 -0.18282498 0.23856525 -0.12564658 -0.0061762594 -0.034891825 0.08013827 -0.1257586 0.0075579877 0.28570297 -0.14143026 -0.13608846 0.26415014 -0.36152658 0.18534389 0.1438762 0.04553333 0.106042564 -0.23636802 -0.07778773 0.06746442 -0.124403104 0.06266021 0.21802795 -0.0150267845 -0.24471346 0.09439658 -0.055076893 0.039643295 0.13244411 -0.12861341 -0.30584314 -0.17388593 -0.13201083 -0.15745355 -0.24362396 -0.24079031 0.038882405 0.3727239 -0.16914551 -0.16838704 0.20843214 0.005436049 -0.113291144 -0.32626674 0.0944026 0.2787422 0.28651422 0.17510957 -0.08324608 -0.023197569 0.11842357 0.03033288 -0.06902862 -0.21532744 -0.21448773 -0.11232527 0.36252642 -0.06340123 0.06739254 -0.18350868 -0.16651614 -0.053247683 0.17685437 -0.37831557 0.033983495 0.034376852 -0.048799854 0.115702234 0.1432414 -0.20893802 0.25556782 0.042901494 0.20252743 0.06301882 0.23656368 0.16502121 0.064076096 0.053684432 -0.05612461 -0.17857096 0.15804307 -0.112043105 0.2349903 0.0055223624 0.052295085 0.10341386 0.22622171 0.05397843 0.103302695 -0.27754012 0.2730297 -0.2297758 -0.2732196 0.2226429 -0.2375466 0.07879607 -0.04698193 -0.025204862 -0.470737 0.055969305 0.039516777 -0.011371513 0.10251865 -0.22315367 0.13477243 -0.08213988 0.19787131 0.13778982 -0.20698042 -0.41146663 0.3383844 0.24266666 -0.10196476 -0.113837235 -0.35822585 0.12435023 -0.06490663 0.13534345 0.10860388 -0.13809139 0.21585733 -0.10228406 0.28082561 -0.12387608 -0.0012968087 -0.032234754 -0.4095285 -0.23870613 0.088083565 -0.18653764 0.26624662 0.06834512 -0.021786677 -0.39333114 -0.1496766 -0.12293449 0.025247827 -0.2315876 0.0024738538 -0.1014011 -0.26059452 -0.08168089 -0.35574472 -0.123004675 0.00873011 -0.03015065 0.17709762 -0.33701345 -0.2025329 -0.24392684 -0.3188542 0.23067321 0.21623576 0.1003676 -0.16570695 -0.21061467 -0.21331349 0.3334926 -0.0127361985 0.22748508 0.043341644 0.11187848 0.30283394 -0.06877505 -0.31451488 0.1360807 -0.07203337 0.12088293 -0.21962477 -0.09300584 0.28251857 0.01924864 0.07904163 -0.10748518 0.17745149 0.3579292
body 0.09559402 -0.10697003 0.03720188 0.037069358 0.15712833 0.10646219 -0.09281756 0.10634931 -0.060969997 0.2383653 0.14269395 0.2298214 -0.08383656 -0.05945989 -0.02814259 0.011820921 -0.24589682 0.05020512 0.11057422 -0.056611862 0.25814408 0.048552576 0.32419053 -0.07790192 -0.28053796 0.08903086 -0.26816922 0.14614508 -0.047826543 0.12774044 -0.26576948 0.11698848 -0.2702327 0.16402045 -0.24529573 -0.045664553 -0.20152605 -0.046715174 -0.19658813 -0.18610415 0.103940986 -0.08773932 0.25657037 -0.0038034783 -0.021532798 0.2669523 0.108953066 -0.1185632 0.0103982575 -0.07549305 -0.18441017 -0.060095645 0.12395774 -0.2924744 0.16092776 -0.053928696 0.027700396 0.06661035 -0.13660568 -0.19793217 -0.051493492 0.12003545 -0.106887326 0.16101858 0.016568849 -0.3718915 0.18363158 0.22412658 -0.2498183 -0.1740866 -0.022513146 0.1093451 -0.011515314 -0.25965816 -0.28009376 0.22379006 0.15071978 -0.048883736 0.08625718 -0.35217217 0.12857944 0.11396276 -0.33374816 -0.28375334 -0.011996256 0.018838586 0.043485627 0.038894467 0.26689953 -0.11190646 -0.077885024 -0.13465193 -0.13195105 -0.27309367 -0.10763972 -0.17600536 -0.08936632 -0.045231886 -0.35638097 -0.02649845 -0.087273516 0.050965365 0.30707288 -0.13997363 -0.2919838 -0.058609914 0.25213414 -0.08790216 0.23251294 -0.019206012 0.3036002 -0.16449238 -0.32769376 0.027115058 -0.15398169 0.10809949 0.2669796 -0.07413813 0.28291076 -0.19206686 -0.3377893 0.18484354 -0.14228156 -0.12184815 0.046606004 -0.07326117 -0.06567563 -0.106464505 0.11975036 -0.33192748 0.15091103 -0.26618156 -0.0027064248 0.12342472 -0.09932192 -0.22441037 0.20411544 0.3050246 0.24659276 0.18917644 -0.28432086 -0.18360955 -0.031168396 0.13142042 -0.21050227 0.02039721 0.07795854 0.026866455 0.024733592 -0.08100484 0.08986337 -0.056403663 0.08906173 0.1284177 -0.18190224 0.14387128 -0.25939202 -0.122520156 0.19521718 -0.032363247 0.104293 0.32226115 0.2221814 -0.31129572 0.08267334 -0.1267908 -0.07178211 0.23166323 -0.015352202 -0.20216972 -0.16341135 0.24023095 -0.14401415 0.054599192 -0.26490852 -0.012739585 -0.02457752 -0.25392357 -0.10661506 0.03903187 0.06682301 0.007434539 0.05531233 -0.12925261 -0.19834727 0.16373575 0.10714319 -0.04009491 0.17285872 -0.036385015 -0.09055905 0.12838282 -0.06635622 0.13041776 0.108602755 -0.08893301 0.106299914 0.35269123 0.20234168 0.031149266 0.14447978 0.14762671 0.016025778 -0.11088148 -0.3603239 0.2583027 -0.13520655 -0.43127045 -0.07466711 -0.05286372 0.050823968 -0.096582144 -0.20633227 -0.0782622 0.073613636 -0.005895333 0.09673723 0.3057285 -0.11034653 -0.05237906 0.05124386 -0.29851398 0.41207388 0.13602346 -0.05197303 0.21473753 0.31423256 0.2663714 0.1910341 0.17888226 0.005874257 0.06957077 0.034743622 0.006477293 0.3503982 -0.005548852 0.08090888 0.005388291 -0.056213114 -0.27030724 0.1031489 0.1687946 0.2706657 0.22199005 -0.30962852 -0.13780023 -0.13802023 0.41347542 -0.249151 0.1697258 -0.07347146 0.0734541 0.1551028 -0.10949125 -0.2794469 0.34410313 -0.017745426 -0.28381664 0.13113044 0.0812244 0.2966135 0.1144187 0.02227258 -0.12722297 -0.07279067 0.014028132 -0.14628907 -0.43197587 0.052483052 0.19499113 0.030454515 0.20867693 -0.23633024 0.043379813 -0.112582095 0.066540115 -0.051280066 -0.15742436 -0.24403442 0.0707527 -0.09659867 0.15271607 0.295858 0.3785186 0.089578085 -0.2978106 -0.18464679 -0.27290252 0.15431161 0.08659139 -0.16472383 -0.15784512 -0.057466146 0.085238226 -0.034619525 0.23226613 -0.20909347 -0.1406449 -0.0550304 0.2044129 -0.21320277 0.3572664 -0.10038343 0.20446876 0.24065101 -0.02956649 -0.102632225 -0.1345744 0.27083817 0.34320346 0.18863559 -0.21019484 0.026959084 0.045021772 -0.18730742 -0.013690724 0.022661583 -0.07978245 -0.10826441 0.086409524 -0.35412976 0.42319894 -0.11043844 -0.07215768 -0.29887593 -0.36059076 0.09068507 -0.2029418 0.31912965 0.36454308 -0.027240744 -0.18011945 0.16331126 -0.26718676 0.2912953 0.029814662 0.34648445 -0.23679937 0.008495812 -0.08574107 -0.050560188 0.22374043 0.12405268 0.037768073 -0.15856531 -0.15590928 -0.31553468 -0.06519984 -0.029829776 -0.31053713 -0.12329729 -0.18929589 0.2566337 0.22274385 0.11499422 -0.009529752 0.10780899 -0.15378614 0.15799634 0.16871807 -0.12592305 -0.17026198 -0.1078729 0.22895776 -0.3461074 0.19852671 -0.19295554 -0.07428864 -0.34241644 -0.26847994 0.0015945043 -0.14847487 0.12711583 -0.12746404 -0.13586609 -0.08030365 0.28617287 0.3221148 -0.1415288 -0.18849139 -0.16470742 0.036011457 0.09820141 0.07196292 0.11364275 -0.11813994 0.37059322 0.22374088 0.2193434 -0.26734224 -0.18364249 0.17092761 0.13535862 -0.09684984 -0.19346863 0.14999008 -0.059561305 -0.107481666 -0.12979437 0.009579922 0.0989283 -0.27171776 -0.210012 -0.041453853 -0.13215142 0.1422029 -0.063308895 -0.0054774685 0.2041662 -0.012740626 0.16886058 0.07137095 0.14598458 0.26108903 0.21537937 -0.24875842 0.15217392 0.054034114 -0.06693089 0.18636985 0.070830315 0.050695244 -0.05166268 0.09502109 -0.100657016 0.016203582 -0.14087847 -0.12532951 0.020858511 0.1696365 -0.0018900256 -0.16405477 -0.26022682 0.181467 -0.1792747 -0.16787376 -0.0013220271 -0.017899154 -0.15525779 0.045313578 0.19550593 0.2628045 0.23255403 -0.27867582 -0.06046586 -0.006693368 0.15435387 0.184625 -0.1512499 0.10814286 -0.22670351 -0.29578328 0.15390608 -0.16055259 -0.27988318 0.006787014 -0.033853475 -0.04620391 0.04896558 -0.1401242 0.08315885 -0.32436118 -0.07817104 -0.051782798 -0.04567703 -0.06562558 -0.13535225 -0.24627186 0.31473583 -0.0040280255 0.022911604 0.19799104 0.17779572 -0.18258184 0.037820708 -0.08527319 0.082729556 0.017047277 -0.24484049 0.17390758 -0.10313662 0.05567715 -0.15587504 0.088133365 -0.40181807 -0.11920598 0.18049112 0.43980756 -0.017418904 -0.10824724 0.039532088 0.041485634 0.028471518 0.16101936 0.36207756 -0.09452289 0.22005008 -0.059408735 0.16254301 -0.045141246 0.0049052583 0.09383829 0.010461746 0.15525222 -0.04586212 -0.0013729335 -0.1156738 -0.23290053 -0.13445634 0.19189265 0.116836384 0.12597977 0.38186124 0.10070338 -0.13094611 -0.23066507 -0.009942244 -0.030750394 -0.073277004 -0.16672964 -0.09902252 0.07983912 -0.094667055 0.11183829 0.044036675 0.14134297 -0.16390309 -0.19180317 0.07458528 0.29829648 0.08154085 0.11310912 -0.17949994 0.31057057 -0.020863896 -0.31122717 0.1426848 -0.24921957 0.14101116 -0.095664084 -0.039935034 0.3344905 -0.15716276 -0.04966863 -0.25118092 0.12265509 0.08129791 0.047348432 -0.05802943 -0.14323263 -0.0073291967 0.40474105 -0.03494569 0.028470801 -0.104916066 -0.02156709 0.18927856 -0.12012942 -0.26774007 0.22715262 0.106997594 -0.039737053 0.026836576 -0.075448826 0.047957394 -0.11046643 0.18444116 -0.0102383215 0.10504345 0.07186609 -0.17669103 0.08062063 0.04056812 -0.16061029 0.11307207 0.3532524 -0.07823436 0.029768692 0.24829893 0.15320061 0.25012392 -0.14413013 0.14424789 -0.13171738 -0.08727842 0.056333166 0.017707594 0.050640527 0.056313533 0.27558824 0.03207361 -0.20100188 0.3271781 0.16829342 0.12235741 -0.22410414 0.09632663 -0.037826285 -0.082898706 0.04330936 0.046726383 0.14843923 0.024690546 -0.01781809 0.05228506 0.09586308 -0.08253163 0.021541731 -0.022523379 0.033259522 -0.029231297 -0.1261845 0.11173011 0.09845984 -0.107495226 -0.14002107 0.28057498 0.064432174 0.05982273 -0.21862702 -0.15812153 0.06200262 0.22592226 -0.038845617 -0.093582064 -0.004631135 -0.0644787 0.18411015 0.008484869 0.05169404 0.061064553 -0.33311144 0.25515065 -0.010971832 0.114540085 -0.036598142 0.3615117 -0.36966404 0.17258555 0.07879914 -0.07305492 -0.14164823 -0.12388249 0.082693495 0.094915085 0.14312164 -0.21715167 -0.048025995 0.19193469 -0.08708489 -0.049221586 -0.104703225 0.19542287 0.21328686 -0.269766 0.35282263 0.21847782 0.039492123 -0.10703875 -0.3015718 -0.3732237 0.39608172 -0.089088045 0.32509318 -0.23713282 -0.26063794 -0.14057292 0.08681426 0.059982955 0.30277586 0.11291027 -0.0039805598 -0.011694566 -0.046287905 0.022547394 -0.12914537 0.23013191 -0.22109987 0.10213372 0.18643108
movement -0.11714595 0.2527738 0.103745066 -0.30034426 0.20219815 -0.062379565 0.21163097 -0.051155213 0.05407427 0.23283012 0.14535362 0.34985566 -0.016985692 -0.0067276005 -0.017257664 0.016511697 -0.07049442 -0.031941306 0.0019727733 -0.28253898 0.16456534 0.14608818 0.1669642 -0.123265475 0.07385972 0.1028081 -0.23615088 -0.11519834 0.24720012 -0.097898 0.13840047 -0.015759956 0.14622349 0.19318849 -0.26445162 0.096190706 -0.2112317 0.19310693 -0.06309526 -0.29331225 0.1178959 -0.13001774 -0.09396178 0.062492263 -0.1268599 0.022706002 -0.23458633 -0.13781033 0.085668206 0.19307494 0.027383076 -0.13011791 -0.13321425 -0.104192354 -0.16109537 0.040555168 -0.17586906 0.012247679 -0.11133148 -0.253179 -0.090595014 -0.032348756 0.023342915 -0.107211776 0.33706906 -0.25282127 0.23902573 0.052955586 -0.23857406 -0.062444434 -0.30664653 -0.09269351 -0.028097272 -0.28044546 0.3070623 0.16550346 -0.21183908 -0.21867107 -0.21200404 -0.13087375 -0.1712706 -0.1107755 0.13208589 -0.24648012 -0.07795261 0.036852196 -0.063462555 0.093081556 -0.11432452 0.2101756 -0.018315677 -0.1914363 0.064877614 -0.2725101 -0.07175706 -0.013467591 0.013581693 0.12471772 -0.3621564 0.21858115 -0.2686635 0.26425427 -0.14830567 -0.27621943 -0.18147188 -0.089372545 0.00388792 -0.18836388 0.18888685 0.056781687 -0.012290683 -0.117053434 0.054019555 0.22990955 -0.05810476 -0.0737248 -0.062492993 -0.10666685 -0.097788654 0.021755017 0.0777755 -0.001812821 -0.08059591 -0.12758425 0.19969377 -0.38035208 0.040080994 0.16097131 -0.0991624 -0.26332065 0.33185208 0.16967748 0.012513933 -0.017402155 0.18163463 -0.12279717 0.06948615 -0.066625886 -0.061721593 0.07917457 0.13146116 -0.1699769 0.036082644 -0.027361512 -0.44401377 -0.035084467 0.1709293 -0.04723046 0.076853506 0.058668282 -0.14739996 -0.046902403 0.19073102 -0.106929585 -0.23271455 0.072291106 -0.021563103 -0.16164806 0.40294224 0.17577533 -0.17337711 -0.1256072 -0.037763413 -0.2485965 -0.039867416 0.2822908 -0.026536884 -0.2484442 -0.03929792 -0.2848087 -0.1727311 0.31769672 -0.091003746 0.26482067 0.18072274 -0.08882939 0.15252994 0.085657544 -0.06201829 0.1813287 -0.009066358 -0.06646944 -0.19475901 -0.10875776 -0.212463 0.1553898 -0.25853062 -0.19377032 -0.042566422 -0.031567477 0.12928359 0.12959105 0.25160646 0.030852923 -0.021266233 -0.14647031 0.034642 0.04108283 0.20873716 0.17641458 0.15386732 -0.063120626 -0.2342775 0.087155476 0.017822538 -0.2724903 -0.11496576 -0.16133569 -0.037846867 0.18677126 0.13449459 -0.075394325 -0.2227018 -0.039022993 0.2341908 -0.16119996 0.27152488 0.18548934 -0.13317962 -0.09306259 -0.17637916 -0.20546404 0.33270642 -0.034780648 0.031887315 0.17888476 -0.053936888 0.019434959 0.23739158 -0.12177514 -0.22157925 0.21591492 -0.027894042 0.09224753 0.17616704 0.06767625 -0.13860725 0.19587332 -0.23662603 -0.20773633 -0.20993343 0.22639652 -0.13598259 0.097652815 -0.037359077 -0.07173374 -0.33258906 0.10511992 -0.13579747 0.30327532 0.07643032 -0.07187271 -0.03183735 0.07268567 0.12399044 -0.05415287 -0.072783455 -0.2460394 -0.09338327 -0.27173644 0.35031286 0.27619562 0.17380795 -0.060360618 -0.2754219 -0.27658907 -0.0005120638 -0.10678544 0.018694164 0.0141767375 0.0177309 0.08450072 0.10605298 -0.19450304 -0.08958889 0.33339512 0.0314075 -0.25362018 -0.33770317 0.20893821 -0.0153147895 0.29161918 0.0935096 0.30690655 0.25998852 -0.22605212 -0.14867912 -0.028914925 0.3280859 0.16320102 -0.15981892 -0.18235801 -0.35757175 0.2592275 -0.14025335 0.20791411 -0.053101953 0.008794808 -0.06347283 -0.20856017 -0.1274234 0.4494029 -0.22001915 -0.11274557 0.16375457 0.04520264 0.12540609 -0.21571305 0.0704788 0.12379807 0.12202726 0.11430553 0.19070399 0.20368345 -0.109160215 0.110435024 0.06377311 -0.25237215 0.14021568 -0.072828814 0.1716588 0.29752883 0.00045433393 -0.090973996 -0.18511711 -0.12675025 0.07568391 -0.14324269 0.085768096 -0.19165719 0.037412804 -0.1907362 0.019088527 -0.2712481 0.424718 -0.038706325 0.2700866 0.07425382 0.18888521 0.23245269 -0.2192397 0.13849199 0.21259625 0.009962002 -0.28285608 -0.08008987 -0.47408023 -0.069789186 0.017806938 -0.064973794 0.15838465 -0.16986135 0.13629647 0.017672872 -0.07775201 0.07676919 0.10163464 0.32025424 -0.03295768 0.014467296 0.15115191 0.27400497 -0.021974936 0.0791299 0.2158204 0.13116534 -0.11557149 0.07332248 0.00047137486 -0.30735376 0.32412702 -0.037279647 -0.14754753 -0.10717584 0.16752668 0.312975 0.19582775 0.28990895 0.222056 -0.35424194 0.14262174 0.28262904 0.023196638 -0.24503422 0.15463738 -0.05702755 0.018920233 -0.14216438 0.04421132 0.15275106 -0.25116563 -0.13041203 -0.08933972 -0.2723659 -0.34619367 -0.17715661 -0.21013676 -0.10665832 -0.21468116 0.027116397 -0.21080592 -0.14461522 -0.035866883 -0.24875198 0.10606031 0.17489605 -0.0067134863 -0.17048647 -0.014893619 -0.11245529 -0.010625819 0.19642986 -0.16169351 0.22138815 -0.027321905 -0.35004815 0.19677395 0.15636176 -0.15305823 0.022360584 -0.04091177 -0.2024776 -0.1385818 0.16969594 -0.1773847 0.09816338 0.40726653 -0.10881057 0.06821739 -0.33426303 -0.10737978 -0.31133142 0.1624012 -0.07389028 -0.1422514 -0.023665953 0.1348006 -0.20882766 -0.04969675 0.25475577 -0.12491688 0.23968485 0.33112925 -0.04140731 -0.002896555 0.03725439 -0.08179156 -0.30254138 -0.021265373 -0.03263999 0.11703091 -0.08132088 0.123559885 -0.08405881 -0.03632232 0.024345646 -0.029304082 0.17948844 0.21126005 0.13028875 -0.17700344 -0.09974819 0.09668166 0.09667189 0.16225192 0.0054513407 0.05486064 -0.4668146 0.28725296 -0.178704 -0.034522887 0.14844558 0.09127902 -0.043052398 0.00056429463 -0.023658054 -0.09642579 0.32525325 0.001207044 0.06820809 -0.032405578 0.27706325 0.18736029 0.23290184 -0.23698361 0.26143894 0.1302091 0.22464861 -0.12387185 -0.2066354 0.004447132 0.3979577 0.11317482 -0.015694313 0.3359458 -0.2196733 -0.08947884 -0.16427152 0.042470306 0.22805591 -0.13296239 -0.055114858 0.06474567 0.43141493 0.01844557 0.32270953 -0.20086645 -0.12641636 0.1633578 0.044297304 -0.010116029 0.069349945 0.07534243 -0.11972069 -0.067579076 0.050607193 -0.08420789 0.12432366 0.17944482 0.09772734 -0.07951347 0.05158729 0.20917237 -0.0101374565 0.02929562 0.070383735 0.33996853 0.07086898 0.10862853 0.06523922 0.18950029 0.09141379 0.15981914 0.044246994 0.046083614 -0.08923548 -0.19330487 0.12579712 -0.042054284 -0.25163847 0.005357802 0.116174385 -0.25956118 -0.059635013 0.15485099 -0.068677574 -0.3493556 -0.13356814 -0.025693202 -0.024231235 -0.051556084 0.16817838 0.04543681 0.008318926 0.14466734 -0.032498933 -0.082097806 -0.09053051 -0.13292488 -0.046513837 0.09767121 0.09981709 -0.031464696 -0.04477099 -0.3089834 0.19255331 -0.06409121 -0.41799322 0.2105277 0.057688918 -0.12791514 0.12940021 0.10142964 -0.29712677 0.20472339 0.16822526 -0.02666901 -0.12150778 -0.12793992 0.036954112 -0.13263556 -0.35083058 -0.09559288 0.008794342 0.1994134 0.17560373 0.2985429 -0.052602015 -0.10272934 0.108919054 0.058498777 0.06586606 -0.03421249 -0.24673437 0.27480358 -0.052555755 0.09742333 -0.043513518 -0.2760072 0.15275185 -0.15388429 0.1667692 -0.32507926 0.19474839 -0.004213784 -0.22912638 -0.15640226 -0.008754114 -0.15635693 -0.021428969 0.07942918 0.13462983 -0.059368495 -0.37726814 0.19522738 -0.022631843 0.23943111 -0.021605875 -0.15489425 -0.31856635 -0.14345297 -0.14018373 -0.034807455 -0.0820901 -0.09701619 0.27814293 0.22971764 -0.20681822 0.013587277 0.29806885 -0.2803194 -0.44701517 0.058312625 0.16751648 0.07472192 0.14670159 0.06863742 -0.33297345 0.003264365 0.016319465 0.033468463 -0.10853472 -0.17363143 -0.043809745 -0.087621234 -0.07733893 -0.43392688 -0.015408348 -0.061120663 0.12172296 0.110224955 -0.0632857 -0.2579555 -0.18048467 -0.16680932 0.091705024 0.08445422 -0.0066727814 -0.31410956 -0.08852697 -0.02097179 0.11901076 -0.04328286 0.25203788 -0.06067637 0.026930675 0.0708258 -0.31270823 -0.33236098 0.043372992 -0.15639542 -0.09004658 0.09232373 0.06419373 0.21754555 0.0904918 -0.34351528 -0.33076113 0.05287499 0.29979518
world 0.35080758 0.10483594 -0.03973373 -0.03978448 0.110043585 0.15718625 -0.037179783 0.09467081 0.16811636 0.24726933 -0.11838612 -0.011794389 -0.06886305 0.024884509 0.10338054 0.08142754 -0.16912013 0.12856117 0.021034075 -0.3722187 0.4615651 -0.07635859 0.17563917 0.21935794 -0.15165281 0.008076021 0.19350176 -0.21061854 0.19758491 0.10083318 0.16670975 -0.028603459 7.0883165e-05 0.12510106 -0.27983943 0.22458576 -0.00041600448 -0.12214512 -0.0608125 -0.11019788 -0.30129093 0.035082024 0.20984545 0.16622755 0.004312389 0.2130763 -0.24260953 0.006765156 0.1395501 0.10759389 0.10402547 -0.1691462 0.081339285 0.2712305 0.097271174 -0.1155792 0.20256798 -0.08480749 0.17141035 -0.009281596 0.3142178 -0.17984419 -0.20368046 -0.11302565 0.28695282 -0.18314362 0.07175065 -0.31065142 -0.15733269 -0.2376668 -0.21143506 0.23302813 -0.13850248 -0.17275253 0.007310855 -0.06395908 0.037368078 -0.10368948 -0.17347069 -0.1467763 0.32831445 -0.072545536 -0.11998205 0.15660086 -0.1468709 -0.080343224 0.14432159 0.2656367 0.07644222 0.029751157 -0.029671255 0.09125404 -0.04217603 0.014201938 -0.27156422 -0.19450974 0.041129004 0.23449405 -0.32356054 0.04124104 -0.22943313 0.24327098 -0.106332876 -0.14938678 0.1645136 0.106128946 0.25786284 -0.13736568 -0.09882009 0.22005199 0.14351623 0.05799181 -0.16296318 -0.031386245 -0.14417768 0.14748128 0.17928429 -0.10020076 0.094043896 -0.32227504 -0.14551806 0.07934442 -0.2875798 0.06689974 0.30489355 -0.23123328 0.025421672 -0.07228501 0.053688496 -0.14756225 -0.0037706732 0.11558811 0.18444934 0.0654127 -0.08581003 0.17018507 0.12003567 -0.004225148 -0.117341444 -0.028311813 -0.07984185 -0.123700134 0.088824175 -0.041422237 -0.045450475 -0.084651895 -0.042675294 0.014751305 -0.054519042 -0.107479624 -0.09454767 0.3307335 0.1698591 0.04875256 0.35109007 0.031612538 -0.1713867 -0.11100612 0.09350242 0.27468288 -0.20970993 -0.13272688 0.31397343 -0.22630617 -0.20240606 0.15205427 -0.21015511 -0.047886934 0.20759223 -0.19342612 0.043785993 0.14470045 -0.28954715 -0.14617017 0.12835656 0.06483793 0.01541403 -0.05921811 -0.12922694 0.20921437 0.14644632 0.017468514 -0.17300713 -0.31280553 -0.10520084 0.2744808 0.02029928 -0.028266689 -0.103985146 -0.18991984 0.030723348 -0.046447266 0.23031944 -0.21536052 -0.2133463 -0.43522254 0.21988212 0.15571588 0.4495062 0.18152909 0.24540395 -0.06089097 -0.16547626 -0.3451658 -0.15630889 -0.24415746 -0.049017545 -0.33527616 0.19731931 -0.1646832 0.14372975 -0.027491683 -0.18118761 -0.14716157 0.057652418 0.053273037 0.16795841 0.2774615 0.039124735 0.18553147 0.037317634 0.13550459 0.43363345 -0.25184783 0.052294593 0.05448464 0.30731797 0.13818918 0.07297241 -0.0045178947 0.018159471 -0.021702843 -0.0019224312 -0.30985248 -0.04558791 0.31559646 -0.1785266 0.05773438 -0.20129955 -0.19574541 0.1443294 -0.17849079 -0.14461778 -0.13435538 -0.28076306 -0.039238766 -0.15033062 0.24383458 -0.15321523 0.13584597 0.076526515 -0.017886346 0.13982996 -0.04661245 0.051992826 0.057722848 -0.03148383 -0.29878676 0.17598662 -0.1802439 0.22789523 -0.13236316 -0.1424272 -0.054559343 -0.23998505 -0.25260454 -0.28889158 -0.19032511 -0.26009017 -0.31031933 0.17242749 0.18836617 0.10011823 -0.07369552 0.022215702 0.22884244 -0.15416819 -0.100918196 0.06996563 -0.1880109 0.09469664 -0.12936045 0.28730035 0.37848172 -0.0061239535 -0.18458292 0.024800174 -0.10755081 0.06938302 0.044394415 -0.11982221 -0.01478255 0.17962597 0.21753217 -0.2939298 0.2715784 -0.34388295 -0.22866063 -0.15354422 0.12412052 0.24679628 0.39752173 -0.059103053 -0.067673065 0.028483141 0.17832418 0.32280657 -0.32536292 0.27618152 0.35953486 -0.007834713 0.10593041 -0.15163532 0.16137719 -0.17895997 -0.09615719 0.0033394848 -0.13396074 -0.064690255 0.35608554 0.0758089 0.2911599 -0.06533099 -0.0720856 -0.077054426 -0.14346322 -0.23016378 -0.017743157 0.2038737 0.15491945 0.06988438 -0.2847084 0.051658534 -0.2464629 0.026576769 0.11470468 0.16360562 -0.20058665 0.2735073 0.059045095 0.041827712 0.22858231 -0.0882933 0.22730774 -0.009452551 -0.18864115 -0.46023458 0.09098856 -0.11477142 -0.30430874 0.10101814 0.2477595 0.0065102787 0.090082586 -0.31514624 0.12318742 0.26734012 -0.027173897 -0.17260648 0.18919076 0.20847487 -0.028334398 -0.050525557 -0.0767109 -0.3272693 0.3497221 -0.18121296 -0.01764121 -0.34115252 0.15223692 0.22131352 0.2605001 0.20335418 0.16454686 -0.08893499 0.10074296 0.38177216 0.28809127 0.0367852 -0.35287157 -0.11218397 -0.012616296 0.01690513 0.07223532 0.30657992 -0.09265733 0.28185138 -0.23352377 0.034034573 -0.04087093 0.02907843 0.11507531 -0.21148816 -0.27800092 -0.0012185763 0.0779016 -0.21586737 0.0934652 -0.01130553 0.26418656 0.19796897 -0.19383653 -0.0136674605 -0.33565488 -0.1811299 -0.047950417 0.07161494 0.15091804 0.05924724 0.12648071 -0.076362096 -0.05794082 -0.0026517028 0.40183756 -0.1481719 -0.052946154 0.19407083 0.27213615 -0.1623404 -0.15297937 0.23218267 -0.09059593 -0.023346664 -0.16647948 0.093256176 -0.032906752 -0.00799749 -0.027670395 -0.098761894 0.14240839 0.08670411 -0.33938897 0.3439933 -0.18564282 0.08845909 0.17911445 0.18256651 -0.016864292 0.066108786 0.08352069 0.12723605 0.24179894 0.009403678 0.034329973 0.1255724 -0.13976134 0.003154876 -0.19332309 0.04630894 -0.39900324 -0.028350465 -0.020048736 0.083526775 -0.12305788 -0.21909814 0.05042043 0.06332119 0.4008923 0.11034815 -0.1384725 -0.061911862 0.09804119 0.13390693 -0.07793555 -0.13578917 0.05358702 0.18510604 -0.425253 0.014932387 -0.03350909 0.108841926 -0.1969654 0.10263961 -0.24810122 0.075925894 -0.22871184 -0.056036063 -0.06288969 -0.539696 0.05409636 -0.038382366 0.13417193 -0.1880868 -0.01220019 -0.1458086 0.3211482 -0.13847105 0.20706025 -0.09929303 -0.0016311315 0.25432286 0.098110616 -0.20627585 -0.032608576 0.22105184 -0.12770201 0.0071480265 0.11406636 -0.05111524 0.18456188 0.05563355 -0.05143682 0.059844192 -0.02843427 -0.1606692 0.19616672 -0.030619264 -0.083987616 -0.34777352 0.18546715 -0.07476799 -0.0014300446 0.044467226 -0.026515562 0.062993854 0.08768229 -0.15572481 0.34239024 0.16910535 -0.07984081 0.15963122 -0.15729551 -0.1658399 0.14490215 -0.028955972 0.2651979 -0.009164775 -0.17699528 -0.18375546 -0.04720623 -0.108040385 -0.08380188 -0.018657058 0.26305312 0.1656596 -0.015149118 -0.005928505 -0.18513346 0.06462388 0.002726407 0.15314859 0.18230246 -0.16388717 0.22078612 -0.12403708 0.11775124 -0.11161726 0.121515974 -0.1120395 -0.11641328 -0.11045849 0.17924683 0.29917645 -0.22401556 -0.028961152 -0.022754256 -0.011864771 -0.1614487 -0.15700342 -0.06659252 -0.08641375 -0.06729912 0.35147724 -0.020859053 0.036621757 -0.037352417 0.18072297 -0.085306264 0.2539254 0.16554773 0.09824857 0.09306329 0.16743042 -0.23552178 0.13591145 -0.06320937 0.0629869 -0.03401615 0.0031543835 -0.09322818 -0.09122977 0.024023335 0.27521372 0.018637141 0.3393034 -0.06498458 -0.04083721 0.011721599 0.037169877 0.2830777 -0.112754636 -0.13357137 0.08880824 0.08494967 0.27394187 -0.2875856 0.07911617 -0.056930013 -0.40000457 -0.05353618 -0.057378486 0.32747486 -0.29183307 -0.14204367 0.09114395 -0.027344013 -0.11213427 -0.09393264 0.04174375 0.41363442 0.083993986 -0.06422701 0.034995154 -0.46651852 0.2865564 0.14090398 0.29481757 -0.029712861 -0.13860333 -0.34403342 0.039103504 -0.12470825 -0.13643377 -0.20950615 -0.2723525 0.1733639 0.21796364 -0.2947657 0.20305969 -0.02801869 -0.24607378 -0.14399268 -0.0034414653 -0.089894354 0.27286017 0.046553403 0.1814373 -0.26442778 -0.059450716 0.045860637 0.071259126 -0.031514112 0.28733295 -0.03573955 0.164504 0.36884215 -0.14103293 0.030160872 0.08203545 -0.32184288 -0.00938746 -0.012594027 0.1577845 -0.2155721 0.055562474 -0.08035183 0.18132277 -0.0627981 0.012839726 -0.35656485 -0.25474355 0.022663405 -0.064900644 -0.0119878305 -0.3110831 -0.10261438 -0.1173133 0.15933421 -0.048117407 0.1737698 0.14774121 0.23181483 -0.26827207 0.28597575 0.3511528 0.042987525 -0.1777259 0.08301963 -0.056643616 -0.12304816
teeth 0.03487171 0.025267348 0.17666335 -0.07939068 0.14071131 0.07632398 0.036504935 -0.13065924 -0.20742224 0.36066744 0.051415276 -0.033911955 0.036940105 0.117272526 -0.01688786 0.017545203 -0.20179015 -0.012620417 0.21988252 0.14205728 0.18958631 -0.016242746 0.09038215 -0.11612992 -0.007435059 0.057955783 0.1457431 -0.12391749 0.25410268 -0.17062289 0.012425902 -0.06946835 -0.08155164 0.48577854 -0.19099844 0.076936714 -0.088698216 0.09315603 -0.09395194 -0.37769166 -0.38865703 0.13960713 0.14266044 0.04755693 0.1166023 0.046317276 -0.07332125 -0.22033086 0.17100035 0.20618229 -0.102900006 -0.053370662 -0.05097924 0.003336729 0.23766416 -0.005393523 -0.05068868 0.17405467 0.07301176 -0.1556605 0.032657593 0.08360078 -0.0060255257 0.009929025 0.34280044 -0.06283832 0.30330262 0.03824503 -0.026693737 -0.14652272 -0.2731593 0.12195701 -0.20397188 -0.05999923 -0.23155153 0.1468734 -0.030445408 0.022268806 -0.2636109 -0.17392476 0.16809642 0.041374862 -0.0048065884 0.110060714 -0.19655193 0.026850441 0.08601756 0.20607421 -0.072168104 0.22230327 0.14004326 -0.04293017 -0.26035655 -0.12539236 -0.3903052 -0.3160054 -0.12997663 0.12290275 -0.46946827 0.0119242715 0.06637452 0.22946966 -0.029061902 -0.0032110894 -0.22862542 -0.021050246 -0.0066600316 -0.014324322 -0.1353174 0.081447005 -0.15188697 -0.10060911 -0.3328295 0.034900367 -0.047685716 -0.19195312 0.3276702 -0.41255477 0.003525381 -0.02853455 -0.08093074 0.15947199 -0.21968448 0.025586642 0.023279052 -0.11794505 0.057778142 -0.10927887 -0.29078543 -0.0647176 -0.0017675003 0.08101929 -0.2560237 0.12582284 0.104349956 -0.015714554 0.13899326 0.08142789 0.14964554 0.37154552 -0.10646176 -0.17927119 0.16245626 -0.24286272 -0.25358272 0.090894885 -0.014906063 -0.11816606 -0.13119125 -0.14844865 -0.1413243 -0.21349981 -0.029546862 -0.14509106 0.0053008036 0.13767444 -0.005774389 -0.027765602 0.13186178 0.15535371 0.09520736 0.043404132 0.13075723 -0.064684756 -0.24770445 -0.18286632 0.20834383 0.06719771 -0.07600466 0.14081033 0.20038715 0.47088334 -0.16304056 -0.2145616 -0.0524999 0.12843412 0.031418514 -0.02061165 0.10134729 0.2711041 0.05958675 0.22777782 -0.19444472 -0.025043735 -0.0871631 -0.07938192 -0.247034 0.13995257 -0.1298422 0.052108765 -0.22318095 -0.018244915 0.38225302 -0.04203549 -0.23097247 -0.06581675 0.05793883 0.38954717 0.11476101 0.25444216 -0.08659057 0.06507949 -0.107327096 0.17288706 0.02203674 0.13617224 -0.15993164 -0.25857833 0.19118218 -0.007533179 0.18389526 -0.10100752 -0.058168173 -0.07933409 -0.03308473 -0.053689316 0.07767042 -0.13958646 0.061641585 0.035523232 0.013729333 -0.10870162 0.36296698 0.12388071 -0.13634561 0.06345788 0.17521933 0.1762727 0.30847648 0.050408624 -0.17132305 0.30424085 -0.107191965 0.3149751 0.1879471 0.2829295 -0.41677976 0.13131753 0.0075613246 0.16831578 -0.053841375 0.0015044372 -0.13075541 -0.11583434 -0.018482666 0.18453534 -0.32178688 0.35075837 -0.10600253 -0.01898501 0.23570512 0.017197885 -0.12376313 -0.19806772 0.09965722 -0.042984027 0.021119816 -0.37377843 0.072520964 -0.29930148 0.35001865 0.0710519 0.07251718 0.1422802 -0.1566441 0.09874761 -0.0044541173 0.15961966 -0.17877011 0.13488136 0.041010413 0.32050365 0.112740904 0.08614983 -0.10785412 0.15619472 -0.111677155 -0.2037334 0.07867048 0.07654488 0.055421613 -0.15313388 0.23364596 0.10386791 0.094082735 -0.32408202 -0.19376455 -0.02703676 0.14008532 -0.023121 0.0914557 -0.15570375 -0.07207977 0.2218876 -0.26301333 0.119509056 -0.06600151 -0.014930539 -0.4538912 -0.021170732 -0.22044516 0.52244425 0.053270027 -0.10800466 -0.11620853 0.11728412 -0.11043379 -0.036514193 0.37086466 0.1581701 0.13247904 0.29192972 0.086224265 -0.19207592 -0.22031364 -0.10229184 -0.2481302 -0.16633347 -0.14213164 -0.058053024 0.104348965 0.47675174 -0.059603386 -0.33939397 -0.3156351 -0.31601194 0.007320186 -0.2899007 0.17098957 -0.09404016 -0.14683113 -0.25390622 0.1467916 0.06723113 0.1049577 0.1742076 0.08781312 0.10879184 0.12117609 0.19253199 -0.29109186 -0.04848244 -0.11756836 0.31228653 -0.40145034 -0.11102914 -0.28244394 0.051122554 0.1841246 -0.29370144 0.027416438 0.026220426 0.10951702 0.16674276 -0.2625045 -0.032234892 0.023427214 0.13908564 0.09510886 0.3686733 0.221257 0.031962346 0.152657 0.34698737 0.09199347 -0.017344855 0.19249125 0.23288964 -0.4279155 0.011671727 -0.11702902 -0.15332969 -0.11418459 -0.14211848 -0.0150409965 0.02368085 0.051868506 0.13714443 0.11279701 -0.24043974 -0.06546658 0.27933776 0.19717509 -0.19542773 0.092367984 -0.029148621 0.042443853 -0.09648429 0.20313053 -0.072719686 -0.44095376 0.06592229 0.08504165 0.040906314 -0.32869583 -0.2321695 -0.2930256 -0.10084209 -0.20583285 0.058353655 -0.12787823 -0.06389445 0.062952794 -0.30691534 -0.29935685 -0.043806035 0.004725243 -0.17323223 -0.09943408 -0.3228033 0.22637913 -0.09411017 0.17070322 0.36631888 0.094076425 -0.17640503 0.12674476 -0.14191732 0.011779947 0.10272261 -0.069899715 -0.06853604 0.063193545 0.28200236 0.08854732 -0.0714117 0.2211588 0.1736345 0.060011722 -0.41987088 -0.21902141 -0.3475756 0.28019482 -0.23674138 -0.09388779 0.23996392 -0.033316784 -0.24637102 -0.09692341 -0.024555933 0.3062065 0.00023899678 0.3298858 0.2639577 0.093075715 -0.13919333 -0.1716951 0.10483078 0.1299468 0.14487347 -0.19759934 -0.23007217 0.07163027 -0.2850258 -0.21106349 0.21732166 0.1780183 0.09351557 -0.14197923 -0.23645042 0.2019415 -0.14519553 0.008407332 -0.16552033 -0.2238689 -0.15422036 0.07195783 -0.52410024 -0.047079157 -0.16693883 -0.19841602 -0.028464235 0.16265307 -0.24057995 -0.288119 -0.06301934 -0.143424 -0.08958303 -0.42333058 -0.04925655 -0.18567598 0.008022685 -0.19916269 0.011611797 -0.096334614 -0.11585379 0.060703285 0.10556976 0.026307482 0.0012303 0.00091424386 0.49551156 -0.09855626 -0.02445806 0.047929544 0.026533687 0.03273246 0.09838171 -0.11418605 0.043656204 -0.0726238 0.026236568 -0.1422011 0.4747445 0.23949255 -0.03630939 -0.15167889 -0.06053906 -0.1471387 0.111908816 0.029004518 -0.0017401 0.26189357 -0.049991686 0.36609936 -0.020467319 -0.108302616 0.20273235 -0.16127501 -0.15341999 -0.09677435 0.2273262 -0.2636006 0.0047105225 0.08023665 0.104272254 -0.040520355 0.28254333 -0.04997112 0.24320173 -0.007914115 0.3132256 -0.027041325 0.09380721 0.20283043 -0.014891829 -0.2389086 -0.14196618 0.06690816 -0.103214845 -0.22953019 -0.1523622 -0.3374987 -0.15499602 0.15004289 0.07572295 -0.16422996 -0.0055937506 0.14327458 0.093698345 -0.0076406365 0.30409896 -0.33621642 -0.20224802 0.18032682 0.17635219 0.047334127 -0.053362932 0.044965055 0.083746135 0.21256213 0.116367914 0.30517122 -0.079786345 -0.22974746 -0.04744816 -0.093593426 -0.35907143 0.36001354 0.17376748 -0.46351856 0.051191263 0.075152986 -0.11462519 -0.106246725 0.033748 -0.14143458 -0.14741245 0.1967948 0.29501763 0.34460598 -0.088381104 0.09460006 0.07842754 0.11284529 0.049442366 0.064850226 0.11527013 0.049460437 -0.010144518 -0.14948483 0.26385894 0.19535896 0.015497637 0.23993556 0.051036626 -0.05184417 0.15639521 0.047992475 0.037861392 0.00020338461 0.3677865 -0.09993306 0.22294658 0.27486166 0.05462583 -0.030017657 0.23573922 0.005157432 0.1014405 0.14074533 -0.19567169 -0.28432724 -0.15100864 -0.021522202 0.10024404 0.15281928 0.030405376 0.2276228 -0.117641255 -0.04801636 0.37185156 -0.10603188 0.095405795 0.03318865 0.15394095 0.19693533 -0.034824297 -0.056889113 0.14021882 0.17202084 -0.08129731 0.31219092 0.02833675 0.062987 -0.1547566 0.0026374848 -0.29630646 0.30311236 -0.05761485 0.010031347 -0.11828826 -0.0975366 0.23506683 -0.08874189 0.108125605 -0.038339157 -0.3679274 -0.11402114 -0.23234114 0.17271425 0.1528091 0.18836582 -0.15679392 -0.13799833 0.46951622 -0.006377147 -0.24130948 -0.150453 -0.38737792 0.25306076 0.06479361 0.005501399 0.05181464 -0.122389115 0.042633478 -0.29838303 -0.12557803 -0.19009861 -0.058525886 0.25225902 -0.15644266 0.0034351093 0.1767489 0.15931654 0.08401517 -0.21642302 -0.10999437 0.18046029 0.07238035
eating 0.13385274 0.29035395 0.17159382 -0.32023486 -0.055740867 0.08779861 0.04073037 0.09002134 -0.14235102 0.19782203 0.20256591 0.13522531 0.12189709 -0.22911286 0.2405464 0.31023404 -0.14529416 -0.09610874 0.18402089 -0.020169739 -0.05495578 0.2121988 0.05870663 -0.10985579 0.31330952 -0.004264111 0.20414686 -0.032043286 0.23800042 0.06675777 0.13170715 -0.1855185 0.035318043 0.14202568 -0.21827434 0.12690997 -0.23128839 0.31204772 0.027097803 -0.09679456 0.14223762 0.23820364 -0.18059039 0.082377665 0.042267323 0.15323707 0.06346079 0.18161288 0.0035091562 0.24833323 -0.04656471 -0.093471006 0.10190355 -0.033475257 0.07743109 -0.13189992 -0.009761907 0.008978126 0.031197097 -0.42654386 0.060531713 -0.0816636 -0.24660416 -0.04548676 0.35055557 -0.27344754 0.17809594 0.00643498 -0.017804125 0.05288404 0.02100318 -0.04491708 -0.15715216 -0.13529268 0.18573703 -0.053807408 -0.3241015 -0.17147633 -0.42849082 -0.10044799 0.38374713 0.10656715 -0.051253393 0.023108937 -0.058966003 -0.011451989 0.16672339 0.16577953 0.2896132 0.33580187 -0.028255079 -0.17243107 -0.26151255 0.22430347 0.018964503 -0.17485641 0.10597716 0.12086188 -0.13392758 0.23162769 0.08690117 0.07605707 0.19227289 0.09609573 -0.04632515 -0.18354324 0.077272035 0.15981418 -0.14110757 0.02753024 0.043630246 -0.0510598 -0.20631237 0.3468979 0.11389038 0.010794989 0.02958097 0.11629986 -0.08853481 -0.14213157 -0.32350576 0.037798475 -0.094061635 0.030518495 0.23480058 -0.3391312 0.14303048 -0.19256392 0.17922895 -0.20237325 -0.07994243 -0.0898704 -0.18498519 -0.010286306 0.023287004 0.06159151 -0.12526463 0.074398145 -0.17608117 0.15797961 0.07385709 -0.05185118 0.08815838 0.047764692 0.059439756 -0.15823025 -0.030528344 -0.27891022 -0.06538248 0.31882387 -0.26514292 -0.0055050314 0.054071587 0.10961781 0.23444922 0.10271111 0.01927888 -0.061228745 0.5306277 0.2506665 0.21955413 0.09024668 0.013191611 -0.17751718 -0.26855797 0.17979725 0.053041313 0.05540326 0.03314866 -0.10914684 -0.14421645 0.16982378 -0.11578372 0.107760675 0.16415335 0.09082221 0.013857734 -0.2381269 -0.07246558 0.0860511 0.04276095 -0.21818066 0.10721785 -0.32098123 -0.15008688 0.09432802 0.05552531 -0.012627002 -0.077210054 -0.10054885 0.15322085 0.26605725 0.1135497 0.151929 -0.043147616 -0.12202841 0.109473154 -0.11423759 0.20361848 0.088465884 0.24375886 0.26953328 -0.00027580227 -0.03009133 -0.04413447 0.018343363 0.15054391 -0.30182344 0.09694995 -0.04956263 -0.018454576 -0.22781047 -0.35267833 -0.11116833 0.12601098 -0.23100609 0.38789988 0.1321655 0.040503196 0.017956492 -0.04588389 0.06493905 0.21254252 0.036881298 0.21522841 -0.11033565 0.2228643 0.2301005 -0.178735 -0.002813536 -0.18883151 0.121642254 0.25155437 -0.051032405 0.3043042 0.34307897 -0.11850017 0.1735792 -0.40121394 -0.017022992 -0.06742795 0.012329342 -0.1328943 0.18748055 -0.031882837 0.14133826 0.048545443 0.094813235 0.088656045 0.0022657951 -0.1499091 -0.11118004 -0.11796318 -0.03663287 -0.08585497 0.20409963 0.014530668 -0.21799691 0.07261141 0.027046017 0.048737783 -0.10846562 0.12778434 -0.32580122 -0.090156466 0.10343097 0.0906493 -0.18485233 0.245122 0.09392587 0.14637545 0.30810997 0.31268373 0.0686626 -0.02451839 0.3763781 -0.1751267 -0.43255287 0.07887269 0.04281005 -0.031122413 0.15644665 0.0012001675 0.40206486 0.3336074 -0.12547751 0.10918313 -0.13993011 0.35075068 0.24193576 0.06421885 -0.10748139 -0.11587069 0.2239649 -0.37148428 0.06648948 -0.24193893 -0.04762375 -0.46908638 0.015936239 0.22061189 0.5522395 -0.065410845 -0.2734112 -0.1371953 0.19473629 0.04161719 -0.20116614 0.3528494 0.21054971 -0.05199937 -0.09970641 0.27533332 0.129986 -0.0683074 0.23676851 0.17183922 -0.2607552 -0.096982904 0.44989094 0.1419369 0.4309337 -0.07817663 -0.040176004 -0.008481565 0.047260653 -0.2994626 0.006001824 0.15601681 0.1948885 -0.058058627 -0.193678 0.057059336 -0.10941254 0.036134735 -0.14117046 -0.15273838 -0.021633472 0.31825602 0.44284216 -0.1750395 0.173928 -0.007923349 0.0023479909 -0.26719952 -0.085527904 0.0026849303 0.079883955 0.18848516 -0.2621414 0.0023435317 0.013612753 0.10221719 -0.12490756 0.078042574 0.111512855 0.11646448 -0.06431474 -0.2685581 -0.24231271 0.11841821 0.16365464 -0.005341475 0.22395493 -0.11042926 -0.031227978 -0.28077912 0.045133222 -0.41963395 0.130005 0.08901003 -0.05555849 0.17416264 -0.12697312 -0.0086347945 0.14596683 0.075354904 0.06523847 0.038482998 -0.3323971 0.027313419 0.3984124 -0.025486331 0.26554185 0.0011522215 -0.079332195 0.032168582 -0.13072553 0.22912341 -0.30055156 -0.28342173 -0.22519563 0.065873034 -0.32120982 0.06737466 0.2738666 -0.016829485 -0.08098061 -0.19542736 -0.25934952 -0.108901486 -0.2886755 -0.14764842 -0.04594058 0.14118761 0.0936151 0.05166917 -0.102333955 0.13659222 0.14097638 0.08271759 0.064241484 0.14626354 0.25176638 0.13357031 -0.1358702 0.15723361 0.14423066 -0.123612665 -0.1472353 0.039368607 -0.18289293 -0.028441502 -0.03980214 -0.067281686 0.04526848 0.1643873 0.114607185 0.25218636 -0.16862383 -0.03752535 -0.18258555 0.13920647 0.038502093 -0.12843965 -0.034942362 0.21828458 -0.44183215 -0.24407141 0.321616 0.14609443 0.2640998 0.13937244 -0.0007429824 0.06506307 0.10544996 0.118930504 -0.15252815 -0.054341964 -0.19514269 0.015271135 -0.16955014 -0.055980537 -0.08177819 -0.41401806 0.019212892 -0.31369132 0.099306226 -0.022732113 -0.24847129 -0.28730005 -0.09089803 -0.24310608 -0.12433863 -0.04016703 0.1505798 0.13991305 -0.29294154 0.41913265 -0.07504835 0.044939533 0.031812333 -0.23080964 -0.15211463 -0.21036084 -0.21521808 -0.077238955 0.1815756 -0.44223338 0.30297172 -0.07375625 0.08239082 0.00014783537 -0.0984064 -0.1402833 0.17229696 -0.0088355625 0.35796708 -0.080937356 -0.06083102 0.02769188 0.17364633 -0.18604085 -0.15383585 0.32582194 -0.12051494 -0.032394975 0.15656033 -0.16518198 -0.2024175 -0.0057163993 0.1472422 -0.03495064 0.2441949 -0.13580926 0.38906932 -0.16424344 -0.08425223 -0.20407559 0.32978985 -0.21960796 0.023151964 0.510181 -0.035687294 0.010350146 -0.20270102 0.09594776 0.15125424 0.26405376 -0.0206691 0.28745 0.17840956 0.11218531 0.30406374 -0.3058647 0.38632527 0.34430084 0.088610575 0.042931523 0.14375196 0.33005163 0.33083522 -0.07153462 -0.10370507 -0.076693535 -0.10692872 -0.099035636 -0.043073308 0.2140395 0.059366953 0.035818808 -0.0976791 -0.38668463 0.06638251 0.07011838 -0.03067594 0.04522429 -0.30924806 -0.05992991 -0.29005095 0.058916643 0.09668772 -0.15482011 0.12287521 0.10807675 -0.0961934 0.025604498 -0.030633926 -0.0027499634 0.023954196 0.060451295 0.07594443 -0.10369003 -0.118382536 0.17690209 -0.14517725 0.11906692 -0.43966213 -0.006184151 0.120404154 0.06577467 -0.2264225 0.040471133 -0.37924042 0.16917852 0.23247385 -0.0226133 0.3784189 -0.09998998 0.07381275 0.060703374 0.25545365 0.27136186 -0.15485756 0.1368451 0.06943842 0.19339828 -0.035636485 0.28494382 0.11788547 0.039151162 0.042329784 0.28479347 -0.31500065 -0.029315129 -0.3472539 -0.09595906 0.16533065 -0.06547117 0.06474295 -0.055469822 -0.018826112 -0.3063936 -0.33046982 0.02801394 0.048736107 0.16195004 -0.24245067 0.010675318 0.08677927 0.11483567 0.08824091 -0.20963494 0.00022277585 0.27948952 -0.10192278 0.23348927 -0.07384371 -0.025343005 -0.33154556 0.1705797 0.05260007 -0.036143 0.019007627 -0.11654511 0.06228081 0.1338313 -0.06098847 0.06830272 -0.1372984 -0.23166059 -0.045585535 0.0798621 0.08085181 0.34871054 0.13829866 0.020768546 -0.18749547 0.23777017 -0.16026708 0.03178088 -0.33483517 0.019317962 0.14711589 0.2611757 0.097021274 -0.2615249 -0.40954506 0.17499492 -0.06738448 0.15490302 -0.19504756 0.10425748 -0.057033733 -0.05291048 0.32115668 0.20156437 0.11604102 0.029616356 -0.53299713 0.04772608 0.09386071 0.043968774 0.10277621 -0.037023805 0.027055144 0.02063739 -0.0050612534 -0.011227822 0.037375476 0.19626561 0.27433518 0.10790229 0.08875257 0.25393674 0.20229596 0.0006453024 0.023520116 -0.06013765 0.2352475
colour 0.28753433 0.28331134 -0.05067238 -0.0030888855 0.2938025 0.07151409 0.22496964 0.33433196 0.14587177 0.39268628 0.34176245 -0.042686637 -0.3540386 0.057788428 0.17687282 -0.014328272 -0.38005486 0.26002833 0.13782851 0.101525575 0.16066588 -0.22639345 0.060655896 -0.21265267 0.2263697 0.38504255 -0.3319646 -0.005695835 0.19304274 0.16518347 -0.16996759 0.053958196 -0.19705145 0.56066823 -0.38099042 -0.058212865 -0.18077004 0.12627399 -0.00941137 -0.18514296 0.08804504 -0.0439451 0.14367314 -0.08641883 -0.07121648 -0.2715375 -0.20499916 0.17316069 -0.14196272 0.049797133 0.20048395 -0.21603379 0.21235396 0.18685046 0.07661952 0.21232273 -0.04944877 -0.30524978 -0.11862113 -0.039532572 0.21484707 0.0810626 -0.11532104 0.16939984 0.090347715 -0.21050276 0.35291198 0.024436427 0.042009734 -0.08531925 -0.17735928 -0.018354142 0.07672773 -0.32220396 -0.087935194 -0.0347668 0.11033093 -0.012467908 -0.08486796 0.005304017 -0.15866093 0.16324481 -0.11225469 -0.28777236 -0.0026923453 0.15672351 -0.08836586 0.017807662 -0.12660056 0.16199064 -0.071762584 -0.117456 -0.4429603 -0.013843407 -0.22398303 -0.07293953 0.10915366 0.06457966 -0.2748325 0.21428291 -0.2498384 0.19421108 0.28204578 -0.32845482 -0.18355294 -0.025278216 0.16581006 0.1958592 0.15635252 0.14415237 -0.11815544 -0.37793463 0.16562206 0.091195226 0.13156626 0.13686994 0.2004856 -0.21650107 0.14898993 -0.108478665 -0.33192676 0.19211222 0.0026946804 0.020430885 -0.120193206 -0.27323177 0.045620773 -0.08107056 -0.08360339 0.043362528 0.1096523 0.29184645 -0.27008703 0.06545006 0.07606172 -0.27660432 0.27327475 0.059873715 0.025995076 0.35993174 0.22699012 0.22005072 -0.28954756 0.012315216 0.09209657 -0.040927272 -0.015421764 -0.055404235 -0.17807937 -0.12612005 0.14019802 0.06682304 -0.08458126 0.0010127011 -0.068880744 -0.049254157 -0.05951159 0.1483657 0.1619007 0.12745552 0.12316041 0.16691536 0.04100328 -0.15037051 -0.11765267 0.004480152 0.19311856 0.20425807 -0.13395143 -0.077107824 0.27003813 0.31053472 -0.059892017 0.013017022 0.11526126 0.21333225 -0.11746801 0.08219348 0.077171706 0.251207 -0.23202577 0.053759575 0.01551368 -0.2809101 -0.27867526 0.20033255 -0.21485154 -0.15657926 0.06498302 0.085162416 -0.2655486 -0.050665725 -0.06294584 0.1788583 0.027704323 -0.18982689 -0.094278224 0.17547551 0.45845526 0.13813806 0.12112231 -0.18458603 -0.18927433 -0.006736836 0.010282373 0.033151273 -0.28059506 -0.4917934 0.17860821 -0.28410134 0.22930129 0.014911908 -0.29909295 -0.04325634 -0.15582445 -0.05540163 0.021033736 0.15340404 0.20270318 -0.1027346 0.16501641 0.06202197 0.24563617 0.14112806 -0.1973716 0.25779185 0.04509107 0.44951892 0.11946171 0.02582498 -0.22537419 -0.14683306 0.0017393332 0.1907836 0.21472941 0.35154566 -0.23971803 -0.012517837 0.004050105 0.020581404 0.065273024 0.16023132 -0.19518095 0.10608376 0.067501314 0.0791986 -0.1823671 0.35373974 -0.090047754 -0.036726978 -0.0872953 0.22222172 0.2526676 0.12942575 -0.20480676 -0.24903092 0.055006895 -0.013128475 0.044602484 -0.19814402 0.1052188 0.1682979 0.17511006 0.06957041 0.06474651 -0.0054089027 -0.31050315 0.21659052 0.16644934 0.42588 0.14141165 0.35249817 -0.043814234 -0.15009294 -0.017253542 0.32454273 0.0671291 -0.07888845 -0.22514509 0.15303722 -0.12944883 0.17481722 0.18136784 0.19624338 0.28851178 -0.061636936 -0.022303153 -0.14344786 0.20353375 -0.07312792 0.024178462 -0.21052204 0.031191912 0.06468228 -0.026941841 0.093413636 0.015965441 0.0026024855 -0.16541566 0.1823834 -0.29943764 -0.044384137 -0.082438074 0.066483274 0.2096143 0.1866829 -0.074848354 0.14743954 0.3109522 0.39241275 0.15287292 -0.060897395 0.07760331 -0.06733607 -0.34557572 0.07185516 -0.13753684 -0.19659138 -0.12907203 -0.14707576 0.20547462 0.1134858 0.11636293 -0.08660036 -0.35678732 -0.27002648 -0.11068129 -0.47009182 0.29457667 0.1831053 -0.02132089 -0.08678629 0.35147578 -0.07123841 0.40158895 0.17480358 0.3175134 -0.109796636 -0.05781062 0.2805925 0.3344471 0.07881775 0.0068495627 -0.0032890784 -0.23234776 0.03741398 -0.1830532 -0.0146938395 0.021079235 -0.049347885 0.22171713 0.17298095 -0.089334704 0.18405117 0.11603073 -0.08147393 0.18016207 -0.17829339 -0.018690921 0.12412746 0.25131986 -0.012013064 -0.084569715 -0.11393809 -0.42359182 -0.024295878 -0.055976924 -0.18513013 -0.20100461 -0.20246089 -0.079442695 -0.03380174 -0.26393735 -0.027092462 0.13611107 -0.03549085 0.32595 0.16324969 0.07140974 -0.148679 -0.17642115 0.14301011 -0.038564984 0.13474707 0.26796973 0.1716883 -0.21588965 0.1904043 0.037517767 0.23390839 -0.15589146 0.14160514 -0.023099918 -0.28946888 0.092274636 -0.19768907 -0.28261027 -0.055171456 -0.114142194 0.083298184 0.09042055 -0.2632794 0.021347659 -0.022607936 0.12853692 0.2564162 -0.09268393 -0.19217856 -0.118401304 -0.16139178 0.24847105 0.1522083 0.14894669 -0.17302711 0.089007154 -0.20553628 0.051107652 0.025909873 0.20758183 -0.23089921 -0.036803998 0.024043757 -0.08499907 -0.03571391 0.039694224 -0.120332286 0.10998306 -0.13806348 -0.052667215 -0.22727135 -0.18984474 0.12785046 0.0034125745 -0.10575972 -0.2748908 -0.15079303 0.075876534 -0.31012252 -0.024849659 0.10873209 0.1960425 0.24920736 0.39441034 -0.11531944 0.21274874 0.34157136 -0.06157968 -0.29834786 -0.07565428 0.06045199 -0.18489797 -0.036280707 0.24781442 -0.059550066 -0.304841 0.044543147 0.02972214 0.27627417 -0.013222652 -0.22942024 -0.09085151 -0.24276234 0.20337112 -0.09081381 0.26120076 -0.009636927 -0.055504147 -0.23104292 0.3032308 0.1646083 -0.26120108 -0.11546615 0.23624796 -0.452432 -0.30296975 0.07101645 0.041916776 0.14076324 -0.3339514 0.19358881 0.15960748 0.14550082 -0.263775 -0.107141525 -0.06870449 -0.095327824 -0.051076636 0.23807594 -0.047975056 -0.04861042 0.16002308 0.34446666 -0.041883193 0.21452156 0.40294978 0.09033606 0.005892688 -0.47296384 -0.13788119 -0.1015397 -0.13831085 0.2503838 0.11130296 0.3175721 0.07106796 0.09062047 -0.18493801 -0.010656104 -0.28501338 0.07090086 0.07697343 0.09899316 -0.04785175 -0.022106413 0.18047754 -0.090257734 0.1470357 0.38932458 0.3678721 0.031848464 -0.19750002 -0.095803834 0.12738886 -0.008890964 -0.20364454 0.003102462 -0.16796121 0.029947033 0.17448217 -0.11634802 0.105784975 0.1451087 0.035093363 -0.04283031 -0.20394559 -0.20506227 -0.1123891 -0.11666133 0.0960847 -0.05183412 0.17165822 -0.06631641 -0.15577745 0.23322813 -0.0443526 0.1218937 -0.24898905 -0.053178642 0.00964715 -0.10806728 0.22941518 0.52787566 0.22534037 0.13133512 -0.33624765 0.03269432 -0.23260057 0.0003053336 0.109909005 0.13687885 0.29534298 0.06011374 0.1725104 0.26070333 0.10372852 0.06476165 -0.19204088 -0.26332548 0.057760265 -0.17231537 -0.27149722 0.09733104 -0.014647297 -0.1961636 -0.19470513 0.18441726 -0.008305055 -0.14834164 -0.03321116 -0.0534873 0.13555422 -0.19404109 0.021373704 0.22071202 0.12153176 0.13672161 0.098447405 0.042437576 -0.2864898 -0.10820604 -0.13227037 -0.13863015 0.14343038 -0.24863599 -0.09059427 -0.13588503 0.13196796 0.14617921 -0.11554301 0.05464813 0.09946651 0.29308668 -0.16438794 -0.21533962 0.0052957633 -0.0011998328 -0.12861775 0.18494548 0.10471923 0.2794144 0.014070021 0.14826944 -0.19646463 -0.11983718 0.05235698 -0.28926772 0.46051005 -0.042635687 -0.255663 -0.25379512 0.36285874 0.07597397 -0.0829219 -0.019212453 0.038824152 -0.07315873 -0.046725832 -0.13562551 0.21153772 -0.008210227 -0.2228782 -0.14266543 0.25721702 0.23073462 0.22111286 -0.07257271 0.24436249 -0.2703633 0.11402225 -0.21695286 0.20978782 0.15533398 0.11884738 0.2599823 -0.20846489 -0.31245878 -0.18350025 -0.05233196 0.05950157 -0.09681861 -0.25105485 0.22562893 -0.30697212 -0.03145944 -0.23380557 -0.024008436 -0.026982164 0.021007476 -0.16672744 -0.09715966 -0.03727998 0.058710758 -0.025630407 0.11067026 -0.012494711 0.10761949 -0.20375288 0.08196568 0.05061801 -0.19632486 0.09087578 0.14403448 -0.051665537 0.11012977 0.029475847 0.106459714 -0.22322549 -0.023516797 -0.012943273 0.16995938
dwelling 0.41294426 0.25599152 -0.012761715 0.08333747 0.12882775 0.014741927 0.19800003 0.025696406 0.22010833 0.04333487 0.31571153 -0.0040309285 -0.3588889 0.107382804 -0.05576056 -0.017830355 -0.12116043 0.05965217 0.1459901 0.014047073 0.12678155 -0.07892675 0.42808294 -0.07750184 -0.23045522 0.11103946 -0.100416295 -0.061319944 0.0770135 0.070269786 0.082582906 -0.10265822 -0.15591092 0.3709889 -0.22228797 -0.018150134 -0.09895682 -0.16582371 -0.108166434 -0.031925786 -0.2644687 0.17269386 -0.1297019 0.14490901 -0.1104398 0.2556964 -0.099066764 0.014485275 -0.11500556 0.09778444 0.19793186 -0.104856715 0.010216317 0.064478196 -0.029599441 0.13409229 -0.007773761 -0.075582415 0.23142861 -0.1883008 -0.013784124 -0.17880651 -0.3743526 0.058240764 0.25620568 -0.1571661 0.23729426 -0.18359736 -0.18118091 0.0041927025 0.008027421 0.043070763 -0.15236706 -0.2525538 -0.08416157 0.12006971 -0.24642059 0.07809327 0.17792831 -0.22354211 0.019413238 -0.07830048 -0.28621247 -0.048079982 -0.10112545 -0.038838577 -0.103241436 0.25285006 0.0943739 0.27835813 -0.14027217 -0.10472722 0.041753113 0.023701895 -0.07796695 0.08594573 0.39999455 0.09468176 -0.35718995 -0.20245917 -0.16356245 -0.06403663 0.1797163 -0.26232815 0.09426975 -0.2296824 0.17199199 0.09461083 0.036558494 0.015988417 0.10128756 -0.31494412 -0.46231633 0.2478198 -0.2360182 0.050028414 0.06267595 -0.2543205 0.0036227936 -0.022804644 -0.13241361 0.10577859 -0.20256637 -0.16004802 0.083890945 0.04761795 -0.074188255 0.06238938 -0.21715215 -0.06598203 0.20870426 0.07612526 0.03295161 0.1822052 -0.029539626 -0.07711624 0.17136666 -0.09216977 -0.03416501 0.41528434 0.15241128 0.03827018 0.10045844 0.06308872 -0.058292486 0.060770486 0.039751407 0.0017930819 0.0006237703 0.18325734 -0.107598506 -0.0069172517 -0.13091548 -0.013843157 0.06419389 0.27785185 0.04837231 0.15160201 0.25469816 0.31633848 -0.18764883 -0.12988508 0.15806761 -0.38571212 -0.25070277 0.19012085 -0.18086658 -0.11099479 0.051656596 0.056650836 -0.12595911 0.040007807 0.06913822 -0.14493152 -0.18930873 -0.09736968 -0.11367694 0.04333524 -0.123417795 0.14829856 0.0019939814 0.074717276 0.13557567 0.06013144 -0.021540878 0.22810952 -0.16856904 -0.18379816 -0.021786634 -0.07337853 -0.014801108 0.010983212 0.35669526 -0.115834415 -0.19927628 -0.37724236 0.14218108 0.07158192 0.2336867 0.2583236 0.29140145 0.18410534 -0.20880483 -0.02490123 -0.02071107 -0.096633695 0.120212585 -0.41493055 -0.08730817 -0.11030059 0.25703564 -0.062434327 -0.16993167 -0.21577382 -0.08739491 0.0070349174 0.16523519 0.20661393 0.26482883 -0.092840314 0.1257158 -0.02716781 0.3854669 0.14800483 0.23396324 0.14923026 0.13592164 0.15023047 0.0536875 0.054329835 -0.060292434 0.16208059 0.061288454 -0.19008031 0.15518002 0.33227628 -0.20111135 0.15655537 0.002197215 -0.18371005 0.11696894 0.12841451 -0.1255871 0.14886388 -0.22654942 0.07857798 -0.2890107 0.0074776835 -0.20202874 0.20453554 0.05081459 -0.07421088 0.0035355904 -0.098321326 0.053868487 -0.02512939 -0.18219009 -0.032597594 -0.051804982 -0.24962974 0.18576753 0.2892031 0.0023215895 -0.09770273 0.094350204 -0.022098988 -0.060826592 0.006603453 0.14009488 0.16619836 -0.13423237 0.095712595 0.08045559 -0.100990385 -0.2745396 0.23615353 -0.036765795 -0.22928551 -0.15754649 -0.025151407 0.14448431 0.09657259 0.12202815 0.4363199 0.31260505 -0.07062802 -0.1187969 -0.20302029 0.24236268 0.020450067 0.01101238 -0.31015667 0.024518618 0.30961642 -0.09887503 0.20757373 0.0056975447 -0.26574013 0.05774122 -0.1616568 0.022993453 0.32541707 -0.05606422 0.11406011 0.24458724 0.07567022 0.09917769 -0.08083292 0.011816995 0.37618724 0.020459523 0.062261846 0.119748496 -0.035245247 0.046732005 -0.04749525 0.03306444 0.028455095 0.094529934 -0.013045616 0.08913556 0.27774054 -0.17105135 -0.15728627 -0.20618649 -0.3189247 0.06918625 0.0121503305 0.059255816 -0.030138489 -0.16016008 -0.22868074 -0.12997244 -0.22946365 0.32192564 -0.04536394 0.10225301 -0.2711352 0.046128944 0.32674602 0.0781456 -0.022469506 0.112738125 0.13515905 -0.29273835 -0.108166374 -0.29312307 0.20683704 0.22004636 0.0059028994 0.004980656 0.06844403 0.1991536 0.03503674 -0.33668217 -0.040905982 0.02562163 0.2084454 0.07822128 0.184664 0.21293363 0.25252217 0.14238122 -0.060420334 -0.3473744 0.2202897 -0.010129292 -0.011599952 -0.16298324 -0.14720832 -0.13088769 0.15212259 -0.09040142 -0.15746792 0.007467956 0.18827853 0.42438182 0.02937126 -0.12264376 -0.2800057 -0.19179364 0.08752542 0.060829148 -0.13159552 0.030156918 -0.08828874 0.051591877 0.07870497 0.3570157 -0.0014867554 0.010908394 0.10146818 0.018120008 -0.08048021 -0.25073317 -0.25397405 -0.38883346 -0.036631793 -0.21974927 0.28212768 0.1093771 -0.12782447 0.13846509 -0.090190776 -0.0659844 -0.02533643 -0.14188968 -0.2200008 0.112865746 -0.13531286 0.122701176 -0.04362645 -0.14584444 0.20188534 0.18466589 -0.36618888 0.20287113 -0.029008934 0.0050882017 -0.0047418796 -0.043149676 0.06463571 0.09936467 -0.11126857 -0.11454779 -0.05238346 -0.063480586 -0.17639937 -0.056131333 -0.048191786 -0.00087333366 -0.08055145 0.05331264 -0.17444816 -0.20238344 0.12685579 0.025376452 -0.33618796 -0.20461857 -0.025940912 0.05261974 0.17566332 0.0481678 -0.0060720383 -0.060996324 -0.021069305 -0.030677218 -0.29298228 -0.12110722 -0.29741576 -0.25334352 -0.27045095 0.13634062 -0.05134365 -0.22173068 0.11499673 0.10331179 0.23510714 -0.0035688588 0.075273275 0.1441 -0.17126608 0.07516503 0.04546372 0.029764807 0.055748682 -0.22925775 -0.41427028 0.30078006 0.106902696 0.039867245 -0.23117398 0.2553729 -0.13813394 0.034838073 0.058008045 0.09798843 -0.15677136 -0.3187541 0.24712996 -0.095263205 0.013642537 -0.0010689072 0.12018615 0.009126468 0.2584012 -0.036424678 0.33192912 -0.11919943 0.09515156 0.26867768 0.18214005 -0.26991156 -0.004515596 0.3082083 -0.12499721 0.22405182 -0.0413733 0.18310446 -0.20885019 -0.046259575 -0.2080495 0.0760471 0.22052433 0.030508365 0.07781405 -0.0967353 -0.34645218 0.006431637 0.34384525 0.1106622 -0.089029185 0.189353 0.15771222 0.13311173 -0.2251686 -0.019686172 0.15171748 -0.09848329 -0.21940592 -0.06037565 0.021590294 -0.2832999 0.111205354 -0.038187128 0.3984745 0.17830205 0.17894006 -0.16359477 0.11116052 0.06401136 -0.01840444 -0.18357538 -0.06348111 0.31826392 0.10142862 -0.05373506 -0.20295268 -0.11233401 0.1675669 0.09101387 -0.15936665 -0.3111271 -0.0333901 0.10295272 0.1334389 0.24413247 0.056296445 0.1349491 -0.10164704 -0.14187458 0.36363998 0.18478669 -0.016475335 -0.085325204 -0.22607064 0.1856438 0.13029513 0.01941071 -0.15654889 0.12309497 -0.10627116 0.03946439 -0.058901213 -0.01901202 -0.26626274 -0.05024441 -0.27585617 -0.026336845 0.13065173 -0.27849087 0.07743138 -0.04452084 0.06869678 -0.044329215 0.33572212 -0.05372775 -0.10710059 0.058722597 0.05866495 0.27407765 -0.093171574 -0.20437807 0.057931017 0.22305946 -0.0698219 -0.14460541 0.25858074 -0.012753758 -0.00013707898 -0.20577063 0.11415452 0.24583149 -0.21195003 0.08287744 -0.027359081 0.15580224 -0.104988575 -0.36663473 -0.26589432 -0.22366372 -0.00633705 -0.22643 -0.08090796 -0.06447587 0.050259113 -0.06488499 0.23198567 -0.25752586 0.17796229 -0.08024726 0.24461678 0.049322993 -0.30872938 -0.055744324 0.030622654 0.31574595 -0.072840944 -0.09167369 -0.15385376 0.15947862 0.17347907 0.071319826 0.083316304 -0.19134177 0.10453357 -0.058997985 0.0042164656 0.20109792 0.042292237 0.067954205 -0.098493226 0.28995484 0.09956157 0.08418481 -0.027179137 -0.021008356 -0.2549091 0.11672162 -0.122384444 -0.0066187405 -0.2048067 0.21339388 0.2663557 -0.019558221 -0.025030874 0.04836472 -0.20432189 -0.14587222 -0.19315967 0.11073511 0.12971243 0.15016836 0.068982475 -0.04038972 0.31487066 0.26267028 -0.18524577 -0.0653542 -0.42113474 -0.009493135 -0.062006235 0.021976573 0.27836007 -0.34837192 -0.06427277 -0.03316956 -0.087026626 0.12722962 0.1995269 0.031604774 0.18010509 0.1971692 0.017582292 0.35547936 -0.038364153 -0.1501175 -0.078765996 0.003759975 0.27088198
