2536 85
type -0.40837786 0.38073355 -0.045831982 -0.086963385 0.19669512 0.33388305 -0.14471604 0.027277177 -0.22878897 -0.08441237 -0.027478367 -0.072424985 -0.119637676 -0.0093454635 -0.10002883 0.23368117 0.04693176 -0.06366881 -0.10142235 0.080722444 -0.08134068 -0.17904732 0.20101397 -0.17081629 -0.20135243 -0.27238226 -0.054035503 0.3707237 -0.1940899 0.12517825 0.16100836 -0.2840833 -0.09192378 -0.15106258 -0.045068096 0.015126864 -0.08336499 0.2414761 -0.23840962 0.18216425 0.034175634 -0.2651401 0.3012647 -0.1524318 -0.28020942 -0.01115491 0.23082013 0.07852555 0.3339817 0.020850286 -0.0828236 -0.38720357 -0.09302202 -0.16636893 -0.15774079 -0.12492838 0.26040852 -0.12749341 0.008234458 -0.0024582036 0.2548084 0.243624 0.40679806 0.42457768 0.20647505 -0.07688454 0.042885873 -0.081086375 0.19256562 0.05399016 -0.00043722324 -0.4200965 0.05572569 -0.16632397 0.14731951 -0.024244575 0.35046917 0.112408936 -0.15397461 0.34323153 0.049222663 0.066109985 -0.17279166 -0.083711475 0.005275317
http://www.w3.org/1999/02/22-rdf-syntax-ns#type -0.33158714 0.3035222 0.13292679 0.059497997 0.32943642 0.34266487 0.15514135 0.33878458 -0.03656604 -0.09396703 -0.32487312 -0.5259854 -0.1314995 -0.11443992 -0.48046035 0.24094471 -0.018244743 0.24845235 -0.35771355 0.15764387 -0.15196012 0.04023271 0.30959165 0.04781169 -0.11582988 -0.22913253 0.26020315 0.21758813 -0.5374096 0.43546146 0.22596893 -0.42238435 0.040508427 0.08779676 -0.1682491 -0.12710626 0.12866008 0.41135627 -0.22700794 0.18871446 0.17540474 -0.5899708 0.69143206 -0.090576746 -0.2547192 0.25670308 -0.13163538 0.1143956 0.36956757 -0.00525049 -0.1104046 -0.49242735 0.054029092 -0.24774624 0.10863734 0.057589054 0.29219273 -0.06763571 0.02611613 -0.17172214 0.31306615 0.37330768 0.052306317 0.1367865 -0.012100349 0.03915449 -0.025991255 0.12267797 0.29802793 0.041336652 0.058802664 -0.2580197 0.37032384 -0.1002418 0.08794828 -0.105407104 0.27405775 0.06175333 -0.11056838 0.30723554 0.010713998 0.17035283 0.015743589 -0.30417705 0.18095976
http://www.semanticweb.org/owl2vec#typeOf -0.59771705 0.24101876 0.11304021 0.0010119305 0.5800989 -0.09841168 0.037105665 0.48146966 -0.04554071 0.30873916 -0.45798495 -0.24348131 0.07910473 -0.47577038 -0.50380284 0.17194122 -0.38772815 0.053499456 -0.051703237 0.24369593 0.08438458 0.5607202 0.012981771 0.12830721 -0.24387701 0.008184702 -0.14151482 -0.08323119 -0.4355879 0.017631857 -0.18373229 -0.38595927 -0.26153955 -0.015464489 -0.34845382 0.12658368 0.35594755 0.1591196 -0.25342914 0.1400555 0.059772365 -0.09984754 -0.107442774 -0.23328726 0.08730223 -0.12051018 -0.18929279 -0.07078066 0.24081895 -0.114058964 -0.06690264 -0.20560673 -0.08479684 -0.3306368 -0.04375057 0.39717644 0.04292792 -0.017556654 0.20488966 0.3995052 -0.08338149 0.5034743 -0.036157437 0.06968947 -0.086221196 -0.35000503 0.33648396 -0.20207241 0.52919215 -0.47447369 -0.5201067 -0.48566526 -0.29630807 0.30625638 0.28949663 -0.14585838 0.27392453 -0.03408532 0.081652515 0.12440353 0.21673864 -0.026756743 -0.24328177 0.006499499 -0.10801578
of -0.47761315 0.3722253 -0.014741296 -0.30898103 0.53036326 0.48301986 -0.20288312 0.11196598 0.13792872 0.46380138 -0.12964974 -0.05392439 0.057504028 -0.24976954 -0.24188562 0.07640505 -0.42930716 -0.24829055 -0.066922195 0.04452389 0.049012966 0.44548652 0.0082638515 -0.20166172 -0.37248275 -0.11474328 -0.22895929 0.080836244 -0.08394105 -0.1152013 -0.20427318 -0.16445963 -0.22952516 -0.29722676 -0.110227264 0.19579376 0.07175441 0.20787053 -0.28868383 0.2597533 0.03396489 0.0678651 -0.35183603 -0.09769327 -0.2055318 0.1327441 0.037250135 -0.3492194 0.14115857 0.13489561 -0.18168178 -0.478529 -0.2002084 -0.0885424 -0.17647044 0.21950512 0.15426475 -0.057820253 0.06869875 0.31079218 -0.16765171 0.14081655 0.24202046 0.4427877 -0.14061196 -0.4824772 0.2702787 -0.20199342 0.2862049 -0.23489755 -0.30817717 -0.47630873 -0.48162624 -0.20864615 0.29409438 -0.10524529 0.440294 0.07402073 0.2902245 0.25182873 0.22933306 0.10685312 -0.33435783 0.2531102 0.07995561
http://www.w3.org/2000/01/rdf-schema#subClassOf -0.46925208 0.25600857 0.053876344 0.015452852 0.14197724 -0.3372532 0.482374 -0.14031212 0.11097276 0.30999753 -0.23948988 -0.42191887 -0.4530939 -0.22407945 0.21959905 0.30920592 -0.38740712 0.36393723 -0.24581926 -0.0007067568 0.3713824 0.27811792 0.0064618583 0.1915296 -0.43282062 0.010211569 -0.036982343 0.11594718 -0.4005661 0.2728072 -0.42087802 -0.148455 -0.39680904 -0.377232 -0.16891536 -0.22402586 0.14114022 -0.093392745 0.036284 0.07400121 -0.034013934 -0.340816 0.25671643 -0.2912075 0.38887227 -0.57483816 -0.30016518 -0.121263795 -0.07777835 -0.40133557 -0.11713593 -0.74907845 -0.5570802 -0.19073175 0.2458679 0.6452486 0.16566637 -0.5688552 0.07807118 -0.11928149 -0.13250975 0.6783013 -0.18665528 0.3636347 -0.12544866 -0.548667 -0.12417186 -0.09059016 0.40718362 -0.2907477 -0.17713988 -0.19313353 0.04255616 -0.090745926 0.037036024 -0.09480712 0.13149256 -0.30648652 -0.18633169 -0.42372814 0.30230927 0.040175103 -0.230966 -0.33086234 -0.03772456
subclassof -0.5201949 0.6025073 -0.032524716 -0.22433668 -0.02637271 -0.09561707 0.31368712 -0.30770665 -0.03307003 0.32800213 -0.069040366 -0.13362487 -0.4946056 -0.12460525 0.5283538 0.32726288 -0.3299746 0.040549953 0.0137328105 -0.16843018 0.25689837 -0.07808254 0.15815723 0.08996853 -0.50026566 -0.0369608 -0.13185693 0.32904637 -0.15141557 0.084833875 -0.43040562 -0.122903466 -0.42932892 -0.4481486 0.005713116 -0.17292911 -0.0072025126 -0.08944979 -0.04044913 0.104083166 -0.17630768 -0.20490256 0.1649319 -0.43076694 0.3993133 -0.6504566 0.019596405 -0.24709077 -0.1542206 -0.36798647 -0.035452362 -0.907182 -0.7369526 -0.091261335 0.048010614 0.47991875 0.26260495 -0.66504323 -0.014826728 -0.2860747 -0.1770592 0.52476674 0.21663429 0.7281533 0.015006648 -0.53596884 -0.1133421 -0.06355285 0.20079283 -0.15375994 -0.044115007 -0.26606116 -0.095533326 -0.3414265 -0.06068928 -0.020594772 0.22355777 -0.27875695 -0.1417142 -0.28816777 0.4154592 0.113590434 -0.34033516 -0.23959842 0.011861632
animal -0.036603786 0.1146819 0.3580558 -0.04453045 0.40242302 0.557154 0.1395236 0.0745598 -0.6076 -0.71384287 -0.08772741 -0.10508565 0.7363423 0.3603268 0.046499845 0.42518678 0.074707285 -0.3355277 0.057487465 -0.050605282 -0.10574194 -0.43735397 -0.25241384 -0.27376345 -0.6423465 -0.60360396 0.31548434 0.27575597 -0.09375436 -0.49090257 0.020997873 -0.5412061 -0.48009896 0.07365817 0.37538147 -0.45571494 -0.22425064 0.524489 0.11395238 0.58946145 0.062421385 -0.07774681 -0.017982623 -0.48233703 0.340728 0.5333254 0.7053751 0.3867658 0.5704129 0.08762216 0.2888818 -0.7997788 -0.009863395 -0.5033208 -0.15596335 -0.33082655 -0.10187352 -0.25831857 0.2414102 0.49589407 0.24825628 -0.21470958 -0.0941617 -0.17983472 -0.08035107 -0.24118355 0.5824941 -0.35085082 -0.20393467 -0.64308417 -0.037586667 0.069409035 -0.6531943 -0.46042538 0.5508361 0.3133931 0.6570311 -0.33825245 -0.2509989 0.45487306 0.36702824 0.2199023 0.13579915 0.68607056 0.2691877
http://www.semanticweb.org/owl2vec#superClassOf -0.19443396 0.0776185 0.4855609 -0.0279728 0.07191669 -0.25281805 0.52161855 0.19862974 0.21409322 0.16228774 -0.07439374 -0.34422895 -0.25781888 0.20871055 0.21749331 0.4167425 -0.23838134 0.32122314 -0.28128514 0.13034579 0.22940539 0.19741796 0.012716427 0.21046047 -0.2413195 0.03264856 0.15022524 0.03202746 -0.49023297 0.40896824 -0.29282922 -0.15189631 -0.059220467 -0.050561704 -0.23379892 -0.14048551 0.22655493 0.29846913 0.12893406 0.1511434 0.33306086 -0.6155386 -0.085041 0.027880678 0.6760844 -0.8201337 -0.2956208 0.018887242 0.071308516 -0.05773775 0.033047996 -0.63651496 -0.26551673 -0.21313971 0.49361223 0.50590336 0.26467392 -0.72923857 0.20377068 -0.057423007 -0.10255711 0.79434323 -0.022405695 0.39464965 -0.30569395 -0.64365596 0.028206179 -0.3379214 -0.0025777377 0.0678254 -0.13486521 -0.23325314 -0.021720856 -0.07860533 0.5247186 0.015252759 0.014449557 0.20578134 -0.5417761 -0.6382622 -0.004537137 -0.05008019 -0.50763565 -0.18043222 0.34203053
animalby -0.17162845 -0.13940307 0.2242089 0.14965127 -0.21225284 0.15500611 -0.4215408 0.04977469 -0.50399315 0.13058366 0.116034314 0.36569637 -0.04348418 0.6763974 -0.48263678 0.45859903 -0.049128044 -0.23172227 -0.3717657 -0.75886315 -0.42437842 0.05864912 0.2689807 -0.32368055 -0.3005241 -0.22219346 -0.18819499 0.37371787 0.19714813 -0.43434033 0.5845451 -0.18774539 -0.028000254 -0.4527685 0.5430641 0.008393933 0.7313289 0.058371093 -0.58093923 0.36251733 -0.3459448 0.18243468 0.42739943 -0.80038303 -0.046764597 -0.43177274 0.21795817 -0.47417295 0.45561147 0.25912905 0.2133392 -0.016813453 0.11623044 0.48818448 -0.74025047 0.4971603 0.10311629 -0.4364483 -0.07520309 0.8383567 0.47464252 0.48731682 0.39702713 0.08124263 -0.086874045 -0.052109413 -0.3314868 -0.007358932 0.33173305 0.22863397 0.20635366 -0.95746505 -0.7905697 -0.026652876 -0.04023137 0.11460112 0.8783362 0.058969796 -0.12517187 0.3684639 -0.28105092 0.54104763 0.13917165 0.04670359 -0.071687534
super -0.09324801 0.09601855 0.4089044 -0.13533823 -0.13152696 0.27972215 0.2955548 -0.24271694 0.4909406 0.008757273 0.43060812 -0.09353636 -0.112851776 0.39820972 0.3707396 0.9304535 -0.37541187 0.06879805 0.02716374 0.4227617 0.285012 -0.19809099 0.3585727 -0.062350884 -0.00036353257 -0.45316306 -0.27716324 0.3435558 -0.34628794 0.3111217 -0.3562032 -0.02190168 -0.08776643 -0.12239496 -0.13541003 0.043300148 -0.29454476 -0.025360527 -0.08754022 0.4457873 0.05577517 -0.3121988 0.3068521 -0.25587672 0.2407261 -1.0429275 0.11044113 -0.3421072 0.04336208 0.09903186 -0.15866895 -0.8066883 -0.3144116 -0.25324038 0.39639556 0.32818037 0.2085159 -0.2751514 0.1713729 -0.39822978 -0.078656524 0.5673916 0.97631985 0.69689965 -0.12617004 -0.27325812 -0.12842527 -0.53804034 -0.27839825 0.391216 -0.049473174 0.13574651 -0.47193375 -0.65240747 0.7753362 0.16548334 0.22355783 -0.024473451 -0.3773115 -0.4040741 0.29997692 -0.4834023 -0.62025785 0.11317962 0.39967066
class -0.2315461 0.059636556 -0.2766623 -0.14303353 -0.5418023 0.1688624 0.27583864 -0.41356474 0.39137122 0.18610293 0.61927164 -0.10252837 0.033679813 0.5642943 0.47190222 0.17715622 -0.27145058 0.23020972 -0.60193163 -0.0035222878 0.30064976 -0.3377464 0.19303484 -0.24287875 -0.5614759 -0.2664181 -0.085041 0.68546504 -0.3261686 0.2500236 -0.3624064 0.22518626 -0.010737528 -0.45790857 0.17877932 -0.2993516 -0.37370014 0.53449714 0.06317172 0.26888663 0.35802168 -0.3245726 0.054651756 0.32908982 0.074326955 -0.55597603 -0.29232767 0.15565982 -0.052601047 0.06636937 -0.40233278 -1.2760316 -0.80122465 -0.08313131 0.3737845 0.024205603 0.12667698 -0.82822436 -0.106089145 -0.021491196 -0.07986031 0.35618535 0.054947834 0.98049295 -0.30999145 -0.54729706 -0.36504608 -0.2251801 -0.07327746 0.09003717 -0.1487546 -0.25447437 -0.2850825 -0.34460405 0.69841415 0.061991297 0.36260864 0.04535248 -0.6345281 -0.6026247 -0.24762438 0.24525434 -0.7555255 -0.034862608 0.14844483
Type -0.32983992 0.24679464 0.24617352 0.35830963 0.627055 -0.1155884 -0.04789819 0.29045874 -0.19080137 0.4518474 -0.66566956 -0.3785883 -0.23087506 0.31574264 -0.69525594 0.7429356 -0.7079451 0.17456843 0.2973779 0.5736073 0.7377332 -0.071073905 -0.08153158 0.23691013 -0.2218785 -0.26487893 -0.317427 -0.023963874 -0.87950224 0.4911919 0.04805767 -0.4003316 -0.23859857 0.60372 -0.8110922 -0.3863507 0.21740957 0.25236386 -1.1095587 -0.26147985 -0.12026837 -0.19829701 0.22679727 0.49609926 -0.006603646 -0.04334559 0.47152978 -0.03374077 0.31840295 -0.07478657 0.14231454 -1.4686806 -0.31437597 -0.4157777 -0.597206 -0.06407683 0.4860546 -0.9755313 0.049567338 0.2545202 0.52527916 0.9249145 -0.34528145 0.77889025 0.09129331 -0.4501464 0.45179915 -0.5741485 0.43580756 0.04146897 -0.19683708 -0.53812295 0.20575422 -0.29105276 0.17769827 0.06444438 0.55885625 -0.027425364 -0.38610792 -0.15508592 -0.07177859 0.49052274 -0.545721 -0.67344123 0.07945728
has -0.7129649 0.005984003 1.06865 0.40713242 -0.088795796 -0.25751445 -0.67703134 -0.31694463 -0.3158011 0.3618443 -0.0144338235 -0.33693266 0.49110395 0.39609334 -0.22007485 0.78859514 0.5430689 -0.65972793 -0.4169048 0.13361432 0.22540349 0.0010836959 -0.0929418 -0.3291835 -0.2827577 -0.18393125 -0.4307762 0.6739003 -0.21399274 -0.6268753 0.3496025 -0.3565316 -0.29123303 -0.075967446 0.120467685 -0.566384 0.033271484 -0.5398742 -1.1470597 -0.26189366 -0.28398684 0.11264191 -0.05056345 -0.36244157 0.9638609 -0.32181832 0.89347357 -0.2985443 0.14524731 -0.42703006 0.512637 -1.4574208 0.033838812 -0.109884754 -0.7807609 -0.40018296 0.11814245 -1.638897 0.6073662 0.51458246 0.31270218 1.1973307 0.26590866 0.66421616 -0.20368856 -0.6786621 0.44708696 -0.47074953 0.461531 -0.10640383 -0.15625688 -0.24120714 0.12696247 -0.9303866 0.25372416 0.34313956 1.1135858 -0.2319166 -0.6998387 0.18289529 -0.3974177 -0.17890912 -0.08821514 0.15339123 -0.21398167
body -0.5954271 -0.3003461 0.24258052 -0.19602536 0.07115404 0.7568651 -0.34181055 0.022559911 -0.3634922 -0.14155616 -0.62592566 0.16218571 -0.17157066 0.27941555 -0.10305701 -0.3683142 -0.119798765 -0.56803244 -0.5602767 0.9521086 1.0305302 0.29785842 -0.43928963 -0.20988879 0.14082944 -0.23029165 -0.16740583 0.35851225 1.1454057 -0.2669892 -0.08472727 0.080978625 -0.2770921 0.25907472 0.40462872 0.46849328 0.085431345 1.2237344 -0.02707713 -0.101962954 -0.26610202 -0.32200783 0.71124697 0.21818735 0.4989515 -0.18404989 0.42984974 0.254766 0.96983457 -0.25561523 0.27842396 -0.58949965 -0.013459627 0.099939615 -0.06680328 0.6021414 0.11659978 0.0657662 0.25561452 0.08182801 0.5414395 -0.33632126 -0.17348915 0.9616198 -0.31632718 0.7293709 -0.10987943 -0.3440053 -0.720905 -0.63203263 0.20120533 -0.6087291 0.09486251 -0.48972872 -0.032012686 0.12791389 0.76228905 0.35113987 0.43245414 0.07491134 -0.020502819 -0.94729406 0.3780192 -0.10337559 -1.0345631
attributes 0.19674592 -0.16674294 0.79949176 -0.12158758 1.143387 0.48172602 -0.44459504 -0.17162032 0.45474797 -0.4360147 0.19452566 -0.23067014 1.0515618 0.79758215 0.5897756 1.1578358 0.4510178 0.124055535 -0.12514736 0.005234275 -0.13992672 0.25984538 -0.8256702 -0.063954204 -1.0475411 -0.7189596 -0.20972677 0.8072198 -0.12291505 -0.5576522 1.2704505 -0.094618134 0.5395046 -0.11554995 0.5195445 0.1418839 -0.8882462 0.75035036 -0.7779592 -0.44152975 0.47116622 1.6970195 0.3728171 -0.20780334 0.41117766 -0.19752772 0.4061023 0.39275333 0.5398771 -1.1905004 0.5607035 -0.38302267 0.67443085 -0.5240575 0.4124548 0.32227898 0.64143276 -1.137097 -0.4522431 1.0210676 0.056957267 -0.5937491 0.031682815 0.110205635 0.124874465 -0.6520275 0.39540187 0.013307338 -0.3033784 0.3422044 -0.9033697 0.5427987 -0.63005507 -0.33644736 0.0058508078 -0.6035522 0.05322935 -0.15157512 -0.068475604 -0.17411552 -0.12995672 -0.17306508 0.37893608 0.21428394 0.6278511
movement -0.0029821931 0.06265553 0.59555143 -0.40015832 0.039050594 0.68072873 0.2350786 -0.102881774 0.044376362 -0.07225911 -0.19098726 0.9515878 -0.10856666 -0.42972544 -0.37381786 -0.45669207 0.2199793 -0.28896436 -0.39723215 0.6179357 0.08782126 0.022845235 -0.08830919 -0.21182412 -1.0511999 -0.10820691 -0.90551037 0.22287889 0.8013256 -0.2633777 0.34452844 -0.61224073 -0.7276014 0.047459424 0.19503506 0.2504874 -0.29736742 0.8888103 -0.013050723 0.9231244 -0.8221673 0.58003736 0.37973616 0.17956536 -0.21706685 -0.33709633 0.071328394 -0.38332623 0.43077362 0.24101177 0.088901624 0.10389346 0.15715086 0.23945609 -0.40745655 -0.05646901 0.45785204 -0.28787163 0.70367384 0.55197537 1.0522108 0.87457305 0.094322704 0.69151866 -0.6605294 0.59519446 -0.5016188 -0.47479632 0.12170856 -0.54605234 0.857634 0.19905025 0.20332067 0.28517446 0.17508915 -0.8489905 -0.004254984 -0.18522206 0.052077834 -0.16250728 -0.33138657 0.16821478 -0.03355899 -0.54944813 0.03275749
teeth -0.757066 -0.36718768 0.8599809 -1.1567018 0.17469777 -0.099786475 -0.54878795 0.15691797 -0.08791278 0.4617037 -0.52777684 0.2685553 -0.37761593 -0.0615077 0.37640002 -0.11900283 1.0103569 0.29070282 0.13604034 0.6495295 0.025390867 -0.19328885 -0.31060502 0.5381061 -0.34371978 -0.8233062 -0.018881233 -0.19352786 0.6639929 -0.7856918 -0.6016284 0.06669382 0.28023604 -0.18965122 0.24260864 0.2708568 -0.20306034 0.5012523 -0.51866925 -0.015844828 -0.37442455 -0.40206844 0.10502467 -0.120782286 -0.47895113 -0.17169897 -0.05991413 0.41398466 0.017984416 0.3546114 -0.6263388 -0.18184301 -0.42725646 0.3166999 0.11684694 -0.22299875 0.17459185 -0.13252097 1.0041493 0.36965856 1.3447465 0.3066649 0.4971585 1.0163969 -0.9660861 1.202743 0.5667331 -0.25151494 -0.23800561 -0.20312165 0.15961383 -0.70007145 0.22798434 -0.0725136 0.25477317 -1.0771422 0.07898907 -0.5224319 -0.05725334 0.6300629 0.42433053 0.46669728 0.66160244 0.27973092 -0.50982356
http://www.semanticweb.org/inm363/AwA2#bat -0.5280423 -0.8748916 -0.5099693 -0.09442972 0.100455575 -0.26058564 0.1492377 -0.23416232 -0.866727 0.117822036 0.59160066 -0.7708343 -0.62968016 1.349329 0.49942207 -0.121417716 0.23429671 -0.41548148 -0.9848399 -0.6992757 0.37172705 0.014672063 -0.02826355 0.12995456 -0.30325907 0.33871004 0.39434442 0.061593775 0.13516316 0.6327875 -0.15039344 -0.44516265 -0.67630845 -0.22287941 -1.2101548 0.09922758 0.11431703 0.8931273 -0.80626434 0.09968278 0.2327448 -0.3355441 0.43376672 -0.20088652 0.12555742 -0.7775919 -0.41371235 -0.8356991 0.26176813 -0.60279274 -0.48768488 0.46257964 0.8688092 -0.19554621 0.89695114 0.08334023 0.47820556 0.524937 0.5932097 -0.09993604 -0.4991113 0.05204707 -0.08687427 0.042913534 -0.34826097 -0.2947988 -0.14632934 -0.5660068 -0.44319245 -0.18672276 -0.6444168 -0.27854595 0.26933345 -0.28957227 -0.43046534 -1.0157387 0.3918276 -0.97761744 -0.0015769422 -0.077599294 0.31864578 0.10293131 0.13827117 0.6103312 0.5666378
http://www.semanticweb.org/inm363/AwA2#chimpanzee -0.5625502 0.02770061 0.12556548 0.53539604 0.6234644 -0.46273327 -0.26809672 -0.3730371 -0.42476076 -0.49434185 0.17272864 -0.7163616 0.08623355 0.41286445 0.6032008 0.18234435 -0.1878681 0.12611012 -0.6445205 -1.1916963 0.11314102 -0.8245367 -0.35492742 -0.47595507 0.17171316 -0.53862643 -0.9279947 -0.29596525 -0.1426137 0.41659072 0.5182938 -0.12967232 -0.16255611 -0.018411143 -0.6374161 0.6177407 0.5939006 0.7241489 -0.25515595 0.5467844 -0.32685807 -0.60353714 0.027605442 -0.31484774 0.48019004 -0.26153272 -0.7291714 -0.6761697 -0.0034702541 -0.61683196 -0.7138322 0.083722435 -0.12400885 -0.56344455 0.6962166 0.2761554 0.66109264 -0.41863278 -0.071973 -0.35237375 -0.5712186 -0.20399919 -1.0980933 -0.11504768 -0.24856097 0.7080161 -0.10119814 -0.5954056 -0.37087202 -0.07687762 -0.35661232 -0.7297242 0.25860244 -0.3884934 -0.34778264 -0.8190697 0.04302419 -0.36649588 0.073441535 0.07131654 -0.039575566 -0.71069676 -0.16896363 0.22489515 0.33069834
world -0.2897044 1.104063 0.31114328 -0.9530457 0.64779437 -0.14716183 -0.53348166 1.2203962 -1.2334583 0.2701371 -0.18727326 0.43784815 -0.36601356 0.20642857 0.02611484 0.4699641 -0.16104852 -0.41786936 0.03872564 0.3754476 0.087562665 -0.26038715 -0.2456472 -0.24646932 -0.073594265 0.12388341 0.11940301 0.103875615 0.94786644 -0.25490785 -0.04425436 -0.59880733 -0.40238917 0.23312584 0.58451134 -0.30688924 0.39180264 0.91804063 -0.3423894 0.16856119 -0.39241952 0.19647159 1.2398325 0.21063468 -0.798992 -0.09048985 -0.38887256 -0.20949186 0.51391804 0.72016203 -0.0132469935 -0.016061412 -0.3346886 0.28998 0.92112297 0.4480426 -0.5539203 -0.22520158 -0.06664234 0.22696778 0.49923036 -0.66339827 -0.3650442 1.2393311 -0.9180922 0.7348312 -0.34075788 -0.37210795 -0.21569659 -0.35162196 0.15839112 -0.32962742 -0.43473074 0.14063129 -0.06853916 0.3185509 -0.037189838 -0.30183634 -0.37774947 -0.24430428 0.43757266 -0.6660797 -0.49741605 0.3040776 0.02830486
eating -0.38402158 -0.31784713 -0.28622317 -0.29392946 0.43544498 0.41346744 -0.28582415 -0.128771 0.31225446 -0.14937451 -0.5981178 0.3125694 -0.31907955 0.08876115 0.58965784 0.20806211 0.20490587 0.19270225 -0.01772352 0.635906 -0.33541432 0.8728457 0.7064601 0.8836255 0.47404474 -0.35142523 0.18849683 1.2673894 1.2693784 0.017228587 0.088908866 -0.19461219 -0.2504066 -0.48134148 0.32546183 0.06656291 0.17288521 0.30326426 -0.88743186 -0.135284 -0.91768557 0.18230751 0.7229142 -0.5811382 -0.4886161 -0.24483767 0.56091636 -0.036716603 0.99631923 0.49774212 -0.21781094 0.091283076 -0.33187515 0.69139004 -0.16432801 0.004374013 0.3607202 -0.257366 -0.09258264 0.20635079 0.13165487 0.27688438 -1.3755113 1.0307717 -0.7461501 0.83374864 -0.3140957 -0.73646605 -0.38457578 0.009764119 0.16681243 -0.41539654 0.020753954 -0.24390624 0.54236144 -0.11444917 0.25688362 0.12663633 -1.1427182 0.56227696 -0.2272421 -0.29809308 -0.9896499 1.1452397 -0.29680797
http://www.semanticweb.org/inm363/AwA2#leopard -0.4698087 0.33688226 0.36182672 0.07376924 0.24550025 0.33937684 0.25694236 0.2909564 -0.27424544 -0.36438555 0.30130193 -0.413114 0.20530792 0.3030307 0.67028356 -0.06617606 -0.09345072 0.34744167 -1.088937 -0.7885212 -0.046419665 -0.5923791 0.047072887 0.28375208 0.5694184 -0.18412401 -0.56765085 -0.9338814 -0.09551471 0.040397603 -0.2542339 -0.012922581 0.2447651 0.25760362 0.34667605 -0.6222971 -0.09996398 0.2596031 -0.44068405 0.33739483 0.19200803 -0.0067800023 0.045623682 -0.816521 -0.4061542 -0.5704962 0.0833321 -0.3292596 -0.18302757 -0.5538433 -0.6223947 0.36904228 0.08162062 -0.21142781 1.1123067 0.7302764 0.6704248 0.7689906 -0.58542097 0.689611 -0.37957114 0.6614797 -1.0411142 0.44209594 -0.006980305 0.35935158 0.3914841 -0.1553002 0.44408423 -0.35601267 -0.67739505 0.01775295 0.0696674 -1.2894392 -0.6073197 -0.5659079 0.25359827 -0.01887729 -0.35658544 -0.29513755 -0.10436553 -0.027305853 -0.47062403 -0.23778701 0.26866427
http://www.semanticweb.org/inm363/AwA2#tiger -1.1763089 -0.6921983 0.4512975 -0.3178338 -0.3486141 -0.2931394 -0.042165 -0.33973175 0.40423822 -0.17563851 -0.62847877 -0.09240031 0.5906611 0.19778425 1.0406476 -0.113716826 0.58556384 0.2722546 -0.34058958 -0.89272493 0.14442584 -0.5601256 0.083366185 -0.46091446 -0.59373796 -0.44615552 -0.6425166 -0.37983808 -0.18599443 1.0890841 -0.10225736 -0.4106482 0.09173612 0.22450499 -0.2818535 -0.32462677 0.025391275 0.5733883 -0.4445891 0.3673821 0.34304118 -0.41715887 0.1481738 -0.70131713 -0.30376792 -0.30478105 -0.051459756 -0.100340396 0.117910214 -0.3837975 -0.11591878 0.27483404 0.5586906 -0.19238696 -0.0922776 0.8158087 0.6651652 0.60650843 -0.32054403 0.71381664 -0.6239863 0.63881147 -0.47230592 0.092721246 -0.7146155 0.15097 -0.03986078 0.11954617 -0.46126163 0.15006986 -0.9411921 -0.2332531 0.2051877 -0.5560565 -0.6741044 -0.3293411 -0.3355301 -0.38241607 -0.09793902 -0.46284893 0.6453353 -0.18573546 -0.39619955 -0.22366351 -0.08501552
http://www.semanticweb.org/inm363/AwA2#hamster -0.81601685 -0.32538602 0.42926618 -0.43044856 -0.6259298 0.20151152 0.761634 -0.18565902 0.050220586 -0.15807158 0.1277335 -0.8011508 0.04055338 0.68008345 0.020592654 -0.042172756 0.24545403 1.2052869 -0.751549 -0.9780379 -0.507152 0.07414431 -0.48898366 -0.38974765 0.3277804 0.65240747 -0.08963785 -0.75109124 0.15217009 0.64032257 -0.18240711 0.119107574 -0.5714956 0.09668266 -0.13648716 0.36722803 -0.4915452 0.05997051 -0.35267037 0.21803088 -0.9950929 0.0014528235 0.071644925 -0.47921696 -0.08284343 -0.36752498 0.36644095 -0.042494293 0.7250942 -0.8456927 0.07141335 -0.3441144 -0.24458927 -0.08304938 0.21169259 0.41604784 1.1879346 0.15611036 0.3695655 -0.0063996776 0.14634253 -0.31646532 -0.41591084 -0.013344245 -0.37397155 0.16350487 0.09116524 0.06047471 -0.09871152 -0.21859673 -0.80723333 0.13610737 0.04214075 0.41973898 0.14872476 -0.7346909 0.39148566 0.07018435 -0.19787538 -0.25049156 0.76013315 -0.12786448 -0.5936346 -0.16606584 0.3838222
http://www.semanticweb.org/inm363/AwA2#rat -0.48608127 -0.7546002 0.1814753 -0.22300293 -0.926619 0.30970892 -0.28888673 0.14915535 0.23924321 0.7144367 -0.22399648 -0.28451368 -0.27502438 0.7942039 0.8057106 0.7756405 -0.11585017 0.068902485 -1.1153747 -0.31020403 -0.5953547 -0.5556807 -0.14664938 0.25230315 0.15272354 0.7891907 -0.65774876 -0.18144111 0.14229609 0.45590132 -0.09739306 0.10559704 -0.15379894 0.297047 -0.6951276 -0.24190906 -0.3574859 0.7129749 0.058178876 -0.065790534 0.052507464 -0.056445077 0.6216169 -1.0433974 -0.51752615 -0.12794878 -0.095281854 0.18664767 0.47624943 -0.6460501 -0.31367835 0.25359428 0.06413516 -0.44995075 0.0076131686 0.77786076 0.9598409 0.12860975 0.45951626 -0.12391053 -0.5088389 0.22915041 -0.8408497 -0.011355912 -0.3281284 0.032179553 0.22832522 0.322117 -0.15354358 -0.839049 -0.58986485 -0.0144061195 -0.15651692 -0.22613984 -0.45790106 -0.8700113 0.041061275 -0.3460171 -0.12159579 0.1788536 0.3615186 -0.031908747 -0.57631606 -0.059381794 0.50544053
http://www.semanticweb.org/inm363/AwA2#raccoon 0.021227803 -0.14254564 -0.062740035 0.18357144 -0.31280446 0.37335196 0.28877127 0.8755563 0.51663065 0.031341977 0.41710016 -0.3994293 -0.41291162 0.3631997 1.0873303 0.27993286 0.63283485 0.20357075 -0.44797432 -1.0958309 0.09382954 -0.9379666 -0.1153108 -0.1137724 -0.256356 0.3701353 -0.18228477 -0.042032838 0.041084852 0.5207575 0.45718953 0.109151885 0.3033017 0.19134802 0.0011473474 -0.06579911 -0.2665127 -0.036470946 -0.8084791 0.08806959 0.06731191 -0.14896555 0.30015305 -0.43068054 -0.27331594 -0.0208167 -0.45736742 -0.507986 0.24552979 -0.75371677 0.16252795 0.5040165 0.061762143 0.07597836 0.69062364 0.27927798 0.8932665 0.13779062 -0.07565288 -0.15692914 0.07326232 0.8814072 -0.42789316 -0.006110996 -0.5185107 -0.017737927 0.35331035 -0.36131296 0.6034878 -1.528346 -1.0013074 -0.14269134 0.025275249 0.21421602 -0.062486093 -0.77850753 0.062787786 -0.28302127 0.19591321 -0.008713429 0.32518658 -0.0053683184 -1.0151592 0.29231158 0.61552066
dwelling -0.17746876 0.4510925 0.23183647 -1.2428036 0.42950708 0.10050727 -0.22001809 0.8242312 -0.17364815 -0.013943836 0.13221464 0.4348833 -0.7241975 0.20091598 0.026787614 0.18371843 0.98201174 -0.16139835 -0.98415864 1.4659702 0.80037075 -0.35768175 -0.116249844 -0.39076102 0.10663679 0.16581585 -0.14994395 0.18173322 0.18307 0.20473771 0.0500741 -0.42539328 -0.21575572 -0.49535456 1.1751326 0.67855364 0.7247415 0.33890972 -0.52242124 0.36331138 -0.6258746 0.019282551 0.457455 -0.41687807 -0.16146523 0.19321251 -0.11530315 0.12040422 -0.6294818 -0.1768694 0.13095857 0.53115463 -0.08057562 -0.5795037 -0.49075016 -0.4048865 0.1397281 -0.32699984 -0.16670613 0.7474307 0.40175158 0.043788202 -0.7893898 1.0815071 -0.81393087 0.37698478 0.47440955 -0.33428666 -0.8707828 0.010563068 0.4417811 -0.52399176 0.278015 -0.19430128 0.34515256 0.24351977 0.40328497 0.22020897 0.34317416 -0.073443346 0.2244238 -0.3239807 -0.11678751 0.45815918 0.11828774
http://www.semanticweb.org/inm363/AwA2#polar+bear 0.661707 -0.47876078 0.60274637 -0.44963467 0.20569447 -0.44090566 0.61351293 -0.49133363 0.029402625 0.38263136 -0.3311343 0.12819368 0.37707666 -0.11394126 0.39954025 0.22418812 0.816258 0.9533537 -0.91625524 -0.90381974 -0.50493336 -0.28435773 0.21170671 0.09294235 -0.7825524 0.084885746 -0.39681077 -0.45492786 0.07834261 0.77765846 -0.36547855 -0.043879706 -0.3066418 0.010606331 -0.00636408 0.43087006 -1.1194465 0.42825025 -0.70717365 -0.39522395 0.064736746 -0.4502885 0.85143656 -0.7941869 -0.29867318 -0.37600634 -0.9118351 -0.7064659 0.24565162 0.21048912 -0.13039699 0.036374453 0.5751527 -0.6279841 0.007651271 0.20050578 0.49646914 0.12551963 0.2753039 -0.03103052 -0.029756645 0.60304177 -1.0775436 0.38158533 0.48617738 -0.060039826 -0.24606562 -0.71837467 -0.4439549 -0.22603795 -0.88837874 -0.28664243 -0.45120358 -0.04536581 -0.62314194 -0.8605488 0.2765091 0.2546614 0.03234578 0.07681253 0.26267377 -0.37473243 -0.23747467 0.46831766 -0.043426745
http://www.semanticweb.org/inm363/AwA2#fox -0.4726005 -0.20282525 0.3749525 0.30267408 -0.58062434 0.19204621 0.1818743 0.61703306 0.18163453 0.15691382 0.16785227 -0.5702256 0.24531434 0.2554913 0.4213067 0.10495721 -0.030123195 0.39545393 -0.8894823 -0.7040108 0.355426 -0.49148446 0.26149017 -0.06642367 0.14764044 -0.1363679 -0.8249347 -0.25199753 0.29283842 0.340203 -0.041049827 -0.81759185 0.67891806 -0.062588505 0.1155322 -0.28298047 -0.9636521 -0.038440995 -0.28758267 0.06771155 0.3814047 -0.43752378 -0.806915 -1.0535413 -0.36407572 -0.56215805 -0.31094185 -0.45701468 0.58910847 -0.016027166 -0.3911805 0.17963459 0.59748065 -0.2755992 0.09491974 0.7138801 1.24309 0.38452306 -0.3084842 -0.09883715 -0.14630851 0.56337106 -1.1404432 0.8954677 -0.4867079 0.47784945 0.17175569 0.29827738 -0.15894097 -0.5187513 -0.78490174 -0.07921185 0.25143445 -0.09416845 -0.34562784 -0.4781801 -0.27181542 -0.34127712 0.15856883 -0.4568306 0.8409842 0.42343408 0.053981714 0.40711683 0.43276036
http://www.semanticweb.org/inm363/AwA2#giant+panda 0.021979323 -0.0114832325 0.6854657 0.08609955 0.024650663 0.25183982 -0.22225238 0.16277656 -0.14616168 -0.37697393 0.11918399 -1.0338613 -0.059387807 -0.06370176 0.9722422 -0.4193622 0.9156273 0.98654425 -0.21146914 -0.86725986 0.25356436 0.008463678 -0.77668047 -0.05445167 0.29286313 -0.09037356 -0.075192004 -0.42340326 -0.6729374 0.77754384 -0.3146723 0.30296496 -0.3551633 -0.24120101 0.73783416 0.06481288 -0.34733126 0.3336081 -0.44423103 -0.16281478 -0.27418238 -0.025868123 0.37545046 -0.6464112 -0.7381534 -0.57154626 -0.15985288 -0.33286345 -0.25160643 -1.5626781 -0.9396125 0.08857042 0.44486645 0.052682716 -0.046543233 0.21937694 0.4642628 -0.20740646 -1.0489523 0.116159834 0.69105226 0.48900276 -0.18250564 -0.44891733 -0.5007596 -0.7684378 -0.041796178 -0.16074914 -0.13698888 -0.3048868 -0.23633808 -0.65438 -0.4473853 -0.06881463 -0.30143675 -0.5650653 -0.0982569 -0.09036088 -0.32703945 -0.20183998 0.29367667 -0.43418923 -1.1565212 0.16218865 0.5582969
http://www.semanticweb.org/inm363/AwA2#horse -0.30859193 -0.36122853 0.49221066 -0.3303415 -0.1681447 -0.47354093 -0.20040494 -0.13305496 0.4243925 -0.008099778 0.49632138 0.056867 -0.08958322 0.36151248 0.38578925 -0.5779096 -0.22857426 0.45472568 -0.4577033 -0.5451056 0.095332034 -0.005407513 -0.7138581 0.07098348 -0.29751903 -0.03244557 -0.6839274 -0.15614638 -0.4826429 0.7401349 0.15712224 -0.67215765 0.481629 0.6035498 -0.7660189 -0.5467089 0.49230763 0.33956182 -0.05263498 0.39225402 0.054617062 -0.20710835 0.45559105 -1.4797567 -0.056077644 0.1274688 0.28188792 0.17723292 0.6038646 -0.6255095 -0.744019 0.23570119 -0.36912215 0.2281046 0.63086057 0.10750443 0.59872013 -0.1684836 -0.07937006 0.34328687 -0.14998889 -0.6750986 -0.37888992 0.11185262 -0.51199657 -0.006656793 -0.6906766 -0.04535942 0.014251183 -0.19717672 -0.84548753 -0.3287606 0.19677575 -0.5226208 -0.14274226 -0.5015319 0.39388114 -0.38160113 0.36243567 0.27871746 0.43167204 -1.0187036 -0.60081255 -0.199624 0.3112817
http://www.semanticweb.org/inm363/AwA2#Animal -0.104283206 -0.42349115 0.7600091 0.4239805 -0.28810418 0.6639261 -0.0864953 0.006539922 -0.1559643 0.033974033 0.035881534 -0.24562368 0.60387594 0.37558326 -0.2953121 0.61387014 -0.70763 0.77807534 -1.2715617 -0.28115654 -0.0874641 -0.11782338 0.38262397 -0.48847944 -0.36560538 -0.23464622 0.37418327 -0.24829087 -0.22018912 0.51956767 -0.9002541 -0.21640652 -0.4121464 -0.32666415 0.017096983 -0.33066198 0.38373518 0.39469492 0.24131364 1.3468894 -0.13028045 -0.56824595 0.86140776 -0.8111973 -0.12035889 0.6717632 -0.26799804 -0.03603099 0.39677903 -0.08431772 -0.0024067364 -0.4699958 0.35688812 0.25125575 0.6670048 0.15058573 -0.34392542 0.04517612 -0.023942433 0.56015116 -0.07792805 0.36056152 0.48549 0.06375347 -0.9014752 0.6623377 0.38743842 -0.019994045 -1.0879453 -0.9140841 0.102915786 -0.022404123 -0.6248529 0.1782821 1.342156 0.32963043 -0.007641309 -0.20587133 -0.093446605 0.21780281 -0.6801296 0.14727937 -0.0995877 0.5013269 0.09528708
http://www.semanticweb.org/inm363/AwA2#wolf -0.2407064 -0.5464399 0.09563373 -0.37353253 0.2423612 -0.56922644 -0.6875128 0.33014473 0.64262253 -0.3908569 0.2476579 -0.0045535495 0.24678439 -0.094957255 0.510167 -0.1567195 0.23545817 -0.38534138 -0.73058254 -0.23386925 -0.104750216 -0.11244381 -0.10198523 0.38405573 -0.66461545 0.23553458 -0.72266835 -0.41445026 0.044233453 0.6368668 -0.48513332 -0.017185574 0.25288242 0.5997578 0.3100084 -0.71215236 -0.4349197 0.36136112 -0.3195121 -0.054816343 0.6063302 -0.32379943 0.53084725 -1.2877768 -0.6484746 -0.22897923 -0.46354732 -0.828121 0.7746678 -0.5198791 -0.23856637 0.53772527 0.5357689 -0.6335503 0.90562457 0.38221157 0.5056084 0.19694155 0.041323535 -0.09917159 -0.21611848 0.7085318 -0.7251121 0.30053037 0.08913328 -0.28043517 -0.16561142 -0.16214831 -0.24419554 -0.098130904 -0.6944368 -0.48252502 0.89533484 -0.085398786 -0.31309393 -0.08801839 0.25652707 -0.37237787 0.12471809 -0.26163346 0.6927588 0.84030944 -0.27107564 0.31974873 0.027581556
http://www.semanticweb.org/inm363/AwA2#bobcat -0.2097866 0.3241374 -0.2027986 0.3291924 -0.23149046 -0.05743852 0.26479644 0.709339 -0.045599744 -0.08305076 0.518031 -0.33381617 0.29095408 -0.14967874 0.91028064 1.021844 0.41102087 0.12529288 -0.71259046 -0.9917955 0.85145473 -0.46048558 -0.029994404 -0.038463194 0.16653049 0.1737638 -0.16975564 -0.1377812 -0.394361 -0.049892902 -0.067678474 -0.4186715 0.54794395 -0.23015973 0.06256773 -0.76132643 -0.2690325 0.22599947 -0.47471803 -0.021627339 0.36148593 -0.18860967 0.08691196 -1.0973128 -0.13677363 -0.20613219 0.009716108 -0.41684964 -0.05482862 0.5527001 -0.70377606 0.2862785 0.9663314 -0.65066385 0.57911193 0.7146953 1.3810271 0.3447587 0.019537115 0.00032326634 -0.75528145 0.16391587 -1.0572706 0.5192507 -0.2210445 0.21236615 0.1783271 -0.40455553 -0.17050418 -0.5518027 -0.034763135 -0.3812557 0.2874647 0.050378878 0.026262887 -1.0999422 0.23792842 -0.030549537 0.46627527 -0.7800734 0.18488853 0.35716462 -0.28501618 0.1274013 0.1280048
http://www.semanticweb.org/inm363/AwA2#lion -0.67649776 -0.16494405 0.0463393 -0.15859793 0.3700001 0.048047498 -0.14449142 0.18433826 0.24397129 -0.88048536 -0.04305318 -0.11584934 0.3679155 -0.3822562 0.5710097 0.2371544 0.24308537 0.28347433 -1.0309318 -0.5555063 0.3643634 -0.24139407 -0.3823152 -0.23706515 0.88435745 -0.16950859 -0.4225379 0.36726928 0.15636256 1.2848122 -0.2048953 0.2409063 -0.3328935 0.007996676 -0.35492095 -0.14392143 -0.96843785 1.2659676 -0.5266719 0.2596204 0.05018495 -0.31281886 -0.5123903 -1.1148502 0.253227 -0.9219888 -0.5736855 -0.37005335 -0.05995206 0.19614406 -0.95320845 0.5725529 0.96693313 -0.5796905 -0.004234951 0.9271035 0.36511397 -0.14990744 0.18096475 0.20053403 -0.41208932 0.12348945 -0.6956284 0.037183356 0.06203347 0.17633706 0.09590816 0.61189556 -0.49281022 -0.3962632 -0.58324695 -0.56971985 0.44614887 -0.96159476 -0.7420265 -0.39242038 0.36626226 -0.114127286 -0.296636 -0.43017688 0.044680085 0.15012729 -0.20031352 -0.107843615 0.13270096
http://www.semanticweb.org/inm363/AwA2#siamese+cat -0.4881158 -0.0116222305 0.37100086 -0.14968804 0.12821609 -0.061882235 0.59933835 0.52703136 0.36903378 -0.22413063 0.049732503 -0.7548101 0.5942671 0.32280466 -0.06194094 -0.8902612 0.17581668 0.16119868 -0.783673 -1.0854383 0.62744194 -0.6613076 -0.24414957 -0.2842089 0.0005731729 0.3121755 -0.35344827 -0.36671308 0.400213 0.58873117 -0.10510979 -0.5683216 0.8571805 -0.17018907 0.01680408 0.07938541 0.046851084 -0.12124728 -0.4228044 -0.58813876 -0.74026215 -0.3445246 0.1364813 -0.7744073 -0.22021039 -0.44227776 -0.14228319 -0.4774002 0.73331904 -0.6233356 -0.25992203 0.3987172 0.12697603 -0.4174903 0.94531035 0.70127714 0.6789403 0.16865085 0.18064916 -0.09680508 0.17704752 0.16668229 0.25629905 0.2313632 -0.039070107 0.32388616 0.23795684 -0.59050196 -0.25131354 -0.50959384 -0.8348803 -0.12303059 0.46932843 -0.5850574 -0.16114801 -0.29843286 -0.0036547813 -0.17099603 -0.7477383 -0.62534463 0.495311 0.93866634 -0.54646754 0.39192912 -0.014642865
http://www.semanticweb.org/inm363/AwA2#mouse -0.8020336 -0.7763472 0.35180986 -0.84459656 -0.39260474 -0.6139963 -0.23305216 0.00572911 0.6585704 0.08071652 0.5322137 -0.7102704 0.18989405 -0.009412856 0.09136388 0.0074615516 -0.42186618 0.39793077 -0.4952042 -0.29894233 -0.28356472 -0.2899247 0.05113689 -0.64860755 0.2180059 0.5236922 -0.6314606 -0.4648281 0.251128 1.0441301 0.40627462 -0.1978879 -0.45126027 0.05661832 -0.43815076 -0.06208185 -0.60701317 0.113295905 0.24905777 0.5416357 -0.008268043 0.112450376 0.31887737 -0.7140417 -0.27752143 -0.07784099 -0.4651919 -0.30190432 1.1138599 -1.0344683 -0.18030825 -0.3137666 0.16330853 0.35967445 0.6235718 0.122951634 1.230408 -0.48142737 0.24631634 0.248933 -0.20490113 -0.064940006 -0.60638297 -0.04648518 -0.34860313 -0.04385761 -0.35783783 0.5910623 -0.6559353 0.18080994 -0.6244674 -0.4110388 0.27778533 0.5935902 -0.26134187 -1.1275567 0.381916 -0.32206324 -0.24578956 -0.18406862 1.2120959 -0.45918155 -0.3627245 0.7429577 0.80563945
http://www.semanticweb.org/inm363/AwA2#grizzly+bear -0.016617777 -0.04344897 0.57054776 0.54759943 -0.37814316 -0.072017945 0.29464287 -0.43792996 -0.19528003 -0.1656253 0.30447522 -0.23616734 0.07795463 0.17167288 0.7016644 -0.30915442 0.36210027 0.558514 -1.4258385 -0.28229007 0.4549663 0.097620524 -0.2815566 0.7684936 -0.65963787 0.099067844 0.3474345 -1.0017486 -0.14943485 0.31929487 0.108726725 -0.30561715 0.11089661 0.07740212 0.1610306 -0.32587674 -0.8007314 0.56979704 -0.39703974 -0.6170045 0.44152024 0.11344933 0.6424579 -0.6902972 -0.5220055 -0.9434871 -0.35242292 -1.3331473 -0.0034154179 -0.27956045 -0.5451197 -0.0391261 0.39938802 -0.59797525 0.3106764 0.6105102 0.5787444 0.7547793 0.049822405 -0.04146196 -0.20692974 0.3914168 -0.5451183 0.1758771 -0.2083671 -0.06770884 0.36260125 -0.746708 -0.5985211 -0.3293441 -0.44191465 -1.1149465 0.090260535 -0.3823252 -0.64566845 -0.41861326 -0.094318256 -0.33552295 0.31262246 0.38474166 0.14547741 0.6229204 -0.27355266 0.5798865 0.653713
http://www.semanticweb.org/inm363/AwA2#german+shepherd -0.29833654 -0.1922784 0.33065152 -0.14820623 0.004581444 -0.39779037 0.18281047 -0.26572487 0.15713757 -0.034347106 -0.34800586 -0.15605453 0.43956727 0.20487031 0.53941417 -0.41732013 0.05185781 0.3358054 -0.7228126 -1.0058588 0.2467581 -0.24348925 -0.56871367 -0.4342943 -0.21709757 0.57022005 -0.64036036 -0.13366456 -0.67947173 -0.013971066 -0.5596975 -0.059820354 0.45078686 0.6770236 -0.104944035 -0.3273707 -0.03604631 0.62836593 -0.5954542 0.20905913 -0.39532712 -0.8403122 0.3839052 -1.5109735 -0.4766231 -0.28315106 0.33422893 -0.047967616 0.47296584 -0.17971478 -0.92856693 0.040222976 0.5978443 -0.360809 0.2889245 0.57522815 0.62626576 0.10124037 0.018569058 0.5801175 -0.29888567 -0.19411878 -0.5954054 0.44949126 -0.513258 0.30729625 -0.390716 -0.4850436 -0.0039287563 0.030864524 -0.3643045 0.063135386 0.128249 -0.5969796 -0.07460043 -0.37259033 -0.35010326 0.09815854 -0.19764934 -0.60092723 0.92034394 0.115783766 -0.356979 -0.43307337 -0.15742381
http://www.semanticweb.org/inm363/AwA2#rabbit -0.9639807 -0.43049967 0.32181764 -0.068845734 -0.37207842 -0.30322114 0.6282422 0.20459092 0.072807334 -0.6338494 1.067285 -0.719725 -0.008039473 -0.1415851 -0.085754596 0.17443335 0.86295444 0.5475631 0.032305587 -1.1459433 0.026082281 0.24349798 -0.67961067 -0.47814372 0.6709987 0.40016016 -0.52039766 -0.06619738 0.5234259 0.64748025 -0.15166864 -0.042240042 -0.45343637 -0.3935911 -0.4851747 0.06901361 -0.56305945 0.50335014 -0.4791026 0.29948607 -0.6580826 -0.0971893 0.092800006 -0.8222652 -0.34441972 -0.06471229 -0.10579646 0.012377292 -0.0344669 -0.76514316 -0.64269465 -0.66994894 0.27208218 0.064714834 0.6633076 0.31785074 0.7935666 0.09917551 -0.5019453 -0.15740874 0.39598012 -0.23742096 -0.31389856 -0.30217895 -0.8798829 -0.025218919 0.11078873 -0.01562573 -0.2220342 -0.18172307 -0.5976023 -0.3240042 0.11168108 0.35460865 -0.12888946 -0.5954385 0.75398046 0.27684948 -0.107023254 -0.0975321 0.82387364 -0.42826754 -0.7299693 -0.47657225 0.18556392
http://www.semanticweb.org/inm363/AwA2#mole -1.1025437 -0.46415025 0.7223727 0.20143948 -0.21397366 -0.1485385 -0.07727056 0.2736002 0.28548396 -0.4541065 0.9635859 -0.36753157 -1.1103252 0.8777792 -0.084229685 0.47521248 0.07625055 0.9902266 -1.2893193 -0.110338606 -0.036016166 0.089714795 -0.5067837 -0.1554533 -0.2647784 0.38043723 -0.76181865 -0.7214142 0.3300168 0.25978303 0.075743094 -0.034962967 -0.023953099 -0.12457913 -0.7180608 0.31086683 -1.2114846 -0.10770111 0.64203435 0.078971766 0.19706558 0.33768925 0.49539673 -0.99585396 -0.76098686 -0.27524525 0.14330932 -0.44758937 0.49068105 -0.5078391 0.47445953 0.16126125 -0.22232758 0.10182071 0.5556295 0.5907907 0.48660013 0.41531372 0.159961 -0.038619034 0.42164052 -0.11292885 -1.1085724 0.27480796 -0.516933 -0.2555793 0.5266276 -0.21514387 -0.13806714 -0.1459231 -1.0044922 -0.19448538 0.25002426 0.14801824 -0.14712256 -0.9883086 -0.12817755 -0.14949639 -0.67302597 0.41750872 0.3047144 0.2691444 -0.48902535 0.06774711 0.3884264
http://www.semanticweb.org/inm363/AwA2#beaver -0.6195122 0.2018467 0.707141 -0.4943045 -0.7796222 -0.014426732 0.28847477 0.68116885 0.57995814 -0.9483881 0.19514428 -0.0047445213 -0.19498417 0.21370398 0.85875344 0.022381328 -0.23385182 1.1441348 -1.3674444 -0.503537 -0.10706363 -0.41195104 -0.10002116 -0.14808571 -0.6923511 -0.57248265 -0.32700858 -0.9647477 0.07366154 1.1684198 -0.5115858 -0.1204127 0.82583237 0.03459408 -0.3363857 -0.42413783 -0.26939803 0.4331558 -0.4340005 -0.43118712 -0.12091481 0.29187128 -0.22929615 0.021645624 -0.46321392 -0.9118627 -0.49302518 -0.31306893 -0.08100797 -0.6401635 -0.23070487 -0.31056532 0.388892 -0.2870079 0.13671352 0.62013364 1.0123181 0.17239925 0.4574098 0.558853 -0.2581789 -0.19037138 -0.5052207 -0.20357473 0.45222098 -0.24539013 0.23475248 -0.12705047 -0.20590661 -0.33171418 0.06411663 -0.71699846 0.26806682 0.3032161 -0.17496765 -0.13862947 0.8466401 -0.70006824 0.5589839 0.3345775 0.24876454 -0.70148736 0.5365141 0.6407539 0.42836657
http://www.semanticweb.org/inm363/AwA2#gorilla -0.5225051 -0.4468387 -0.06791657 0.42398667 0.5623457 -0.05228563 -0.18654671 -0.27100998 0.19403873 -0.4083876 0.08786846 -0.80315447 -0.04748465 0.6704419 0.46184736 -0.36604762 -0.025620677 -0.14458962 -1.1078316 -0.55297065 0.4154551 -0.5597597 -0.48518455 0.17832291 -0.34350255 0.217727 -0.18751316 -0.33861586 -0.1493458 0.46073788 0.26715684 0.5369887 -0.44858223 0.53124493 -0.4204292 0.28599262 -0.12656865 1.1573738 -0.4116299 0.83289164 -0.31541044 -0.42632765 0.17649049 -1.2060934 0.05245477 -0.71175486 -0.49815494 -1.1371622 -0.29670393 -0.3210662 -0.7349395 0.08148348 0.24572271 -0.5113023 0.5248661 -0.20552738 0.6073449 0.33393505 0.109265454 0.28372929 -0.32308176 0.068669416 -0.50977826 -0.17661893 0.19012167 0.14946537 -0.0026681065 -0.093525834 -0.6509192 -0.18389829 -0.4599708 -0.7078942 0.049191788 -0.33253062 -0.30399674 -0.71654606 -0.17011313 -0.36698824 0.0487559 0.59557605 -0.14147146 -0.71768314 -0.49075732 -0.17551444 0.3156756
http://www.semanticweb.org/inm363/AwA2#deer -0.59175223 0.16566873 0.29635534 -0.05174852 -0.29744944 0.28255206 0.10745104 0.61131215 0.08663527 -0.38751492 0.7963114 -1.0726265 0.12426237 -0.29552373 0.6325905 -0.24495038 -0.40370876 0.15496689 -0.81500065 -0.5062462 0.34569186 0.25964755 -0.5705221 0.027375728 0.5298813 -0.2822059 -0.4203137 -0.32743466 0.43586504 0.5228997 0.2474697 -0.15083808 0.6646393 0.46449465 -0.3987727 -0.9414787 -0.20940967 0.07509319 0.12777862 0.8662036 0.25692832 0.35454297 0.100699775 -1.1279474 0.25901905 -0.07029487 -0.16595607 -0.15631841 -0.07169333 -0.5521932 -1.2506889 -0.32446194 0.46864983 0.12641911 0.46041965 0.3926792 0.5159129 -0.05835365 -0.20485614 0.105631106 -0.032307785 -0.14936054 -0.4649961 0.26990935 -0.3955717 0.35296908 -0.045675088 -0.23601615 -0.23707436 0.2174593 -0.7056634 -0.6544512 -0.06853245 0.024252241 -0.32814246 -0.98182756 0.18855315 -1.1647606 0.11521465 0.20567004 0.031980306 -0.82959914 -0.58342695 -0.87061805 0.60193
http://www.semanticweb.org/inm363/AwA2#ox -0.029407486 0.04052174 1.2586111 -0.23059264 0.11376549 -0.22486117 0.3592486 0.20436339 0.58231294 0.35291386 0.35589826 0.04698388 0.0013981835 0.45148227 0.059314437 -0.79468054 0.17118715 0.51337236 -0.89910525 -0.60768366 -0.36887813 -0.07201891 -0.36010313 0.030861018 0.19483279 -0.35533926 -0.65963304 -1.1524423 -0.2576858 0.37760833 0.11396974 -0.06062525 -0.5005102 -0.38991702 -0.23543493 -0.37389293 -0.024434999 0.30045706 0.22924568 -0.082335226 -0.6552305 -0.37432742 0.21896318 -1.1301365 0.6861089 -0.049737033 0.1324427 0.37018773 0.95770556 -0.4340922 -0.5820068 0.16099828 0.42357802 -0.66546375 0.7246006 -0.046065327 0.6328849 0.09388014 -0.6205388 -0.58888745 -0.03185048 -0.8277677 -0.5599481 0.25069007 -0.08720081 -0.06570664 -0.13181394 0.14206326 0.3865825 -0.10705686 0.010614273 -1.0344051 -0.30398348 0.08779014 -0.17436297 -0.10753256 0.6462039 0.20269857 -0.14413507 0.07024449 0.55724984 -0.059644032 -1.1461333 -0.33184654 -0.20116933
http://www.semanticweb.org/inm363/AwA2#moose -0.1309451 -0.14310744 0.9042831 0.4327069 0.25950336 -0.3940414 0.11792204 -0.028483218 0.20697199 -0.10218759 0.49450424 -0.15504663 0.17480715 -0.18675612 0.42838502 -0.4661947 0.6647949 0.30982104 -1.1136146 -0.47964838 0.01178214 0.8020873 -0.16049866 -0.5480621 -0.3240956 -0.7946428 -0.2359571 -0.5813066 0.24641 0.65357333 0.09508833 0.39371175 -0.18432687 0.42640102 -0.4049057 -0.71160924 -0.53621244 -0.20585236 -0.14387274 0.44334158 0.324655 0.14066222 0.33461452 -0.7999432 0.10581797 -0.15568177 -0.056239873 -0.5028882 0.54762834 0.16660845 -0.7739587 -0.14337756 0.39173374 -0.72357917 0.80924577 0.5481259 0.09798866 -0.16339168 -0.24076554 -0.76869977 -0.14834088 -0.862894 -0.64819884 0.5513625 0.40133643 0.1683869 -0.1067656 -0.21489477 -0.05551094 -0.0068626064 -0.323765 -1.4495891 -0.13145721 0.46367118 -0.38172016 -0.5009034 0.45979097 -0.38286656 -0.1620573 -0.011556449 0.6092683 -0.37062663 -0.3591804 -0.2358506 0.2256925
http://www.semanticweb.org/inm363/AwA2#spider+monkey -1.0444492 0.35468334 -0.04255995 0.65455693 0.41237527 -0.064699516 -0.7244892 0.16765927 0.08373317 -1.0472535 0.26165748 -0.816922 -0.36915132 0.49690062 0.20909335 -0.4019998 -0.0025885478 -0.17623721 -0.27851737 -0.5951669 0.6001391 0.08170712 0.18384731 -0.27082974 -0.10338833 0.06350635 -1.1128272 -0.32940528 -0.52464455 0.3664735 0.0009567229 0.0573643 0.14763263 0.03986907 0.11351354 -0.45274982 -0.28602955 0.723648 0.08621292 0.20548181 -0.77782094 -0.5615818 -0.2883651 -0.7979173 0.18011318 -0.4198946 -0.39106148 -1.0991745 0.36002627 -0.7668139 -0.8203091 0.3778049 0.2264286 0.55076236 0.7299985 0.14500664 0.9170476 0.09891502 0.35156408 -0.02394364 0.033132598 -0.066014275 -1.0498809 -0.15350021 -0.6198819 -0.24167345 -0.019409532 0.28237653 -0.7991224 0.16648702 -0.20395191 -0.43688437 0.58944494 0.079374306 0.16765846 -0.87597907 0.49102265 -0.112562425 0.033397853 -0.3173471 0.1755359 -0.46552104 -0.38008204 0.027936818 0.8858957
http://www.semanticweb.org/inm363/AwA2#pig -0.19223265 -0.21101424 0.5913915 0.3163167 -0.39913654 0.24276783 0.14958932 0.3694652 -0.0011948157 0.08355176 0.5916308 -0.61597896 0.18328428 -0.32973608 0.64318347 -0.62345505 -0.32106584 0.25344184 -0.788633 -0.6466269 -0.6135016 -0.13315304 -1.009372 -0.09007621 0.09748443 -0.33187422 -0.43790165 -0.0834228 -0.54259866 0.5143635 0.080995865 -0.0022771466 -0.10713653 0.20333838 -0.29275274 0.2236405 0.008057498 0.54827505 -0.745883 0.012089526 0.08353291 0.32319918 0.08474013 -1.0196762 -0.21882322 -0.042443734 -0.27998626 -0.25736699 0.54149246 -0.834074 -0.39963415 0.5574224 0.16044371 -0.86923844 0.82696503 -0.10620499 1.0117828 -0.6084849 -0.07279489 -1.3549196 0.182273 -0.34163094 -0.70291454 -0.1461896 -0.80935776 -0.118544444 -0.8735942 -0.6183315 0.4214273 -0.2915792 0.09220188 -0.53538954 -0.8359264 -0.3679944 -0.1794924 -0.17241427 0.17586264 -0.44740993 0.005854353 0.13354316 0.52560955 -0.38410392 -0.5019219 -0.2252581 -0.3758775
http://www.semanticweb.org/inm363/AwA2#weasel -0.9114704 -0.92294997 0.18318146 0.221569 -0.42798415 -0.17240213 -0.024017597 0.32532537 0.40035313 0.121278964 -0.29171416 0.38705423 -0.1482857 0.8304376 0.34978116 0.196416 -0.16149846 0.040594216 -1.2172058 -0.6440564 -0.5644567 -0.1134668 -0.24117555 -0.48269802 -0.44642127 0.5129985 -1.0064601 -0.04756907 0.13424823 0.6101171 -0.00020014693 0.62369597 0.042236473 0.37183875 -0.3375313 -0.3036652 -0.56534344 0.81885576 -0.20613919 -0.044975705 -0.24789019 -0.4070878 0.23141497 -0.47376952 -0.16903754 -0.35723665 0.12008952 0.09057587 0.90516955 -0.29150012 -0.7242838 0.45779118 0.11758788 -0.6536623 0.37021303 0.9537411 0.4506356 0.4356574 0.16369215 -0.37798962 -0.21124315 -0.17943712 -0.4369002 0.10506107 -0.3844264 0.29041252 0.41109917 -0.5256721 0.01956938 -0.8848235 -0.7182184 -0.4715332 0.92750186 -0.5283077 -0.35111186 -0.24311206 -0.15693367 -0.6333685 -0.030037515 0.0054009734 0.6693774 0.10379197 -0.67691827 0.11310228 0.7403081
http://www.semanticweb.org/inm363/AwA2#zebra -0.60845745 -0.36665335 0.54552823 -0.25944832 -0.14346388 -0.04873384 0.20721817 0.66194516 0.5031087 -0.451264 -0.08712601 0.21455814 -0.051451564 0.47215807 0.5102603 -0.5043281 0.7863029 -0.0057661994 -0.37164858 -1.0105145 -0.01491476 -0.10040211 -0.18356414 0.109945424 -0.38598734 -0.99742734 -0.8570197 -0.35730228 -0.1507931 0.7280117 -0.32354093 -0.34819227 0.5183688 0.42476603 -0.6748749 -0.19787206 0.27373642 0.06935961 -0.03693162 0.24917944 0.27102193 0.04005978 0.63071376 -1.441804 0.09051994 0.1476214 0.10973531 -0.42926666 0.26031902 -0.34325385 -0.47192615 0.1819765 -0.43717766 0.26919267 0.41496643 -0.12805673 0.5255521 -0.0012693409 -0.33860788 -0.50430775 -0.38043413 -0.05341392 -0.71953046 -0.2474991 -0.26281834 -0.07328003 0.037377875 -0.25375322 -0.67798156 -0.3224792 -1.1615391 -0.67032164 0.1915245 -0.52478147 0.15900318 -0.5393457 0.60518676 -0.44781286 0.8685478 -0.40777084 -0.3210783 -0.56748843 -0.76015013 -0.85488164 0.019813178
http://www.semanticweb.org/inm363/AwA2#otter -0.8224157 -0.3216715 0.22136745 0.2115997 -0.036498353 0.011619291 -0.18171354 -0.30971754 -0.17108327 -0.409378 -0.1888823 0.21384297 -0.7743851 0.059391428 0.40427017 0.8216636 0.7335663 0.49362615 -0.4171376 -0.8744756 0.5095449 -0.024319716 0.70397514 -0.6421471 -0.55093986 -0.036715332 -1.1821433 -0.9778727 0.70925355 0.56832814 -0.6806793 0.08065316 0.8790951 0.4226436 -0.43869504 -0.14028405 -0.7653886 1.0028564 -0.057394244 -0.31606057 -0.43706012 -0.04374228 0.10905423 -0.9574266 -0.6148737 -0.3419305 -0.33074525 0.052843858 -0.6935405 -0.31990877 -0.5471519 0.087905526 0.7575874 -0.14308208 0.80517113 0.7008495 0.2827354 -0.4565123 -0.2559842 -0.5402328 0.48976326 0.650433 -0.95534086 -0.3662556 -0.52913386 -0.33493623 0.4646323 0.0635816 0.20559332 -0.6429522 -0.19114691 -0.31551573 -0.111622386 -0.003953001 0.07738234 -0.391057 0.4813451 -0.053724382 -0.31391022 0.19484074 0.08483707 -0.33626336 0.021877512 0.24085692 0.7208909
http://www.semanticweb.org/inm363/AwA2#cow -0.18177935 -0.26987937 0.40555507 -0.6113687 -0.015269998 0.06372127 -0.010880778 -0.3382739 0.39563176 0.019747574 0.27077276 -0.2159195 0.26545423 -0.15086776 0.15402617 -0.3915427 0.13652556 0.4374791 -0.90537703 -0.8388784 0.03437456 -0.15189236 -0.39681178 -0.5184329 0.45580885 -0.22330274 0.007773332 -1.1946781 -0.13485433 0.5647059 -0.063894935 -0.7126927 -0.058603033 0.4495751 -0.25085494 -0.17415649 -0.3949496 0.18540436 0.18884984 0.028259242 0.06741155 0.118049376 0.8041506 -0.969856 0.1588507 -0.2736785 0.31032172 -0.32690316 0.19633242 -0.6144315 -0.44425195 -0.22810511 0.37600857 -0.7582012 0.42510605 -0.20656718 0.9119132 -0.75843084 0.10652474 -0.41887927 0.008572743 -0.7750375 -0.69551265 -0.33390146 -0.65462834 0.18554372 -0.66015 -0.1821387 0.16222107 0.12265532 -0.5827795 -1.0644461 -0.8076846 0.39042407 0.0029573208 -0.56500673 0.38413328 -0.11419796 0.13374074 -0.0019399881 0.4502909 -0.44487914 -0.8237041 -0.3845631 -0.18804167
http://www.semanticweb.org/inm363/AwA2#giraffe -0.93090814 -0.28392756 0.52811235 -0.25759026 0.6029138 0.5066551 0.068546675 0.21278353 0.8477743 -0.544356 0.64407086 -0.23406188 -0.20314333 -0.35662192 0.3079687 -0.56909364 0.46666387 -0.0902925 -0.80012894 -0.62939364 -0.0011760589 0.20642915 -0.37320104 -0.3822442 0.15639873 -0.60717094 0.23083766 -0.24374755 0.029829888 0.68230927 -0.1714134 -0.38559452 0.16399918 -0.0077023925 -0.8947328 -0.4134689 -0.5029104 -0.5030122 -0.15004694 0.39348322 -0.10312372 0.31397727 -0.18165842 -1.0805494 0.4941528 -0.41929072 0.20684287 0.10313523 0.4611578 0.17926118 -0.38953707 0.24769494 -0.004666923 -0.8403846 1.3232621 -0.28523842 0.79706407 -0.52010775 0.02072181 0.28631574 0.0023979223 -0.13917963 -0.5060437 -0.060023073 -0.24583152 1.0595334 -0.97410303 -0.10567618 -0.10187497 -0.34363538 -1.0884665 -0.57886976 -0.7327719 -0.4582647 -0.6536611 -0.319002 0.13349704 -0.0381459 -0.25172022 -0.52087796 0.25398526 -0.13431896 -0.34159774 -1.0649357 -0.06934222
http://www.semanticweb.org/inm363/AwA2#AnimalAttributes -0.2274792 -0.083234355 1.3764757 0.12315244 1.2282833 0.06987839 -0.12892649 0.14886302 0.9584835 -0.8564274 0.27494812 -0.052347295 0.6414654 0.11892718 -0.1190843 0.6533173 1.686187 -0.9853681 -0.72217965 1.2775872 -0.29137135 -0.09782733 -0.55515987 0.17959522 -0.36857054 -0.7799653 0.017578714 0.3732471 0.096255034 -0.32932886 0.04583082 -0.03637799 0.046948943 -1.1295453 0.825107 0.3612848 -0.5084341 0.6764401 -1.183525 -1.6538559 0.65992236 1.2135478 0.4779284 -0.027961802 0.57846737 0.46971872 -0.11889533 0.38769007 0.6584648 -1.8613013 -1.4318577 -0.74224395 0.87867284 0.21791069 0.9564237 0.013312757 0.6487374 0.2516164 0.81792074 0.6493143 -0.82700306 -0.064781666 -0.14055814 -0.13872597 -0.46574822 0.60935813 0.4659587 0.60436636 0.6107212 -0.8005553 0.033942286 0.94303083 -0.46623552 0.78458744 -1.0815659 -0.9031709 0.28298053 -0.58753216 -0.46775052 -0.12447489 0.20654543 -0.8653558 -0.23613276 0.5978556 0.23687632
http://www.semanticweb.org/inm363/AwA2#seal 0.17780794 0.066063985 -0.27919677 -0.5306973 0.80028754 -0.3742195 0.11208291 -0.50280493 0.05626684 -0.48992082 0.544693 -0.26849037 0.24071437 0.34169558 0.22549438 0.008824689 -0.36619884 -0.1450179 -0.99990207 -0.79620224 0.4455531 -0.19440016 -0.21449085 0.1248366 -0.48691705 0.07037707 -0.99323714 0.24032627 0.049195666 0.5895827 -0.36555207 -1.099722 0.5138543 -0.10535277 0.120699495 0.18359798 -0.025034893 0.4985184 -0.19953954 -0.39549983 -0.9725331 0.3866795 0.35075018 -0.7594284 -0.20174478 -0.022879079 -0.96812034 0.05098362 0.028198091 -0.88086104 -0.29085952 -0.12177491 1.3754356 -0.5420356 1.2430861 0.37017497 1.1703913 -0.13077869 0.5117718 -0.896136 0.36446187 0.23031819 -0.7993117 -0.59554857 -0.046588823 -0.6132116 -0.65029067 -0.628464 -0.36785126 -0.18836764 -0.6412426 -0.3956559 -0.30498543 0.37825745 -0.33109823 0.42232567 0.16361928 0.0076300087 -0.3767883 0.44319618 -0.34070665 -0.46644813 -0.5290265 0.349414 0.39980006
http://www.semanticweb.org/inm363/AwA2#dalmatian -0.51678437 0.1087917 0.48675576 0.23164602 0.7762087 -0.19113953 0.2351745 0.5577244 0.7426667 -0.18535836 0.13012746 0.07109728 0.6730547 0.0893196 0.39700812 -0.25092158 -0.034072902 -0.21169414 -0.53062266 -1.3915168 0.4626419 -0.7906047 -0.5859245 -0.6136369 -0.46217984 -0.31714323 -0.28882802 -0.5887461 0.11896228 0.41172352 -0.5727583 -0.4922929 0.7388851 0.12629965 0.37662017 -0.016635546 0.1643079 0.40158796 0.07428305 0.019445663 -0.18404756 -0.18565294 0.6871344 -1.0601182 -0.32255217 -0.29467246 0.23929772 0.32396665 -0.3262635 -0.65514225 -0.8468842 0.4872063 0.3052191 -0.80517536 0.66922057 0.24812973 0.16669704 0.4312452 -0.09295549 0.120865814 0.3546043 0.051701166 -0.2746281 0.013347509 -0.3777151 -0.3544052 -0.32479545 -1.0455034 -0.090627246 0.11803274 -0.22302839 -0.40026367 0.783255 0.2841326 -0.52927995 -0.7333464 0.77182376 -0.40140814 -0.04490963 -0.3098168 0.24695173 -0.23354177 -0.9571357 -0.5023938 -0.17345014
http://www.semanticweb.org/inm363/AwA2#walrus -0.101725265 -0.2156624 1.0917083 -0.119091466 0.40612212 0.095863 -0.044549044 -0.54890287 0.2345031 0.2216392 0.32019517 -0.5220475 -0.6076248 1.1185372 0.71884704 -0.1357714 0.05689944 0.45779702 -0.97812766 -0.7422002 0.17440479 -0.013799697 -0.093856655 0.6719125 -0.8343365 -1.2602457 0.2899364 0.006537187 0.21334684 0.76483583 -0.88161236 0.5085568 0.022847725 0.54707325 -0.6113787 0.044829886 -0.15849414 0.63849515 -0.32912192 0.040690497 -0.8001528 -0.09394095 -0.7520265 -0.6733068 -0.66675544 -0.3085327 -1.3295722 0.34507105 -0.24148911 -0.9316971 -0.79199827 0.35335636 1.2672703 -0.6502202 0.37308753 0.04771556 0.91893977 -0.43119928 0.29742652 -0.11361373 0.23804948 -0.08540583 -0.016597684 0.005805415 -0.19151045 -0.2769971 -0.5717336 0.045200255 0.17545229 -0.6164834 -0.2187811 -0.66648436 -0.8255748 0.1626694 -0.57055825 0.029760925 -0.09412606 -0.2308775 -0.8772955 0.46623555 0.5348405 -0.73310304 0.32946345 0.12891385 0.4142886
skin 0.20798677 0.58820754 -0.42765298 -0.7142886 -0.17723079 1.6347393 0.4307044 -0.59836286 -0.30945352 0.0050437343 -0.3553316 0.5695186 -0.0085295765 0.21585555 0.73305535 -0.5665926 0.23689695 0.22010206 0.15628842 0.18493883 0.21031001 -0.27050346 -0.49580592 0.19892012 -0.06470311 -0.8067534 0.44601947 0.14314984 0.5363044 0.19327703 0.30796316 -1.215058 -0.5210023 0.20774181 0.3738299 0.46947366 1.2966007 0.9420603 -0.70760655 0.12562636 -0.46652344 0.50561315 0.73479813 0.07810686 0.22485265 -0.10056972 0.21095252 -0.54690903 -0.31144404 0.24690193 0.29717997 0.04394094 0.16308808 -0.30020317 0.46226838 -0.0968434 0.93610716 -0.37264132 0.40785718 0.23730561 0.9369211 0.16985077 0.07133662 0.79942405 -0.75723815 0.6935314 0.5035053 -0.6578613 0.094172545 -0.46834758 -0.38546777 -0.8304869 -0.4047152 0.35586727 0.76725286 -0.5384121 0.048997466 -0.08295022 0.2200912 -0.358438 -0.72312474 -0.8367807 0.29338527 -0.30594733 -0.073804
http://www.semanticweb.org/inm363/AwA2#skunk -0.5631846 -0.16068898 0.5485799 0.29891506 -0.43826535 0.37112352 0.89564466 0.02055693 0.25631914 -0.2653529 0.41852874 -0.39373717 0.09200174 0.03454728 0.5061704 0.2256627 0.7531313 0.55649966 -0.78873444 -0.68040514 0.055870794 0.11116604 -0.27953807 -0.76810557 -0.19129711 0.4991899 -0.049764156 -0.76560485 -0.1782128 0.96679544 0.44380128 -0.06598095 -0.10604533 0.3054496 0.113281436 -0.33344737 -0.028434033 0.47989902 0.2693514 0.24183594 -0.08012403 0.7381301 0.7083486 -0.2247103 -0.15417086 0.0050742 -0.44161084 -1.1957153 1.1426531 -0.33971864 0.56177956 -0.2502761 0.13737668 0.17315309 0.04352911 0.45013618 1.3935188 0.34643492 0.27121443 -0.4391215 -0.557205 -0.47409773 -0.74928874 -0.21179307 -0.09402604 -0.1784456 0.47330585 0.033624694 -0.10961878 -0.9669458 -0.6768322 -0.6978901 -0.09934602 0.066329025 -0.80555266 -0.18066856 0.28192735 0.2159502 -0.3941251 -0.718634 0.6462685 -0.98131627 -1.2456005 0.09710756 0.32415026
http://www.semanticweb.org/inm363/AwA2#killer+whale -0.23102514 -1.0626801 0.41824305 0.14850253 0.40607205 0.16659456 0.73290324 -0.6562272 0.2691122 -0.26607153 0.0075946706 0.27278113 0.27244595 -0.120547876 0.4976599 0.10554542 0.10325327 0.15087 -0.879317 -0.5515158 -0.14047116 -0.2131873 0.21906655 -0.11079626 -0.4298547 -0.6312097 -0.2844069 0.038836792 -0.32406634 0.3995506 -0.83361506 -0.34356853 0.7435375 0.07340483 0.28846288 0.58729744 0.13067336 1.1188947 -0.30831677 0.14947368 0.29781556 0.44594523 -0.41594923 -1.164685 -0.12906025 0.065835424 0.05836692 0.507907 -0.9802355 -0.6820394 -0.17754982 0.7008273 0.22999083 -0.40873346 0.87523675 0.42911923 1.3104107 0.23265791 0.58102065 -0.6490807 0.13255963 1.0420383 -0.9332416 0.17027761 -0.27183938 -0.50005656 -0.6797631 -0.61000955 -0.49358612 -0.043647774 -1.2011786 -0.63411945 -0.06067934 -0.59774995 -0.2040753 -0.0015944258 0.6334048 -0.2872386 0.11759063 0.43767664 -0.33913073 -0.21109167 0.38285244 -0.55651903 -0.25382054
http://www.semanticweb.org/inm363/AwA2#squirrel -0.64367986 -0.09455873 0.044276457 -0.13824679 -0.10892882 -0.097645 0.20205022 0.8999658 0.402936 -0.7679174 -0.0434068 -0.42407882 -0.81069297 0.45175484 0.32754895 0.6207743 0.39215216 0.7916063 -0.5799184 -0.6339537 0.10715667 -0.27875164 0.17925352 -0.83321923 -0.50727415 0.7470163 -0.6372545 -0.6787631 -0.41515672 0.5251524 0.31731158 0.8956051 -0.06757075 -0.460588 -0.19884926 -0.8998839 -0.80355036 -0.026434591 -0.6588948 0.054767903 -1.0040101 -0.031209892 0.10479795 -0.52959186 -0.040492468 -0.24394652 -0.3196787 -0.46176425 0.005211007 0.23198295 -0.4999819 0.048378803 0.32145637 0.053464904 0.5228634 0.15778105 0.85913646 -0.15833898 0.23628542 0.0526753 0.33608228 -0.48959 -0.6430374 -0.11360308 -0.09422163 0.02647613 0.20382842 -0.27170306 -0.21254449 -0.7138878 -0.69994605 -0.33313978 0.14603531 0.5948505 0.6235996 -1.5435382 0.030021094 -0.1852955 -0.085125305 0.055921774 0.6881666 -0.66065866 -0.22891942 0.43482235 1.2072535
http://www.semanticweb.org/inm363/AwA2#humpback+whale -0.32508448 -0.058876123 0.91211826 0.18255797 0.1696241 -0.43240082 0.22543849 -0.3428915 0.18950064 -0.20265922 -0.033609975 0.14560473 -0.2741272 0.3714975 0.054170612 -0.43986323 0.16300498 0.30327532 -0.29032856 -0.26508963 0.09723438 -0.03401667 0.28286517 -0.16660894 -0.42756099 -0.95917976 -0.34758937 -0.44427204 0.013308544 0.2596675 -0.7412029 0.16066544 0.12321695 0.033711016 0.3612377 0.021383017 -0.075740114 0.50193954 -0.14852612 -1.0010393 -0.031798955 -0.07428537 0.011492449 -0.9166105 -0.5094994 -0.21684131 -0.33746168 -0.08641641 -0.08578776 -0.31007186 -0.3802001 0.16149709 1.14173 0.106225334 1.4858121 0.21423703 1.1740919 0.12786604 0.48093572 -0.8752213 0.23824438 0.008509558 -0.46230915 0.24237166 -0.18551871 -0.8051034 -0.7267649 0.03868877 -0.53183824 -0.8787587 -0.466382 -1.3715804 -0.18388441 -0.032060344 -0.11364333 0.5898764 0.59026176 -0.52557087 -0.01942338 -0.09870994 0.048384868 -0.046268746 -0.17313692 -0.18613009 0.762313
http://www.semanticweb.org/inm363/AwA2#blue+whale 0.066424035 0.41100436 0.83495545 0.40302002 9.112238e-06 0.13078474 0.043273404 0.14734775 0.33269426 0.162704 -0.20818394 -0.056546595 -0.46205875 0.14576872 0.70560867 -0.23859909 0.14540255 0.5099511 -0.46835768 -0.14070328 0.17313407 0.075977035 -0.013472588 -0.2047331 -0.17758192 -0.7689739 -0.3818709 0.011192606 -0.5230969 -0.040207688 -0.6409736 0.37156168 0.36427155 0.058220994 0.29152277 -0.041982323 -0.14251816 0.17624913 0.08486204 -0.7258545 -0.09805506 0.16040155 -0.011164386 -1.0222424 -0.308166 0.062325556 -0.3568424 0.09469185 0.008652702 -0.2648654 -0.26701185 0.30668834 1.3555515 -0.14575541 1.3940856 0.3866229 1.2553607 0.1857032 0.89317226 -0.62818885 0.36489925 -0.11674503 -0.6920385 0.5574998 -0.15491177 -0.6750702 -0.73142254 -0.3521161 -0.40334892 -0.7220372 -0.36323398 -1.1181828 -0.5530139 0.25197423 -0.09482546 0.6860063 0.6761941 -0.7096862 -0.30735323 -0.04533221 -0.23118748 0.022279061 -0.2346507 -0.49901778 0.52911925
http://www.semanticweb.org/inm363/AwA2#chihuahua -0.8294338 -0.096226595 0.777189 0.58816797 -0.054187234 -0.10793766 -0.23095343 0.29536664 0.31243595 0.04427311 0.34360683 -0.3913155 0.23511203 0.3175773 0.29678863 -0.04236253 -0.4256671 -0.051265456 -0.77122974 -0.860607 0.45695174 -0.8082251 -0.41722172 -1.381521 0.14816514 0.25695422 -0.11693616 -0.011471101 -0.074418016 0.5545449 -0.1641676 0.33125037 0.6633239 0.2911221 -0.2443661 -0.03958895 0.16875775 0.765409 -0.04310306 -0.15926193 -0.49397025 -0.105476804 0.6800109 -1.0870886 -0.35106486 -0.5876483 -0.34227931 -0.47569862 0.1066729 -0.2914142 -0.20628922 0.7338616 0.09883719 -0.7592909 0.14416935 0.62793875 0.63832986 0.022693042 0.8423762 -0.0017294822 -0.038413163 -0.5798177 -0.35560536 0.35788214 -0.563405 -0.22007065 0.09280438 -0.072744526 -0.25097767 -0.7532116 -0.40308034 -0.0056664897 0.47210935 -0.22767892 -0.48271197 -0.8067454 0.2966353 0.41688317 -1.1291068 -0.41201636 1.1012167 -0.10281637 -0.3055941 0.08708409 -0.3141434
http://www.semanticweb.org/inm363/AwA2#dolphin 0.059622187 -0.72373104 0.5919829 -0.36652872 0.43987873 -0.90906733 0.27260056 0.42175263 0.53206885 -0.027348705 0.17444016 0.56038755 0.25864115 0.48915645 0.37207493 -0.24353111 -0.653891 0.12929706 -0.07784398 -1.2060771 -0.2948289 -0.5007914 0.2829616 -0.62036616 -0.7119127 -0.55160177 -0.2568196 0.12485624 0.17985067 0.563502 -0.7007214 -0.41320133 1.1463886 0.5558789 -0.47710446 0.23222181 -0.1460584 0.6227085 0.17746553 -0.3581391 -0.42324945 -0.7537208 0.012415407 -0.74479413 -0.21057619 -0.24017204 -0.82318115 0.2600463 -0.060633685 -0.7739053 -0.6271559 -0.20717396 0.7339978 0.035407227 0.888684 -0.22302642 1.4064809 0.09988373 0.3881889 -0.009207888 0.7222049 0.05431069 -0.24294323 0.31504422 -0.8866093 -0.15255259 -0.9179269 -0.67752904 -0.07571353 -1.0115213 -0.5699427 -0.53485286 0.121452875 -0.12006435 -0.44151354 0.47638902 0.8756192 -0.27648363 0.5794678 -0.044283997 0.56542176 -1.1139998 -0.016545588 -0.1646729 0.14308687
http://www.semanticweb.org/inm363/AwA2#persian+cat -0.31056893 -0.25507665 1.0301481 -0.31200773 -0.026277265 0.008811492 0.5527412 1.2837092 0.47316778 -0.07176284 0.3806581 -0.7991852 0.4811692 0.17593236 -0.049823467 -0.030633686 0.5027828 0.4433301 -0.6305542 -0.8104056 0.17493843 -0.55284214 -0.6808845 -0.50262165 0.14916646 0.48818183 -0.3302053 0.28371778 0.38100883 0.73530775 -1.1227123 0.0011600276 0.8833987 -0.40958792 -0.6810894 0.70325065 -0.5134133 0.48365453 0.12700856 -0.9211521 -0.4075717 0.13247582 0.57054776 -1.1308838 -0.844209 -0.46074343 -0.5743861 -0.47218242 0.40490213 -0.645278 -0.6657306 0.6677385 0.30358985 -0.40113726 -0.124413036 0.36038163 0.25267977 -0.5023359 0.7279805 -0.7485149 0.46307456 0.05769621 -0.39394355 0.33030298 -0.34266034 -0.7436488 -0.11302885 -0.44768634 -0.58357847 -0.80049634 0.07866711 -0.08637219 0.033786066 0.26508942 -0.48451898 -0.97753304 0.6634197 -0.23206553 -0.06730838 0.26752385 0.28684708 0.33712947 -0.30161756 0.11449005 0.099169366
http://www.semanticweb.org/inm363/AwA2#collie -0.66009134 -0.17349522 0.1369745 -0.266603 -0.36371344 -0.050466802 0.53105754 0.07423556 0.64291316 0.52445734 -0.36109316 -0.5502802 0.85484016 -0.116283536 0.5130258 0.10377739 0.057483405 0.35535827 -0.5899911 -0.8251593 0.3610234 -0.5387742 -0.061020613 -0.90998596 0.28311935 0.4788766 -0.6971969 -0.62015015 0.7294081 0.53740716 -0.32104048 -0.40877247 0.8425002 0.24475771 -0.039845556 -0.25892314 -0.25743482 0.66239935 -0.17350215 -0.21361086 -0.8256413 -0.051069077 0.53584486 -1.0583676 -0.047601145 0.028516635 0.20251109 0.25102353 0.25456 -0.31739077 -1.0966184 0.13542897 0.28072637 -0.7592958 0.6053373 0.74976224 0.21949892 -0.40775964 0.0890584 -0.35971087 0.10385753 -0.094015986 -0.10614723 0.07243019 -0.5726351 0.38641202 -0.011371149 -0.8331742 -0.14027493 -0.45476308 -0.38641477 -0.33623025 0.13665771 -0.40806183 -0.5053533 -0.568302 0.34221655 -0.39455768 -0.25015685 0.17307961 -0.07402895 -0.08624369 -0.48193723 -0.18111908 0.517606
http://www.semanticweb.org/inm363/AwA2#buffalo 0.003801536 0.08459636 0.56744266 0.18470338 -0.28967366 0.108207375 0.69806767 0.03293178 0.60502774 -0.18302499 0.115503825 -0.16631502 0.016875887 0.2978075 0.18302456 -0.5013227 0.0875892 0.2686298 -0.8190881 -0.41603976 -0.23561928 0.1035571 -0.7680113 0.26595855 -0.16916656 -0.17683658 0.29302672 -0.8741811 -0.035289958 0.3204788 -0.02262943 -0.17399736 -0.9368179 0.29899585 -0.4891661 -0.62225 -0.58974266 0.6391228 -0.37401676 -0.17443907 -0.1993244 0.15254351 0.4692187 -1.3161561 0.3222532 -0.839909 -0.20130076 -0.721459 0.463331 0.08175189 -1.0228007 0.04163038 0.083466776 -0.20000552 0.19814168 -0.44438365 0.65764606 0.36456284 0.061770007 -0.31948632 -0.6255772 -0.71641594 -0.46083152 -0.03906482 -0.43708152 0.34547842 -0.44014496 -0.17273754 -0.2852556 -0.012856993 -0.81389517 -1.5882416 0.10902801 -0.5573224 0.15713964 -0.4703417 0.54658854 -0.13820928 -0.24313769 -0.39024293 0.44527438 -0.0999651 -0.25013795 -0.39291874 -0.19617239
http://www.semanticweb.org/inm363/AwA2#elephant -0.81715435 -0.8429429 0.6804941 -0.07761362 0.33501425 0.05889114 -0.09260403 0.65037125 0.10634518 -0.3365487 -0.14409597 -0.0012330513 0.019596005 0.5116616 0.27779377 -1.3496976 0.6576052 0.83992356 -0.92009676 -0.26770985 0.603527 0.13454825 -0.5274245 -0.041188426 -0.34154728 -0.61943334 -0.51284444 -0.43167767 -0.6790418 1.375306 0.16878545 0.8436671 0.058293164 -0.25916794 -0.5383321 0.003023024 0.20290977 0.1367115 0.037882723 0.55074984 -0.5702887 -0.23735711 -0.07810089 -1.1158121 0.562635 -0.55259293 -0.042723037 -0.12378236 0.68067425 -0.39435795 -0.4285629 0.2813248 0.7934176 -0.53317803 0.30665267 -0.43929225 0.5059456 -0.39699578 -0.5759922 -0.42473418 0.10299023 -0.30884224 -0.26548696 0.14242056 -0.34872782 -0.4658622 -0.7884163 0.25816303 -0.41921377 -0.75698316 -0.04372364 -0.7837629 -0.6315902 -0.52809507 -0.12163582 0.30276477 0.047101833 -0.80340797 0.34581602 0.12901817 0.19337925 -0.2042783 -0.77857673 -0.1614046 0.59560806
http://www.semanticweb.org/inm363/AwA2#antelope 0.12781121 0.1040357 0.33312088 -0.14390923 0.5117422 -0.1802155 0.36671346 0.36377263 0.284575 -0.5496764 0.25260875 -0.09173537 -0.07704723 -0.18961051 -0.22071566 -0.087000564 0.065550655 0.14464606 -0.7914935 -0.6861359 -0.026215415 -0.4196308 -0.30969355 -0.023234798 -0.05391819 -0.39893183 -0.67564625 -0.8212115 0.37727466 0.7223391 -0.20299216 -0.13423526 0.2276511 -0.024322288 -0.5161404 -0.3734275 -0.3163651 -0.106571324 0.38409218 0.17376712 0.38052332 -0.001507382 0.53516746 -1.1001127 0.50981146 -0.18723087 -0.1856872 -0.046039496 0.41770366 -0.073264696 -0.7294572 -0.102841206 0.06468778 0.10812468 0.65011585 -0.12002668 0.9281989 -0.44837284 0.034020167 0.038829815 -0.25705332 -0.63575584 -0.8665109 0.2100873 -0.20711954 0.45188123 -0.050427474 -0.70956624 -0.14415237 0.27622437 -0.95983154 -1.2122151 0.19331557 -0.13998088 -0.06196674 -1.0269674 0.5904178 -0.9492326 0.5476267 -0.37779906 -0.30587187 -0.6546205 -0.36875945 -0.3338559 0.28978413
group 0.27874428 0.46588182 -0.005600228 -0.29767922 0.3587743 0.9133393 -0.3096742 0.73092556 -0.02024948 0.40642035 -0.94698244 0.08440936 0.24418323 -0.03758438 0.43380788 0.11699074 0.7890334 -0.21234891 -0.61172074 0.46523452 0.16502365 -0.26366723 -0.28214288 -1.0526556 0.20733976 -0.60441417 0.051081702 0.11787488 0.080570206 -0.13593262 0.09621225 0.31251404 -0.012107711 -0.034204997 -0.24596061 -0.37203717 0.48422536 1.051777 0.07939192 1.0095042 -1.2099125 0.36491278 0.45096806 0.11128123 -0.36618188 -0.7637683 0.5985325 -0.29864752 0.21028829 -0.40574738 -0.13879551 -0.09597313 0.1853776 -0.044674262 0.029809644 -0.05607296 -0.18229039 -0.021641755 -0.17502297 -0.20481636 0.63660157 0.8775615 -0.09718302 0.8943222 -0.1860737 -0.029735811 -0.15875888 0.059892215 -0.48868796 -0.059121203 0.30035588 -1.011925 0.124162786 1.073047 0.9167692 0.23054865 0.015858993 0.3045608 0.13909695 -0.7654925 0.54762065 -0.093786106 0.4056094 0.8490452 -0.5529889
http://www.semanticweb.org/inm363/AwA2#PhysicalAnimalAttributes -0.7699062 -0.56068385 0.7026987 0.41235423 0.25703248 -0.06961361 -0.7495733 -1.0535097 0.9265866 -0.32648236 1.2304935 -0.16588955 1.676782 0.28560048 -1.0466435 0.29214537 1.0617001 -0.4932691 0.1663178 -0.71178406 -0.4985795 0.0054689758 -0.8871791 0.63684666 -0.41920295 -0.6580235 -0.192868 0.3828231 0.074747376 -0.4132426 -0.12030408 -0.39409313 1.0431774 0.48630854 0.826459 0.4714212 -1.4502305 0.925714 -0.741223 0.036635563 0.32260007 0.72656375 0.62640125 0.010156195 1.421503 0.03569224 -0.030140718 -0.9464132 1.1379282 -0.5296282 -0.147306 -0.30152962 1.7097564 0.19966745 1.5175846 0.8679004 0.7569799 -0.38332093 0.053779695 1.0802082 0.6225302 0.39568028 0.15875967 0.11484173 0.09776005 -0.5742565 0.27573285 0.74350524 0.9108145 -0.3918456 0.8084571 -0.28239202 0.474442 1.1673727 0.04324354 -0.7148936 0.6677134 -0.23068452 0.45218834 -0.32639706 0.2503043 -0.6310821 0.45504096 -0.32756707 -0.2334214
http://www.semanticweb.org/inm363/AwA2#rhinoceros 0.43417555 -0.0021711155 0.86915964 -0.007595471 0.45863426 0.23198453 0.16070704 0.23127384 0.42344594 -0.3473983 -0.35961065 -0.27406326 0.6090345 0.26452324 0.55588245 -0.947893 0.76958287 0.56393677 -0.6217149 0.12933886 -0.89766574 -0.13671084 -0.8173089 -0.34620294 -0.40185174 0.22857003 -0.08312083 -0.6473644 -0.96171874 0.9691274 -0.054649506 0.9586288 -0.6672565 -0.2624671 -0.26581946 -0.26940048 -0.011580203 0.3111395 -0.6102493 0.011119214 -0.44493878 0.2878589 0.52775806 -1.631987 0.4776705 -0.64071447 -0.7538027 -0.25053975 0.4632653 0.11732888 0.0013743907 0.1853186 0.39161238 -0.23391843 0.6872886 -0.23535733 0.38287324 0.050898504 -0.61159825 -0.3283578 -0.32391974 -0.11403482 -0.5944584 0.5550326 -0.2132606 -0.63413715 -0.9409339 0.3528729 -0.5765855 -0.3069249 -0.47081172 -0.89521384 -0.57167745 -0.54263467 0.042865146 0.18757123 0.54256696 0.14636928 -0.50168264 -0.33734018 0.27051365 -0.5880073 -0.8571927 -0.3201457 -0.21749684
http://www.semanticweb.org/inm363/AwA2#sheep -0.46490827 -0.18318512 1.1125082 -0.2681363 0.17063941 0.075300716 0.6120717 0.3648296 0.23930822 0.62946486 1.1588441 -0.46761996 0.05896107 -0.3556986 0.045721173 0.015647233 0.023977267 0.11873502 -0.4484348 -0.38950253 -0.6554151 0.4343463 -0.74273044 -0.5591165 -0.0061943666 -0.48902717 -0.21866323 -0.515622 0.21620296 0.80330735 0.39402685 0.116233215 -0.66016966 0.2357656 -0.2658375 0.1925328 -0.6962688 0.8863116 0.08820382 -0.02951132 0.43586794 0.09241112 0.8671862 -1.3058239 0.21627754 -0.22042555 -0.18146421 -0.11406068 0.4494656 -0.783548 -0.98694324 0.53898114 0.31929886 0.14053127 0.43301344 -0.24485102 0.3818375 -0.568961 -0.34904605 -0.6584699 0.23220369 -0.48200774 -0.46922836 -0.5885329 -0.5135786 -0.19221169 -0.21263155 0.0035997457 -0.4330078 0.06272579 -0.6332594 -1.0519246 0.32313758 0.50615543 -0.24697424 -0.45887 0.25024202 0.3690074 -0.63070273 -0.54431814 0.9159879 -0.09445177 -1.2194166 0.46720126 -0.502434
bat -0.97530955 -0.2883056 -0.011083823 -0.4299048 0.1868628 -0.0035766042 -0.4152415 -0.3358384 -0.9799397 -0.32775876 0.9434605 -0.35040873 -0.96783257 0.65854526 0.5256192 0.13024753 -0.72783476 -0.2946959 -0.8484788 -1.0458694 0.16862364 -0.6797873 -0.71645683 0.43576744 -0.7412517 0.08298551 0.20273806 -0.012396377 0.42405945 1.1613693 0.31237856 0.44248456 -0.077561386 -0.32656083 0.20176493 0.40647328 -0.26819724 1.0703748 -1.2140214 0.45362607 -0.3828718 -0.3985032 -0.012159616 -0.4835159 0.57786757 -0.5342747 0.21148449 -0.9267417 -0.03059248 0.030485379 0.6329631 -0.12266553 1.3935385 0.14800635 0.52087235 -0.4410211 -0.15489225 1.17225 0.67664367 -0.65017164 -0.22199526 -0.17107435 -0.15167211 1.0924475 -0.28096336 -0.2477063 0.17092472 -0.20724992 0.09867639 -0.29509166 -0.44844118 -0.35654724 0.019469764 -0.6723244 -0.23833287 -0.94044536 0.16661398 -0.9742307 -0.43350792 -0.95413417 0.009765559 0.33354375 -0.3940535 0.5634788 0.7218798
tiger -1.2067074 -0.3656915 0.55431485 -0.79208255 0.19199702 0.36577561 -0.20935841 -0.5168813 0.25281888 -0.00036389777 0.1713612 0.2878438 0.020708298 0.62521803 1.4349351 0.040428855 0.7550639 -0.6791038 -0.3797388 -0.6529995 -0.109762296 -1.1962681 -0.6431795 -0.39225194 -0.3301331 -0.2536576 -0.16873395 -0.60852456 0.07825281 1.2074319 -0.114751615 0.19519036 0.16689648 0.11252914 -0.32998517 0.4603695 0.21495421 0.35764003 0.17221333 -0.3223678 -0.017775426 -0.2154304 -0.122648835 -1.3155211 -0.40643954 -0.20505731 0.13454312 -0.09898568 0.7443658 0.6215924 -0.34725988 -0.28044218 0.3513989 0.23966968 0.0036949574 0.30854923 0.6894356 0.30836928 -0.7731987 0.7164007 -0.7408689 0.8567126 -0.17514893 0.48602846 0.204296 -0.3198149 0.097567715 0.32216814 -0.1863099 -0.3650098 -1.023098 -0.09086257 -0.025620265 -0.7054308 -0.35598 -0.58719593 0.2300238 0.26635897 -0.029977674 -0.23728237 0.23247837 -0.12960249 0.000859156 -0.2823259 -0.09290107
colour 0.2898582 -0.8053823 0.77119637 -0.3255018 0.005984102 0.21766205 -1.0997154 -0.4348017 0.042220015 -0.26344514 -0.23799194 0.88958883 -0.24308978 0.49159044 0.21883258 -0.23455046 0.17437342 -0.6286187 -0.52877873 0.60787344 0.3175612 -0.30041727 0.02293978 0.28387588 0.4381771 -0.102311864 -0.10214067 -0.15646064 0.2524564 -0.99973583 0.59955746 -1.6748786 -0.53136295 -0.89597845 0.2515933 -0.22613119 0.17061993 0.97400546 -1.030584 0.17555569 -0.59047544 0.85597897 0.42453212 0.13670689 -0.66663754 -0.5647712 0.009102175 0.84310794 0.350539 -0.37953612 -0.48590034 0.061788823 -0.6844589 -0.44292477 0.4564766 0.10658021 0.9240832 0.1277675 1.0451739 0.04669997 0.13709462 -0.032146536 0.09204345 0.9783233 -1.1114898 -0.16773854 -0.18162885 0.31797335 0.07905528 -0.53500736 0.47126487 -0.22483338 0.40346655 -0.08618972 1.077618 0.41868812 0.22463243 1.4810908 -0.47764492 0.14593875 0.73800695 0.48629043 0.1861007 0.124674685 -0.5738722
rat -0.69601583 -0.6988942 0.16661373 -0.059014194 -0.5378185 -0.02238686 -0.18193893 0.08496343 0.37351358 -0.2752428 0.2657039 0.26892424 -0.4447972 -0.19942574 0.5524833 1.2816637 -0.3308038 0.19101717 -0.9833746 -0.8278749 -0.09959577 -1.0193847 -0.82958925 -0.48064837 -0.27642685 0.3470188 -0.6890817 -0.7479987 1.2940729 -0.45466077 0.20846798 0.5334711 -0.26139215 -0.42259148 -0.21764275 -0.61997503 -0.25445187 1.2288555 -0.6002233 -0.291699 0.14864258 -0.10567539 0.41221586 -0.8977174 -0.830815 -0.19440277 0.32407016 -0.118192814 0.75818783 -0.26660487 0.2370868 -0.19396415 -0.16485126 -0.14469722 -0.08362275 0.27357635 0.9623146 -0.3690201 0.262473 -0.7931081 -0.34783775 0.5246254 -0.12267289 0.75818765 0.1311104 -0.4626608 -0.2693605 0.6466273 0.012728979 -0.21971765 -1.2639401 0.33480018 -0.17324775 -0.48666894 -0.4720615 -0.69329256 -0.26969168 0.30000922 -0.18809149 0.13837583 0.51361394 -0.42984694 -0.24317832 0.43350396 0.5359643
raccoon -0.5034265 -0.041281283 -0.31910744 -0.39326307 -0.42710838 0.5636445 0.12021203 -0.093548104 -0.4101565 -0.87006974 0.966803 -0.63780737 0.3621967 0.8101942 1.0135075 0.7424835 0.009777009 -0.18227205 -0.1014434 -0.008043463 -1.0051185 -0.71992004 -0.3386219 -0.45778087 -0.7049496 0.30500284 0.029058544 -1.1108191 0.64186406 0.26388696 0.2791043 0.32571334 0.83652127 0.03951946 0.42008087 0.07718055 -0.15277429 -0.13175786 -0.57312906 0.25024432 -0.45742735 0.10149529 0.11642513 -0.54768276 -0.4862442 0.3700594 -0.46823516 -0.070304535 0.61750984 0.15349592 -0.53479487 0.44122955 0.17464527 0.113502145 -0.072629705 0.48047808 1.1724021 -0.26043865 -0.15149623 -0.68625814 -0.26299137 1.0095323 -0.15104213 0.43250015 -0.7389096 -0.9831081 0.4694732 -0.90000486 0.34092274 -0.4462933 -0.64800775 -0.5807294 0.15269245 -0.44995928 -0.5100493 -1.4755213 0.00033829422 -0.73510146 0.25989738 -0.39402488 0.6023689 -0.042933345 -0.7314509 0.12981857 0.450961
wolf -0.38131902 -0.18103187 0.7433977 -0.5025753 0.17682225 -0.18644443 -0.38720196 -0.021300709 -0.5063741 -0.51387304 0.49949294 0.7181159 0.14108033 0.16951807 1.2609907 -0.028053684 -0.28753677 -0.52557707 -0.6556982 -0.020902798 -0.2247429 -0.39443162 -0.8207589 -0.5350474 -0.5252799 0.28148597 -0.93161225 0.17011379 0.3358573 0.4335858 -0.37078246 -0.17227136 0.7338266 -0.2575855 0.03356657 -0.21253368 -0.9382205 0.16053554 -0.11213776 -0.20500493 -0.5941755 -0.0025548125 0.8846394 -1.0377766 -0.21556433 -0.58877385 -0.2871247 -0.41270205 0.49604607 -0.46503147 -0.93316805 0.15058564 0.46273133 0.050419413 0.11687992 -0.051133357 1.0238166 0.17612219 -0.5279585 -0.31644467 -1.0331953 0.49316552 -0.7508712 0.5650544 0.17421117 -0.2147039 0.29082498 -0.18500978 0.7634359 0.44895357 -0.77825636 -0.7382023 0.47998807 -0.6162052 -0.10937706 -0.086404175 0.38351476 -0.10892484 0.12671985 -0.23087539 0.49804553 0.8690583 -0.057029035 0.8979673 0.27238634
leopard -0.6915846 0.66400737 -0.21628913 -0.046564016 0.32425585 0.8063207 0.28272784 -0.5890234 -0.0528971 -0.79883367 -0.13322206 -0.28674084 -0.24492583 0.96445376 0.9735581 -0.49428955 0.23896617 -0.21631943 -0.9552657 -0.93289524 -0.37190473 -1.0284903 -0.30406758 -0.7832118 0.8505639 -0.09536342 -0.15316436 -0.45849112 1.1192626 -0.33021957 -0.14773706 0.34654364 -0.0024530352 0.16586636 -0.3689224 -0.46290487 -0.33232322 0.5360941 -0.6164835 -0.061827645 0.5156625 -0.013166788 -0.43937626 -1.4425046 -0.3455395 -0.48516014 0.014652257 -0.75751376 0.4136416 -0.16877733 -0.4233514 0.52001315 0.4246818 -0.5682933 0.7616617 0.42047486 0.79180413 0.26079386 -0.41959402 0.5774507 -0.23579623 0.92324555 -0.26549262 0.69094235 0.02285978 -0.3463116 0.42444506 -0.7051086 0.22339864 0.45781484 -0.5584278 -0.07973488 0.28012845 -0.2555926 -0.17619666 0.18124716 0.68691206 -0.5656422 0.4381428 -0.006534576 0.039739225 0.339553 -1.3338302 0.027254341 -0.16395168
chimpanzee -0.05260606 -0.5488202 0.16498907 -0.29530367 0.58146083 0.2777354 -0.119087934 0.086270705 -0.19712578 -0.4465058 1.051434 -0.75772846 -0.09018689 0.09984596 0.28211775 -0.59607136 -0.16139762 -0.50370103 -0.56343025 -1.1738781 0.3522244 -1.2104734 0.15612538 -0.6730979 -0.7651006 -0.13892107 -0.7968412 -0.1441969 0.22923641 0.027257584 0.2640261 0.19765808 -0.7384618 0.49226058 0.34164134 0.2256022 0.37946174 0.7641543 -0.3307614 -0.024089493 -0.70005226 -0.0984073 -0.09207109 -0.7838078 0.17092384 -0.8069613 -0.5776452 -0.27348527 0.024716718 -0.512625 -0.4039668 -0.5186931 0.6081667 -0.10138839 0.3583172 -0.20556793 0.31869718 -0.33900437 0.06117767 -0.57256275 -1.0372746 -0.17248265 -0.08469093 0.5380379 0.038087573 0.42995262 0.41919264 -0.28776154 0.047046676 0.10002116 -0.08299366 -1.1828051 -0.09114588 -1.266741 -0.44276157 -1.0898815 -0.14184436 -0.18932295 0.3030509 0.32699075 0.31141794 -0.5530954 -0.69708675 -0.3563879 0.18884522
hamster -0.8400835 0.35080755 0.9313553 -0.82670754 -0.720954 0.85536325 0.07957439 -0.4796881 0.2807181 -0.24041095 1.2460372 -0.10016382 0.11493115 0.38811752 -0.5341553 0.33786887 0.78446877 1.2488844 -0.69013685 -1.1209555 -0.2789772 -0.24671283 0.10790269 -0.23825608 -0.518093 0.24786675 -0.16066386 -0.19617924 0.8862304 0.8330269 0.21849388 0.13066462 -0.35300115 0.31255016 -0.05428886 0.073641434 0.105723456 0.3459743 -0.10988402 0.30341616 -0.9842027 0.17006744 -0.5855048 -0.0734205 -0.27429998 -0.31067318 0.82973605 -0.22486244 0.47952247 -0.7115116 -0.17722408 0.31664488 -0.22427118 0.07853312 0.7271496 0.37075064 0.9130725 -0.29369706 0.50992507 0.07687525 0.11938578 -0.3441682 -0.3032043 0.41656682 0.84582454 -0.4292061 0.11440224 -0.1086471 0.005524417 -0.010033858 -0.44704786 -0.118879244 -0.29603562 -0.030068567 -0.44748724 -1.179231 0.7264053 -0.35695353 -0.10846561 0.05008618 0.9856672 -0.1353675 -1.106899 0.5355105 -0.10341347
fox -1.0617049 0.07349701 0.832436 -0.7913064 -0.19495271 0.30788326 0.06276865 0.38189715 0.70868075 -0.5441988 0.11591655 0.26549703 -0.06020502 0.665341 0.8715249 0.70337075 -0.35664353 -0.37094647 -1.2214919 -1.3997557 0.14440908 -0.51609004 0.34802806 -0.73202103 0.022577854 0.24251129 0.011305224 0.06652873 0.32163706 -0.78141654 -0.27427444 -0.5049153 0.26024234 -0.103700265 -0.76606166 -0.29824874 -1.099623 0.2406296 -0.5018979 -0.47314402 0.45999599 0.012699304 -0.4517566 -0.8641078 -0.14082235 0.026757862 -0.12520961 -0.21187745 0.5105339 -0.13450639 0.020403128 -0.21918696 -0.40536714 0.02339521 -0.27331486 0.2491658 1.4349029 0.777595 -0.8736466 -0.03997052 0.37490916 0.3388646 -0.7189711 0.3159327 0.4667786 0.2622467 0.77917653 -0.41356432 -0.14543812 0.08093954 0.26847973 -0.89515513 -0.17061426 -0.38881278 -0.79457355 -0.62907684 -0.4211663 -0.5983211 -0.27917606 -0.9168596 0.14611332 0.021356154 -0.1553007 0.38764882 0.7539998
siamese+cat -0.92743534 0.51940143 0.092867054 -0.56290185 0.10204588 -0.36854067 1.0512129 -0.22846349 -0.11202855 -0.5055592 0.3293778 0.30788612 0.41190007 0.58449703 0.6251737 -0.6164239 -0.02491408 0.37460828 -0.53908634 -1.2450104 0.7023985 -0.30630615 -0.116896726 -1.2028482 -0.5326766 0.46631745 -0.46303603 -0.027780643 0.14464375 0.24705811 0.033683166 0.30007395 0.52784616 0.2540924 -0.12673542 -0.12006399 -0.18699443 0.23066735 -0.35767975 -0.56115425 -0.35303274 0.45732468 0.11462073 -1.1939379 -0.2303092 0.22089787 0.2544165 -0.25201553 1.2449774 -0.6849535 -0.54401684 0.44677067 -0.14377247 -0.6299149 1.0298828 0.49764094 0.51483536 0.23577794 0.20747381 0.00056120515 0.57978636 0.28158402 0.6573469 0.74827844 -0.4188002 -0.17637546 0.5332554 -0.56940913 -0.025095694 -0.15635376 0.36112216 -0.16132636 0.089428775 -1.4046985 -0.90788764 -0.58667195 0.31131265 0.27360228 0.37024865 -0.35455397 0.32372183 0.7594335 -0.24361537 0.38930392 0.19991116
habitat 0.67298317 -0.37087107 0.712511 -1.1778826 0.5547998 0.10645283 -0.5567645 -0.060087107 -0.748124 0.4444399 0.097920075 0.38244537 -0.91540486 0.2301739 0.5441907 0.47459024 1.0651081 -0.6929951 -0.8274849 0.90942574 -0.38352555 0.2363342 -0.44157305 -0.52460665 0.30710405 -1.2045394 -0.9527299 -0.0863055 1.2451192 -0.15123773 1.2569873 -0.5584167 -0.23457229 -0.27049217 -0.3441417 -0.12265952 0.3490537 0.48740855 -0.20440815 0.6251665 0.86402005 0.5479918 0.061788507 0.40950656 0.18973374 0.052832406 -0.4792214 0.13661891 -0.29794493 0.22951491 -0.16952807 -0.4214909 0.05551223 -0.29816645 -0.7892892 0.51430357 0.065651685 0.09330521 -0.93979126 -0.07735644 1.225189 0.90730137 0.05699256 0.71629506 -1.5311434 0.5506205 0.6471269 0.46348643 -0.27536947 -0.7394032 0.17363717 -0.3715976 -0.14041631 0.10478165 -0.5207039 0.14051431 0.256142 0.18422212 -0.13407397 0.073488414 0.09104716 -0.3263086 -0.46956345 -0.18252017 -0.5238494
physical 0.12155579 -0.74598074 0.24456862 -0.2256207 0.047590274 -0.0116903465 -1.0688326 -0.50678456 0.38771102 -0.17506526 -0.30639538 0.12971914 0.26922095 0.10033982 -0.3048292 0.20966262 0.60081 -0.28000578 -0.0069590337 -0.17781843 -0.18167871 -0.438938 -1.4096805 0.29127625 -0.45119262 -0.20545265 0.5445782 0.98561025 0.110054016 0.11213874 0.2560368 -0.22769764 0.4601443 -0.6062309 0.6810966 0.3273749 -1.2669698 0.30674082 -0.22820094 -0.38861927 -0.395726 1.02572 0.49123475 -0.10235341 1.1836854 -0.69931537 0.7847959 0.23744152 0.44775656 -0.8644807 0.97863394 -0.6167427 0.31184402 -0.2873047 -0.018032694 0.29397658 0.9705542 -0.21890596 -0.57054573 1.2808094 0.80021876 0.05767785 0.34468046 0.66300255 -0.09185005 -0.033403948 0.66120297 -0.4897322 0.14244112 -0.50123775 0.7988655 -0.49804154 0.071689345 -0.21812558 0.5186873 -0.48593763 1.542178 0.46136275 0.43045497 -0.21383174 0.25794888 -0.16187398 -0.026710544 -1.1906143 0.46366167
activity -0.0053871013 -0.022652647 -0.2709539 -1.309959 0.24950719 0.9810488 0.18055783 -0.17239226 -1.0075577 0.5291738 -0.1293074 1.4434732 0.18333 0.024546057 -0.36695868 -0.91026664 -0.00628001 -0.04983462 -0.88734454 0.09692259 0.4211451 0.13857548 -0.26444346 -0.11179163 0.09885722 -0.77513224 -0.25870556 -0.2689074 0.52373266 0.08299941 0.8851111 -0.15412158 0.32021433 -0.12832369 0.099522084 0.5340774 0.14670177 0.65613323 0.25333866 0.43722466 -0.15326194 0.68765587 1.0237021 -0.43882862 -0.08373045 -0.88691163 0.5540753 0.13432458 -0.023271672 0.24441005 0.34825456 -0.88716197 -0.17154132 0.28962386 -0.010711919 0.30933538 1.0201833 0.10649612 0.7893906 0.58465123 0.721659 0.7640779 0.47797003 -0.105665766 -0.94405466 0.11380292 0.85899705 -0.097826265 -0.21335499 -0.3627079 0.16911872 0.022726653 0.7975761 0.58485144 0.030090723 0.18133202 0.5859908 -0.0202646 -0.92657673 -0.36384708 0.5243603 0.4577781 -0.1291336 0.249471 0.0030520302
polar+bear 0.41204345 -0.5340296 0.29946724 -0.950568 0.57344174 0.16515082 0.2668427 -0.31178045 0.077517964 0.20786625 -0.035741154 0.32171538 -0.73830235 -0.013408555 0.95228493 0.8357533 0.532774 0.67626137 -0.9615418 -1.2984089 -0.2944679 0.24366274 -0.3585892 -0.5290153 -0.5497128 0.07904564 -0.22599863 -0.32527015 -0.5270654 0.78924274 -0.9840845 -0.10219341 0.08986612 -0.29988724 1.0086141 0.22036892 -0.5309488 1.0120836 0.21827534 -0.3830556 -0.34196746 -0.033476956 -0.3302558 -0.70969987 0.14779526 -0.5237853 -0.23303616 -0.97279894 1.0496688 0.768848 -0.28642854 0.046480045 0.5234234 -0.015220788 -0.4360564 -0.5391975 1.0441997 -0.45057926 -0.36027098 -0.53852445 0.029744042 0.43644324 -0.108078495 0.675326 0.7231309 -0.12908307 -0.089081354 -1.5063441 -0.4089765 -0.21207082 -0.71542364 0.06441795 0.1368744 0.019230152 -1.5400647 -0.5380534 0.6113143 -0.22157344 -0.24517699 0.5124362 0.052216906 0.029877769 -0.16237622 0.5423338 -0.18545145
http://www.semanticweb.org/inm363/AwA2#hippopotamus -0.4804599 0.13670132 0.77957696 0.72549635 0.41432342 0.46294287 0.5447805 0.78717196 0.3328625 0.051884893 0.12775524 -0.12546775 -0.12855789 0.54132354 0.6165685 -0.89533186 0.32821357 0.83574426 -0.8239082 0.09030329 -0.407515 0.07320011 -0.105381176 -0.24154323 -0.6632326 -0.24782616 -0.50310487 -1.1577334 -0.27343938 0.46470758 0.20748511 0.57992357 0.088268735 -0.3145917 -0.23358802 0.19634715 -0.2516229 -0.23384753 -0.3909532 -0.0901104 -0.49089214 -0.54156154 0.25791314 -1.2140727 0.5883165 -1.0954773 -0.5088912 0.22786352 -0.26601186 -0.19525404 -0.14546719 0.1267701 0.9121918 -0.3519808 0.6328905 -0.8840865 1.0141876 0.12528293 -0.48649848 0.16997518 1.2595859 -0.16639039 -0.57470816 0.70730114 -0.5173835 -0.56272596 -0.83970124 -0.27938598 -0.8248337 -0.828989 -0.08845045 -0.57601154 -0.63349384 -0.13168935 -0.70118237 0.14173631 0.51856244 -0.37232423 0.073200814 0.029430658 0.2711532 -0.32082173 -0.28756267 0.3497209 -0.2677864
german+shepherd -0.2926046 0.75532037 0.3749877 -0.30257204 0.55518913 -0.7132245 -0.24826598 -0.39833048 0.24532418 0.11441713 0.3127502 -0.08270967 -0.030858075 0.84273946 0.9321039 -0.49185246 0.15664789 0.42787138 -0.9760066 -1.2519704 -0.07363955 -0.22584149 -0.2636656 -0.79858106 -0.70593095 0.34560922 -0.6161109 0.15776218 0.3405806 -0.042306826 -0.7167846 -0.14571308 0.96075827 0.16116868 0.0344185 -0.7568547 -0.03837624 0.7216226 -0.5293205 0.031681992 -0.2902973 -0.20982073 0.43190005 -0.9024589 0.3882327 0.072846815 0.7059848 -0.16284564 0.32341123 0.009965702 -0.23391885 0.5925921 0.52926314 -0.41192225 0.27946082 0.31590128 0.88840616 -0.07157305 -0.08033199 0.48916507 -0.07344188 -0.0011321821 0.3278566 0.48422837 0.41312152 0.46517888 -0.29538247 -0.1418924 -0.32462487 -0.26548052 -0.87109554 -0.104535855 -0.08264876 -0.8662682 -0.06983935 -0.98307025 0.034602616 0.6091751 0.18328016 -0.026698068 1.068973 0.06524009 -1.0642427 0.30063844 -0.30642432
http://www.semanticweb.org/inm363/AwA2#AnimalbyHabitatType -0.30695254 -0.7835451 0.17437981 0.15826157 0.36167148 -0.1957015 0.041658722 0.2643056 -0.2450814 0.038122144 -0.029442836 0.7257561 -0.98324704 -0.1808281 -0.026025165 0.25607246 1.0074558 -0.33532512 -0.6409043 0.2710439 -0.40170988 0.4413439 0.39527372 0.23247278 0.14385955 -0.85437965 -0.49463797 0.44940197 0.74045914 -0.042072833 0.45322275 -0.38883296 -0.97926277 -0.6168411 0.13949251 0.0640472 0.521305 0.5941105 0.38972712 0.9680459 0.3141458 0.26479968 0.9962499 -0.413702 -0.59904575 -0.06558874 -0.54243654 -0.20466186 -0.007275615 0.929753 -0.6650668 -0.31094772 0.36359617 0.4158818 0.5484803 0.9208639 0.09253576 -0.33023134 -1.2523127 0.0530244 0.6198184 0.77056867 -0.8515817 -0.17432278 -0.12501897 0.93778086 0.743831 0.48808774 0.124507986 -0.40448368 0.026734559 -0.8204376 -0.2707544 0.21656397 0.19713652 0.2989492 0.5279219 0.016258406 0.568923 -0.42560503 0.23701416 -0.288426 0.5928879 -0.054292474 -0.54495984
horse -0.23674695 0.23521633 0.46239007 -0.5799657 -0.27063048 -0.46687338 -0.78576696 0.40219223 0.23103148 -0.37245283 0.6000267 -0.30529428 -0.25687608 0.5965101 1.3193856 -0.33455014 -0.3287773 -0.04704983 -0.5719033 -1.4642004 -0.06479266 -0.0142976465 -0.52228975 -0.08502492 -0.28111988 -0.6170165 -0.51297176 -0.34664497 0.16923755 0.5021692 0.08192201 0.340021 0.23330241 0.33825994 -0.46751592 0.063032486 -0.2316955 0.2263158 0.12032043 0.51490575 -0.85833436 0.3654582 0.70922 -1.279297 0.43544915 0.83278435 0.79226047 -0.43733534 0.66925013 -0.4338896 -1.0313116 -0.5621816 -0.051026106 -0.5600539 0.016003115 0.19842978 0.73197895 -0.41904575 0.5192081 0.029292624 -0.011532063 -0.40315092 0.47853827 0.630188 -0.0112944795 -0.3729918 -0.59733766 0.20807487 0.041419815 -0.18005636 -0.90944844 -0.45439753 0.13399057 -0.32191646 -0.046798628 -0.3911804 -0.34420222 0.18033387 0.46385658 -0.19257395 0.13139313 -0.38948208 -0.48497358 -0.16967848 -0.29657105
lion -0.36507002 0.00369941 0.60757685 -1.0710028 0.21736823 0.5019431 -0.550355 -0.19690506 -0.2866632 -0.7463853 -0.24032308 -0.10589973 0.3125208 -0.06603148 0.63485295 0.45235488 -0.2593229 -0.28252777 -1.8174055 -0.4837822 0.9849421 -0.42583114 -0.12888704 -0.58102787 0.015849916 0.09377596 -0.7113883 0.7012329 0.72942007 0.59697634 0.12414708 1.0626173 -0.28136086 -0.5346372 -0.34045908 -0.020145318 -0.51023316 0.4411343 -0.20963983 -0.41043693 0.42447862 -0.15260524 -0.2527888 -1.2335526 -0.10270034 -0.6729534 -0.15535578 -0.8279229 -0.4924374 0.2695926 0.04648195 -0.06091315 0.69114834 -0.22433998 0.35055205 -0.088628836 0.9348343 -0.17745456 -0.3053688 0.18559931 -0.52650976 0.5686811 -0.7694247 -0.3025445 0.6795201 0.12675941 -0.22084439 -0.17363131 -0.53919274 0.25889698 -0.013007777 -0.28209722 -0.06100515 -1.3334187 -0.43055457 -0.55472386 0.20247541 -0.5710701 -0.20844606 -0.23576584 1.0330532 0.41230902 -0.7300261 -1.0139201 0.10929102
bobcat 0.17130847 -0.08235286 0.402569 0.09838984 0.0820004 0.15025808 -0.15578659 -0.2717059 -0.18741982 -0.09029199 0.67396826 -0.13375796 0.037914596 0.13851073 1.481794 0.8239516 -0.31087637 -0.30723205 -1.0349051 -0.08157489 0.26629466 -0.7665651 -0.09209547 -1.3479686 0.086605795 0.5013702 0.035083815 -0.08289709 0.33570358 -0.16695435 -0.30583096 -0.65334064 0.30080816 -0.08664584 0.36992267 -0.76742077 -0.20129362 0.49783328 -0.87271136 0.2366767 0.11387756 -0.7304691 -0.40558824 -1.2068834 -0.15225582 -0.447773 0.115414135 -0.6535586 0.7052914 0.6631675 -0.15682337 0.33555835 0.43355998 -0.53213286 0.58529836 0.4606009 1.0437663 0.353683 -0.27612397 0.24915995 0.052781183 -0.35441712 -0.41382578 1.156749 0.729965 -0.51546127 0.42113116 -0.6256085 -0.20047231 0.02968117 -0.6264208 -0.9043569 -0.23452692 0.13758175 -0.54568195 -1.1314458 -0.32203406 -0.08044829 0.47027892 -0.81635755 -0.2841597 0.028879263 0.024206515 -0.13806103 0.24804258
grizzly+bear -0.6838436 0.22974885 0.36426985 0.050283365 -0.081499495 0.24719304 0.14625956 -0.6621833 -0.27536547 0.5896648 0.6035232 0.41404316 0.058845196 0.17881474 1.4010699 0.6572056 0.051283628 0.5178409 -0.9925502 -0.4605601 0.533491 0.1973873 -0.57209414 -0.42429754 -0.3181885 -0.21730542 0.07508534 -0.3986773 0.557529 0.77197415 -0.2941444 0.017490149 0.29106778 0.5311212 1.2420161 -0.5361474 -0.44310367 0.37118977 -0.4441207 -0.82564086 0.099723704 0.28916997 0.13491724 -0.75366354 -0.29723328 -0.9235976 -0.22003186 -1.5533531 0.7537027 -0.15644442 -0.217695 -0.07964575 -0.09324883 -1.0100673 0.099619105 -0.92661816 0.8973413 0.7275054 -0.12021367 -0.08220775 -0.20973825 0.23389976 -0.08511133 0.101617225 0.30720586 -0.049478628 0.13497001 -0.7621952 -0.16108474 -0.37327498 -0.34059814 -1.2136904 0.3582351 -0.5404581 -0.44010657 -0.16408804 -0.069678985 -0.73891395 -0.037282873 0.31193626 -0.25035313 0.56297743 -0.35147613 0.42143357 0.36909163
deer 0.08427112 0.5328883 -0.26933566 -0.28024617 -0.33592874 0.5382486 -0.54096806 0.575822 0.014165825 -0.5440629 0.6508762 -0.46167448 0.006723233 0.10991983 0.7775819 -0.051394124 0.22946607 -0.5340343 -0.659871 -0.83875453 0.2785371 -0.6272024 -0.36378124 -0.1499169 -0.46195972 -0.18038143 -0.56341916 -0.26983994 0.6193313 0.21181127 -0.3695664 -0.2805684 0.18059975 1.237006 0.031594094 -0.018086243 -0.20788239 -0.68744797 0.057604697 0.21107087 0.35031095 0.122687206 -0.30981028 -1.3611739 0.1436228 -0.8344023 0.7364325 -0.28614217 0.10557438 -0.18950316 -1.0646694 -0.5942938 0.015813569 -0.05791619 0.13801092 0.34912807 0.8121484 -0.15189584 -0.076718695 0.43194392 0.52627003 -0.41141817 -0.75086105 0.66056085 -0.07048292 0.035516694 -0.23169065 0.017166073 -0.7412371 0.25490627 -0.8744978 -1.0169044 -0.27205893 -0.34902728 0.21467286 -0.89162326 0.30929574 -0.7429838 0.15566863 -0.06538641 0.06153905 -0.3725294 -0.5865587 -0.80901223 0.7458605
mouse -0.78639054 -0.9245986 0.78233474 -0.8497392 -0.92585146 0.69655997 -0.52769285 0.01857541 -0.13564983 -0.22772901 0.45316258 -0.49160388 -0.3720503 -0.021880062 0.5219752 1.0781626 -0.02239398 -0.12371876 0.017620822 -0.9706118 -0.3475064 -0.5944201 -0.57162464 -0.92644805 -1.1881495 0.3909001 -0.9621503 0.31851363 0.42125106 0.98756987 0.32658353 -0.069056444 -0.13957149 0.23694095 -0.5378002 0.17382117 0.41521338 -0.123349614 0.36282834 -0.10544335 -0.15202436 0.2015187 0.16274655 -0.49590996 -0.124053545 -0.35707313 0.10907649 -0.56852484 0.17727742 -0.6937881 -0.52178836 -0.55107343 0.08836802 0.27673262 0.5694227 -0.31800592 0.99493957 0.0716317 0.7034837 0.30023563 -0.13266563 -0.64874977 -0.49217582 0.4655001 -0.20460112 0.80194914 0.00824177 0.25304216 0.15968697 0.34187844 -0.51740956 -0.17205295 0.15805395 0.44228485 -0.15833285 -0.6214518 0.47022504 0.50251895 0.31515777 -0.4690728 0.89621 0.08636938 -1.3655493 0.6845575 0.61207986
http://www.semanticweb.org/inm363/AwA2#AnimalbyColour -0.94426113 -0.19349611 0.08856195 -0.122192144 -0.12566146 0.14503372 -0.42213058 -0.18799485 0.8299702 0.23838758 -0.49656102 0.31944302 -0.29081196 0.43706003 -0.31365377 0.56941545 0.24582103 -0.66450685 -0.35754725 -0.123437084 0.13203713 0.3470266 -0.21906452 0.3789405 0.47442815 -0.37976632 -0.44095284 0.52992684 0.14409159 -0.03581498 0.49490818 -0.6898309 0.19003595 -0.44365206 0.82341856 -0.66572106 0.99047947 0.4742754 -0.35245094 0.38714373 -1.0668317 0.33097193 0.6412612 -0.8959813 -0.7807863 0.26574105 -0.36338785 0.28684953 0.5585295 0.6850495 0.057016607 0.5178656 -0.38664603 -0.05661915 1.4046309 0.3545594 0.22095321 0.42803857 0.14733085 -0.11424181 1.3740102 0.110091284 0.12733938 -0.72352934 -0.90051484 0.14825141 0.033689935 0.6285828 0.7769387 -0.7635468 0.26887125 -0.3116077 0.017731817 0.49377507 0.34829286 0.26362923 0.40162137 0.19030307 0.31932282 -0.7668377 1.0049344 0.69223624 0.41440886 -0.04828083 -1.0639555
mole -0.79942185 -0.7730341 0.28206274 -0.51357085 -0.1968744 0.51783586 -0.20028763 0.32697678 0.16471058 -0.53201926 0.6088126 -0.9706858 -1.2915069 1.0472165 -0.4247948 0.5673321 0.0842735 0.47780427 -0.23641142 -0.56881845 -0.26471654 -0.3315588 -0.12516673 -0.70510757 -0.35660216 0.25644094 -0.7865808 -1.005447 0.58034676 -0.38276282 -0.38676643 0.060920577 0.0079045845 0.26706746 -0.13107568 -0.60015756 -1.0506381 0.3591445 0.859981 0.10104719 -0.41049314 0.65595067 0.16081674 -0.6682241 -0.884862 -0.87626445 0.3810825 -0.30148837 0.5800603 -0.61793786 -0.42901173 -0.2478312 0.17095993 -0.04950162 -0.04978991 -0.30830964 1.0381459 0.22667155 0.35892802 -0.0077076033 -0.35408455 0.5820397 -0.3333938 0.5785312 0.20978288 -0.1257894 0.049465917 0.38821882 -0.34323698 -0.09566408 -0.23751758 -0.8337498 -0.09721139 -0.3457646 -0.5320547 -1.1412058 0.3899143 0.20595106 0.1267296 -0.35984704 0.13648304 -0.039052103 -0.8574354 0.9846432 -0.41565493
